{"learner":{"attributes":{"scikit_learn":"{\"_estimator_type\": \"regressor\"}"},"feature_names":[],"feature_types":[],"gradient_booster":{"model":{"gbtree_model_param":{"num_parallel_tree":"1","num_trees":"60"},"iteration_indptr":[0,1,2,3,4,5,6,7,8,9,10,11,12,13,14,15,16,17,18,19,20,21,22,23,24,25,26,27,28,29,30,31,32,33,34,35,36,37,38,39,40,41,42,43,44,45,46,47,48,49,50,51,52,53,54,55,56,57,58,59,60],"tree_info":[0,0,0,0,0,0,0,0,0,0,0,0,0,0,0,0,0,0,0,0,0,0,0,0,0,0,0,0,0,0,0,0,0,0,0,0,0,0,0,0,0,0,0,0,0,0,0,0,0,0,0,0,0,0,0,0,0,0,0,0],"trees":[{"base_weights":[-1.6323954E-2,-1.2934029E0,5.785105E-1,-3.4880826E-1,-8.245068E-1,2.1338512E-1,1.0272384E0,-2.1862495E-1,-1.2898615E-1,3.424555E-2,3.8195E-1,1.5939584E-1,2.4627931E-1,-9.2210755E-2,1.3353573E-1,5.6661494E-2,8.178416E-2,-3.066054E-2,-7.6136007E-3,1.9429335E-2,3.2801967E-2],"categories":[],"categories_nodes":[],"categories_segments":[],"categories_sizes":[],"default_left":[0,0,0,0,0,0,0,0,0,0,0,0,0,0,0,0,0,0,0,0,0],"id":0,"left_children":[1,3,5,-1,7,9,11,-1,-1,13,15,-1,-1,17,19,-1,-1,-1,-1,-1,-1],"loss_changes":[5.522432E2,4.5934937E1,8.082721E1,0E0,4.233795E0,8.308112E0,8.473267E0,0E0,0E0,1.7322248E0,1.4608383E-1,0E0,0E0,1.9009703E-1,5.3521156E-2,0E0,0E0,0E0,0E0,0E0,0E0],"parents":[2147483647,0,0,1,1,2,2,4,4,5,5,6,6,9,9,10,10,13,13,14,14],"right_children":[2,4,6,-1,8,10,12,-1,-1,14,16,-1,-1,18,20,-1,-1,-1,-1,-1,-1],"split_conditions":[-3.234726E-1,-1.1678396E0,7.2300094E-1,-3.4880826E-1,-7.608425E-1,2.9714182E-1,1.2305101E0,-2.1862495E-1,-1.2898615E-1,8.1798986E-2,3.9812413E-1,1.5939584E-1,2.4627931E-1,-4.190436E-2,1.4362496E-1,5.6661494E-2,8.178416E-2,-3.066054E-2,-7.6136007E-3,1.9429335E-2,3.2801967E-2],"split_indices":[1,1,1,0,1,1,1,0,0,1,1,0,0,1,0,0,0,0,0,0,0],"split_type":[0,0,0,0,0,0,0,0,0,0,0,0,0,0,0,0,0,0,0,0,0],"sum_hessian":[7.23E2,2.29E2,4.94E2,1.14E2,1.15E2,2.74E2,2.2E2,4.2E1,7.3E1,1.34E2,1.4E2,1.08E2,1.12E2,5.9E1,7.5E1,3.5E1,1.05E2,2.6E1,3.3E1,3.8E1,3.7E1],"tree_param":{"num_deleted":"0","num_feature":"5","num_nodes":"21","size_leaf_vector":"1"}},{"base_weights":[2.5170685E-3,-9.9709725E-1,4.5081878E-1,-2.8532872E-1,-6.826089E-1,1.8230313E-1,8.3849436E-1,-8.6078644E-1,-9.8994955E-2,2.3129005E-3,2.924358E-1,1.2842302E-1,1.92397E-1,3.6800783E-3,-1.8380827E-1,-7.243362E-2,9.7487375E-2,3.017797E-1,-5.531844E-2,-2.8672053E-2,-4.3422464E-2,1.0481867E-2,1.11710995E-1,2.5602186E-1,9.209975E-2,2.9553726E-2,-6.231617E-2,4.6681605E-2,1.656278E-2,2.8440905E-1,-7.69742E-2,-2.4267383E-2,-2.8911037E-2,2.0482391E-1,6.455219E-2,-6.101539E-3,-4.9612037E-4,1.5034956E-1,4.6053737E-2,5.3833533E-2,2.0651076E-2],"categories":[],"categories_nodes":[],"categories_segments":[],"categories_sizes":[],"default_left":[0,0,0,0,0,0,0,0,0,0,0,0,0,0,0,0,0,0,0,0,0,0,0,0,0,0,0,0,0,0,0,0,0,0,0,0,0,0,0,0,0],"id":1,"left_children":[1,3,5,-1,7,9,11,13,-1,15,17,-1,-1,-1,-1,19,21,23,-1,-1,25,-1,27,29,-1,-1,31,-1,-1,33,-1,-1,35,37,-1,-1,-1,39,-1,-1,-1],"loss_changes":[3.2131113E2,2.8041702E1,5.1222267E1,0E0,3.560917E0,5.8463745E0,3.6632996E0,3.3629227E0,0E0,8.251143E-1,1.1399374E0,0E0,0E0,0E0,0E0,1.21298015E-1,2.0990402E-2,1.0787411E0,0E0,0E0,1.9541988E-1,0E0,9.145871E-2,2.8569279E0,0E0,0E0,8.3677486E-2,0E0,0E0,2.9509544E-1,0E0,0E0,1.1990555E-3,1.4488697E-3,0E0,0E0,0E0,6.7518115E-2,0E0,0E0,0E0],"parents":[2147483647,0,0,1,1,2,2,4,4,5,5,6,6,7,7,9,9,10,10,15,15,16,16,17,17,20,20,22,22,23,23,26,26,29,29,32,32,33,33,37,37],"right_children":[2,4,6,-1,8,10,12,14,-1,16,18,-1,-1,-1,-1,20,22,24,-1,-1,26,-1,28,30,-1,-1,32,-1,-1,34,-1,-1,36,38,-1,-1,-1,40,-1,-1,-1],"split_conditions":[-1.8347466E-1,-1.5658969E0,7.2414964E-1,-2.8532872E-1,-7.9601634E-1,1.4370486E-1,1.0222993E0,-1.5657852E0,-9.8994955E-2,3.4409404E-2,7.239181E-1,1.2842302E-1,1.92397E-1,3.6800783E-3,-1.8380827E-1,-1.8359376E-1,8.341814E-2,4.7197664E-1,-5.531844E-2,-2.8672053E-2,-1.8341374E-1,1.0481867E-2,8.35234E-2,4.7185284E-1,9.209975E-2,2.9553726E-2,-4.007862E-2,4.6681605E-2,1.656278E-2,3.1986138E-1,-7.69742E-2,-2.4267383E-2,-1.6031818E-2,2.984198E-1,6.455219E-2,-6.101539E-3,-4.9612037E-4,1.4372842E-1,4.6053737E-2,5.3833533E-2,2.0651076E-2],"split_indices":[0,3,3,0,3,3,3,3,0,3,3,0,0,0,0,3,3,3,0,0,3,0,3,3,0,0,0,0,0,3,0,0,3,0,0,0,0,3,0,0,0],"split_type":[0,0,0,0,0,0,0,0,0,0,0,0,0,0,0,0,0,0,0,0,0,0,0,0,0,0,0,0,0,0,0,0,0,0,0,0,0,0,0,0,0],"sum_hessian":[7.13E2,2.2E2,4.93E2,9E1,1.3E2,2.93E2,2E2,6.3E1,6.7E1,1.12E2,1.81E2,8.2E1,1.18E2,4E0,5.9E1,6.3E1,4.9E1,1.79E2,2E0,1.6E1,4.7E1,1.4E1,3.5E1,1.43E2,3.6E1,3E0,4.4E1,4E0,3.1E1,1.38E2,5E0,1.4E1,3E1,4.9E1,8.9E1,2.8E1,2E0,2E1,2.9E1,3E0,1.7E1],"tree_param":{"num_deleted":"0","num_feature":"5","num_nodes":"41","size_leaf_vector":"1"}},{"base_weights":[-1.0685881E-2,-8.285483E-1,3.6844438E-1,-1.1086537E0,-5.368716E-1,1.31765E-1,6.6155666E-1,-2.5311786E-1,-9.314689E-1,-1.4228094E-1,-4.2319366E-1,-1.09646255E-2,2.3103783E-1,1.01739444E-1,1.6215178E-1,-2.0303674E-2,-1.939165E-1,-9.140202E-2,-5.942125E-2,-7.163605E-2,6.359543E-2,7.930775E-2,4.9435295E-2,-2.2229165E-2,-2.2710294E-2,6.713955E-2,-8.282868E-3,-1.5472503E-4,1.6768536E-2,-4.7115847E-3,-9.995878E-4,5.3048722E-2,1.7016912E-2,2.2021746E-2,4.4893503E-2,-5.7292497E-3,9.6831005E-3,-2.657931E-3,1.1301312E-3],"categories":[],"categories_nodes":[],"categories_segments":[],"categories_sizes":[],"default_left":[0,0,0,0,0,0,0,0,0,0,0,0,0,0,0,0,0,0,0,0,0,0,0,0,0,0,0,0,0,0,0,0,0,0,0,0,0,0,0],"id":2,"left_children":[1,3,5,7,9,11,13,-1,15,-1,17,19,21,-1,-1,-1,-1,-1,-1,23,25,27,-1,-1,29,31,-1,-1,-1,-1,-1,33,-1,-1,35,37,-1,-1,-1],"loss_changes":[2.3006708E2,1.800914E1,3.4998093E1,9.234619E-1,1.7589035E0,4.0149417E0,4.3295135E0,0E0,1.7959785E0,0E0,5.675316E-2,5.429039E-1,3.6973095E-1,0E0,0E0,0E0,0E0,0E0,0E0,1.22532725E-1,2.5658116E-2,7.029824E-3,0E0,0E0,2.44949E-4,4.37434E-3,0E0,0E0,0E0,0E0,0E0,6.400466E-3,0E0,0E0,6.6167414E-3,4.9433735E-4,0E0,0E0,0E0],"parents":[2147483647,0,0,1,1,2,2,3,3,4,4,5,5,6,6,8,8,10,10,11,11,12,12,19,19,20,20,21,21,24,24,25,25,31,31,34,34,35,35],"right_children":[2,4,6,8,10,12,14,-1,16,-1,18,20,22,-1,-1,-1,-1,-1,-1,24,26,28,-1,-1,30,32,-1,-1,-1,-1,-1,34,-1,-1,36,38,-1,-1,-1],"split_conditions":[-4.5068538E-1,-1.244721E0,6.1667985E-1,-1.795592E0,-8.6273104E-1,1.4226404E-1,1.0221055E0,-2.5311786E-1,-1.7955277E0,-1.4228094E-1,-5.4728067E-1,-2.446459E-2,1.4370486E-1,1.01739444E-1,1.6215178E-1,-2.0303674E-2,-1.939165E-1,-9.140202E-2,-5.942125E-2,-7.01943E-2,2.7350596E-1,3.4409404E-2,4.9435295E-2,-2.2229165E-2,-1.6031818E-2,1.3672769E-1,-8.282868E-3,-1.5472503E-4,1.6768536E-2,-4.7115847E-3,-9.995878E-4,-1.1647998E0,1.7016912E-2,2.2021746E-2,3.4409404E-2,-5.0640494E-2,9.6831005E-3,-2.657931E-3,1.1301312E-3],"split_indices":[4,3,4,3,4,4,4,0,3,0,4,4,3,0,0,0,0,0,0,4,3,3,0,0,3,3,0,0,0,0,0,3,0,0,3,3,0,0,0],"split_type":[0,0,0,0,0,0,0,0,0,0,0,0,0,0,0,0,0,0,0,0,0,0,0,0,0,0,0,0,0,0,0,0,0,0,0,0,0,0,0],"sum_hessian":[7.38E2,2.33E2,5.05E2,1.16E2,1.17E2,2.81E2,2.24E2,5.5E1,6.1E1,4.2E1,7.5E1,1.16E2,1.65E2,1.15E2,1.09E2,3E0,5.8E1,5.5E1,2E1,6.4E1,5.2E1,1.7E1,1.48E2,3.4E1,3E1,5.1E1,1E0,1E0,1.6E1,2.8E1,2E0,3.3E1,1.8E1,1E0,3.2E1,2E0,3E1,1E0,1E0],"tree_param":{"num_deleted":"0","num_feature":"5","num_nodes":"39","size_leaf_vector":"1"}},{"base_weights":[7.946932E-4,-7.2323585E-1,3.235699E-1,-9.7368336E-1,-4.5963866E-1,1.12634696E-1,5.721081E-1,-2.2954397E-1,-1.7312436E-1,-5.474234E-1,-4.9755953E-2,-3.0628005E-3,2.160674E-1,8.51323E-2,1.4322814E-1,-1.2552676E-1,-8.5790254E-2,-7.6021135E-2,6.354812E-2,1.3570923E-1,4.762163E-2,-5.7015345E-2,-4.6880685E-2,4.213796E-2,5.2704737E-2,2.7755896E-2,2.0880343E-3,-1.9513633E-2,-2.265052E-2,5.5102304E-2,-2.401742E-3,-6.2532066E-3,-3.5189025E-3,3.460829E-2,1.3823884E-2,6.8278424E-4,7.3185214E-3],"categories":[],"categories_nodes":[],"categories_segments":[],"categories_sizes":[],"default_left":[0,0,0,0,0,0,0,0,0,0,0,0,0,0,0,0,0,0,0,0,0,0,0,0,0,0,0,0,0,0,0,0,0,0,0,0,0],"id":3,"left_children":[1,3,5,7,9,11,13,-1,-1,15,-1,17,19,-1,-1,-1,-1,21,23,25,-1,27,-1,-1,29,-1,-1,-1,31,33,-1,-1,-1,35,-1,-1,-1],"loss_changes":[1.652259E2,1.3496681E1,2.5507164E1,8.174896E-2,1.7637424E0,3.1964872E0,4.1151886E0,0E0,0E0,1.8375778E-1,0E0,6.317192E-1,1.851058E-1,0E0,0E0,0E0,0E0,1.5990204E-1,8.628622E-2,1.0563552E-2,0E0,7.64083E-2,0E0,0E0,1.1563629E-2,0E0,0E0,0E0,3.808234E-4,1.3600856E-2,0E0,0E0,0E0,1.6071349E-3,0E0,0E0,0E0],"parents":[2147483647,0,0,1,1,2,2,3,3,4,4,5,5,6,6,9,9,11,11,12,12,17,17,18,18,19,19,21,21,24,24,28,28,29,29,33,33],"right_children":[2,4,6,8,10,12,14,-1,-1,16,-1,18,20,-1,-1,-1,-1,22,24,26,-1,28,-1,-1,30,-1,-1,-1,32,34,-1,-1,-1,36,-1,-1,-1],"split_conditions":[-3.2576248E-1,-1.171503E0,7.2241324E-1,-1.8039552E0,-5.4997283E-1,2.958614E-1,1.2307478E0,-2.2954397E-1,-1.7312436E-1,-7.6384383E-1,-4.9755953E-2,8.016829E-2,3.9700794E-1,8.51323E-2,1.4322814E-1,-1.2552676E-1,-8.5790254E-2,3.4409404E-2,-1.1646202E0,3.725448E-1,4.762163E-2,-1.4349158E-1,-4.6880685E-2,4.213796E-2,2.7350596E-1,2.7755896E-2,2.0880343E-3,-1.9513633E-2,-4.2162962E-2,1.04999885E-1,-2.401742E-3,-6.2532066E-3,-3.5189025E-3,3.4409404E-2,1.3823884E-2,6.8278424E-4,7.3185214E-3],"split_indices":[2,2,2,2,2,2,2,0,0,2,0,2,2,0,0,0,0,3,3,3,0,3,0,0,3,0,0,0,3,3,0,0,0,3,0,0,0],"split_type":[0,0,0,0,0,0,0,0,0,0,0,0,0,0,0,0,0,0,0,0,0,0,0,0,0,0,0,0,0,0,0,0,0,0,0,0,0],"sum_hessian":[7.03E2,2.16E2,4.87E2,1.08E2,1.08E2,2.65E2,2.22E2,3.4E1,7.4E1,7.4E1,3.4E1,1.26E2,1.39E2,1.14E2,1.08E2,3.9E1,3.5E1,6E1,6.6E1,3.3E1,1.06E2,5.6E1,4E0,2E0,6.4E1,3.2E1,1E0,2.4E1,3.2E1,6.2E1,2E0,8E0,2.4E1,2.8E1,3.4E1,2E0,2.6E1],"tree_param":{"num_deleted":"0","num_feature":"5","num_nodes":"37","size_leaf_vector":"1"}},{"base_weights":[-7.9292E-4,-5.7877475E-1,2.599631E-1,-7.8938866E-1,-3.6342472E-1,1.1561998E-1,4.9375E-1,-1.9067155E-1,-1.3905214E-1,-4.441688E-1,-3.6986753E-2,-1.3494673E-3,2.0150332E-1,4.4096103E-1,1.4139499E-1,-4.0747172E-1,-1.4607228E-1,-5.580099E-2,4.9137957E-2,1.345284E-1,4.7483142E-2,7.357348E-2,1.0052023E-1,-9.420113E-2,-6.693652E-2,-1.7878154E-2,-2.1892603E-2,3.7924167E-2,3.9134815E-2,2.7234731E-2,1.9488315E-3,-1.6284408E-2,-1.1162372E-2,4.1033268E-2,-2.161568E-3,-3.4402166E-3,-1.3156913E-3,2.7169054E-2,1.0639883E-2,1.5124478E-3,6.0056015E-3],"categories":[],"categories_nodes":[],"categories_segments":[],"categories_sizes":[],"default_left":[0,0,0,0,0,0,0,0,0,0,0,0,0,0,0,0,0,0,0,0,0,0,0,0,0,0,0,0,0,0,0,0,0,0,0,0,0,0,0,0,0],"id":4,"left_children":[1,3,5,7,9,11,13,-1,-1,15,-1,17,19,21,-1,23,-1,25,27,29,-1,-1,-1,-1,-1,-1,31,-1,33,-1,-1,35,-1,37,-1,-1,-1,39,-1,-1,-1],"loss_changes":[1.0519663E2,9.268433E0,1.6117424E1,3.4121704E-1,1.4354601E0,3.0142622E0,1.4363365E0,0E0,0E0,1.9247913E-1,0E0,3.6011997E-1,3.5222626E-1,3.1505394E-1,0E0,1.30701065E-2,0E0,6.784144E-2,8.07168E-2,1.0690689E-2,0E0,0E0,0E0,0E0,0E0,0E0,4.64995E-3,0E0,7.144667E-3,0E0,0E0,5.839765E-5,0E0,7.904381E-3,0E0,0E0,0E0,1.4517102E-3,0E0,0E0,0E0],"parents":[2147483647,0,0,1,1,2,2,3,3,4,4,5,5,6,6,9,9,11,11,12,12,13,13,15,15,17,17,18,18,19,19,26,26,28,28,31,31,33,33,37,37],"right_children":[2,4,6,8,10,12,14,-1,-1,16,-1,18,20,22,-1,24,-1,26,28,30,-1,-1,-1,-1,-1,-1,32,-1,34,-1,-1,36,-1,38,-1,-1,-1,40,-1,-1,-1],"split_conditions":[-3.2576248E-1,-1.171503E0,8.388335E-1,-1.8039552E0,-5.4997283E-1,2.958614E-1,1.431081E0,-1.9067155E-1,-1.3905214E-1,-6.038113E-1,-3.6986753E-2,8.016829E-2,4.3560505E-1,1.2307478E0,1.4139499E-1,-1.070676E0,-1.4607228E-1,-4.3736264E-2,-1.1646202E0,4.2054272E-1,4.7483142E-2,7.357348E-2,1.0052023E-1,-9.420113E-2,-6.693652E-2,-1.7878154E-2,3.4409404E-2,3.7924167E-2,2.7350596E-1,2.7234731E-2,1.9488315E-3,-3.364674E-2,-1.1162372E-2,1.04999885E-1,-2.161568E-3,-3.4402166E-3,-1.3156913E-3,7.037224E-2,1.0639883E-2,1.5124478E-3,6.0056015E-3],"split_indices":[2,2,2,2,2,2,2,0,0,3,0,2,2,2,0,3,0,2,3,3,0,0,0,0,0,0,3,0,3,0,0,3,0,3,0,0,0,3,0,0,0],"split_type":[0,0,0,0,0,0,0,0,0,0,0,0,0,0,0,0,0,0,0,0,0,0,0,0,0,0,0,0,0,0,0,0,0,0,0,0,0,0,0,0,0],"sum_hessian":[6.94E2,2.15E2,4.79E2,1.06E2,1.09E2,2.98E2,1.81E2,3.2E1,7.4E1,7.3E1,3.6E1,1.27E2,1.71E2,1.5E2,3.1E1,6.9E1,4E0,6.1E1,6.6E1,6.3E1,1.08E2,7.5E1,7.5E1,3.1E1,3.8E1,2.9E1,3.2E1,2E0,6.4E1,6.2E1,1E0,3E1,2E0,6.2E1,2E0,2.6E1,4E0,3.2E1,3E1,5E0,2.7E1],"tree_param":{"num_deleted":"0","num_feature":"5","num_nodes":"41","size_leaf_vector":"1"}},{"base_weights":[-7.1973256E-3,-4.7254124E-1,2.025641E-1,-6.423547E-1,-2.9436418E-1,7.165587E-2,3.6944523E-1,-1.4126958E-1,-9.577524E-2,-3.4967408E-1,-3.1327233E-2,-3.049859E-4,1.4210072E-1,3.2668132E-1,1.1349831E-1,-3.2511538E-1,-1.1661931E-1,-4.6233587E-2,4.3744493E-2,8.632135E-2,1.5941595E-1,4.5043446E-2,3.5086524E-1,-7.591423E-2,-2.6011306E-1,-7.3523454E-2,-1.7919734E-2,3.4131747E-2,3.5362154E-2,1.7583393E-2,1.8189093E-3,2.496886E-2,3.432477E-2,1.12980835E-1,3.3678037E-1,-2.4621806E-3,-5.3138513E-2,-1.2391778E-2,-2.3625458E-2,-1.216158E-2,-8.723268E-3,3.7558567E-2,-8.653924E-3,5.7771333E-2,7.649719E-2,-7.076392E-4,-2.4979315E-3,2.5693083E-2,9.222222E-3,-2.907588E-4,-1.9454118E-3,5.4117567E-3,1.4443285E-3],"categories":[],"categories_nodes":[],"categories_segments":[],"categories_sizes":[],"default_left":[0,0,0,0,0,0,0,0,0,0,0,0,0,0,0,0,0,0,0,0,0,0,0,0,0,0,0,0,0,0,0,0,0,0,0,0,0,0,0,0,0,0,0,0,0,0,0,0,0,0,0,0,0],"id":5,"left_children":[1,3,5,7,9,11,13,-1,-1,15,-1,17,19,21,-1,23,-1,25,27,29,31,-1,33,-1,35,37,39,-1,41,-1,-1,-1,-1,-1,43,-1,-1,-1,-1,45,-1,47,49,-1,-1,-1,-1,51,-1,-1,-1,-1,-1],"loss_changes":[7.037389E1,6.3993645E0,1.0804571E1,5.0564575E-1,7.5125885E-1,1.424552E0,1.4755173E0,0E0,0E0,7.372475E-2,0E0,2.893064E-1,1.0962629E-1,2.9345703E-1,0E0,7.155895E-2,0E0,5.145265E-2,6.5590456E-2,3.0834079E-3,1.8844604E-3,0E0,5.6634903E-2,0E0,5.014515E-2,3.4157783E-3,4.41382E-3,0E0,7.514164E-3,0E0,0E0,0E0,0E0,0E0,8.787823E-2,0E0,0E0,0E0,0E0,4.979782E-6,0E0,4.5311674E-3,1.0351301E-5,0E0,0E0,0E0,0E0,4.4165365E-4,0E0,0E0,0E0,0E0,0E0],"parents":[2147483647,0,0,1,1,2,2,3,3,4,4,5,5,6,6,9,9,11,11,12,12,13,13,15,15,17,17,18,18,19,19,20,20,22,22,24,24,25,25,26,26,28,28,34,34,39,39,41,41,42,42,47,47],"right_children":[2,4,6,8,10,12,14,-1,-1,16,-1,18,20,22,-1,24,-1,26,28,30,32,-1,34,-1,36,38,40,-1,42,-1,-1,-1,-1,-1,44,-1,-1,-1,-1,46,-1,48,50,-1,-1,-1,-1,52,-1,-1,-1,-1,-1],"split_conditions":[-3.2576248E-1,-1.171503E0,7.2241324E-1,-1.5735543E0,-5.4997283E-1,2.958614E-1,1.431081E0,-1.4126958E-1,-9.577524E-2,-5.9406286E-1,-3.1327233E-2,8.016829E-2,3.9700794E-1,8.388335E-1,1.1349831E-1,-7.6384383E-1,-1.1661931E-1,-4.3736264E-2,1.3571283E-2,3.3867684E-1,4.3560505E-1,4.5043446E-2,6.9813675E-1,-7.591423E-2,-8.6273104E-1,-1.5663064E-1,-2.446459E-2,3.4131747E-2,1.5382618E-1,1.7583393E-2,1.8189093E-3,2.496886E-2,3.432477E-2,1.12980835E-1,1.2307478E0,-2.4621806E-3,-5.3138513E-2,-1.2391778E-2,-2.3625458E-2,-4.9386654E-2,-8.723268E-3,1.4056388E-1,1.4056388E-1,5.7771333E-2,7.649719E-2,-7.076392E-4,-2.4979315E-3,9.747201E-2,9.222222E-3,-2.907588E-4,-1.9454118E-3,5.4117567E-3,1.4443285E-3],"split_indices":[2,2,2,2,2,2,2,0,0,4,0,2,2,2,0,2,0,2,4,4,2,0,4,0,4,4,4,0,4,0,0,0,0,0,2,0,0,0,0,4,0,2,2,0,0,0,0,4,0,0,0,0,0],"split_type":[0,0,0,0,0,0,0,0,0,0,0,0,0,0,0,0,0,0,0,0,0,0,0,0,0,0,0,0,0,0,0,0,0,0,0,0,0,0,0,0,0,0,0,0,0,0,0,0,0,0,0,0,0],"sum_hessian":[7.17E2,2.22E2,4.95E2,1.11E2,1.11E2,2.79E2,2.16E2,7.5E1,3.6E1,7.7E1,3.4E1,1.39E2,1.4E2,1.82E2,3.4E1,7.4E1,3E0,6.8E1,7.1E1,3.6E1,1.04E2,3.9E1,1.43E2,3.5E1,3.9E1,3.3E1,3.5E1,2E0,6.9E1,3.5E1,1E0,3.3E1,7.1E1,4E0,1.39E2,1E0,3.8E1,3E1,3E0,3.1E1,4E0,6.6E1,3E0,7.5E1,6.4E1,2E0,2.9E1,3.1E1,3.5E1,1E0,2E0,2.8E1,3E0],"tree_param":{"num_deleted":"0","num_feature":"5","num_nodes":"53","size_leaf_vector":"1"}},{"base_weights":[-3.9721727E-3,-3.4964254E-1,1.5355586E-1,-4.7599703E-1,-2.1107651E-1,6.816048E-2,3.0007303E-1,-1.1441984E-1,-8.126957E-2,-2.5502446E-1,-2.3108171E-2,-1.1036468E-2,1.0450094E-1,5.0670225E-2,7.2983935E-2,-5.9648253E-2,-3.9904527E-2,-3.174987E-2,3.231457E-2,8.684107E-2,3.0118966E-2,-4.8399605E-2,-2.2315497E-3,1.8155137E-2,4.3505196E-2,9.240477E-2,-1.6981525E-2,-4.0693987E-2,-2.1720128E-2,1.1219997E-3,4.282433E-3,1.6253939E-2,4.7605704E-3,6.270497E-2,2.2650903E-2,-1.0632752E-2,-2.2317126E-2,-2.7137485E-4,4.8403107E-4,6.384681E-2,-9.1990875E-4,1.0454278E-2,-3.8174614E-2,7.840595E-3,6.887715E-2,-8.468307E-3,-2.414155E-3,2.4477223E-2,6.0771167E-2,7.342515E-3,1.3986659E-2],"categories":[],"categories_nodes":[],"categories_segments":[],"categories_sizes":[],"default_left":[0,0,0,0,0,0,0,0,0,0,0,0,0,0,0,0,0,0,0,0,0,0,0,0,0,0,0,0,0,0,0,0,0,0,0,0,0,0,0,0,0,0,0,0,0,0,0,0,0,0,0],"id":6,"left_children":[1,3,5,7,9,11,13,-1,-1,15,-1,17,19,-1,-1,-1,-1,21,23,25,-1,27,-1,29,31,33,-1,35,-1,37,-1,-1,-1,39,-1,-1,41,-1,-1,43,-1,-1,45,-1,47,-1,-1,-1,49,-1,-1],"loss_changes":[3.8442127E1,3.6684227E0,6.02736E0,2.9810905E-1,3.9871597E-1,8.9162517E-1,3.543911E-1,0E0,0E0,5.6087017E-2,0E0,9.094876E-2,1.46415E-1,0E0,0E0,0E0,0E0,2.223397E-2,3.6492571E-3,1.6666996E-1,0E0,8.325011E-3,0E0,9.5054414E-4,8.779936E-3,8.115864E-2,0E0,5.8766752E-3,0E0,2.2657514E-5,0E0,0E0,0E0,5.813241E-3,0E0,0E0,2.5281038E-2,0E0,0E0,2.9053688E-3,0E0,0E0,7.181708E-4,0E0,8.113265E-3,0E0,0E0,0E0,5.886525E-3,0E0,0E0],"parents":[2147483647,0,0,1,1,2,2,3,3,4,4,5,5,6,6,9,9,11,11,12,12,17,17,18,18,19,19,21,21,23,23,24,24,25,25,27,27,29,29,33,33,36,36,39,39,42,42,44,44,48,48],"right_children":[2,4,6,8,10,12,14,-1,-1,16,-1,18,20,-1,-1,-1,-1,22,24,26,-1,28,-1,30,32,34,-1,36,-1,38,-1,-1,-1,40,-1,-1,42,-1,-1,44,-1,-1,46,-1,48,-1,-1,-1,50,-1,-1],"split_conditions":[-1.8553244E-1,-1.1678396E0,8.392322E-1,-1.7992649E0,-5.473189E-1,1.4209649E-1,1.2351762E0,-1.1441984E-1,-8.126957E-2,-7.608425E-1,-2.3108171E-2,8.1798986E-2,4.7193497E-1,5.0670225E-2,7.2983935E-2,-5.9648253E-2,-3.9904527E-2,-4.190436E-2,8.341814E-2,4.7185284E-1,3.0118966E-2,-6.844788E-2,-2.2315497E-3,7.037224E-2,8.35234E-2,3.9812413E-1,-1.6981525E-2,-1.8359376E-1,-2.1720128E-2,3.4409404E-2,4.282433E-3,1.6253939E-2,4.7605704E-3,3.725448E-1,2.2650903E-2,-1.0632752E-2,-1.8341374E-1,-2.7137485E-4,4.8403107E-4,1.4370486E-1,-9.1990875E-4,1.0454278E-2,-1.4349158E-1,7.840595E-3,1.4372842E-1,-8.468307E-3,-2.414155E-3,2.4477223E-2,1.640526E-1,7.342515E-3,1.3986659E-2],"split_indices":[1,1,1,1,1,1,1,0,0,1,0,1,3,0,0,0,0,1,3,3,0,3,0,3,3,1,0,3,0,3,0,0,0,3,0,0,3,0,0,3,0,0,3,0,3,0,0,0,3,0,0],"split_type":[0,0,0,0,0,0,0,0,0,0,0,0,0,0,0,0,0,0,0,0,0,0,0,0,0,0,0,0,0,0,0,0,0,0,0,0,0,0,0,0,0,0,0,0,0,0,0,0,0,0,0],"sum_hessian":[7.02E2,2.19E2,4.83E2,1.12E2,1.07E2,3.07E2,1.76E2,4.1E1,7.1E1,7.1E1,3.6E1,9.7E1,2.1E2,1.08E2,6.8E1,3.5E1,3.6E1,6.6E1,3.1E1,1.56E2,5.4E1,3.5E1,3.1E1,1.6E1,1.5E1,1.52E2,4E0,3.4E1,1E0,3E0,1.3E1,3E0,1.2E1,6.6E1,8.6E1,1.8E1,1.6E1,1E0,2E0,6.5E1,1E0,2E0,1.4E1,1.4E1,5.1E1,1.1E1,3E0,3E0,4.8E1,1.6E1,3.2E1],"tree_param":{"num_deleted":"0","num_feature":"5","num_nodes":"51","size_leaf_vector":"1"}},{"base_weights":[2.3884901E-3,-2.7567044E-1,1.3210203E-1,-3.891967E-1,-1.9712931E-1,6.2633485E-2,2.4510795E-1,-8.714639E-2,-3.069143E-1,3.7461918E-2,-2.0541552E-1,5.225609E-3,9.447397E-2,2.1793152E-1,6.571072E-2,5.452024E-2,-7.035252E-2,-5.3604987E-2,-1.5473916E-1,-1.8874623E-2,3.479156E-2,7.040277E-2,2.6581341E-2,1.8960129E-1,2.4446133E-1,-1.809007E-1,-1.1887856E-1,-3.655357E-2,-1.1300786E-2,1.2958797E-2,3.159975E-2,5.651608E-2,1.5979476E-2,3.85094E-2,1.367937E-2,5.405872E-2,1.8425608E-1,3.622691E-4,-3.7067447E-2,-6.417194E-2,-2.809306E-2,7.458131E-4,-7.87237E-3,9.060942E-3,-1.7219556E-2,3.9940733E-3,3.544261E-2,2.3553323E-2,4.889272E-2,-6.643377E-3,4.2841654E-2,-2.317969E-3,-1.3254424E-2,-7.674637E-3,-9.587299E-3,1.43034635E-2,2.7590772E-2,2.7451413E-2,5.6281388E-2,-7.487741E-3,-3.1692355E-3,3.3948682E-3,6.613575E-3,6.385043E-3,-8.338986E-4,1.15769915E-2,-3.1028193E-4,-6.923189E-4,-1.6032085E-3],"categories":[],"categories_nodes":[],"categories_segments":[],"categories_sizes":[],"default_left":[0,0,0,0,0,0,0,0,0,0,0,0,0,0,0,0,0,0,0,0,0,0,0,0,0,0,0,0,0,0,0,0,0,0,0,0,0,0,0,0,0,0,0,0,0,0,0,0,0,0,0,0,0,0,0,0,0,0,0,0,0,0,0,0,0,0,0,0,0],"id":7,"left_children":[1,3,5,7,9,11,13,-1,15,-1,17,19,21,23,-1,-1,-1,-1,25,27,29,31,-1,33,35,37,39,41,43,-1,45,47,-1,-1,-1,-1,49,-1,-1,51,-1,-1,-1,-1,53,-1,55,-1,57,-1,-1,-1,-1,-1,59,-1,61,63,65,67,-1,-1,-1,-1,-1,-1,-1,-1,-1],"loss_changes":[2.6077864E1,1.8973465E0,3.8395224E0,8.480549E-2,5.2292824E-1,5.620041E-1,2.8086567E-1,0E0,1.2313917E0,0E0,3.5490084E-1,8.111853E-2,1.6446018E-1,1.7783642E-2,0E0,0E0,0E0,0E0,3.2981157E-2,7.6093692E-3,7.889159E-4,7.5819492E-3,0E0,2.2232533E-3,7.7052116E-3,3.5527825E-2,2.9209614E-2,2.3298133E-3,1.7306894E-2,0E0,8.1889704E-4,1.5566364E-2,0E0,0E0,0E0,0E0,1.90103E-1,0E0,0E0,1.2030825E-4,0E0,0E0,0E0,0E0,6.3680094E-3,0E0,5.9674084E-3,0E0,5.623251E-3,0E0,0E0,0E0,0E0,0E0,2.2262684E-4,0E0,7.381011E-4,2.8126044E-3,3.796436E-3,8.314033E-6,0E0,0E0,0E0,0E0,0E0,0E0,0E0,0E0,0E0],"parents":[2147483647,0,0,1,1,2,2,3,3,4,4,5,5,6,6,8,8,10,10,11,11,12,12,13,13,18,18,19,19,20,20,21,21,23,23,24,24,25,25,26,26,27,27,28,28,30,30,31,31,36,36,39,39,44,44,46,46,48,48,54,54,56,56,57,57,58,58,59,59],"right_children":[2,4,6,8,10,12,14,-1,16,-1,18,20,22,24,-1,-1,-1,-1,26,28,30,32,-1,34,36,38,40,42,44,-1,46,48,-1,-1,-1,-1,50,-1,-1,52,-1,-1,-1,-1,54,-1,56,-1,58,-1,-1,-1,-1,-1,60,-1,62,64,66,68,-1,-1,-1,-1,-1,-1,-1,-1,-1],"split_conditions":[-1.8553244E-1,-1.5697541E0,8.392322E-1,-1.7999201E0,-1.5696828E0,1.4226404E-1,1.4305179E0,-8.714639E-2,-1.7997968E0,3.7461918E-2,-7.608425E-1,8.1798986E-2,4.706339E-1,1.2305101E0,6.571072E-2,5.452024E-2,-7.035252E-2,-5.3604987E-2,-5.473189E-1,-1.8550408E-1,1.3571283E-2,3.9812413E-1,2.6581341E-2,9.0951306E-1,1.2358261E0,-8.6273104E-1,-5.4756474E-1,-2.514187E-1,-1.853953E-1,1.2958797E-2,8.198206E-2,1.4228402E-1,1.5979476E-2,3.85094E-2,1.367937E-2,5.405872E-2,1.2359692E0,3.622691E-4,-3.7067447E-2,-5.9406286E-1,-2.809306E-2,7.458131E-4,-7.87237E-3,9.060942E-3,-4.190436E-2,3.9940733E-3,8.203077E-2,2.3553323E-2,2.9714182E-1,-6.643377E-3,4.2841654E-2,-2.317969E-3,-1.3254424E-2,-7.674637E-3,-3.5343617E-2,1.43034635E-2,1.4209649E-1,1.5382618E-1,3.3867684E-1,-4.387196E-2,-3.1692355E-3,3.3948682E-3,6.613575E-3,6.385043E-3,-8.338986E-4,1.15769915E-2,-3.1028193E-4,-6.923189E-4,-1.6032085E-3],"split_indices":[1,4,1,4,4,4,1,0,4,0,1,1,1,1,0,0,0,0,1,4,4,1,0,4,4,4,4,4,4,0,4,4,0,0,0,0,4,0,0,4,0,0,0,0,1,0,4,0,1,0,0,0,0,0,4,0,1,4,4,4,0,0,0,0,0,0,0,0,0],"split_type":[0,0,0,0,0,0,0,0,0,0,0,0,0,0,0,0,0,0,0,0,0,0,0,0,0,0,0,0,0,0,0,0,0,0,0,0,0,0,0,0,0,0,0,0,0,0,0,0,0,0,0,0,0,0,0,0,0,0,0,0,0,0,0,0,0,0,0,0,0],"sum_hessian":[7.19E2,2.28E2,4.91E2,9E1,1.38E2,3.06E2,1.85E2,5.2E1,3.8E1,2E0,1.36E2,1.1E2,1.96E2,1.45E2,4E1,2E0,3.6E1,5.7E1,7.9E1,6.1E1,4.9E1,1.24E2,7.2E1,7.8E1,6.7E1,4.1E1,3.8E1,1.6E1,4.5E1,1E0,4.8E1,5.6E1,6.8E1,7.5E1,3E0,4.2E1,2.5E1,1E0,4E1,1.3E1,2.5E1,1E0,1.5E1,3E0,4.2E1,1.5E1,3.3E1,3E0,5.3E1,3E0,2.2E1,1E0,1.2E1,9E0,3.3E1,3E0,3E1,1.6E1,3.7E1,2.8E1,5E0,1.3E1,1.7E1,1.4E1,2E0,3.6E1,1E0,5E0,2.3E1],"tree_param":{"num_deleted":"0","num_feature":"5","num_nodes":"69","size_leaf_vector":"1"}},{"base_weights":[-3.3472246E-3,-2.2982632E-1,1.0011996E-1,-6.8200864E-2,-1.6486873E-1,3.40423E-2,1.7583726E-1,-4.1866817E-2,-1.1325411E-1,-2.2452291E-2,5.215317E-2,1.5666614E-1,5.3662892E-2,-2.4414662E-2,-7.626754E-2,-1.8171746E-2,-1.9760478E-2,3.2073475E-2,6.2317416E-2,1.4699453E-1,4.017795E-2,-2.9844282E-2,-1.1126879E-2,-7.7030696E-3,-1.03720585E-2,3.2703735E-2,-8.029883E-4,6.598919E-2,3.5523776E-2,1.5125E-1,-1.9982701E-2,9.349421E-3,-1.4791899E-2,2.6603827E-2,4.35941E-2,1.0962758E-2,1.572116E-2,-1.8261498E-2,7.864503E-2,5.403313E-2,1.4564326E-1,-6.042262E-3,-7.1191066E-3,1.2094877E-2,2.3444248E-2,1.940029E-2,2.4950681E-2,-2.895971E-4,1.6835526E-2,2.296227E-2,3.1213997E-2,-7.4213943E-3,1.904264E-4,5.5431887E-3,2.6163798E-2,-1.4610549E-3,5.5108755E-3,-1.5514762E-3,-4.873832E-4,2.6720852E-4,1.6748976E-3,3.3335693E-2,2.0649796E-2,3.08932E-3,1.2587048E-2,2.2315874E-3,5.207447E-3],"categories":[],"categories_nodes":[],"categories_segments":[],"categories_sizes":[],"default_left":[0,0,0,0,0,0,0,0,0,0,0,0,0,0,0,0,0,0,0,0,0,0,0,0,0,0,0,0,0,0,0,0,0,0,0,0,0,0,0,0,0,0,0,0,0,0,0,0,0,0,0,0,0,0,0,0,0,0,0,0,0,0,0,0,0,0,0],"id":8,"left_children":[1,3,5,-1,7,9,11,-1,13,15,17,19,-1,-1,21,23,-1,25,27,29,-1,-1,-1,-1,31,33,-1,35,37,39,-1,-1,41,43,45,-1,-1,-1,47,-1,49,-1,51,-1,53,-1,55,-1,-1,-1,-1,57,-1,59,61,-1,-1,-1,-1,-1,-1,63,65,-1,-1,-1,-1],"loss_changes":[1.6589828E1,1.4908085E0,2.4195938E0,0E0,2.8307295E-1,2.704115E-1,3.1660223E-1,0E0,4.5391917E-3,1.7652478E-2,3.6617517E-2,2.3061752E-2,0E0,0E0,1.1996396E-2,9.356156E-3,0E0,1.877509E-3,8.1009865E-3,2.0359111E-1,0E0,0E0,0E0,0E0,1.375338E-2,2.3305789E-3,0E0,7.1741343E-3,1.2374423E-1,2.9981136E-2,0E0,0E0,5.130411E-3,2.5152788E-3,1.7064802E-2,0E0,0E0,0E0,7.333733E-3,0E0,1.5599012E-2,0E0,9.7087E-5,0E0,2.0953957E-3,0E0,1.9982932E-3,0E0,0E0,0E0,0E0,1.7457525E-5,0E0,8.482789E-5,2.8417632E-4,0E0,0E0,0E0,0E0,0E0,0E0,5.9983637E-3,9.019226E-4,0E0,0E0,0E0,0E0],"parents":[2147483647,0,0,1,1,2,2,4,4,5,5,6,6,8,8,9,9,10,10,11,11,14,14,15,15,17,17,18,18,19,19,24,24,25,25,27,27,28,28,29,29,32,32,33,33,34,34,38,38,40,40,42,42,44,44,46,46,51,51,53,53,54,54,61,61,62,62],"right_children":[2,4,6,-1,8,10,12,-1,14,16,18,20,-1,-1,22,24,-1,26,28,30,-1,-1,-1,-1,32,34,-1,36,38,40,-1,-1,42,44,46,-1,-1,-1,48,-1,50,-1,52,-1,54,-1,56,-1,-1,-1,-1,58,-1,60,62,-1,-1,-1,-1,-1,-1,64,66,-1,-1,-1,-1],"split_conditions":[-1.8553244E-1,-1.5692382E0,7.2300094E-1,-6.8200864E-2,-7.608425E-1,8.1798986E-2,1.4305179E0,-4.1866817E-2,-5.4485613E-1,3.4409404E-2,2.9714182E-1,1.2357161E0,5.3662892E-2,-2.4414662E-2,-5.473189E-1,-1.8359376E-1,-1.9760478E-2,2.7350596E-1,4.7185284E-1,1.235518E0,4.017795E-2,-2.9844282E-2,-1.1126879E-2,-7.7030696E-3,-1.8341374E-1,1.4370486E-1,-8.029883E-4,4.3665853E-1,4.7193497E-1,1.4372842E-1,-1.9982701E-2,9.349421E-3,-1.4349158E-1,-1.1647998E0,1.4372842E-1,1.0962758E-2,1.572116E-2,-1.8261498E-2,3.9812413E-1,5.403313E-2,8.244118E-1,-6.042262E-3,-1.6031818E-2,1.2094877E-2,8.098173E-2,1.940029E-2,1.4375837E-1,-2.895971E-4,1.6835526E-2,2.296227E-2,3.1213997E-2,-3.364674E-2,1.904264E-4,7.037224E-2,8.35234E-2,-1.4610549E-3,5.5108755E-3,-1.5514762E-3,-4.873832E-4,2.6720852E-4,1.6748976E-3,8.341814E-2,1.04999885E-1,3.08932E-3,1.2587048E-2,2.2315874E-3,5.207447E-3],"split_indices":[1,1,1,0,1,1,1,0,3,3,1,3,0,0,1,3,0,3,3,3,0,0,0,0,3,3,0,1,3,3,0,0,3,3,3,0,0,0,1,0,3,0,3,0,3,0,3,0,0,0,0,3,0,3,3,0,0,0,0,0,0,3,3,0,0,0,0],"split_type":[0,0,0,0,0,0,0,0,0,0,0,0,0,0,0,0,0,0,0,0,0,0,0,0,0,0,0,0,0,0,0,0,0,0,0,0,0,0,0,0,0,0,0,0,0,0,0,0,0,0,0,0,0,0,0,0,0,0,0,0,0,0,0,0,0,0,0],"sum_hessian":[7.04E2,2.2E2,4.84E2,7.8E1,1.42E2,2.6E2,2.24E2,7.3E1,6.9E1,6.3E1,1.97E2,1.9E2,3.4E1,5.2E1,1.7E1,6.2E1,1E0,6.9E1,1.28E2,1.63E2,2.7E1,1E0,1.6E1,1.5E1,4.7E1,6.8E1,1E0,1.1E2,1.8E1,1.61E2,2E0,2E0,4.5E1,4.8E1,2E1,6.4E1,4.6E1,4E0,1.4E1,3E0,1.58E2,1.3E1,3.2E1,1E0,4.7E1,3E0,1.7E1,1E0,1.3E1,4.6E1,1.12E2,3.1E1,1E0,7E0,4E1,1E0,1.6E1,2.8E1,3E0,4E0,3E0,1.3E1,2.7E1,1E1,3E0,1.2E1,1.5E1],"tree_param":{"num_deleted":"0","num_feature":"5","num_nodes":"67","size_leaf_vector":"1"}},{"base_weights":[-7.473547E-3,-1.9016615E-1,7.049046E-2,-2.8467894E-1,-1.3546747E-1,3.0684624E-2,1.3821565E-1,-6.485035E-2,-2.3411489E-1,-1.6136968E-1,-1.1597831E-1,-1.4064166E-2,5.027548E-2,1.2586276E-1,4.6708465E-2,-1.7826812E-1,-5.6002896E-2,-8.479094E-2,-4.0056758E-2,-1.2701354E-2,-1.2469751E-1,-4.1090444E-2,-1.1225835E-3,3.807529E-2,6.1272588E-2,1.3339704E-1,-5.911405E-2,-4.4920176E-2,7.119421E-3,-2.883952E-2,2.433854E-2,-1.1542474E-2,9.278481E-3,-1.1420688E-1,-4.7274817E-2,-9.364565E-3,-4.746535E-3,1.5198804E-2,-6.930733E-3,4.0377207E-2,-3.1334627E-3,6.667389E-2,2.260938E-2,1.0960949E-1,3.4322415E-2,-2.1847483E-2,2.9309858E-3,-2.6393726E-2,-1.2797125E-2,-4.7787786E-3,-5.4676656E-4,1.5248157E-2,3.7504043E-2,5.674575E-2,2.0500673E-2,-2.367782E-2,1.3947214E-2,1.2334356E-1,-8.883114E-2,-4.4390773E-3,2.5037462E-3,1.8072143E-2,4.4276696E-2,6.717207E-2,2.7599964E-2,1.1244794E-1,3.0845437E-2,-1.0768783E-3,6.8827416E-4,1.6581261E-3,4.294927E-3,2.5064418E-2,3.8622793E-2,1.1802198E-2,2.9976297E-2,-1.6626433E-2,5.025727E-2,2.282892E-2,7.92872E-3,-7.206155E-5,2.3158081E-4,2.1669928E-2,4.5085993E-2,1.067068E-2,1.929602E-3,4.2309353E-4,4.651058E-3,9.216447E-3,2.0677955E-3],"categories":[],"categories_nodes":[],"categories_segments":[],"categories_sizes":[],"default_left":[0,0,0,0,0,0,0,0,0,0,0,0,0,0,0,0,0,0,0,0,0,0,0,0,0,0,0,0,0,0,0,0,0,0,0,0,0,0,0,0,0,0,0,0,0,0,0,0,0,0,0,0,0,0,0,0,0,0,0,0,0,0,0,0,0,0,0,0,0,0,0,0,0,0,0,0,0,0,0,0,0,0,0,0,0,0,0,0,0],"id":9,"left_children":[1,3,5,7,9,11,13,-1,15,17,19,21,23,25,-1,27,-1,29,-1,31,33,35,37,39,41,43,45,-1,-1,-1,-1,-1,-1,47,-1,-1,-1,-1,49,51,-1,53,55,57,-1,-1,-1,-1,-1,-1,59,-1,61,63,-1,-1,-1,65,-1,67,-1,69,71,73,75,77,-1,-1,79,-1,-1,-1,81,-1,-1,-1,83,-1,-1,-1,-1,85,87,-1,-1,-1,-1,-1,-1],"loss_changes":[1.0239361E1,1.0343609E0,1.3502297E0,2.2497177E-3,3.324294E-2,2.8194767E-1,1.6023779E-1,0E0,5.2616596E-3,1.2993515E-1,7.5175166E-2,3.453426E-2,2.5253236E-2,2.513013E-1,0E0,2.5380546E-1,0E0,3.049587E-1,0E0,2.9293662E-2,3.973341E-2,9.6157566E-4,3.1958822E-2,1.499711E-2,2.0791918E-2,1.10553026E-1,3.2782126E-2,0E0,0E0,0E0,0E0,0E0,0E0,5.179715E-2,0E0,0E0,0E0,0E0,7.1211588E-3,5.30681E-3,0E0,2.3583025E-2,1.2947343E-1,9.157448E-1,0E0,0E0,0E0,0E0,0E0,0E0,2.6538922E-3,0E0,1.1955008E-2,2.1210551E-2,0E0,0E0,0E0,6.47068E-4,0E0,2.0129001E-4,0E0,6.423695E-4,2.4686143E-2,2.2135615E-2,7.1078286E-2,1.4492273E-3,0E0,0E0,4.773967E-6,0E0,0E0,0E0,6.044574E-3,0E0,0E0,0E0,1.7365813E-3,0E0,0E0,0E0,0E0,6.45631E-4,8.125603E-4,0E0,0E0,0E0,0E0,0E0,0E0],"parents":[2147483647,0,0,1,1,2,2,3,3,4,4,5,5,6,6,8,8,9,9,10,10,11,11,12,12,13,13,15,15,17,17,19,19,20,20,21,21,22,22,23,23,24,24,25,25,26,26,33,33,38,38,39,39,41,41,42,42,43,43,50,50,52,52,53,53,57,57,59,59,61,61,62,62,63,63,64,64,65,65,68,68,72,72,76,76,81,81,82,82],"right_children":[2,4,6,8,10,12,14,-1,16,18,20,22,24,26,-1,28,-1,30,-1,32,34,36,38,40,42,44,46,-1,-1,-1,-1,-1,-1,48,-1,-1,-1,-1,50,52,-1,54,56,58,-1,-1,-1,-1,-1,-1,60,-1,62,64,-1,-1,-1,66,-1,68,-1,70,72,74,76,78,-1,-1,80,-1,-1,-1,82,-1,-1,-1,84,-1,-1,-1,-1,86,88,-1,-1,-1,-1,-1,-1],"split_conditions":[-5.4485613E-1,-1.5649449E0,7.270877E-1,-2.0072637E0,-1.1650139E0,8.341814E-2,1.4309762E0,-6.485035E-2,-1.795592E0,-1.5657852E0,-1.1646202E0,-1.8359376E-1,3.994919E-1,1.4304582E0,4.6708465E-2,-1.7957151E0,-5.6002896E-2,-1.5658969E0,-4.0056758E-2,-1.1647998E0,-5.4510224E-1,-1.9008149E-1,-1.8341374E-1,3.9948225E-1,7.239181E-1,1.2310405E0,1.4308527E0,-4.4920176E-2,7.119421E-3,-2.883952E-2,2.433854E-2,-1.1542474E-2,9.278481E-3,-6.9639814E-1,-4.7274817E-2,-9.364565E-3,-4.746535E-3,1.5198804E-2,-4.007862E-2,8.35234E-2,-3.1334627E-3,6.98791E-1,7.2414964E-1,1.230942E0,3.4322415E-2,-2.1847483E-2,2.9309858E-3,-2.6393726E-2,-1.2797125E-2,-4.7787786E-3,7.037224E-2,1.5248157E-2,1.4370486E-1,4.7193497E-1,2.0500673E-2,-2.367782E-2,1.3947214E-2,1.1790954E0,-8.883114E-2,-1.6031818E-2,2.5037462E-3,8.921249E-2,1.4372842E-1,4.7185284E-1,4.7197664E-1,1.2349387E0,3.0845437E-2,-1.0768783E-3,8.342487E-2,1.6581261E-3,4.294927E-3,2.5064418E-2,2.939876E-1,1.1802198E-2,2.9976297E-2,-1.6626433E-2,8.396344E-1,2.282892E-2,7.92872E-3,-7.206155E-5,2.3158081E-4,1.4375837E-1,4.3771112E-1,1.067068E-2,1.929602E-3,4.2309353E-4,4.651058E-3,9.216447E-3,2.0677955E-3],"split_indices":[3,0,3,3,3,3,3,0,3,3,3,3,3,3,0,3,0,3,0,3,3,3,3,3,3,3,3,0,0,0,0,0,0,3,0,0,0,0,0,3,0,3,3,3,0,0,0,0,0,0,3,0,3,3,0,0,0,3,0,3,0,3,3,3,3,0,0,0,0,0,0,0,3,0,0,0,0,0,0,0,0,3,0,0,0,0,0,0,0],"split_type":[0,0,0,0,0,0,0,0,0,0,0,0,0,0,0,0,0,0,0,0,0,0,0,0,0,0,0,0,0,0,0,0,0,0,0,0,0,0,0,0,0,0,0,0,0,0,0,0,0,0,0,0,0,0,0,0,0,0,0,0,0,0,0,0,0,0,0,0,0,0,0,0,0,0,0,0,0,0,0,0,0,0,0,0,0,0,0,0,0],"sum_hessian":[7.15E2,2.13E2,5.02E2,7.5E1,1.38E2,3.18E2,1.84E2,3.6E1,3.9E1,5.3E1,8.5E1,9.7E1,2.21E2,1.67E2,1.7E1,2.2E1,1.7E1,2E1,3.3E1,7E0,7.8E1,3E1,6.7E1,1.09E2,1.12E2,1.61E2,6E0,1.8E1,4E0,1.6E1,4E0,4E0,3E0,7.5E1,3E0,2E1,1E1,3E0,6.4E1,1.05E2,4E0,9.7E1,1.5E1,1.04E2,5.7E1,3E0,3E0,5.3E1,2.2E1,1.6E1,4.8E1,4E0,1.01E2,8E1,1.7E1,3E0,1.2E1,1.03E2,1E0,3.8E1,1E1,2.8E1,7.3E1,5.7E1,2.3E1,8.3E1,2E1,3.2E1,6E0,9E0,1.9E1,2E0,7.1E1,5.5E1,2E0,3E0,2E1,8E1,3E0,2E0,4E0,2.2E1,4.9E1,1.8E1,2E0,2E0,2E1,4.7E1,2E0],"tree_param":{"num_deleted":"0","num_feature":"5","num_nodes":"89","size_leaf_vector":"1"}},{"base_weights":[1.0058761E-3,-1.6643526E-1,9.3983114E-2,-1.4961603E-1,-1.0837104E-1,6.399482E-1,8.126326E-2,-2.3788236E-1,-8.015227E-2,3.7348665E-2,1.4131272E-1,2.260482E-2,1.2744005E-1,-5.7115383E-2,-4.126531E-2,-1.1481542E-1,-3.9474998E-2,1.4445933E-3,4.1319218E-2,1.8331913E-2,1.7066175E-1,-2.6378611E-2,-1.8338976E-2,-9.494212E-3,-5.552472E-3,4.9372967E-3,-1.0401922E-2,2.6223425E-2,9.443621E-3,3.025881E-2,4.0139124E-2,-8.74937E-4,9.214834E-3,5.566544E-3,-1.7922184E-3,1.4641086E-3,2.139588E-3],"categories":[],"categories_nodes":[],"categories_segments":[],"categories_sizes":[],"default_left":[0,0,0,0,0,0,0,0,0,0,0,0,0,0,0,0,0,0,0,0,0,0,0,0,0,0,0,0,0,0,0,0,0,0,0,0,0],"id":10,"left_children":[1,3,5,7,-1,9,11,13,15,-1,-1,17,19,-1,-1,21,23,25,27,-1,29,-1,-1,-1,-1,31,-1,33,-1,-1,-1,-1,35,-1,-1,-1,-1],"loss_changes":[1.0944602E1,1.4227419E0,3.0349493E0,1.4517751E0,0E0,3.8012028E-2,1.1968827E0,4.1689873E-2,1.8692565E-1,0E0,0E0,7.828879E-2,3.5224485E-1,0E0,0E0,5.0306916E-3,3.6390722E-3,1.8250044E-2,6.8736225E-3,0E0,3.2572746E-3,0E0,0E0,0E0,0E0,3.705368E-3,0E0,2.4239793E-3,0E0,0E0,0E0,0E0,2.0364765E-5,0E0,0E0,0E0,0E0],"parents":[2147483647,0,0,1,1,2,2,3,3,5,5,6,6,7,7,8,8,11,11,12,12,15,15,16,16,17,17,18,18,20,20,25,25,27,27,32,32],"right_children":[2,4,6,8,-1,10,12,14,16,-1,-1,18,20,-1,-1,22,24,26,28,-1,30,-1,-1,-1,-1,32,-1,34,-1,-1,-1,-1,36,-1,-1,-1,-1],"split_conditions":[-4.3736264E-2,-4.007862E-2,-5.446766E-1,-1.171503E0,-1.0837104E-1,1.4056388E-1,4.6963567E-1,-1.7946E0,-5.446766E-1,3.7348665E-2,1.4131272E-1,2.958614E-1,1.2307478E0,-5.7115383E-2,-4.126531E-2,-7.578553E-1,-1.8347466E-1,2.984198E-1,3.9700794E-1,1.8331913E-2,1.4299649E0,-2.6378611E-2,-1.8338976E-2,-9.494212E-3,-5.552472E-3,8.342487E-2,-1.0401922E-2,3.9923894E-1,9.443621E-3,3.025881E-2,4.0139124E-2,-8.74937E-4,1.4362496E-1,5.566544E-3,-1.7922184E-3,1.4641086E-3,2.139588E-3],"split_indices":[2,0,0,2,0,2,2,0,0,0,0,2,2,0,0,0,0,0,2,0,0,0,0,0,0,0,0,0,0,0,0,0,0,0,0,0,0],"split_type":[0,0,0,0,0,0,0,0,0,0,0,0,0,0,0,0,0,0,0,0,0,0,0,0,0,0,0,0,0,0,0,0,0,0,0,0,0],"sum_hessian":[6.99E2,2.49E2,4.5E2,2.41E2,8E0,8E0,4.42E2,1.04E2,1.37E2,2E0,6E0,1.96E2,2.46E2,3.5E1,6.9E1,7.2E1,6.5E1,9.3E1,1.03E2,1.38E2,1.08E2,3.6E1,3.6E1,3.5E1,3E1,8.9E1,4E0,3.2E1,7.1E1,7.3E1,3.5E1,2.8E1,6.1E1,3.1E1,1E0,3.2E1,2.9E1],"tree_param":{"num_deleted":"0","num_feature":"5","num_nodes":"37","size_leaf_vector":"1"}},{"base_weights":[-7.3239185E-5,-1.2009379E-1,5.491655E-2,-3.6826637E-2,-7.230113E-2,1.8089628E-2,9.727819E-2,-8.486164E-2,-3.8226824E-2,-7.989982E-3,2.5902621E-2,8.618763E-2,1.4648077E-1,3.5740186E-3,-8.8520534E-2,-4.776263E-3,-4.0680856E-2,-1.9193383E-2,-3.7769661E-3,2.871033E-2,7.00247E-4,8.7214984E-2,1.2262082E-2,3.8659822E-2,8.57119E-2,-1.0367302E-1,-6.572698E-2,-1.6439358E-4,-1.0707707E-3,-2.8073013E-2,-9.522642E-3,-4.5490246E-3,-5.706926E-3,1.1218394E-2,-8.711472E-3,1.7898869E-2,3.2473736E-2,-3.1710744E-2,4.0443715E-2,7.769979E-2,1.0091532E-1,4.007268E-3,-1.2556632E-3,-6.0440253E-2,1.3532768E-1,-1.4777169E-2,-2.2954019E-2,-4.1078504E-2,-1.7992977E-2,-6.3522975E-3,-1.1556769E-3,1.4882743E-3,-1.5816335E-3,-3.5795183E-3,-3.7296284E-3,9.568138E-3,1.54830385E-2,2.0938054E-2,2.9852895E-2,1.699706E-4,8.487629E-3,2.920056E-2,7.290981E-2,3.4561764E-2,9.0391666E-2,3.0187955E-2,1.2641631E-2,-6.136754E-2,8.725194E-3,-1.0695203E-3,-4.4953017E-3,9.230865E-3,1.7748957E-2,-2.479889E-3,3.1001046E-2,7.3993176E-2,-3.589638E-3,6.5847926E-2,2.0205561E-2,4.041501E-3,-6.746705E-2,-3.241226E-6,-3.0326206E-4,-6.811855E-4,-1.3619355E-3,2.8628714E-3,1.2611172E-3,8.396419E-3,1.3001575E-2,2.226355E-2,7.0617045E-3,8.756187E-3,1.5650729E-2,2.0516537E-2,-1.8159099E-2,-4.4231536E-3,-1.4573671E-2,7.568818E-3,3.2415886E-3,2.3919644E-2,-1.8779456E-3,1.7586295E-3,-1.0014884E-4,-3.2854974E-4,4.9121417E-3,7.850662E-4,-1.6727367E-3],"categories":[],"categories_nodes":[],"categories_segments":[],"categories_sizes":[],"default_left":[0,0,0,0,0,0,0,0,0,0,0,0,0,0,0,0,0,0,0,0,0,0,0,0,0,0,0,0,0,0,0,0,0,0,0,0,0,0,0,0,0,0,0,0,0,0,0,0,0,0,0,0,0,0,0,0,0,0,0,0,0,0,0,0,0,0,0,0,0,0,0,0,0,0,0,0,0,0,0,0,0,0,0,0,0,0,0,0,0,0,0,0,0,0,0,0,0,0,0,0,0,0,0,0,0,0,0],"id":11,"left_children":[1,3,5,-1,7,9,11,13,15,17,19,21,23,-1,25,27,29,31,33,35,37,39,41,-1,43,45,47,-1,-1,49,-1,51,-1,-1,53,55,57,-1,59,61,63,-1,-1,-1,65,-1,-1,67,-1,-1,-1,-1,-1,-1,69,-1,71,-1,73,-1,-1,-1,75,-1,77,-1,-1,79,-1,81,83,85,87,-1,89,91,-1,93,-1,-1,95,-1,-1,-1,-1,-1,-1,-1,97,99,-1,-1,-1,-1,-1,-1,-1,101,-1,103,105,-1,-1,-1,-1,-1,-1],"loss_changes":[4.8311205E0,6.7731524E-1,7.7962494E-1,0E0,5.129075E-2,5.5632845E-2,1.01894855E-1,3.9624453E-2,2.8949417E-3,2.8758212E-3,1.4748827E-2,1.2670994E-2,8.0667675E-2,0E0,1.8837392E-2,2.6184061E-6,5.605854E-4,2.065932E-3,1.5453046E-2,6.486833E-3,1.58399E-1,9.3472E-3,9.722782E-4,0E0,4.8597136E-1,5.593896E-4,1.8298134E-2,0E0,0E0,1.1131363E-3,0E0,4.801923E-4,0E0,0E0,2.017397E-3,2.3522824E-3,1.9679114E-2,0E0,1.5072078E-3,1.8624604E-2,2.3233056E-2,0E0,0E0,0E0,3.4374595E-3,0E0,0E0,4.8318755E-2,0E0,0E0,0E0,0E0,0E0,0E0,5.759785E-5,0E0,4.0900428E-4,0E0,7.317923E-3,0E0,0E0,0E0,1.42712E-2,0E0,4.1853786E-3,0E0,0E0,1.3175592E-2,0E0,4.656955E-6,1.6644015E-5,8.715049E-5,3.0499147E-3,0E0,3.3958405E-3,8.207977E-3,0E0,1.6823882E-1,0E0,0E0,1.6760454E-3,0E0,0E0,0E0,0E0,0E0,0E0,0E0,3.2949029E-4,2.048891E-3,0E0,0E0,0E0,0E0,0E0,0E0,0E0,1.6688323E-4,0E0,8.345023E-4,2.5385313E-4,0E0,0E0,0E0,0E0,0E0,0E0],"parents":[2147483647,0,0,1,1,2,2,4,4,5,5,6,6,7,7,8,8,9,9,10,10,11,11,12,12,14,14,15,15,16,16,17,17,18,18,19,19,20,20,21,21,22,22,24,24,25,25,26,26,29,29,31,31,34,34,35,35,36,36,38,38,39,39,40,40,44,44,47,47,54,54,56,56,58,58,62,62,64,64,67,67,69,69,70,70,71,71,72,72,74,74,75,75,77,77,80,80,88,88,89,89,97,97,99,99,100,100],"right_children":[2,4,6,-1,8,10,12,14,16,18,20,22,24,-1,26,28,30,32,34,36,38,40,42,-1,44,46,48,-1,-1,50,-1,52,-1,-1,54,56,58,-1,60,62,64,-1,-1,-1,66,-1,-1,68,-1,-1,-1,-1,-1,-1,70,-1,72,-1,74,-1,-1,-1,76,-1,78,-1,-1,80,-1,82,84,86,88,-1,90,92,-1,94,-1,-1,96,-1,-1,-1,-1,-1,-1,-1,98,100,-1,-1,-1,-1,-1,-1,-1,102,-1,104,106,-1,-1,-1,-1,-1,-1],"split_conditions":[-1.8553244E-1,-1.5697541E0,7.2300094E-1,-3.6826637E-2,-5.473189E-1,8.1798986E-2,1.4305179E0,-1.5696828E0,-5.69269E-1,-1.8550408E-1,4.7095776E-1,1.3289632E0,1.4310825E0,3.5740186E-3,-7.608425E-1,-5.9406286E-1,-5.4728067E-1,-1.9200104E-1,-1.853953E-1,1.4226404E-1,4.7099948E-1,1.2305101E0,1.3838384E0,3.8659822E-2,1.431364E0,-1.1895599E0,-7.608994E-1,-1.6439358E-4,-1.0707707E-3,-5.4756474E-1,-9.522642E-3,-2.514187E-1,-5.706926E-3,1.1218394E-2,-4.190436E-2,1.3571283E-2,1.4228402E-1,-3.1710744E-2,4.706339E-1,6.9813675E-1,1.1791247E0,4.007268E-3,-1.2556632E-3,-6.0440253E-2,1.4712718E0,-1.4777169E-2,-2.2954019E-2,-7.610831E-1,-1.7992977E-2,-6.3522975E-3,-1.1556769E-3,1.4882743E-3,-1.5816335E-3,-3.5795183E-3,-4.2357393E-2,9.568138E-3,8.198206E-2,2.0938054E-2,1.4231402E-1,1.699706E-4,8.487629E-3,2.920056E-2,1.0221055E0,3.4561764E-2,1.2311617E0,3.0187955E-2,1.2641631E-2,-8.6273104E-1,8.725194E-3,-4.9386654E-2,-3.5343617E-2,6.368707E-2,8.203077E-2,-2.479889E-3,3.9812413E-1,7.235157E-1,-3.589638E-3,1.2310604E0,2.0205561E-2,4.041501E-3,-7.882054E-1,-3.241226E-6,-3.0326206E-4,-6.811855E-4,-1.3619355E-3,2.8628714E-3,1.2611172E-3,8.396419E-3,1.4209649E-1,3.1263027E-1,7.0617045E-3,8.756187E-3,1.5650729E-2,2.0516537E-2,-1.8159099E-2,-4.4231536E-3,-1.4573671E-2,9.747201E-2,3.2415886E-3,1.4209649E-1,3.3867684E-1,1.7586295E-3,-1.0014884E-4,-3.2854974E-4,4.9121417E-3,7.850662E-4,-1.6727367E-3],"split_indices":[1,4,1,0,1,1,1,4,4,4,4,4,4,0,1,4,4,4,4,4,4,1,4,0,4,4,4,0,0,4,0,4,0,0,1,4,4,0,1,4,4,0,0,0,4,0,0,4,0,0,0,0,0,0,4,0,4,0,4,0,0,0,4,0,4,0,0,4,0,4,4,4,4,0,1,4,0,4,0,0,4,0,0,0,0,0,0,0,1,4,0,0,0,0,0,0,0,4,0,1,4,0,0,0,0,0,0],"split_type":[0,0,0,0,0,0,0,0,0,0,0,0,0,0,0,0,0,0,0,0,0,0,0,0,0,0,0,0,0,0,0,0,0,0,0,0,0,0,0,0,0,0,0,0,0,0,0,0,0,0,0,0,0,0,0,0,0,0,0,0,0,0,0,0,0,0,0,0,0,0,0,0,0,0,0,0,0,0,0,0,0,0,0,0,0,0,0,0,0,0,0,0,0,0,0,0,0,0,0,0,0,0,0,0,0,0,0],"sum_hessian":[7.28E2,2.28E2,5E2,9.5E1,1.33E2,2.69E2,2.31E2,9.5E1,3.8E1,6.2E1,2.07E2,1.93E2,3.8E1,3E0,9.2E1,3E0,3.5E1,1.5E1,4.7E1,1.86E2,2.1E1,1.9E2,3E0,1.9E1,1.9E1,5.1E1,4.1E1,1E0,2E0,1.6E1,1.9E1,7E0,8E0,2E0,4.5E1,5.1E1,1.35E2,3E0,1.8E1,1.2E2,7E1,2E0,1E0,1E0,1.8E1,1.8E1,3.3E1,2.3E1,1.8E1,1.3E1,3E0,1E0,6E0,1.4E1,3.1E1,1E0,5E1,2E0,1.33E2,1E0,1.7E1,4E0,1.16E2,5E0,6.5E1,1.3E1,5E0,1.9E1,4E0,8E0,2.3E1,1.6E1,3.4E1,3E0,1.3E2,1.15E2,1E0,2.4E1,4.1E1,1E0,1.8E1,3E0,5E0,1.9E1,4E0,3E0,1.3E1,3E0,3.1E1,4.7E1,8.3E1,1.7E1,9.8E1,2E1,4E0,3E0,1.5E1,1.4E1,1.7E1,4.4E1,3E0,1.2E1,2E0,1E0,4.3E1,2E0,1E0],"tree_param":{"num_deleted":"0","num_feature":"5","num_nodes":"107","size_leaf_vector":"1"}},{"base_weights":[-3.3351858E-3,-1.19932696E-1,3.3935953E-2,-1.5010746E-1,-8.137423E-2,8.528481E-3,7.957964E-2,-9.727362E-2,-1.6191745E-1,-7.324373E-2,-3.943984E-2,-2.0293182E-2,2.2990463E-2,5.2702494E-2,7.481958E-2,-3.3989E-2,6.294402E-2,-3.8043525E-2,-2.3217171E-2,3.1451322E-3,-7.727562E-2,1.2945326E-2,-2.369595E-2,2.409926E-2,-7.309018E-3,5.9923407E-2,1.8858101E-2,-1.6857555E-2,-5.155087E-2,-4.109735E-2,-7.5145145E-3,2.0232538E-2,4.485845E-2,6.6514425E-2,-1.5737884E-2,3.772068E-3,-5.695746E-2,-1.2443128E-2,-2.9784385E-2,-1.9295879E-2,-3.1840708E-3,2.4182193E-2,-2.790545E-2,1.6196799E-2,7.771123E-3,5.858617E-2,1.8144011E-2,-4.9957833E-3,-1.23659475E-2,-4.315066E-3,-6.3334205E-3,-1.0953832E-2,-5.9096026E-3,6.3523822E-3,-7.010475E-3,2.2238282E-2,2.088537E-2,5.9851762E-2,-3.3503294E-3,-1.5343427E-4,-9.6369087E-4,-3.4396548E-4,-2.2961183E-3,-3.0878412E-3,-2.88475E-3,1.393653E-2,2.5674863E-2,1.2379224E-2,5.7212883E-3,-2.690565E-4,-6.416357E-4,8.930262E-3,1.1902336E-2,3.444498E-2,2.1926772E-2,9.31832E-4,3.0219776E-3,-3.8439643E-3,4.5725373E-3],"categories":[],"categories_nodes":[],"categories_segments":[],"categories_sizes":[],"default_left":[0,0,0,0,0,0,0,0,0,0,0,0,0,0,0,0,0,0,0,0,0,0,0,0,0,0,0,0,0,0,0,0,0,0,0,0,0,0,0,0,0,0,0,0,0,0,0,0,0,0,0,0,0,0,0,0,0,0,0,0,0,0,0,0,0,0,0,0,0,0,0,0,0,0,0,0,0,0,0],"id":12,"left_children":[1,3,5,7,9,11,13,15,17,19,-1,21,23,-1,25,-1,-1,-1,-1,-1,27,-1,29,31,-1,33,-1,-1,35,37,39,41,43,45,-1,-1,47,-1,49,51,53,55,-1,-1,-1,57,-1,-1,-1,59,-1,61,-1,-1,63,65,-1,67,-1,-1,-1,-1,-1,-1,69,71,73,-1,-1,-1,-1,-1,75,-1,77,-1,-1,-1,-1],"loss_changes":[3.0501456E0,1.7336392E-1,6.15598E-1,2.652812E-2,4.5508206E-2,1.4431861E-1,1.2691903E-1,7.656535E-1,5.0521016E-2,3.005141E-2,0E0,3.6626615E-2,1.6944371E-2,0E0,4.3227434E-2,0E0,0E0,0E0,0E0,0E0,4.6583116E-3,0E0,3.1200841E-2,1.6406089E-2,0E0,1.1279115E-1,0E0,0E0,1.0142863E-2,9.19506E-3,2.989252E-3,1.2979239E-1,1.0797232E-3,1.0096252E-2,0E0,0E0,2.7284026E-5,0E0,1.5968196E-3,7.210523E-4,6.730052E-3,2.5305234E-2,0E0,0E0,0E0,1.0300428E-2,0E0,0E0,0E0,1.5366822E-6,0E0,1.8880004E-5,0E0,0E0,1.441007E-3,4.704997E-3,0E0,1.9521415E-3,0E0,0E0,0E0,0E0,0E0,0E0,7.301249E-6,2.6858775E-3,6.4952664E-2,0E0,0E0,0E0,0E0,0E0,1.229939E-3,0E0,5.923599E-3,0E0,0E0,0E0,0E0],"parents":[2147483647,0,0,1,1,2,2,3,3,4,4,5,5,6,6,7,7,8,8,9,9,11,11,12,12,14,14,20,20,22,22,23,23,25,25,28,28,29,29,30,30,31,31,32,32,33,33,36,36,38,38,39,39,40,40,41,41,45,45,49,49,51,51,54,54,55,55,57,57,64,64,65,65,66,66,72,72,74,74],"right_children":[2,4,6,8,10,12,14,16,18,20,-1,22,24,-1,26,-1,-1,-1,-1,-1,28,-1,30,32,-1,34,-1,-1,36,38,40,42,44,46,-1,-1,48,-1,50,52,54,56,-1,-1,-1,58,-1,-1,-1,60,-1,62,-1,-1,64,66,-1,68,-1,-1,-1,-1,-1,-1,70,72,74,-1,-1,-1,-1,-1,76,-1,78,-1,-1,-1,-1],"split_conditions":[-7.610831E-1,-1.5697541E0,7.23544E-1,-2.0840318E0,-5.446766E-1,-2.446459E-2,-1.164195E0,-2.0842056E0,-1.7997324E0,-1.5696828E0,-3.943984E-2,-7.608994E-1,7.235157E-1,5.2702494E-2,1.2311617E0,-3.3989E-2,6.294402E-2,-3.8043525E-2,-2.3217171E-2,3.1451322E-3,-7.578553E-1,1.2945326E-2,-2.514187E-1,4.7099948E-1,-7.309018E-3,1.2310604E0,1.8858101E-2,-1.6857555E-2,-8.6273104E-1,-5.446766E-1,-1.8550408E-1,4.7095776E-1,4.7115612E-1,1.2302802E0,-1.5737884E-2,3.772068E-3,-7.882054E-1,-1.2443128E-2,-5.69269E-1,-1.8571347E-1,-1.853953E-1,4.708755E-1,-2.790545E-2,1.6196799E-2,7.771123E-3,1.0221055E0,1.8144011E-2,-4.9957833E-3,-1.23659475E-2,-5.9406286E-1,-6.3334205E-3,-2.0305558E-1,-5.9096026E-3,6.3523822E-3,-4.007862E-2,1.4226404E-1,2.088537E-2,8.5826033E-1,-3.3503294E-3,-1.5343427E-4,-9.6369087E-4,-3.4396548E-4,-2.2961183E-3,-3.0878412E-3,-4.2357393E-2,-7.578553E-1,1.4228402E-1,1.2379224E-2,5.7212883E-3,-2.690565E-4,-6.416357E-4,8.930262E-3,8.198206E-2,3.444498E-2,1.4231402E-1,9.31832E-4,3.0219776E-3,-3.8439643E-3,4.5725373E-3],"split_indices":[4,4,4,4,0,4,0,4,4,4,0,4,4,0,4,0,0,0,0,0,0,0,4,4,0,4,0,0,4,0,4,4,4,0,0,0,4,0,4,4,4,4,0,0,0,4,0,0,0,4,0,4,0,0,0,4,0,4,0,0,0,0,0,0,4,0,4,0,0,0,0,0,4,0,4,0,0,0,0],"split_type":[0,0,0,0,0,0,0,0,0,0,0,0,0,0,0,0,0,0,0,0,0,0,0,0,0,0,0,0,0,0,0,0,0,0,0,0,0,0,0,0,0,0,0,0,0,0,0,0,0,0,0,0,0,0,0,0,0,0,0,0,0,0,0,0,0,0,0,0,0,0,0,0,0,0,0,0,0,0,0],"sum_hessian":[6.98E2,1.68E2,5.3E2,9.1E1,7.7E1,3.42E2,1.88E2,2E1,7.1E1,7.5E1,2E0,1.14E2,2.28E2,2E0,1.86E2,1.8E1,2E0,4E1,3.1E1,3E0,7.2E1,3E0,1.11E2,2.25E2,3E0,1.1E2,7.6E1,5.3E1,1.9E1,5.2E1,5.9E1,1.93E2,3.2E1,1.06E2,4E0,1E0,1.8E1,1.5E1,3.7E1,1.4E1,4.5E1,1.9E2,3E0,1E0,3.1E1,8.5E1,2.1E1,4E0,1.4E1,3E0,3.4E1,1E1,4E0,3E0,4.2E1,1.88E2,2E0,8.4E1,1E0,1E0,2E0,1E0,9E0,1.2E1,3E1,5.8E1,1.3E2,7.7E1,7E0,7E0,2.3E1,1E0,5.7E1,1E0,1.29E2,1.9E1,3.8E1,2E0,1.27E2],"tree_param":{"num_deleted":"0","num_feature":"5","num_nodes":"79","size_leaf_vector":"1"}},{"base_weights":[-2.9986553E-4,-6.8708256E-2,3.817208E-2,-1.20577514E-1,-5.435875E-2,1.9281022E-2,6.711387E-2,-8.3656386E-2,-1.3794982E-1,2.7231092E-2,-5.839633E-2,1.4752684E-2,3.4134265E-2,5.452003E-2,1.1035538E-1,-2.7866408E-2,3.4501757E-2,-3.445482E-2,-1.818221E-2,-7.669592E-2,-3.881014E-2,1.771745E-2,-2.4556795E-2,6.1272085E-4,7.032533E-3,2.76829E-2,5.0267205E-2,4.439901E-2,1.7123584E-2,-1.9395938E-2,-6.250853E-2,-4.6101753E-2,-2.0107128E-2,1.0507883E-2,2.8255166E-2,5.2282814E-4,-3.594359E-4,5.87237E-2,3.3531576E-2,2.7677203E-3,-6.645805E-2,3.520596E-3,-4.7456693E-2,-1.203124E-2,-1.0487642E-2,-2.9278744E-3,1.4078508E-2,2.5359122E-2,1.1972814E-2,4.666972E-2,1.6674519E-2,-4.1480813E-2,5.1113527E-2,-5.953574E-2,-2.293643E-2,-3.1823196E-2,-5.2546255E-2,-1.8519253E-3,-1.57327E-2,-4.428789E-4,-1.1219032E-3,1.2856923E-3,1.5091881E-2,3.011885E-2,1.46250315E-2,9.482095E-3,2.2595287E-3,1.3568412E-2,3.694083E-2,-1.31168915E-2,-4.176824E-2,-9.547444E-3,5.8357897E-3,-5.9621334E-2,-3.5263993E-2,-1.4887373E-3,4.2353405E-4,-2.0135088E-2,-1.8150123E-3,7.0262114E-3,1.3643219E-2,5.4976037E-3,1.0246671E-2,-1.2833638E-3,1.7438335E-2,3.930787E-2,-2.4291596E-3,8.664741E-3,-1.3377356E-2,-4.6687383E-2,-2.3192659E-2,-4.7815144E-3,-9.264347E-3,1.8112848E-3,-5.8393663E-4,-1.98121E-3,-5.6895027E-3,3.1124833E-3,1.5501183E-2,4.313256E-3,1.502581E-3,2.414397E-2,1.0101207E-2,-1.330025E-2,-3.3371504E-3,7.8629283E-4,-6.114822E-4,2.027753E-3,3.3186406E-3,8.467038E-3,-4.6636662E-3],"categories":[],"categories_nodes":[],"categories_segments":[],"categories_sizes":[],"default_left":[0,0,0,0,0,0,0,0,0,0,0,0,0,0,0,0,0,0,0,0,0,0,0,0,0,0,0,0,0,0,0,0,0,0,0,0,0,0,0,0,0,0,0,0,0,0,0,0,0,0,0,0,0,0,0,0,0,0,0,0,0,0,0,0,0,0,0,0,0,0,0,0,0,0,0,0,0,0,0,0,0,0,0,0,0,0,0,0,0,0,0,0,0,0,0,0,0,0,0,0,0,0,0,0,0,0,0,0,0,0,0],"id":13,"left_children":[1,3,5,7,9,11,13,15,17,-1,19,21,23,25,27,-1,-1,-1,-1,29,31,33,-1,35,-1,-1,37,-1,-1,-1,39,41,43,45,47,-1,-1,49,51,-1,53,-1,55,57,-1,59,61,63,-1,65,-1,-1,67,69,-1,71,73,75,77,-1,-1,-1,79,81,83,-1,-1,-1,85,-1,87,-1,-1,89,91,-1,93,95,-1,-1,97,-1,-1,-1,99,101,-1,-1,-1,103,-1,-1,-1,-1,-1,-1,-1,105,107,-1,-1,109,-1,-1,-1,-1,-1,-1,-1,-1,-1],"loss_changes":[1.944885E0,1.8487453E-1,2.560205E-1,1.2837946E-2,1.7897576E-1,1.8431142E-2,8.9258134E-2,3.7610173E-1,2.5186777E-2,0E0,6.8956375E-2,9.609772E-2,2.2321716E-3,3.888926E-2,7.245377E-2,0E0,0E0,0E0,0E0,1.8379927E-2,1.2465447E-2,1.627206E-2,0E0,2.8689046E-5,0E0,0E0,1.6441375E-2,0E0,0E0,0E0,2.2343695E-2,8.058146E-3,7.35458E-3,6.558938E-3,5.110927E-3,0E0,0E0,1.9849926E-2,2.4571656E-1,0E0,8.043081E-3,0E0,2.464071E-3,1.0344E-3,0E0,3.2555574E-5,6.3546747E-4,3.4617856E-3,0E0,6.842762E-4,0E0,0E0,7.079214E-3,1.0770112E-3,0E0,2.5114002E-2,2.1532476E-3,1.3354357E-4,2.500452E-4,0E0,0E0,0E0,1.7411895E-3,3.4967065E-4,1.9997102E-3,0E0,0E0,0E0,4.6729296E-3,0E0,5.0680667E-2,0E0,0E0,1.394856E-2,2.9664673E-4,0E0,3.1263844E-4,3.717048E-4,0E0,0E0,1.6644206E-3,0E0,0E0,0E0,7.821843E-4,2.8252117E-3,0E0,0E0,0E0,1.6208649E-2,0E0,0E0,0E0,0E0,0E0,0E0,0E0,1.0488863E-4,1.0857731E-4,0E0,0E0,1.6652124E-2,0E0,0E0,0E0,0E0,0E0,0E0,0E0,0E0,0E0],"parents":[2147483647,0,0,1,1,2,2,3,3,4,4,5,5,6,6,7,7,8,8,10,10,11,11,12,12,13,13,14,14,19,19,20,20,21,21,23,23,26,26,30,30,31,31,32,32,33,33,34,34,37,37,38,38,40,40,42,42,43,43,45,45,46,46,47,47,49,49,52,52,53,53,55,55,56,56,57,57,58,58,62,62,63,63,64,64,68,68,70,70,73,73,74,74,76,76,77,77,80,80,84,84,85,85,89,89,97,97,98,98,101,101],"right_children":[2,4,6,8,10,12,14,16,18,-1,20,22,24,26,28,-1,-1,-1,-1,30,32,34,-1,36,-1,-1,38,-1,-1,-1,40,42,44,46,48,-1,-1,50,52,-1,54,-1,56,58,-1,60,62,64,-1,66,-1,-1,68,70,-1,72,74,76,78,-1,-1,-1,80,82,84,-1,-1,-1,86,-1,88,-1,-1,90,92,-1,94,96,-1,-1,98,-1,-1,-1,100,102,-1,-1,-1,104,-1,-1,-1,-1,-1,-1,-1,106,108,-1,-1,110,-1,-1,-1,-1,-1,-1,-1,-1,-1],"split_conditions":[-4.190436E-2,-1.7999201E0,8.392322E-1,-2.0840318E0,-1.7997968E0,4.7099948E-1,1.4305179E0,-2.0842056E0,-1.7992649E0,2.7231092E-2,-7.608425E-1,4.7095776E-1,4.706339E-1,7.972016E-1,1.3838384E0,-2.7866408E-2,3.4501757E-2,-3.445482E-2,-1.818221E-2,-1.5697541E0,-3.234726E-1,3.9812413E-1,-2.4556795E-2,4.790575E-1,7.032533E-3,2.76829E-2,1.2310604E0,4.439901E-2,1.7123584E-2,-1.9395938E-2,-1.5696828E0,-8.6273104E-1,-1.5663064E-1,8.1798986E-2,4.708755E-1,5.2282814E-4,-3.594359E-4,1.2305101E0,1.2311617E0,2.7677203E-3,-1.1330918E0,3.520596E-3,-7.608994E-1,-1.9200104E-1,-1.0487642E-2,-3.5343617E-2,8.198206E-2,4.369822E-1,1.1972814E-2,9.0951306E-1,1.6674519E-2,-4.1480813E-2,1.2351762E0,-1.1683797E0,-2.293643E-2,-7.610831E-1,-5.4728067E-1,-1.8553244E-1,-1.8550408E-1,-4.428789E-4,-1.1219032E-3,1.2856923E-3,8.203077E-2,4.706339E-1,4.3709886E-1,9.482095E-3,2.2595287E-3,1.3568412E-2,1.3838384E0,-1.31168915E-2,-1.1681068E0,-9.547444E-3,5.8357897E-3,-5.4756474E-1,-5.3781813E-1,-1.4887373E-3,-2.514187E-1,-1.8571347E-1,-1.8150123E-3,7.0262114E-3,1.4209649E-1,5.4976037E-3,1.0246671E-2,-1.2833638E-3,4.6600154E-1,1.2359692E0,-2.4291596E-3,8.664741E-3,-1.3377356E-2,-5.473189E-1,-2.3192659E-2,-4.7815144E-3,-9.264347E-3,1.8112848E-3,-5.8393663E-4,-1.98121E-3,-5.6895027E-3,1.2863521E-1,1.4222503E-1,4.313256E-3,1.502581E-3,1.2358261E0,1.0101207E-2,-1.330025E-2,-3.3371504E-3,7.8629283E-4,-6.114822E-4,2.027753E-3,3.3186406E-3,8.467038E-3,-4.6636662E-3],"split_indices":[1,4,1,4,4,4,1,4,1,0,1,4,1,4,4,0,0,0,0,4,1,1,0,4,0,0,4,0,0,0,4,4,4,1,4,0,0,1,4,0,4,0,4,4,0,4,4,4,0,4,0,0,1,4,0,4,4,1,4,0,0,0,4,1,4,0,0,0,4,0,4,0,0,4,4,0,4,4,0,0,1,0,0,0,4,4,0,0,0,1,0,0,0,0,0,0,0,4,4,0,0,4,0,0,0,0,0,0,0,0,0],"split_type":[0,0,0,0,0,0,0,0,0,0,0,0,0,0,0,0,0,0,0,0,0,0,0,0,0,0,0,0,0,0,0,0,0,0,0,0,0,0,0,0,0,0,0,0,0,0,0,0,0,0,0,0,0,0,0,0,0,0,0,0,0,0,0,0,0,0,0,0,0,0,0,0,0,0,0,0,0,0,0,0,0,0,0,0,0,0,0,0,0,0,0,0,0,0,0,0,0,0,0,0,0,0,0,0,0,0,0,0,0,0,0],"sum_hessian":[7.35E2,2.64E2,4.71E2,5.4E1,2.1E2,2.87E2,1.84E2,2.1E1,3.3E1,3E0,2.07E2,2.23E2,6.4E1,1.46E2,3.8E1,1.8E1,3E0,1.6E1,1.7E1,1.04E2,1.03E2,2.2E2,3E0,2E0,6.2E1,4E0,1.42E2,4E0,3.4E1,3.8E1,6.6E1,7.2E1,3.1E1,1.33E2,8.7E1,1E0,1E0,9.1E1,5.1E1,3E0,6.3E1,1E0,7.1E1,2.7E1,4E0,2.8E1,1.05E2,8.3E1,4E0,6.5E1,2.6E1,2E0,4.9E1,5.9E1,4E0,2.1E1,5E1,8E0,1.9E1,2.5E1,3E0,1.4E1,9.1E1,5.5E1,2.8E1,6.3E1,2E0,1.9E1,3E1,4E1,1.9E1,1.7E1,4E0,3.2E1,1.8E1,1E0,7E0,9E0,1E1,3E0,8.8E1,5.3E1,2E0,3E0,2.5E1,2.9E1,1E0,4E0,1.5E1,2.9E1,3E0,1.2E1,6E0,1E0,6E0,6E0,3E0,1.4E1,7.4E1,1.6E1,9E0,1.5E1,1.4E1,1.6E1,1.3E1,1.3E1,1E0,1.6E1,5.8E1,1.1E1,4E0],"tree_param":{"num_deleted":"0","num_feature":"5","num_nodes":"111","size_leaf_vector":"1"}},{"base_weights":[-3.997012E-3,-8.8395976E-2,4.1989338E-2,-7.615781E-2,-1.12139106E-1,7.434663E-2,3.818956E-2,-1.2065652E-1,-4.1309025E-2,7.6108966E-3,6.24481E-2,-1.4377226E-1,-9.6976854E-2,-6.661062E-2,-2.960316E-2,-3.304386E-3,1.8378396E-2,3.861057E-2,5.9348818E-2,-1.2777494E-1,-4.7327638E-2,-8.5039966E-2,-4.371781E-2,-1.5501335E-2,-1.4812141E-2,3.285889E-3,-3.0400043E-2,-6.4909254E-4,-1.3739671E-2,1.0392513E-2,2.1227118E-2,4.35079E-2,7.951766E-2,-1.4749233E-1,-6.022788E-2,-1.017189E-1,-8.802409E-3,-4.203892E-4,-4.5400383E-3,-4.1621517E-2,-2.3528049E-2,2.167355E-3,-1.303243E-2,2.356516E-3,-2.087299E-3,4.4953204E-3,2.845909E-3,1.777327E-3,4.6782922E-2,6.777989E-2,1.0012617E-1,-9.897435E-3,-3.1389087E-2,-3.7791634E-3,-1.36129325E-2,-1.5719505E-2,-5.2946437E-2,-3.0566852E-3,-8.806791E-3,-2.0425336E-2,-1.06422E-2,-1.5458874E-3,7.454231E-3,-1.2963623E-2,6.856638E-4,8.317818E-4,-3.3547284E-4,8.1622645E-2,3.833093E-2,7.365094E-2,1.4887857E-2,2.1521628E-2,5.618787E-3,-2.2817928E-2,-1.5425226E-3,1.781382E-4,-5.8498117E-3,8.761859E-4,1.8642228E-3,-2.1195437E-3,4.617491E-3,6.3363805E-2,3.343841E-2,3.913364E-2,-3.2776117E-3,8.759825E-2,1.1679303E-2,4.8192707E-3,-3.959179E-3,-7.0308843E-3,-4.9922415E-3,-2.4341112E-3,4.6964516E-3,1.0681817E-3,3.7452628E-4,9.949236E-2,5.1850206E-3,4.3702596E-3,4.1852083E-2,1.3563717E-2,3.2665014E-2,7.106185E-4,-2.2672177E-3,7.9270205E-5,-1.6116754E-3,-2.8917368E-4,-1.1383244E-3,1.2236132E-3,5.694998E-4,5.41219E-3,2.397778E-2,1.5866058E-2,7.851268E-3],"categories":[],"categories_nodes":[],"categories_segments":[],"categories_sizes":[],"default_left":[0,0,0,0,0,0,0,0,0,0,0,0,0,0,0,0,0,0,0,0,0,0,0,0,0,0,0,0,0,0,0,0,0,0,0,0,0,0,0,0,0,0,0,0,0,0,0,0,0,0,0,0,0,0,0,0,0,0,0,0,0,0,0,0,0,0,0,0,0,0,0,0,0,0,0,0,0,0,0,0,0,0,0,0,0,0,0,0,0,0,0,0,0,0,0,0,0,0,0,0,0,0,0,0,0,0,0,0,0,0,0,0,0],"id":14,"left_children":[1,3,5,7,-1,-1,9,11,13,15,17,19,21,23,25,27,29,-1,31,33,-1,35,-1,37,-1,-1,39,41,-1,43,45,47,49,51,53,55,-1,-1,-1,57,59,61,63,-1,-1,-1,65,-1,67,69,71,-1,-1,-1,-1,-1,-1,-1,-1,73,-1,75,77,-1,79,-1,-1,81,83,85,87,-1,-1,89,-1,91,-1,-1,-1,-1,93,95,-1,97,-1,99,-1,-1,101,103,-1,105,107,-1,-1,109,-1,-1,111,-1,-1,-1,-1,-1,-1,-1,-1,-1,-1,-1,-1,-1,-1],"loss_changes":[2.751432E0,1.3596178E0,5.467126E-1,3.7151003E-1,0E0,0E0,3.3730727E-1,3.0683875E-2,3.7817225E-2,2.4097636E-2,7.989949E-2,1.3807416E-2,4.8470974E-2,1.4076933E-2,4.667178E-3,1.7795755E-2,1.9020028E-3,0E0,7.327342E-2,4.48308E-2,0E0,3.00515E-2,0E0,6.76253E-4,0E0,0E0,5.675733E-3,3.5790708E-3,0E0,1.1435023E-3,1.5716255E-3,1.5609413E-2,1.2551844E-2,1.6892195E-2,1.962468E-3,1.0538E-1,0E0,0E0,0E0,8.778833E-4,3.9047375E-3,1.6720889E-3,1.3586504E-2,0E0,0E0,0E0,5.5525412E-5,0E0,3.2612056E-2,2.1096915E-2,1.2816757E-2,0E0,0E0,0E0,0E0,0E0,0E0,0E0,0E0,1.5642568E-3,0E0,2.4462305E-3,1.1914212E-4,0E0,8.520629E-4,0E0,0E0,1.6309708E-2,6.1142147E-3,4.0239394E-3,1.9263318E-3,0E0,0E0,1.4084745E-3,0E0,6.130114E-4,0E0,0E0,0E0,0E0,7.796421E-6,2.5951244E-2,0E0,3.291905E-3,0E0,2.4280429E-2,0E0,0E0,3.5764303E-4,7.507074E-5,0E0,8.977532E-5,1.5099067E-5,0E0,0E0,9.762242E-3,0E0,0E0,2.7216673E-3,0E0,0E0,0E0,0E0,0E0,0E0,0E0,0E0,0E0,0E0,0E0,0E0,0E0,0E0],"parents":[2147483647,0,0,1,1,2,2,3,3,6,6,7,7,8,8,9,9,10,10,11,11,12,12,13,13,14,14,15,15,16,16,18,18,19,19,21,21,23,23,26,26,27,27,29,29,30,30,31,31,32,32,33,33,34,34,35,35,39,39,40,40,41,41,42,42,46,46,48,48,49,49,50,50,59,59,61,61,62,62,64,64,67,67,68,68,69,69,70,70,73,73,75,75,80,80,81,81,83,83,85,85,88,88,89,89,91,91,92,92,95,95,98,98],"right_children":[2,4,6,8,-1,-1,10,12,14,16,18,20,22,24,26,28,30,-1,32,34,-1,36,-1,38,-1,-1,40,42,-1,44,46,48,50,52,54,56,-1,-1,-1,58,60,62,64,-1,-1,-1,66,-1,68,70,72,-1,-1,-1,-1,-1,-1,-1,-1,74,-1,76,78,-1,80,-1,-1,82,84,86,88,-1,-1,90,-1,92,-1,-1,-1,-1,94,96,-1,98,-1,100,-1,-1,102,104,-1,106,108,-1,-1,110,-1,-1,112,-1,-1,-1,-1,-1,-1,-1,-1,-1,-1,-1,-1,-1,-1],"split_conditions":[-4.3736264E-2,-7.01943E-2,-1.853953E-1,-1.171503E0,-1.12139106E-1,7.434663E-2,4.6963567E-1,-1.7997968E0,-7.6384383E-1,2.958614E-1,4.3049034E-1,-1.7999201E0,-1.4918185E0,-1.1895599E0,-8.6273104E-1,1.5382618E-1,3.9700794E-1,3.861057E-2,1.2307478E0,-1.8039552E0,-4.7327638E-2,-1.5696828E0,-4.371781E-2,-1.2256585E0,-1.4812141E-2,3.285889E-3,-5.4997283E-1,1.4226404E-1,-1.3739671E-2,3.1263027E-1,4.5174703E-1,4.708755E-1,1.431081E0,-2.1282456E0,-1.8349843E0,-1.5697541E0,-8.802409E-3,-4.203892E-4,-4.5400383E-3,-7.882054E-1,-1.5663064E-1,8.203077E-2,1.4228402E-1,2.356516E-3,-2.087299E-3,4.4953204E-3,4.790575E-1,1.777327E-3,6.9813675E-1,1.2672858E0,1.4712718E0,-9.897435E-3,-3.1389087E-2,-3.7791634E-3,-1.36129325E-2,-1.5719505E-2,-5.2946437E-2,-3.0566852E-3,-8.806791E-3,-1.853953E-1,-1.06422E-2,8.198206E-2,1.4056388E-1,-1.2963623E-2,1.4231402E-1,8.317818E-4,-3.3547284E-4,8.388335E-1,1.0221055E0,1.2311617E0,1.3289632E0,2.1521628E-2,5.618787E-3,-5.5326563E-1,-1.5425226E-3,8.016829E-2,-5.8498117E-3,8.761859E-4,1.8642228E-3,-2.1195437E-3,1.4384526E-1,4.7115612E-1,3.343841E-2,7.235157E-1,-3.2776117E-3,1.2310604E0,1.1679303E-2,4.8192707E-3,1.3838384E0,-5.9406286E-1,-4.9922415E-3,-3.5343617E-2,8.066177E-2,1.0681817E-3,3.7452628E-4,4.7095776E-1,5.1850206E-3,4.3702596E-3,7.23544E-1,1.3563717E-2,3.2665014E-2,7.106185E-4,-2.2672177E-3,7.9270205E-5,-1.6116754E-3,-2.8917368E-4,-1.1383244E-3,1.2236132E-3,5.694998E-4,5.41219E-3,2.397778E-2,1.5866058E-2,7.851268E-3],"split_indices":[2,4,4,2,0,0,2,4,2,2,4,4,4,4,4,4,2,0,2,2,0,4,0,4,0,0,2,4,0,4,4,4,2,4,4,4,0,0,0,4,4,4,4,0,0,0,4,0,4,4,4,0,0,0,0,0,0,0,0,4,0,4,2,0,4,0,0,2,4,4,4,0,0,4,0,2,0,0,0,0,4,4,0,4,0,4,0,0,4,4,0,4,4,0,0,4,0,0,4,0,0,0,0,0,0,0,0,0,0,0,0,0,0],"split_type":[0,0,0,0,0,0,0,0,0,0,0,0,0,0,0,0,0,0,0,0,0,0,0,0,0,0,0,0,0,0,0,0,0,0,0,0,0,0,0,0,0,0,0,0,0,0,0,0,0,0,0,0,0,0,0,0,0,0,0,0,0,0,0,0,0,0,0,0,0,0,0,0,0,0,0,0,0,0,0,0,0,0,0,0,0,0,0,0,0,0,0,0,0,0,0,0,0,0,0,0,0,0,0,0,0,0,0,0,0,0,0,0,0],"sum_hessian":[7.05E2,2.48E2,4.57E2,2.44E2,4E0,3E0,4.54E2,1.05E2,1.39E2,2.02E2,2.52E2,4.8E1,5.7E1,4.1E1,9.8E1,1.01E2,1.01E2,3E0,2.49E2,4.5E1,3E0,5.5E1,2E0,6E0,3.5E1,1E0,9.7E1,9.9E1,2E0,2.9E1,7.2E1,1.43E2,1.06E2,3.3E1,1.2E1,3.7E1,1.8E1,3E0,3E0,3.3E1,6.4E1,8.2E1,1.7E1,2.8E1,1E0,6.7E1,5E0,1.3E1,1.3E2,7.3E1,3.3E1,4E0,2.9E1,3E0,9E0,3.5E1,2E0,4E0,2.9E1,6.1E1,3E0,4.9E1,3.3E1,2E0,1.5E1,4E0,1E0,2.2E1,1.08E2,6.5E1,8E0,2.9E1,4E0,5E1,1.1E1,4.8E1,1E0,1.5E1,1.8E1,3E0,1.2E1,2.1E1,1E0,1.07E2,1E0,2.9E1,3.6E1,5E0,3E0,7E0,4.3E1,3.1E1,1.7E1,8E0,4E0,9E0,1.2E1,1.7E1,9E1,2.6E1,3E0,2E0,1E0,1E0,6E0,2.6E1,5E0,7E0,1E1,3E0,6E0,2E0,8.8E1],"tree_param":{"num_deleted":"0","num_feature":"5","num_nodes":"113","size_leaf_vector":"1"}},{"base_weights":[-3.5737734E-4,-5.716829E-2,2.4039982E-2,-1.2646689E-1,-4.2832654E-2,1.0132037E-2,4.8041996E-2,-1.0482005E-2,-2.7006049E-2,-5.2132733E-2,-3.7984073E-2,-4.7361357E-3,1.3944159E-2,4.1150622E-2,7.408705E-2,-3.1793963E-2,-1.2446137E-2,3.697448E-3,-3.9648496E-2,3.2756957E-3,-7.37811E-3,1.2521185E-2,2.7941145E-2,2.3167072E-2,3.857603E-2,3.8214404E-2,5.1871933E-2,-5.89129E-2,1.2936132E-2,-4.1514207E-2,-2.5795365E-2,-6.307006E-3,1.1078775E-2,-1.815399E-2,-1.8796055E-3,1.3117977E-2,-4.05956E-3,5.847178E-3,1.4993697E-3,3.950484E-2,-3.7899732E-3,1.2835179E-2,3.6050495E-2,-3.3256628E-3,-1.2952544E-2,-3.783583E-2,-2.3278985E-2,-3.149534E-3,-7.991207E-3,2.0792831E-3,-1.1371513E-2,-1.2078143E-3,-7.6703294E-3,-1.0637755E-3,-7.5760164E-4,1.1527363E-2,2.118176E-2,3.0215193E-2,4.783942E-2,6.3955784E-4,-2.1160683E-3,-1.3384781E-2,6.372368E-2,-4.1585095E-2,-1.2016743E-2,-9.655702E-4,-3.697422E-3,3.1176503E-4,-2.7798323E-4,1.413271E-2,-1.9042639E-2,7.7294195E-3,1.7251754E-2,3.125768E-2,-3.059105E-3,2.2737639E-2,4.0726792E-2,1.45581765E-2,4.869612E-3,-7.800769E-3,-1.808775E-2,-1.2678147E-3,-2.8604434E-3,1.1728071E-4,-3.7483125E-5,1.29185775E-2,9.654813E-3,-3.131072E-4,3.5875284E-3,6.520144E-3,3.2552802E-3,2.7189817E-2,4.7647297E-2,7.398526E-5,-3.7244262E-4,8.1676245E-3,1.2344778E-2,8.253604E-3,-7.6372544E-3,9.659549E-3,1.3552269E-3,2.145536E-3,3.3186395E-3],"categories":[],"categories_nodes":[],"categories_segments":[],"categories_sizes":[],"default_left":[0,0,0,0,0,0,0,0,0,0,0,0,0,0,0,0,0,0,0,0,0,0,0,0,0,0,0,0,0,0,0,0,0,0,0,0,0,0,0,0,0,0,0,0,0,0,0,0,0,0,0,0,0,0,0,0,0,0,0,0,0,0,0,0,0,0,0,0,0,0,0,0,0,0,0,0,0,0,0,0,0,0,0,0,0,0,0,0,0,0,0,0,0,0,0,0,0,0,0,0,0,0,0],"id":15,"left_children":[1,3,5,7,9,11,13,-1,-1,15,17,19,21,23,25,27,-1,-1,29,31,33,35,37,-1,39,-1,41,43,-1,45,47,49,-1,51,53,55,-1,-1,-1,57,59,-1,61,-1,-1,63,-1,-1,-1,-1,65,-1,-1,67,-1,69,71,73,75,-1,-1,-1,77,79,81,-1,-1,83,-1,85,-1,-1,87,89,-1,-1,91,-1,-1,-1,-1,93,-1,-1,-1,95,-1,-1,-1,-1,-1,97,99,-1,-1,-1,101,-1,-1,-1,-1,-1,-1],"loss_changes":[9.965367E-1,2.0374912E-1,1.6693729E-1,8.67641E-3,4.246354E-3,1.8326141E-2,2.6927978E-2,0E0,0E0,7.7495277E-3,1.3402969E-2,1.4665294E-3,4.399132E-3,1.9905537E-2,7.3735505E-2,6.7795694E-2,0E0,0E0,1.063168E-3,9.688532E-3,2.953568E-3,5.1548555E-3,1.4398806E-4,0E0,6.1232746E-3,0E0,1.7968416E-3,2.546005E-3,0E0,2.0388797E-2,1.5872121E-3,1.6745538E-3,0E0,3.6965637E-3,4.7990383E-5,2.5002025E-3,0E0,0E0,0E0,8.33571E-3,3.0491478E-4,0E0,6.267225E-2,0E0,0E0,9.068027E-3,0E0,0E0,0E0,0E0,4.7336286E-4,0E0,0E0,1.3428002E-5,0E0,5.8032393E-2,1.1375397E-3,4.4670925E-3,2.4929821E-2,0E0,0E0,0E0,2.1677837E-3,4.2943954E-3,3.5679736E-4,0E0,0E0,1.1794621E-6,0E0,6.8773553E-3,0E0,0E0,4.8207864E-4,4.0754676E-4,0E0,0E0,3.8730726E-3,0E0,0E0,0E0,0E0,6.2451163E-6,0E0,0E0,0E0,2.067607E-3,0E0,0E0,0E0,0E0,0E0,2.8922327E-2,4.885942E-4,0E0,0E0,0E0,9.561777E-4,0E0,0E0,0E0,0E0,0E0,0E0],"parents":[2147483647,0,0,1,1,2,2,3,3,4,4,5,5,6,6,9,9,10,10,11,11,12,12,13,13,14,14,15,15,18,18,19,19,20,20,21,21,22,22,24,24,26,26,27,27,29,29,30,30,31,31,33,33,34,34,35,35,39,39,40,40,42,42,45,45,50,50,53,53,55,55,56,56,57,57,58,58,62,62,63,63,64,64,67,67,69,69,72,72,73,73,76,76,81,81,85,85,91,91,92,92,96,96],"right_children":[2,4,6,8,10,12,14,-1,-1,16,18,20,22,24,26,28,-1,-1,30,32,34,36,38,-1,40,-1,42,44,-1,46,48,50,-1,52,54,56,-1,-1,-1,58,60,-1,62,-1,-1,64,-1,-1,-1,-1,66,-1,-1,68,-1,70,72,74,76,-1,-1,-1,78,80,82,-1,-1,84,-1,86,-1,-1,88,90,-1,-1,92,-1,-1,-1,-1,94,-1,-1,-1,96,-1,-1,-1,-1,-1,98,100,-1,-1,-1,102,-1,-1,-1,-1,-1,-1],"split_conditions":[-3.234726E-1,-1.7992649E0,8.392322E-1,-2.0957603E0,-1.5697541E0,8.1798986E-2,1.4305179E0,-1.0482005E-2,-2.7006049E-2,-1.7997968E0,-1.5696828E0,-1.853953E-1,7.23544E-1,6.9813675E-1,1.3289632E0,-1.7999201E0,-1.2446137E-2,3.697448E-3,-5.4728067E-1,-1.8550408E-1,-4.190436E-2,7.235157E-1,7.5320435E-1,2.3167072E-2,1.3289632E0,3.8214404E-2,1.4310825E0,-1.8349843E0,1.2936132E-2,-5.4756474E-1,-5.216174E-1,-2.0305558E-1,1.1078775E-2,-1.5663064E-1,-4.087493E-2,4.7099948E-1,-4.05956E-3,5.847178E-3,1.4993697E-3,1.2305101E0,1.3838384E0,1.2835179E-2,1.431364E0,-3.3256628E-3,-1.2952544E-2,-5.473189E-1,-2.3278985E-2,-3.149534E-3,-7.991207E-3,2.0792831E-3,-1.8571347E-1,-1.2078143E-3,-7.6703294E-3,-4.387196E-2,-7.5760164E-4,4.7095776E-1,4.7115612E-1,1.0221055E0,1.1791247E0,6.3955784E-4,-2.1160683E-3,-1.3384781E-2,1.4712718E0,-5.9406286E-1,-5.69269E-1,-9.655702E-4,-3.697422E-3,-4.9386654E-2,-2.7798323E-4,4.708755E-1,-1.9042639E-2,7.7294195E-3,4.706339E-1,8.465708E-1,-3.059105E-3,2.2737639E-2,1.2311617E0,1.45581765E-2,4.869612E-3,-7.800769E-3,-1.808775E-2,-5.9406286E-1,-2.8604434E-3,1.1728071E-4,-3.7483125E-5,1.3571283E-2,9.654813E-3,-3.131072E-4,3.5875284E-3,6.520144E-3,3.2552802E-3,1.2310604E0,1.2837379E0,7.398526E-5,-3.7244262E-4,8.1676245E-3,4.3665853E-1,8.253604E-3,-7.6372544E-3,9.659549E-3,1.3552269E-3,2.145536E-3,3.3186395E-3],"split_indices":[1,1,1,4,4,1,1,0,0,4,4,4,4,4,4,4,0,0,4,4,1,4,4,0,4,0,4,4,0,4,4,4,0,4,4,4,0,0,0,1,4,0,4,0,0,1,0,0,0,0,4,0,0,4,0,4,4,4,4,0,0,0,4,4,4,0,0,4,0,4,0,0,1,4,0,0,4,0,0,0,0,4,0,0,0,4,0,0,0,0,0,4,4,0,0,0,1,0,0,0,0,0,0],"split_type":[0,0,0,0,0,0,0,0,0,0,0,0,0,0,0,0,0,0,0,0,0,0,0,0,0,0,0,0,0,0,0,0,0,0,0,0,0,0,0,0,0,0,0,0,0,0,0,0,0,0,0,0,0,0,0,0,0,0,0,0,0,0,0,0,0,0,0,0,0,0,0,0,0,0,0,0,0,0,0,0,0,0,0,0,0,0,0,0,0,0,0,0,0,0,0,0,0,0,0,0,0,0,0],"sum_hessian":[7.15E2,2.14E2,5.01E2,3.4E1,1.8E2,3.19E2,1.82E2,5E0,2.9E1,5.5E1,1.25E2,6.5E1,2.54E2,1.48E2,3.4E1,2.1E1,3.4E1,3E0,1.22E2,1.6E1,4.9E1,2.34E2,2E1,2E0,1.46E2,3E0,3.1E1,1.7E1,4E0,1.04E2,1.8E1,1.5E1,1E0,1.5E1,3.4E1,2.31E2,3E0,1.8E1,2E0,1.43E2,3E0,1.4E1,1.7E1,3E0,1.4E1,1.02E2,2E0,1.3E1,5E0,3E0,1.2E1,1.1E1,4E0,2.6E1,8E0,1.97E2,3.4E1,7.2E1,7.1E1,2E0,1E0,3E0,1.4E1,8.8E1,1.4E1,8E0,4E0,5E0,2.1E1,1.94E2,3E0,3E0,3.1E1,7.1E1,1E0,4E0,6.7E1,1E1,4E0,8.7E1,1E0,3E0,1.1E1,3E0,2E0,1.9E2,4E0,1E0,3E1,6.3E1,8E0,2.6E1,4.1E1,1E0,2E0,1E0,1.89E2,2.2E1,4E0,4E1,1E0,1.42E2,4.7E1],"tree_param":{"num_deleted":"0","num_feature":"5","num_nodes":"103","size_leaf_vector":"1"}},{"base_weights":[2.4450156E-3,-6.2067702E-2,3.698002E-2,-4.7367543E-2,-4.0392804E-1,1.3233496E-1,2.5930962E-2,-7.4921735E-2,-2.4247078E-2,-9.749498E-2,-3.7147697E-2,4.382933E-3,4.195624E-2,-6.925821E-2,-3.7792034E-2,-3.558575E-2,-1.033887E-2,-3.1912932E-3,1.2830827E-2,3.3199754E-2,3.82655E-2,-1.6720543E-2,-6.9944463E-3,-8.27641E-3,-5.5418476E-3,-2.5962105E-3,-1.430031E-3,-6.33317E-4,-9.122625E-3,1.5626916E-3,1.4938548E-2,2.840085E-2,5.061762E-2,6.2211923E-4,-5.5609585E-4,5.3671077E-3,2.7378225E-3,7.5273784E-3,4.997189E-3,4.460015E-2,1.2261495E-2,-2.3627433E-4,4.994417E-4,1.0734062E-2,6.902048E-3],"categories":[],"categories_nodes":[],"categories_segments":[],"categories_sizes":[],"default_left":[0,0,0,0,0,0,0,0,0,0,0,0,0,0,0,0,0,0,0,0,0,0,0,0,0,0,0,0,0,0,0,0,0,0,0,0,0,0,0,0,0,0,0,0,0],"id":16,"left_children":[1,3,5,7,9,-1,11,13,15,-1,-1,17,19,21,-1,23,25,27,29,-1,31,-1,-1,-1,-1,-1,-1,33,-1,-1,35,37,39,41,-1,-1,-1,-1,-1,43,-1,-1,-1,-1,-1],"loss_changes":[1.5908889E0,1.213059E0,3.1752486E0,1.498996E-1,1.2048483E-3,0E0,1.5813094E-1,4.422456E-2,2.0396046E-2,0E0,0E0,1.2751173E-2,1.0769954E-1,4.6776712E-2,0E0,1.0394603E-3,3.4515234E-4,1.1444713E-2,7.606279E-4,0E0,2.856198E-2,0E0,0E0,0E0,0E0,0E0,0E0,2.7841332E-4,0E0,0E0,2.1662004E-4,2.7871653E-3,1.7358661E-3,2.2909287E-4,0E0,0E0,0E0,0E0,0E0,3.5254806E-3,0E0,0E0,0E0,0E0,0E0],"parents":[2147483647,0,0,1,1,2,2,3,3,4,4,6,6,7,7,8,8,11,11,12,12,13,13,15,15,16,16,17,17,18,18,20,20,27,27,30,30,31,31,32,32,33,33,39,39],"right_children":[2,4,6,8,10,-1,12,14,16,-1,-1,18,20,22,-1,24,26,28,30,-1,32,-1,-1,-1,-1,-1,-1,34,-1,-1,36,38,40,42,-1,-1,-1,-1,-1,44,-1,-1,-1,-1,-1],"split_conditions":[-4.3736264E-2,-4.007862E-2,-5.446766E-1,-1.171503E0,-7.6384383E-1,1.3233496E-1,4.6963567E-1,-1.164195E0,-5.446766E-1,-9.749498E-2,-3.7147697E-2,2.958614E-1,2.984198E-1,-1.5649449E0,-3.7792034E-2,-7.578553E-1,-1.8347466E-1,2.984198E-1,3.9700794E-1,3.3199754E-2,1.2302802E0,-1.6720543E-2,-6.9944463E-3,-8.27641E-3,-5.5418476E-3,-2.5962105E-3,-1.430031E-3,1.4362496E-1,-9.122625E-3,1.5626916E-3,3.9923894E-1,7.2359097E-1,1.4299649E0,8.342487E-2,-5.5609585E-4,5.3671077E-3,2.7378225E-3,7.5273784E-3,4.997189E-3,1.2349387E0,1.2261495E-2,-2.3627433E-4,4.994417E-4,1.0734062E-2,6.902048E-3],"split_indices":[2,0,0,2,2,0,2,0,0,0,0,2,0,0,0,0,0,0,2,0,0,0,0,0,0,0,0,0,0,0,0,0,0,0,0,0,0,0,0,0,0,0,0,0,0],"split_type":[0,0,0,0,0,0,0,0,0,0,0,0,0,0,0,0,0,0,0,0,0,0,0,0,0,0,0,0,0,0,0,0,0,0,0,0,0,0,0,0,0,0,0,0,0],"sum_hessian":[7.1E2,2.47E2,4.63E2,2.39E2,8E0,6E0,4.57E2,1.07E2,1.32E2,4E0,4E0,1.96E2,2.61E2,1.05E2,2E0,7.1E1,6.1E1,1.04E2,9.2E1,5E0,2.56E2,7.2E1,3.3E1,3.6E1,3.5E1,3E1,3.1E1,1E2,4E0,3E1,6.2E1,1.46E2,1.1E2,6.4E1,3.6E1,2E0,6E1,3.4E1,1.12E2,7.7E1,3.3E1,3.3E1,3.1E1,3.6E1,4.1E1],"tree_param":{"num_deleted":"0","num_feature":"5","num_nodes":"45","size_leaf_vector":"1"}},{"base_weights":[3.5479976E-4,-5.6926988E-2,3.1586956E-2,-4.1762512E-2,-3.9122385E-1,1.0555871E-1,2.2988178E-2,-6.675788E-2,-1.9481154E-2,-8.1747636E-2,-1.44053865E-2,5.7789655E-3,3.7385095E-2,-6.2003616E-2,-3.4012824E-2,-2.9882161E-2,-8.6662145E-3,7.036245E-2,4.517789E-3,3.0197788E-2,3.3905108E-2,-7.808903E-2,-3.951209E-2,-7.3027844E-3,-2.3078343E-2,-1.1151389E-2,9.598499E-4,-1.1992146E-3,1.9962532E-2,-1.9852477E-3,1.0587908E-2,2.373045E-2,5.3805187E-2,-6.61245E-2,-1.4680523E-1,-2.7831933E-2,-5.848217E-2,-7.061709E-3,-5.4825107E-3,-7.889715E-3,-7.031698E-3,-5.730797E-4,3.0944964E-3,-1.3526268E-3,-4.518521E-3,6.1856546E-3,1.253604E-2,5.5452943E-2,1.8972894E-2,2.7747601E-2,4.8282452E-2,-1.6355747E-2,-8.302728E-3,-4.0116526E-2,-1.2403711E-2,-6.4230086E-3,-3.3026934E-3,-3.1548344E-2,-3.4085527E-2,-2.9165477E-3,1.5593243E-3,3.3723786E-3,-9.541212E-3,5.3331733E-4,-4.9092027E-4,1.5219153E-4,7.447058E-4,-3.1988458E-3,6.248985E-3,-6.9933536E-4,6.815759E-3,4.8303977E-3,1.1556095E-2,1.9298419E-3,3.2389555E-2,-8.078745E-3,2.1876426E-2,3.2384213E-2,1.2913627E-2,-7.3731677E-3,6.932974E-4,-4.6237195E-3,3.956338E-3,-2.9272118E-3,-5.4024784E-3,-5.937276E-4,-4.4643246E-2,6.931435E-4,2.165063E-3,-4.0076577E-4,1.2574047E-4,1.0648277E-3,1.7574683E-3,2.0349373E-3,1.2049063E-2,-7.142192E-3,5.122187E-3,-3.2709967E-3,-2.594168E-3,2.2586849E-2,-4.935376E-3,7.975458E-3,2.3199568E-2,-1.3395072E-3,-2.2303581E-4,5.7266476E-3,-8.784041E-3,-3.5215039E-3,5.6311134E-3,-1.1078611E-2,-2.851853E-3,7.633925E-4,-1.5291125E-4,9.632277E-3,2.848291E-3,-1.6024768E-3,-2.4409492E-4,9.061307E-3,-1.6542971E-3,-7.383031E-4,2.892569E-4,1.7583583E-3,2.3203894E-2,2.9449835E-3,3.130823E-2,-2.1500972E-3,-6.5819744E-4,-1.4526027E-4,-2.5740904E-3,8.422456E-4,2.3379684E-3,2.1353632E-3,3.6134463E-4,3.458038E-4,2.0612956E-3,6.958309E-3,4.2340946E-3,6.727271E-3,5.351305E-4],"categories":[],"categories_nodes":[],"categories_segments":[],"categories_sizes":[],"default_left":[0,0,0,0,0,0,0,0,0,0,0,0,0,0,0,0,0,0,0,0,0,0,0,0,0,0,0,0,0,0,0,0,0,0,0,0,0,0,0,0,0,0,0,0,0,0,0,0,0,0,0,0,0,0,0,0,0,0,0,0,0,0,0,0,0,0,0,0,0,0,0,0,0,0,0,0,0,0,0,0,0,0,0,0,0,0,0,0,0,0,0,0,0,0,0,0,0,0,0,0,0,0,0,0,0,0,0,0,0,0,0,0,0,0,0,0,0,0,0,0,0,0,0,0,0,0,0,0,0,0,0,0,0,0,0,0,0,0,0],"id":17,"left_children":[1,3,5,7,9,-1,11,13,15,-1,-1,17,19,21,-1,23,25,27,29,-1,31,33,35,-1,37,39,41,-1,-1,43,45,47,49,51,53,55,57,59,-1,61,-1,63,65,67,-1,69,71,73,75,-1,77,-1,-1,-1,-1,-1,-1,-1,79,-1,-1,81,83,-1,-1,-1,-1,85,87,89,91,-1,93,95,-1,97,99,101,-1,-1,-1,103,-1,-1,105,107,109,-1,-1,-1,-1,-1,-1,111,113,115,117,-1,119,121,-1,-1,123,-1,-1,-1,125,127,129,-1,-1,-1,-1,131,-1,-1,-1,133,-1,-1,-1,-1,135,-1,137,-1,-1,-1,-1,-1,-1,-1,-1,-1,-1,-1,-1,-1,-1],"loss_changes":[1.313169E0,1.2803073E0,2.0024495E0,1.3663164E-1,2.6153326E-3,0E0,1.1576715E-1,3.6374807E-2,1.4667716E-2,0E0,0E0,1.6957691E-2,9.05731E-2,3.5434395E-2,0E0,1.3828911E-3,1.672056E-3,1.019207E-2,8.489519E-3,0E0,4.8065484E-2,3.40254E-2,8.266479E-3,0E0,2.3202002E-3,3.751902E-3,5.5902994E-5,0E0,0E0,1.3077288E-3,7.9686753E-4,2.3401536E-2,2.5534898E-2,1.5940696E-2,1.15971565E-2,6.8455376E-4,3.283538E-2,1.4566416E-3,0E0,1.0129178E-3,0E0,8.014133E-5,4.608206E-6,1.4995398E-3,0E0,1.7438678E-4,2.9551797E-4,1.19073525E-1,1.2135267E-2,0E0,1.6790017E-2,0E0,0E0,0E0,0E0,0E0,0E0,0E0,2.0304956E-3,0E0,0E0,1.2326136E-3,7.907371E-4,0E0,0E0,0E0,0E0,9.124231E-3,1.9244518E-4,1.1181705E-5,9.359908E-6,0E0,2.9359572E-4,5.365443E-4,0E0,6.414114E-4,5.612612E-3,1.2466833E-3,0E0,0E0,0E0,3.599457E-5,0E0,0E0,3.7256605E-3,1.5341052E-3,5.3381547E-5,0E0,0E0,0E0,0E0,0E0,0E0,3.5769168E-5,9.124447E-5,6.2073523E-6,8.3577156E-4,0E0,6.388332E-5,7.411316E-4,0E0,0E0,7.959297E-4,0E0,0E0,0E0,2.2088876E-4,1.4708398E-3,1.3381569E-4,0E0,0E0,0E0,0E0,2.8020958E-4,0E0,0E0,0E0,6.478926E-5,0E0,0E0,0E0,0E0,1.5429109E-3,0E0,5.532643E-4,0E0,0E0,0E0,0E0,0E0,0E0,0E0,0E0,0E0,0E0,0E0,0E0,0E0,0E0],"parents":[2147483647,0,0,1,1,2,2,3,3,4,4,6,6,7,7,8,8,11,11,12,12,13,13,15,15,16,16,17,17,18,18,20,20,21,21,22,22,24,24,25,25,26,26,29,29,30,30,31,31,32,32,33,33,34,34,35,35,36,36,37,37,39,39,41,41,42,42,43,43,45,45,46,46,47,47,48,48,50,50,58,58,61,61,62,62,67,67,68,68,69,69,70,70,72,72,73,73,75,75,76,76,77,77,81,81,84,84,85,85,86,86,93,93,94,94,95,95,96,96,98,98,99,99,102,102,106,106,107,107,108,108,113,113,117,117,122,122,124,124],"right_children":[2,4,6,8,10,-1,12,14,16,-1,-1,18,20,22,-1,24,26,28,30,-1,32,34,36,-1,38,40,42,-1,-1,44,46,48,50,52,54,56,58,60,-1,62,-1,64,66,68,-1,70,72,74,76,-1,78,-1,-1,-1,-1,-1,-1,-1,80,-1,-1,82,84,-1,-1,-1,-1,86,88,90,92,-1,94,96,-1,98,100,102,-1,-1,-1,104,-1,-1,106,108,110,-1,-1,-1,-1,-1,-1,112,114,116,118,-1,120,122,-1,-1,124,-1,-1,-1,126,128,130,-1,-1,-1,-1,132,-1,-1,-1,134,-1,-1,-1,-1,136,-1,138,-1,-1,-1,-1,-1,-1,-1,-1,-1,-1,-1,-1,-1,-1],"split_conditions":[-4.3736264E-2,-6.844788E-2,-1.5657852E0,-1.171503E0,1.4308527E0,1.0555871E-1,4.6963567E-1,-1.244721E0,-7.352561E-1,-8.1747636E-2,-1.44053865E-2,-7.580638E-1,1.4372842E-1,-1.7952429E0,-3.4012824E-2,-1.1555262E0,-1.8341374E-1,1.4056388E-1,2.958614E-1,3.0197788E-2,1.230942E0,-1.795592E0,-1.5658969E0,-7.3027844E-3,-7.6384383E-1,-1.8368533E-1,-1.6870193E-1,-1.1992146E-3,1.9962532E-2,2.7350596E-1,3.9700794E-1,4.7197664E-1,1.2310405E0,-2.0603783E0,-1.7955277E0,-1.5704789E0,-1.5657852E0,-1.070676E0,-5.4825107E-3,-5.4997283E-1,-7.031698E-3,-1.8300524E-1,-1.4349158E-1,1.4375837E-1,-4.518521E-3,2.939876E-1,2.986352E-1,4.7185284E-1,5.023516E-1,2.7747601E-2,1.3394766E0,-1.6355747E-2,-8.302728E-3,-4.0116526E-2,-1.2403711E-2,-6.4230086E-3,-3.3026934E-3,-3.1548344E-2,-1.5257468E0,-2.9165477E-3,1.5593243E-3,-6.038113E-1,-5.4510224E-1,5.3331733E-4,-4.9092027E-4,1.5219153E-4,7.447058E-4,1.4370486E-1,1.4963925E-1,2.7350596E-1,3.005992E-1,4.8303977E-3,3.9666927E-1,4.5275155E-1,3.2389555E-2,4.7221664E-1,1.431081E0,1.2357161E0,1.2913627E-2,-7.3731677E-3,6.932974E-4,-6.9639814E-1,3.956338E-3,-2.9272118E-3,-5.4485613E-1,8.5005775E-2,1.4372842E-1,6.931435E-4,2.165063E-3,-4.0076577E-4,1.2574047E-4,1.0648277E-3,1.7574683E-3,4.3560505E-1,4.355862E-1,4.3709236E-1,4.717391E-1,-3.2709967E-3,4.8319983E-1,7.146124E-1,-4.935376E-3,7.975458E-3,1.2532657E0,-1.3395072E-3,-2.2303581E-4,5.7266476E-3,-1.9008149E-1,8.341814E-2,1.4368309E-1,-1.1078611E-2,-2.851853E-3,7.633925E-4,-1.5291125E-4,4.3560505E-1,2.848291E-3,-1.6024768E-3,-2.4409492E-4,4.623594E-1,-1.6542971E-3,-7.383031E-4,2.892569E-4,1.7583583E-3,7.2414964E-1,2.9449835E-3,1.431081E0,-2.1500972E-3,-6.5819744E-4,-1.4526027E-4,-2.5740904E-3,8.422456E-4,2.3379684E-3,2.1353632E-3,3.6134463E-4,3.458038E-4,2.0612956E-3,6.958309E-3,4.2340946E-3,6.727271E-3,5.351305E-4],"split_indices":[2,3,3,2,3,0,2,3,3,0,0,3,3,3,0,3,3,2,2,0,3,3,3,0,2,3,3,0,0,3,2,3,3,3,3,3,3,3,0,2,0,3,3,3,0,3,3,3,3,0,3,0,0,0,0,0,0,0,3,0,0,3,3,0,0,0,0,3,3,3,3,0,3,3,0,3,2,3,0,0,0,3,0,0,3,3,3,0,0,0,0,0,0,2,3,3,3,0,3,3,0,0,3,0,0,0,3,3,3,0,0,0,0,2,0,0,0,3,0,0,0,0,3,0,2,0,0,0,0,0,0,0,0,0,0,0,0,0,0],"split_type":[0,0,0,0,0,0,0,0,0,0,0,0,0,0,0,0,0,0,0,0,0,0,0,0,0,0,0,0,0,0,0,0,0,0,0,0,0,0,0,0,0,0,0,0,0,0,0,0,0,0,0,0,0,0,0,0,0,0,0,0,0,0,0,0,0,0,0,0,0,0,0,0,0,0,0,0,0,0,0,0,0,0,0,0,0,0,0,0,0,0,0,0,0,0,0,0,0,0,0,0,0,0,0,0,0,0,0,0,0,0,0,0,0,0,0,0,0,0,0,0,0,0,0,0,0,0,0,0,0,0,0,0,0,0,0,0,0,0,0],"sum_hessian":[7.3E2,2.57E2,4.73E2,2.48E2,9E0,6E0,4.67E2,1.15E2,1.33E2,8E0,1E0,2.14E2,2.53E2,1.13E2,2E0,6.6E1,6.7E1,2E0,2.12E2,5E0,2.48E2,6.3E1,5E1,2.9E1,3.7E1,5.3E1,1.4E1,1E0,1E0,1.03E2,1.09E2,1.67E2,8.1E1,5.7E1,6E0,3.4E1,1.6E1,9E0,2.8E1,4.9E1,4E0,9E0,5E0,1.02E2,1E0,3.6E1,7.3E1,1.9E1,1.48E2,2E0,7.9E1,3.2E1,2.5E1,2E0,4E0,2.2E1,1.2E1,1E0,1.5E1,6E0,3E0,6E0,4.3E1,3E0,6E0,2E0,3E0,8.3E1,1.9E1,3E0,3.3E1,2E0,7.1E1,1.4E1,5E0,1.4E1,1.34E2,4.3E1,3.6E1,1.4E1,1E0,5E0,1E0,1.7E1,2.6E1,8E1,3E0,1.4E1,5E0,1E0,2E0,2.3E1,1E1,4E0,6.7E1,3E0,1.1E1,4E0,1E1,1.33E2,1E0,2E1,2.3E1,2E0,3E0,1E0,2.5E1,5.5E1,2.5E1,1E0,2E0,2E0,2E0,3.7E1,3E1,2E0,1E0,9E0,2E0,8E0,2E0,7E0,1.26E2,1.4E1,9E0,1.7E1,8E0,4.4E1,1.1E1,2.3E1,2E0,3.2E1,5E0,2E0,7E0,1.4E1,1.12E2,8E0,1E0],"tree_param":{"num_deleted":"0","num_feature":"5","num_nodes":"139","size_leaf_vector":"1"}},{"base_weights":[-1.8153668E-3,-2.867378E-2,9.628448E-3,-1.3603306E-2,-2.4515146E-2,5.2627856E-3,1.7586574E-2,4.3097105E-2,-3.0270012E-2,-1.9409911E-3,7.7751786E-3,1.5527716E-2,1.0019853E-2,-6.257209E-2,-2.2169882E-2,-6.7245793E-3,3.2166907E-5,9.461452E-3,2.6587187E-3,1.7831389E-2,-6.546689E-3,-4.2104572E-2,-1.4410803E-1,-1.9661894E-2,-4.8083305E-2,-3.510777E-3,-4.529021E-3,1.8373352E-3,-7.0713763E-4,7.2035682E-3,2.1944469E-2,-5.478793E-3,6.643533E-3,1.5070913E-2,6.730307E-3,-1.754543E-2,4.2772708E-3,-9.853902E-3,-4.966087E-3,-3.610487E-2,-1.146635E-2,-5.392931E-3,-1.2231122E-2,-2.1282313E-2,-1.860503E-3,-3.7274319E-3,-2.393031E-4,-1.0417603E-3,3.624011E-4,1.2003925E-2,5.5470644E-3,-2.336057E-3,9.81094E-3,1.5680812E-2,-4.6063503E-3,1.3848073E-2,-1.6145715E-2,-2.061612E-3,-4.2658257E-3,-7.6049997E-4,-2.539197E-3,6.1189895E-3,9.839433E-3,-1.4065361E-3,5.9197596E-3,-3.6664806E-5,-1.9581497E-3,1.4610391E-2,6.597171E-3,1.7165992E-2,6.289318E-3,-1.9524898E-2,-1.1851902E-2,-9.6591713E-4,9.322365E-4,-1.7534534E-3,-2.5707507E-3,-1.1106491E-3,5.334138E-4,-8.0855156E-4,-1.3808484E-4,1.2344784E-2,4.3955357E-3,6.22334E-3,-1.4875502E-3,-2.065885E-3,5.7453936E-4,1.1087442E-3,3.1699638E-3,1.4991626E-3,2.251953E-3,1.4572981E-2,5.551068E-3,-3.8231243E-3,1.2312795E-2,-1.4635017E-2,-4.8837704E-3,2.665343E-3,-1.5490985E-2,-7.5483326E-6,3.8547517E-4,-1.8533418E-4,-6.191052E-4,-6.0218787E-5,-1.5565322E-3,-1.694616E-5,2.3596038E-4,3.0010752E-4,3.0918708E-3,3.4165552E-3,2.1038204E-3,5.0029126E-3,2.1233875E-3,2.1116536E-4,-5.2947405E-4,-8.410752E-4,5.8061876E-3,1.775142E-2,-1.0456453E-2,3.371811E-3,1.6561389E-3,-4.5247623E-3,9.1895927E-4,-3.6119695E-3,-1.5114715E-3,-1.5503202E-4,1.7523936E-4,-8.950457E-4,-1.6965407E-4,3.6824038E-4,8.670366E-4,1.1159774E-3,-1.8921783E-3,2.080679E-4,1.2686444E-3,3.822375E-3,1.2250295E-3],"categories":[],"categories_nodes":[],"categories_segments":[],"categories_sizes":[],"default_left":[0,0,0,0,0,0,0,0,0,0,0,0,0,0,0,0,0,0,0,0,0,0,0,0,0,0,0,0,0,0,0,0,0,0,0,0,0,0,0,0,0,0,0,0,0,0,0,0,0,0,0,0,0,0,0,0,0,0,0,0,0,0,0,0,0,0,0,0,0,0,0,0,0,0,0,0,0,0,0,0,0,0,0,0,0,0,0,0,0,0,0,0,0,0,0,0,0,0,0,0,0,0,0,0,0,0,0,0,0,0,0,0,0,0,0,0,0,0,0,0,0,0,0,0,0,0,0,0,0,0,0,0,0,0,0,0,0],"id":18,"left_children":[1,3,5,-1,7,9,11,-1,13,15,17,19,-1,21,23,25,27,29,31,33,35,37,39,41,43,45,-1,-1,47,49,-1,-1,51,53,-1,-1,-1,-1,-1,-1,-1,-1,55,-1,-1,57,-1,59,-1,61,63,65,67,69,-1,-1,71,73,75,77,79,81,-1,-1,83,85,-1,87,89,91,93,95,97,-1,99,-1,101,103,105,-1,-1,107,109,111,-1,113,-1,-1,-1,-1,115,117,-1,-1,119,121,-1,-1,123,-1,-1,-1,-1,125,127,-1,-1,-1,-1,129,-1,131,-1,-1,-1,-1,133,135,-1,-1,-1,-1,-1,-1,-1,-1,-1,-1,-1,-1,-1,-1,-1,-1,-1,-1,-1],"loss_changes":[2.2738585E-1,3.2823384E-2,1.7846245E-2,0E0,2.934233E-1,6.1475504E-3,1.06939785E-2,0E0,4.955578E-2,8.404837E-4,2.1152552E-3,9.132605E-3,0E0,5.2949473E-2,8.702651E-3,1.171297E-3,4.5291055E-4,4.097818E-2,8.148018E-3,5.9293956E-3,4.456944E-2,1.7613508E-3,1.4209598E-3,7.5886883E-3,2.7426414E-2,3.1136442E-6,0E0,0E0,5.6039018E-5,1.3458636E-3,0E0,0E0,1.7239174E-3,3.952503E-3,0E0,0E0,0E0,0E0,0E0,0E0,0E0,0E0,2.743116E-2,0E0,0E0,1.2452365E-6,0E0,1.9723371E-5,0E0,9.466397E-3,7.490176E-4,2.9068344E-4,4.8589613E-4,1.7089061E-3,0E0,0E0,6.544236E-4,8.3586674E-5,6.174701E-5,2.3838009E-5,1.66555E-5,3.4213054E-4,0E0,0E0,6.562313E-4,1.00425365E-4,0E0,4.0659215E-6,8.3383406E-5,2.4311282E-3,3.8373068E-3,2.4249312E-4,3.9863437E-3,0E0,5.937065E-6,0E0,5.478978E-6,1.8547307E-5,4.9946666E-6,0E0,0E0,2.2380671E-4,1.4393654E-4,6.283717E-4,0E0,2.3742607E-5,0E0,0E0,0E0,0E0,2.3244132E-4,2.2893213E-2,0E0,0E0,6.907922E-5,4.0484797E-3,0E0,0E0,4.4034515E-4,0E0,0E0,0E0,0E0,1.0731135E-5,5.028922E-5,0E0,0E0,0E0,0E0,3.323963E-5,0E0,1.0319031E-3,0E0,0E0,0E0,0E0,2.158311E-6,1.2843069E-3,0E0,0E0,0E0,0E0,0E0,0E0,0E0,0E0,0E0,0E0,0E0,0E0,0E0,0E0,0E0,0E0,0E0,0E0,0E0],"parents":[2147483647,0,0,1,1,2,2,4,4,5,5,6,6,8,8,9,9,10,10,11,11,13,13,14,14,15,15,16,16,17,17,18,18,19,19,20,20,21,21,22,22,23,23,24,24,25,25,28,28,29,29,32,32,33,33,42,42,45,45,47,47,49,49,50,50,51,51,52,52,53,53,56,56,57,57,58,58,59,59,60,60,61,61,64,64,65,65,67,67,68,68,69,69,70,70,71,71,72,72,74,74,76,76,77,77,78,78,81,81,82,82,83,83,85,85,90,90,91,91,94,94,95,95,98,98,103,103,104,104,109,109,111,111,116,116,117,117],"right_children":[2,4,6,-1,8,10,12,-1,14,16,18,20,-1,22,24,26,28,30,32,34,36,38,40,42,44,46,-1,-1,48,50,-1,-1,52,54,-1,-1,-1,-1,-1,-1,-1,-1,56,-1,-1,58,-1,60,-1,62,64,66,68,70,-1,-1,72,74,76,78,80,82,-1,-1,84,86,-1,88,90,92,94,96,98,-1,100,-1,102,104,106,-1,-1,108,110,112,-1,114,-1,-1,-1,-1,116,118,-1,-1,120,122,-1,-1,124,-1,-1,-1,-1,126,128,-1,-1,-1,-1,130,-1,132,-1,-1,-1,-1,134,136,-1,-1,-1,-1,-1,-1,-1,-1,-1,-1,-1,-1,-1,-1,-1,-1,-1,-1,-1],"split_conditions":[-5.381026E-1,-2.0795739E0,8.35966E-1,-1.3603306E-2,-2.079386E0,8.330681E-2,1.441339E0,4.3097105E-2,-1.7952429E0,-1.8359376E-1,4.7193497E-1,1.4304582E0,1.0019853E-2,-1.795592E0,-5.4510224E-1,-1.8368533E-1,-1.8341374E-1,4.7185284E-1,4.7221664E-1,1.270016E0,1.4308527E0,-1.808532E0,-1.7955277E0,-1.1647998E0,-5.4485613E-1,-1.8389826E-1,-4.529021E-3,1.8373352E-3,8.098173E-2,1.4372842E-1,2.1944469E-2,-5.478793E-3,6.98791E-1,1.4299649E0,6.730307E-3,-1.754543E-2,4.2772708E-3,-9.853902E-3,-4.966087E-3,-3.610487E-2,-1.146635E-2,-5.392931E-3,-1.1646202E0,-2.1282313E-2,-1.860503E-3,-3.2119197E-1,-2.393031E-4,3.4409404E-2,3.624011E-4,1.4370486E-1,1.4375837E-1,8.396344E-1,7.239181E-1,1.235518E0,-4.6063503E-3,1.3848073E-2,-7.5835466E-1,-5.264864E-1,-2.4941471E-1,-3.8305428E-2,7.037224E-2,8.35234E-2,9.839433E-3,-1.4065361E-3,4.717391E-1,4.8319983E-1,-1.9581497E-3,7.146124E-1,8.396344E-1,1.2310405E0,1.2357161E0,-7.9601634E-1,-7.580638E-1,-9.6591713E-4,-4.7553298E-1,-1.7534534E-3,-1.9008149E-1,-4.007862E-2,-1.6031818E-2,-8.0855156E-4,-1.3808484E-4,8.341814E-2,1.4368309E-1,4.3801853E-1,-1.4875502E-3,4.716316E-1,5.7453936E-4,1.1087442E-3,3.1699638E-3,1.4991626E-3,7.9771507E-1,1.230942E0,5.551068E-3,-3.8231243E-3,1.2349387E0,-1.070676E0,-4.8837704E-3,2.665343E-3,-5.531182E-1,-7.5483326E-6,3.8547517E-4,-1.8533418E-4,-6.191052E-4,-1.6870193E-1,-5.0640494E-2,-1.694616E-5,2.3596038E-4,3.0010752E-4,3.0918708E-3,8.921249E-2,2.1038204E-3,4.3791714E-1,2.1233875E-3,2.1116536E-4,-5.2947405E-4,-8.410752E-4,8.244118E-1,1.2349387E0,-1.0456453E-2,3.371811E-3,1.6561389E-3,-4.5247623E-3,9.1895927E-4,-3.6119695E-3,-1.5114715E-3,-1.5503202E-4,1.7523936E-4,-8.950457E-4,-1.6965407E-4,3.6824038E-4,8.670366E-4,1.1159774E-3,-1.8921783E-3,2.080679E-4,1.2686444E-3,3.822375E-3,1.2250295E-3],"split_indices":[3,3,3,0,3,3,3,0,3,3,3,3,0,3,3,3,3,3,3,3,3,3,3,3,3,3,0,0,3,3,0,0,3,0,0,0,0,0,0,0,0,0,3,0,0,0,0,3,0,3,3,0,3,3,0,0,3,3,3,3,3,3,0,0,3,3,0,3,0,3,3,3,3,0,3,0,3,0,3,0,0,3,3,3,0,0,0,0,0,0,3,3,0,0,0,3,0,0,3,0,0,0,0,3,3,0,0,0,0,3,0,3,0,0,0,0,3,0,0,0,0,0,0,0,0,0,0,0,0,0,0,0,0,0,0,0,0],"split_type":[0,0,0,0,0,0,0,0,0,0,0,0,0,0,0,0,0,0,0,0,0,0,0,0,0,0,0,0,0,0,0,0,0,0,0,0,0,0,0,0,0,0,0,0,0,0,0,0,0,0,0,0,0,0,0,0,0,0,0,0,0,0,0,0,0,0,0,0,0,0,0,0,0,0,0,0,0,0,0,0,0,0,0,0,0,0,0,0,0,0,0,0,0,0,0,0,0,0,0,0,0,0,0,0,0,0,0,0,0,0,0,0,0,0,0,0,0,0,0,0,0,0,0,0,0,0,0,0,0,0,0,0,0,0,0,0,0],"sum_hessian":[7.36E2,2.19E2,5.17E2,1.8E1,2.01E2,3.36E2,1.81E2,3E0,1.98E2,8.7E1,2.49E2,1.73E2,8E0,3.7E1,1.61E2,2.4E1,6.3E1,1.86E2,6.3E1,1.57E2,1.6E1,3.2E1,5E0,1.5E2,1.1E1,2.2E1,2E0,3E0,6E1,1.84E2,2E0,6E0,5.7E1,1.37E2,2E1,3E0,1.3E1,2E1,1.2E1,2E0,3E0,7.3E1,7.7E1,3E0,8E0,1.9E1,3E0,5.4E1,6E0,4.4E1,1.4E2,1.5E1,4.2E1,1.36E2,1E0,2E0,7.5E1,7E0,1.2E1,4.8E1,6E0,4E1,4E0,3E0,1.37E2,1.3E1,2E0,1.4E1,2.8E1,1.16E2,2E1,3.8E1,3.7E1,3E0,4E0,1E0,1.1E1,3.8E1,1E1,2E0,4E0,6E0,3.4E1,1.35E2,2E0,8E0,5E0,3E0,1.1E1,2.2E1,6E0,9.7E1,1.9E1,3E0,1.7E1,2.3E1,1.5E1,4E0,3.3E1,3E0,1E0,4E0,7E0,1.2E1,2.6E1,6E0,4E0,2E0,4E0,3.2E1,2E0,1.09E2,2.6E1,1E0,7E0,2E0,4E0,9.4E1,3E0,5E0,1.2E1,1.6E1,7E0,2.3E1,1E1,7E0,5E0,3E0,2.3E1,1.4E1,1.8E1,1.06E2,3E0,1E0,3E0,8.3E1,1.1E1],"tree_param":{"num_deleted":"0","num_feature":"5","num_nodes":"137","size_leaf_vector":"1"}},{"base_weights":[-6.456216E-4,-1.7346574E-2,6.2856763E-3,-1.0773163E-2,-1.2981385E-2,4.5491606E-3,2.4066078E-2,3.9207816E-2,-1.724517E-2,1.7462923E-3,9.2220055E-3,1.9062694E-2,1.0046768E-2,-1.5018028E-2,-1.8728435E-2,4.050019E-3,-2.1420332E-2,1.278748E-2,-2.3179387E-3,5.5053807E-3,7.422584E-3,-3.1953137E-2,-1.041466E-2,-3.403499E-4,6.398743E-3,-4.9666688E-2,-1.778634E-3,1.3368505E-2,-4.2992593E-3,-1.2885325E-2,7.356112E-3,-5.0085844E-3,3.7338652E-3,-7.7241296E-3,-2.329E-2,4.4481535E-2,-1.6566416E-2,2.6808572E-3,-1.0719894E-3,1.0446216E-2,5.014752E-3,-1.6063476E-3,-1.2654372E-2,-4.6858247E-3,2.1698507E-3,9.942665E-3,2.1719731E-2,1.9833738E-2,-5.2279234E-3,1.9881406E-3,-5.16383E-3,-2.60132E-2,-9.719377E-3,-5.057214E-3,9.86283E-4,4.6259346E-3,3.9057393E-2,4.1966164E-3,8.121813E-3,-1.0732583E-3,-3.4454942E-4,8.391544E-4,3.9222412E-4,2.4387955E-3,8.882943E-3,3.364765E-2,1.6108744E-2,7.711649E-3,2.6937975E-3,-1.1310825E-2,6.1279E-3,-8.613415E-3,-2.1813856E-2,-2.465792E-3,-1.1007626E-2,-1.3667451E-3,-4.0130927E-3,1.6168545E-3,3.619077E-4,3.3994678E-3,2.2721658E-3,8.527509E-3,1.1717653E-3,4.6986328E-3,-1.6651169E-3,1.8844412E-3,4.1567413E-3,-1.3578981E-4,2.1845462E-4,1.004535E-3,2.0253293E-3,1.7617196E-3,7.531053E-3,-2.7344625E-3,1.8148946E-2,-9.718041E-4,1.941123E-3,-1.5632365E-2,-5.2432898E-3,-1.4583588E-2,6.005359E-3,-3.8796954E-3,-8.793543E-3,1.065433E-3,-5.389267E-3,2.3406476E-3,-2.8500534E-4,2.108208E-3,2.0711306E-3,6.061006E-3,1.8699971E-3,-7.1260333E-4,1.2894409E-3,1.1906534E-3,4.186767E-3,-3.9779986E-3,-1.9148525E-3,-1.5613794E-3,-4.460707E-3,-6.1456056E-5,-2.115379E-3,6.871224E-5,3.5977762E-4,-1.6071697E-3,-6.871253E-4,7.833947E-5,1.0267015E-3,-1.5958362E-4,3.5447106E-4,2.857932E-4,5.2167766E-4,7.3374825E-4,1.519013E-3,-5.4799854E-3,1.1889115E-3,-3.6938192E-4,9.88856E-5],"categories":[],"categories_nodes":[],"categories_segments":[],"categories_sizes":[],"default_left":[0,0,0,0,0,0,0,0,0,0,0,0,0,0,0,0,0,0,0,0,0,0,0,0,0,0,0,0,0,0,0,0,0,0,0,0,0,0,0,0,0,0,0,0,0,0,0,0,0,0,0,0,0,0,0,0,0,0,0,0,0,0,0,0,0,0,0,0,0,0,0,0,0,0,0,0,0,0,0,0,0,0,0,0,0,0,0,0,0,0,0,0,0,0,0,0,0,0,0,0,0,0,0,0,0,0,0,0,0,0,0,0,0,0,0,0,0,0,0,0,0,0,0,0,0,0,0,0,0,0,0,0,0,0,0,0,0],"id":19,"left_children":[1,3,5,-1,7,9,11,-1,13,15,17,19,-1,21,-1,23,25,27,29,-1,31,33,35,37,39,41,43,45,-1,-1,47,-1,-1,-1,49,-1,51,-1,53,55,57,-1,-1,59,61,63,65,67,69,-1,-1,71,73,75,77,79,81,83,85,-1,-1,-1,87,-1,89,91,93,-1,-1,-1,95,-1,97,99,101,-1,103,-1,105,107,-1,-1,-1,109,-1,-1,111,-1,-1,-1,-1,-1,-1,-1,113,-1,-1,115,-1,117,-1,-1,119,121,123,125,127,-1,129,131,133,135,-1,-1,-1,-1,-1,-1,-1,-1,-1,-1,-1,-1,-1,-1,-1,-1,-1,-1,-1,-1,-1,-1,-1,-1,-1],"loss_changes":[8.368051E-2,3.239715E-2,1.5558645E-2,0E0,1.7787535E-1,6.0973605E-3,3.976548E-3,0E0,2.951527E-2,1.5917532E-2,7.259722E-3,3.6308542E-3,0E0,1.3912685E-2,0E0,2.788532E-3,1.4803095E-2,3.243992E-3,2.6784088E-2,0E0,8.237692E-3,4.537478E-4,2.2220895E-1,9.94126E-4,8.811224E-4,5.214587E-3,2.2695704E-4,3.3732206E-3,0E0,0E0,6.331115E-3,0E0,0E0,0E0,2.3623193E-3,0E0,9.067345E-3,0E0,7.728247E-4,6.799225E-3,2.750014E-4,0E0,0E0,3.6895508E-6,2.912062E-5,1.7168932E-5,1.3922695E-3,1.344855E-3,1.29329935E-2,0E0,0E0,2.4895966E-3,7.7736937E-4,4.5078923E-6,2.733524E-4,2.3664319E-4,3.323797E-4,7.760227E-4,5.5728597E-5,0E0,0E0,0E0,6.732311E-6,0E0,2.5355024E-4,3.3207424E-4,2.2582985E-3,0E0,0E0,0E0,8.411728E-4,0E0,6.227251E-4,7.175613E-3,1.0521896E-3,0E0,1.8620727E-4,0E0,7.813855E-5,2.8836078E-4,0E0,0E0,0E0,3.9352686E-4,0E0,0E0,1.2071917E-4,0E0,0E0,0E0,0E0,0E0,0E0,0E0,7.0173107E-4,0E0,0E0,3.1555071E-4,0E0,3.318612E-4,0E0,0E0,9.469413E-4,2.4701676E-6,4.819309E-5,7.7625606E-5,5.242497E-5,0E0,3.5856501E-6,2.0850217E-4,4.8577203E-3,8.672043E-6,0E0,0E0,0E0,0E0,0E0,0E0,0E0,0E0,0E0,0E0,0E0,0E0,0E0,0E0,0E0,0E0,0E0,0E0,0E0,0E0,0E0,0E0,0E0,0E0,0E0],"parents":[2147483647,0,0,1,1,2,2,4,4,5,5,6,6,8,8,9,9,10,10,11,11,13,13,15,15,16,16,17,17,18,18,20,20,21,21,22,22,23,23,24,24,25,25,26,26,27,27,30,30,34,34,36,36,38,38,39,39,40,40,43,43,44,44,45,45,46,46,47,47,48,48,51,51,52,52,53,53,54,54,55,55,56,56,57,57,58,58,62,62,64,64,65,65,66,66,70,70,72,72,73,73,74,74,76,76,78,78,79,79,83,83,86,86,94,94,97,97,99,99,102,102,103,103,104,104,105,105,106,106,108,108,109,109,110,110,111,111],"right_children":[2,4,6,-1,8,10,12,-1,14,16,18,20,-1,22,-1,24,26,28,30,-1,32,34,36,38,40,42,44,46,-1,-1,48,-1,-1,-1,50,-1,52,-1,54,56,58,-1,-1,60,62,64,66,68,70,-1,-1,72,74,76,78,80,82,84,86,-1,-1,-1,88,-1,90,92,94,-1,-1,-1,96,-1,98,100,102,-1,104,-1,106,108,-1,-1,-1,110,-1,-1,112,-1,-1,-1,-1,-1,-1,-1,114,-1,-1,116,-1,118,-1,-1,120,122,124,126,128,-1,130,132,134,136,-1,-1,-1,-1,-1,-1,-1,-1,-1,-1,-1,-1,-1,-1,-1,-1,-1,-1,-1,-1,-1,-1,-1,-1,-1],"split_conditions":[-5.4485613E-1,-2.0795739E0,1.2532657E0,-1.0773163E-2,-2.079386E0,5.023516E-1,1.4708271E0,3.9207816E-2,-5.4510224E-1,4.717391E-1,1.230942E0,1.4304582E0,1.0046768E-2,-1.795592E0,-1.8728435E-2,8.341814E-2,4.7197664E-1,1.4299649E0,1.2310405E0,5.5053807E-3,1.4308527E0,-1.890718E0,-1.7955277E0,-5.4457676E-1,1.4375837E-1,4.7185284E-1,4.7774115E-1,8.470141E-1,-4.2992593E-3,-1.2885325E-2,1.235518E0,-5.0085844E-3,3.7338652E-3,-7.7241296E-3,-1.7946E0,4.4481535E-2,-1.1705487E0,2.6808572E-3,-1.8359376E-1,1.4370486E-1,4.3801853E-1,-1.6063476E-3,-1.2654372E-2,4.734706E-1,4.716316E-1,7.239181E-1,1.0222993E0,1.2311183E0,1.2357161E0,1.9881406E-3,-5.16383E-3,-1.7900338E0,-1.1646202E0,-5.264864E-1,-1.8341374E-1,1.4368309E-1,1.4372842E-1,4.3791714E-1,4.716316E-1,-1.0732583E-3,-3.4454942E-4,8.391544E-4,4.8319983E-1,2.4387955E-3,7.537804E-1,8.5868704E-1,8.397285E-1,7.711649E-3,2.6937975E-3,-1.1310825E-2,1.2358589E0,-8.613415E-3,-1.5658969E0,-1.1647998E0,-1.1396676E0,-1.3667451E-3,-3.2119197E-1,1.6168545E-3,-4.007862E-2,8.35234E-2,2.2721658E-3,8.527509E-3,1.1717653E-3,3.9948225E-1,-1.6651169E-3,1.8844412E-3,4.623594E-1,-1.3578981E-4,2.1845462E-4,1.004535E-3,2.0253293E-3,1.7617196E-3,7.531053E-3,-2.7344625E-3,1.200423E0,-9.718041E-4,1.941123E-3,-1.5783881E0,-5.2432898E-3,-1.1650139E0,6.005359E-3,-3.8796954E-3,-7.9601634E-1,-4.7553298E-1,-1.9008149E-1,-1.4349158E-1,8.098173E-2,2.108208E-3,1.3672769E-1,2.9858613E-1,3.994919E-1,4.5275155E-1,1.2894409E-3,1.1906534E-3,4.186767E-3,-3.9779986E-3,-1.9148525E-3,-1.5613794E-3,-4.460707E-3,-6.1456056E-5,-2.115379E-3,6.871224E-5,3.5977762E-4,-1.6071697E-3,-6.871253E-4,7.833947E-5,1.0267015E-3,-1.5958362E-4,3.5447106E-4,2.857932E-4,5.2167766E-4,7.3374825E-4,1.519013E-3,-5.4799854E-3,1.1889115E-3,-3.6938192E-4,9.88856E-5],"split_indices":[3,3,3,0,3,3,3,0,3,3,3,3,0,3,0,3,3,0,3,0,3,3,3,3,3,3,3,3,0,0,3,0,0,0,0,0,3,0,3,3,3,0,0,3,0,3,3,3,3,0,0,3,3,3,3,3,3,3,0,0,0,0,3,0,3,3,0,0,0,0,3,0,3,3,3,0,0,0,0,3,0,0,0,3,0,0,3,0,0,0,0,0,0,0,3,0,0,3,0,3,0,0,3,3,3,3,3,0,3,3,3,3,0,0,0,0,0,0,0,0,0,0,0,0,0,0,0,0,0,0,0,0,0,0,0,0,0],"split_type":[0,0,0,0,0,0,0,0,0,0,0,0,0,0,0,0,0,0,0,0,0,0,0,0,0,0,0,0,0,0,0,0,0,0,0,0,0,0,0,0,0,0,0,0,0,0,0,0,0,0,0,0,0,0,0,0,0,0,0,0,0,0,0,0,0,0,0,0,0,0,0,0,0,0,0,0,0,0,0,0,0,0,0,0,0,0,0,0,0,0,0,0,0,0,0,0,0,0,0,0,0,0,0,0,0,0,0,0,0,0,0,0,0,0,0,0,0,0,0,0,0,0,0,0,0,0,0,0,0,0,0,0,0,0,0,0,0],"sum_hessian":[7.19E2,2.1E2,5.09E2,2E1,1.9E2,4.66E2,4.3E1,2E0,1.88E2,2.93E2,1.73E2,3.9E1,4E0,1.85E2,3E0,2.68E2,2.5E1,1.32E2,4.1E1,2.1E1,1.8E1,3.7E1,1.48E2,9.4E1,1.74E2,9E0,1.6E1,1.31E2,1E0,4E0,3.7E1,4E0,1.4E1,1.7E1,2E1,2E0,1.46E2,3E0,9.1E1,4.1E1,1.33E2,3E0,6E0,9E0,7E0,9.6E1,3.5E1,1.8E1,1.9E1,1E0,1.9E1,5.9E1,8.7E1,3E1,6.1E1,3.6E1,5E0,1.09E2,2.4E1,6E0,3E0,2E0,5E0,2.4E1,7.2E1,8E0,2.7E1,2E0,1.6E1,2E0,1.7E1,8E0,5.1E1,1.4E1,7.3E1,7E0,2.3E1,3E0,5.8E1,3.3E1,3E0,4E0,1E0,1.06E2,3E0,1.6E1,8E0,2E0,3E0,2E1,5.2E1,2E0,6E0,1E0,2.6E1,4E0,1.3E1,2.5E1,2.6E1,1.1E1,3E0,1.2E1,6.1E1,5E0,1.8E1,1.3E1,4.5E1,3E0,3E1,7E1,3.6E1,3E0,5E0,6E0,2E1,1.2E1,1.3E1,8E0,3E0,1.1E1,5E1,4E0,1E0,5E0,1.3E1,9E0,4E0,3.7E1,8E0,1.7E1,1.3E1,3E1,4E1,3E0,3.3E1,1E0,2E0],"tree_param":{"num_deleted":"0","num_feature":"5","num_nodes":"137","size_leaf_vector":"1"}},{"base_weights":[1.0220049E-3,-3.9287813E-2,2.269058E-2,-2.8611971E-2,-8.2478605E-2,5.1534545E-1,1.5303762E-2,-4.8847247E-2,-1.25047E-2,1.1944508E-1,3.1064559E-2,7.55852E-4,2.7318206E-2,-9.148246E-3,-2.6033973E-2,-4.1715023E-3,-3.923715E-3,-4.967215E-3,6.788605E-3,2.6614884E-2,2.5039231E-2,-5.0635595E-4,-1.0145018E-3,-3.0795769E-3,-1.08787315E-2,6.272819E-4,8.283165E-3,2.091148E-2,9.668141E-3,-1.7903092E-3,-1.0323976E-3,3.6682088E-3,1.5285782E-3,1.6647652E-2,2.893158E-2,-1.05909225E-4,-5.481847E-4,5.4200827E-3,1.3085959E-2,7.418836E-3,3.940781E-3,2.9446934E-3,1.8558914E-3],"categories":[],"categories_nodes":[],"categories_segments":[],"categories_sizes":[],"default_left":[0,0,0,0,0,0,0,0,0,0,0,0,0,0,0,0,0,0,0,0,0,0,0,0,0,0,0,0,0,0,0,0,0,0,0,0,0,0,0,0,0,0,0],"id":20,"left_children":[1,3,5,7,-1,9,11,13,15,-1,-1,17,19,-1,-1,-1,21,23,25,-1,27,-1,-1,29,-1,-1,31,33,-1,35,-1,-1,-1,37,39,-1,-1,-1,41,-1,-1,-1,-1],"loss_changes":[6.4202636E-1,1.0000868E0,1.7237412E0,8.091402E-2,0E0,2.0825028E-2,8.263202E-2,1.6129196E-2,1.00858975E-2,0E0,0E0,7.5250245E-3,5.575891E-2,0E0,0E0,0E0,9.104551E-5,1.0114495E-2,5.2663404E-4,0E0,2.2601008E-2,0E0,0E0,2.7684332E-4,0E0,0E0,1.9618776E-4,6.5940917E-3,0E0,8.2190556E-5,0E0,0E0,0E0,4.83793E-3,4.1120164E-3,0E0,0E0,0E0,4.4356473E-4,0E0,0E0,0E0,0E0],"parents":[2147483647,0,0,1,1,2,2,3,3,5,5,6,6,7,7,8,8,11,11,12,12,16,16,17,17,18,18,20,20,23,23,26,26,27,27,29,29,33,33,34,34,38,38],"right_children":[2,4,6,8,-1,10,12,14,16,-1,-1,18,20,-1,-1,-1,22,24,26,-1,28,-1,-1,30,-1,-1,32,34,-1,36,-1,-1,-1,38,40,-1,-1,-1,42,-1,-1,-1,-1],"split_conditions":[-4.3736264E-2,-4.190436E-2,-5.473189E-1,-1.171503E0,-8.2478605E-2,-1.1678396E0,4.6963567E-1,-1.1678396E0,-5.473189E-1,1.1944508E-1,3.1064559E-2,2.958614E-1,2.9714182E-1,-9.148246E-3,-2.6033973E-2,-4.1715023E-3,-3.234726E-1,2.9714182E-1,3.9700794E-1,2.6614884E-2,1.4305179E0,-5.0635595E-4,-1.0145018E-3,1.4209649E-1,-1.08787315E-2,6.272819E-4,3.9812413E-1,1.2305101E0,9.668141E-3,8.1798986E-2,-1.0323976E-3,3.6682088E-3,1.5285782E-3,7.2300094E-1,1.2351762E0,-1.05909225E-4,-5.481847E-4,5.4200827E-3,8.3892787E-1,7.418836E-3,3.940781E-3,2.9446934E-3,1.8558914E-3],"split_indices":[2,1,1,2,0,1,2,1,1,0,0,2,1,0,0,0,1,1,2,0,1,0,0,1,0,0,1,1,0,1,0,0,0,1,1,0,0,0,2,0,0,0,0],"split_type":[0,0,0,0,0,0,0,0,0,0,0,0,0,0,0,0,0,0,0,0,0,0,0,0,0,0,0,0,0,0,0,0,0,0,0,0,0,0,0,0,0,0,0],"sum_hessian":[7.31E2,2.55E2,4.76E2,2.5E2,5E0,5E0,4.71E2,1.09E2,1.41E2,3E0,2E0,2.14E2,2.57E2,1.08E2,1E0,7E1,7.1E1,1.1E2,1.04E2,3E0,2.54E2,3.5E1,3.6E1,1.08E2,2E0,3.2E1,7.2E1,2.19E2,3.5E1,6.9E1,3.9E1,1E0,7.1E1,1.47E2,7.2E1,3.1E1,3.8E1,3.4E1,1.13E2,3.5E1,3.7E1,7.5E1,3.8E1],"tree_param":{"num_deleted":"0","num_feature":"5","num_nodes":"43","size_leaf_vector":"1"}},{"base_weights":[5.114133E-4,-1.1299468E-2,7.1072085E-3,-9.902551E-3,-1.5827993E-2,2.339902E-2,6.3724266E-3,-3.3658355E-2,-7.741397E-3,4.280479E-3,1.5697777E-2,-1.1155396E-2,-2.3774479E-2,2.9772192E-2,-1.0308315E-2,5.319546E-3,-1.9470086E-2,2.7408367E-2,1.1251185E-2,-1.5515975E-2,-7.0238984E-3,-1.2703501E-2,-1.4683852E-3,2.147452E-3,8.948672E-3,1.5200013E-2,1.494919E-2,8.08821E-3,7.029557E-3,-4.0863436E-3,-1.8926669E-3,-1.0154202E-2,-2.4851365E-2,2.4179032E-3,-2.7654397E-3,2.3576964E-3,-2.744192E-3,2.7951656E-2,6.0507995E-3,8.38205E-3,9.382606E-3,1.1887654E-2,-2.0980106E-3,-4.274076E-3,-8.535631E-3,-3.7709754E-3,3.1003873E-3,1.950388E-3,2.1679613E-3,4.985078E-3,2.1727463E-2,-9.145157E-3,7.904882E-3,9.599114E-4,3.5425385E-3,4.8685293E-3,1.7331213E-2,-7.568512E-3,1.0096574E-2,1.2259469E-2,-1.07786E-2,-5.658413E-3,4.4754322E-4,9.11762E-5,3.147381E-3,3.0159706E-2,-3.0057044E-3,-2.1519102E-3,-7.068191E-4,6.4126467E-3,1.1612115E-2,1.906544E-3,1.9278675E-3,4.562433E-3,1.1739217E-2,3.3759277E-3,1.4401384E-3,-8.691098E-3,1.3203454E-2,-1.5057375E-2,-4.3918043E-3,-3.5063082E-3,-2.3552352E-3,5.025789E-4,-1.6288956E-4,1.4139322E-3,-6.9604367E-3,4.3064277E-3,1.5498074E-3,8.944009E-3,-1.8721104E-3,-1.1129061E-3,-1.7201692E-3,6.3576497E-4,6.6861263E-3,2.5660193E-2,4.762075E-3,4.9192907E-4,5.413975E-4,-3.8724542E-3,2.9045327E-3,-7.3788565E-4,-3.8701117E-3,-6.852802E-3,-2.6694643E-3,9.301457E-4,-1.2142285E-3,-8.678833E-4,-6.773658E-5,-3.0593277E-4,2.8309078E-4,-1.547317E-4,7.171032E-4,9.200689E-4,-5.53979E-4,-2.8756368E-3,6.798348E-4,-1.224486E-3,3.6438162E-4,2.0354798E-3,1.1554157E-3,1.6968538E-3,5.900021E-3,-1.1610899E-3,2.0757688E-3,-1.1743704E-4,1.8504461E-4,-9.6079515E-4,-7.185936E-5],"categories":[],"categories_nodes":[],"categories_segments":[],"categories_sizes":[],"default_left":[0,0,0,0,0,0,0,0,0,0,0,0,0,0,0,0,0,0,0,0,0,0,0,0,0,0,0,0,0,0,0,0,0,0,0,0,0,0,0,0,0,0,0,0,0,0,0,0,0,0,0,0,0,0,0,0,0,0,0,0,0,0,0,0,0,0,0,0,0,0,0,0,0,0,0,0,0,0,0,0,0,0,0,0,0,0,0,0,0,0,0,0,0,0,0,0,0,0,0,0,0,0,0,0,0,0,0,0,0,0,0,0,0,0,0,0,0,0,0,0,0,0,0,0,0,0,0,0,0],"id":21,"left_children":[1,3,5,7,-1,-1,9,11,13,15,17,-1,19,-1,21,23,-1,25,27,29,-1,31,33,35,37,39,-1,41,-1,-1,-1,43,-1,-1,45,47,-1,49,51,-1,53,55,57,-1,59,61,-1,63,-1,65,-1,67,69,-1,-1,71,73,-1,75,77,79,81,83,85,87,89,91,-1,-1,93,95,-1,97,-1,99,-1,-1,101,-1,103,105,107,-1,-1,109,111,-1,113,115,-1,-1,117,-1,-1,119,121,123,-1,125,127,-1,-1,-1,-1,-1,-1,-1,-1,-1,-1,-1,-1,-1,-1,-1,-1,-1,-1,-1,-1,-1,-1,-1,-1,-1,-1,-1,-1,-1],"loss_changes":[5.6951288E-2,2.3261711E-2,3.63777E-2,1.2775926E-2,0E0,0E0,8.995425E-3,1.9388366E-3,9.954554E-2,4.1692235E-2,3.809385E-3,0E0,5.9664436E-4,0E0,5.0019342E-3,4.3706354E-3,0E0,1.044183E-2,4.3444186E-3,2.9840972E-5,0E0,5.065611E-2,9.988885E-4,7.553021E-4,9.463885E-3,2.321232E-3,0E0,2.3719994E-3,0E0,0E0,0E0,2.9937048E-3,0E0,0E0,1.0353397E-3,6.694123E-4,0E0,4.153756E-2,4.567988E-3,0E0,5.5534055E-4,1.5124418E-3,8.61018E-3,0E0,7.960338E-3,3.952121E-4,0E0,4.422933E-4,0E0,4.204602E-3,0E0,8.700183E-5,6.310921E-4,0E0,0E0,2.6499206E-4,1.9999314E-4,0E0,5.155406E-5,2.0293884E-2,3.9668903E-3,3.6506448E-4,2.2251537E-5,3.790848E-3,2.1070288E-4,3.714351E-3,1.608942E-4,0E0,0E0,5.035242E-5,3.412344E-3,0E0,9.133408E-6,0E0,8.077447E-4,0E0,0E0,6.036265E-4,0E0,2.0084828E-3,1.013155E-3,7.095194E-5,0E0,0E0,3.668892E-5,3.8084036E-4,0E0,1.6899465E-4,1.6884095E-3,0E0,0E0,2.4283936E-4,0E0,0E0,1.8391386E-4,2.9087625E-4,1.7824573E-3,0E0,4.118806E-6,9.638221E-6,0E0,0E0,0E0,0E0,0E0,0E0,0E0,0E0,0E0,0E0,0E0,0E0,0E0,0E0,0E0,0E0,0E0,0E0,0E0,0E0,0E0,0E0,0E0,0E0,0E0,0E0,0E0,0E0,0E0],"parents":[2147483647,0,0,1,1,2,2,3,3,6,6,7,7,8,8,9,9,10,10,12,12,14,14,15,15,17,17,18,18,19,19,21,21,22,22,23,23,24,24,25,25,27,27,31,31,34,34,35,35,37,37,38,38,40,40,41,41,42,42,44,44,45,45,47,47,49,49,51,51,52,52,55,55,56,56,58,58,59,59,60,60,61,61,62,62,63,63,64,64,65,65,66,66,69,69,70,70,72,72,74,74,77,77,79,79,80,80,81,81,84,84,85,85,87,87,88,88,91,91,94,94,95,95,96,96,98,98,99,99],"right_children":[2,4,6,8,-1,-1,10,12,14,16,18,-1,20,-1,22,24,-1,26,28,30,-1,32,34,36,38,40,-1,42,-1,-1,-1,44,-1,-1,46,48,-1,50,52,-1,54,56,58,-1,60,62,-1,64,-1,66,-1,68,70,-1,-1,72,74,-1,76,78,80,82,84,86,88,90,92,-1,-1,94,96,-1,98,-1,100,-1,-1,102,-1,104,106,108,-1,-1,110,112,-1,114,116,-1,-1,118,-1,-1,120,122,124,-1,126,128,-1,-1,-1,-1,-1,-1,-1,-1,-1,-1,-1,-1,-1,-1,-1,-1,-1,-1,-1,-1,-1,-1,-1,-1,-1,-1,-1,-1,-1],"split_conditions":[-4.190436E-2,7.2414964E-1,-1.795592E0,-2.0795739E0,-1.5827993E-2,2.339902E-2,1.2310405E0,-2.1235738E0,-2.079386E0,1.230942E0,1.2357161E0,-1.1155396E-2,-2.0798173E0,2.9772192E-2,-5.4485613E-1,4.706339E-1,-1.9470086E-2,1.235518E0,1.4708271E0,-2.0911348E0,-7.0238984E-3,-5.4510224E-1,-5.4457676E-1,6.1744994E-1,4.7197664E-1,1.2311183E0,1.494919E-2,1.4304582E0,7.029557E-3,-4.0863436E-3,-1.8926669E-3,-1.808532E0,-2.4851365E-2,2.4179032E-3,-6.844788E-2,4.4345158E-1,-2.744192E-3,4.7185284E-1,5.023516E-1,8.38205E-3,1.23513E0,1.270016E0,1.4308527E0,-4.274076E-3,-1.7955277E0,-1.8341374E-1,3.1003873E-3,1.4372842E-1,2.1679613E-3,1.4372842E-1,2.1727463E-2,4.7774115E-1,8.470141E-1,9.599114E-4,3.5425385E-3,1.2351762E0,1.4305179E0,-7.568512E-3,1.4309762E0,-1.795592E0,-1.1396676E0,-1.8368533E-1,-1.8300524E-1,1.4370486E-1,3.9948225E-1,1.2351762E0,4.717391E-1,-2.1519102E-3,-7.068191E-4,7.214158E-1,1.0222993E0,1.906544E-3,1.2402796E0,4.562433E-3,1.3835181E0,3.3759277E-3,1.4401384E-3,-1.7957151E0,1.3203454E-2,-1.7952429E0,-7.9601634E-1,-1.8599893E-1,-2.3552352E-3,5.025789E-4,-1.6870193E-1,8.098173E-2,-6.9604367E-3,4.3665853E-1,3.994919E-1,8.944009E-3,-1.8721104E-3,4.623594E-1,-1.7201692E-3,6.3576497E-4,7.2414964E-1,8.5868704E-1,1.200423E0,4.9192907E-4,1.2446791E0,1.3394766E0,2.9045327E-3,-7.3788565E-4,-3.8701117E-3,-6.852802E-3,-2.6694643E-3,9.301457E-4,-1.2142285E-3,-8.678833E-4,-6.773658E-5,-3.0593277E-4,2.8309078E-4,-1.547317E-4,7.171032E-4,9.200689E-4,-5.53979E-4,-2.8756368E-3,6.798348E-4,-1.224486E-3,3.6438162E-4,2.0354798E-3,1.1554157E-3,1.6968538E-3,5.900021E-3,-1.1610899E-3,2.0757688E-3,-1.1743704E-4,1.8504461E-4,-9.6079515E-4,-7.185936E-5],"split_indices":[1,3,3,3,0,0,3,3,3,3,3,0,3,0,3,1,0,3,3,3,0,3,3,3,3,3,0,3,0,0,0,3,0,0,3,3,0,3,3,0,3,3,3,0,3,3,0,3,0,3,0,3,3,0,0,1,1,0,3,3,3,3,3,3,3,1,3,0,0,3,3,0,3,0,3,0,0,3,0,3,3,3,0,0,3,3,0,1,3,0,0,3,0,0,3,3,3,0,3,3,0,0,0,0,0,0,0,0,0,0,0,0,0,0,0,0,0,0,0,0,0,0,0,0,0,0,0,0,0],"split_type":[0,0,0,0,0,0,0,0,0,0,0,0,0,0,0,0,0,0,0,0,0,0,0,0,0,0,0,0,0,0,0,0,0,0,0,0,0,0,0,0,0,0,0,0,0,0,0,0,0,0,0,0,0,0,0,0,0,0,0,0,0,0,0,0,0,0,0,0,0,0,0,0,0,0,0,0,0,0,0,0,0,0,0,0,0,0,0,0,0,0,0,0,0,0,0,0,0,0,0,0,0,0,0,0,0,0,0,0,0,0,0,0,0,0,0,0,0,0,0,0,0,0,0,0,0,0,0,0,0],"sum_hessian":[7.27E2,2.6E2,4.67E2,2.57E2,3E0,1E0,4.66E2,1.9E1,2.38E2,3.83E2,8.3E1,3E0,1.6E1,2E0,2.36E2,3.81E2,2E0,2E1,6.3E1,1.2E1,4E0,1.85E2,5.1E1,2.05E2,1.76E2,1.8E1,2E0,5.8E1,