{"learner":{"attributes":{"scikit_learn":"{\"_estimator_type\": \"regressor\"}"},"feature_names":[],"feature_types":[],"gradient_booster":{"model":{"gbtree_model_param":{"num_parallel_tree":"1","num_trees":"100"},"iteration_indptr":[0,1,2,3,4,5,6,7,8,9,10,11,12,13,14,15,16,17,18,19,20,21,22,23,24,25,26,27,28,29,30,31,32,33,34,35,36,37,38,39,40,41,42,43,44,45,46,47,48,49,50,51,52,53,54,55,56,57,58,59,60,61,62,63,64,65,66,67,68,69,70,71,72,73,74,75,76,77,78,79,80,81,82,83,84,85,86,87,88,89,90,91,92,93,94,95,96,97,98,99,100],"tree_info":[0,0,0,0,0,0,0,0,0,0,0,0,0,0,0,0,0,0,0,0,0,0,0,0,0,0,0,0,0,0,0,0,0,0,0,0,0,0,0,0,0,0,0,0,0,0,0,0,0,0,0,0,0,0,0,0,0,0,0,0,0,0,0,0,0,0,0,0,0,0,0,0,0,0,0,0,0,0,0,0,0,0,0,0,0,0,0,0,0,0,0,0,0,0,0,0,0,0,0,0],"trees":[{"base_weights":[8.833931E-4,-1.0647238E0,6.713739E-1,-6.9850855E-2,-6.7098594E-1,2.811757E-1,6.98897E-2,-3.8159456E-2,-2.145555E-2,4.7774453E-2,5.2370185E-1,-8.558744E-2,1.7148624E-1,1.9744525E-2,3.149802E-2,-5.504653E-3,-5.657723E-2,3.838221E-3,2.0764826E-1,-2.0279542E-3,-3.2840767E-3,7.259852E-3,1.1593467E-2],"categories":[],"categories_nodes":[],"categories_segments":[],"categories_sizes":[],"default_left":[0,0,0,0,0,0,0,0,0,0,0,0,0,0,0,0,0,0,0,0,0,0,0],"id":0,"left_children":[1,3,5,-1,7,9,-1,-1,-1,11,13,15,17,-1,-1,-1,19,-1,21,-1,-1,-1,-1],"loss_changes":[5.1799835E2,3.475946E1,1.2534822E2,0E0,2.2888336E0,1.6478884E1,0E0,0E0,0E0,2.5206184E0,1.459755E0,4.0149987E-2,2.3872113E-1,0E0,0E0,0E0,2.1372736E-4,0E0,1.7374039E-2,0E0,0E0,0E0,0E0],"parents":[2147483647,0,0,1,1,2,2,4,4,5,5,9,9,10,10,11,11,12,12,16,16,18,18],"right_children":[2,4,6,-1,8,10,-1,-1,-1,12,14,16,18,-1,-1,-1,20,-1,22,-1,-1,-1,-1],"split_conditions":[-9.9788584E-2,-8.009521E-1,1.2061632E0,-6.9850855E-2,-4.1214347E-1,4.07621E-1,6.98897E-2,-3.8159456E-2,-2.145555E-2,8.4290765E-2,6.024183E-1,-4.719694E-2,1.8944041E-1,1.9744525E-2,3.149802E-2,-5.504653E-3,-4.7196936E-2,3.838221E-3,2.6175117E-1,-2.0279542E-3,-3.2840767E-3,7.259852E-3,1.1593467E-2],"split_indices":[8,8,8,0,8,8,0,0,0,8,8,0,0,0,0,0,0,0,8,0,0,0,0],"split_type":[0,0,0,0,0,0,0,0,0,0,0,0,0,0,0,0,0,0,0,0,0,0,0],"sum_hessian":[7.21E2,2.78E2,4.43E2,1.48E2,1.3E2,2.9E2,1.53E2,9.1E1,3.9E1,1.49E2,1.41E2,7.2E1,7.7E1,6.8E1,7.3E1,3.6E1,3.6E1,2.3E1,5.4E1,1.7E1,1.9E1,1.9E1,3.5E1],"tree_param":{"num_deleted":"0","num_feature":"9","num_nodes":"23","size_leaf_vector":"1"}},{"base_weights":[4.55393E-2,-9.7769666E-1,6.6110843E-1,-6.5944515E-2,-6.3469553E-1,2.9193476E-1,1.3326737E0,-3.593075E-2,-2.043299E-2,6.0183186E-2,5.030736E-1,6.144054E-2,7.888144E-2,-2.8495507E-3,1.6189773E-1,3.7880856E-1,3.0415535E-2,5.268778E-3,1.064369E-2,1.5417242E-2,2.1725472E-2],"categories":[],"categories_nodes":[],"categories_segments":[],"categories_sizes":[],"default_left":[0,0,0,0,0,0,0,0,0,0,0,0,0,0,0,0,0,0,0,0,0],"id":1,"left_children":[1,3,5,-1,7,9,11,-1,-1,13,15,-1,-1,-1,17,19,-1,-1,-1,-1,-1],"loss_changes":[4.5102167E2,2.9806824E1,1.1004401E2,0E0,2.0303574E0,1.4178587E1,1.4257812E-1,0E0,0E0,1.6989365E0,1.5268822E0,0E0,0E0,0E0,1.7411387E-1,2.640915E-2,0E0,0E0,0E0,0E0,0E0],"parents":[2147483647,0,0,1,1,2,2,4,4,5,5,6,6,9,9,10,10,14,14,15,15],"right_children":[2,4,6,-1,8,10,12,-1,-1,14,16,-1,-1,-1,18,20,-1,-1,-1,-1,-1],"split_conditions":[-9.9788584E-2,-8.009521E-1,1.2061632E0,-6.5944515E-2,-4.1214347E-1,4.07621E-1,1.7882234E0,-3.593075E-2,-2.043299E-2,8.4290765E-2,6.024183E-1,6.144054E-2,7.888144E-2,-2.8495507E-3,2.6406273E-1,5.0007784E-1,3.0415535E-2,5.268778E-3,1.064369E-2,1.5417242E-2,2.1725472E-2],"split_indices":[8,8,8,0,8,8,8,0,0,8,8,0,0,0,7,5,0,0,0,0,0],"split_type":[0,0,0,0,0,0,0,0,0,0,0,0,0,0,0,0,0,0,0,0,0],"sum_hessian":[7.12E2,2.67E2,4.45E2,1.31E2,1.36E2,2.89E2,1.56E2,9.6E1,4E1,1.39E2,1.5E2,1.18E2,3.8E1,6.5E1,7.4E1,7.3E1,7.7E1,3.8E1,3.6E1,3.8E1,3.5E1],"tree_param":{"num_deleted":"0","num_feature":"9","num_nodes":"21","size_leaf_vector":"1"}},{"base_weights":[1.4456799E-2,-9.3393904E-1,6.118407E-1,-6.2309112E-2,-6.042668E-1,2.8261152E-1,1.2371297E0,-6.7454606E-1,-3.8226345E-1,7.058569E-2,4.8004746E-1,1.0836245E0,7.0195615E-2,7.160034E-2,-3.45136E-2,-1.7975854E-3,-1.9474236E-2,-2.618637E-2,1.7491034E-1,3.777859E-1,2.9371915E-2,5.5543657E-2,8.802443E-3,-6.44155E-3,1.1214906E-2,2.1631785E-2,-4.9645785E-2,1.3582447E-1,1.0268234E-2,1.9318027E-2,6.8049817E-3,-4.879161E-3,-3.024267E-2,7.0628785E-3,2.0372635E-2,-3.783596E-2,4.6912268E-2,-1.1076959E-3,2.4658716E-3,-1.5017435E-4,-2.571377E-3,1.0359928E-1,-1.6615437E-3,5.929029E-3,9.775895E-4],"categories":[],"categories_nodes":[],"categories_segments":[],"categories_sizes":[],"default_left":[0,0,0,0,0,0,0,0,0,0,0,0,0,0,0,0,0,0,0,0,0,0,0,0,0,0,0,0,0,0,0,0,0,0,0,0,0,0,0,0,0,0,0,0,0],"id":2,"left_children":[1,3,5,-1,7,9,11,13,15,17,19,21,-1,23,-1,-1,-1,25,27,29,-1,-1,-1,-1,-1,-1,31,33,-1,-1,-1,-1,35,-1,37,39,41,-1,-1,-1,-1,43,-1,-1,-1],"loss_changes":[4.192615E2,2.7934189E1,9.276274E1,0E0,1.7154121E0,1.2490686E1,9.512787E-1,1.3426361E0,6.952667E-2,1.4932299E0,1.2583504E0,1.8345871E0,0E0,1.8021476E-1,0E0,0E0,0E0,8.8252544E-1,2.8726578E-2,7.098484E-2,0E0,0E0,0E0,0E0,0E0,0E0,6.4787924E-2,1.7453074E-2,0E0,0E0,0E0,0E0,3.6943953E-2,0E0,7.108838E-3,2.4782777E-2,3.4143835E-2,0E0,0E0,0E0,0E0,3.9963424E-4,0E0,0E0,0E0],"parents":[2147483647,0,0,1,1,2,2,4,4,5,5,6,6,7,7,8,8,9,9,10,10,11,11,13,13,17,17,18,18,19,19,26,26,27,27,32,32,34,34,35,35,36,36,41,41],"right_children":[2,4,6,-1,8,10,12,14,16,18,20,22,-1,24,-1,-1,-1,26,28,30,-1,-1,-1,-1,-1,-1,32,34,-1,-1,-1,-1,36,-1,38,40,42,-1,-1,-1,-1,44,-1,-1,-1],"split_conditions":[-2.6970747E-1,-8.947129E-1,8.1129444E-1,-6.2309112E-2,-5.143215E-1,2.78996E-1,1.4826819E0,-1.3741337E0,-1.5228846E0,1.8216954E-1,5.913586E-1,1.4143866E0,7.0195615E-2,-1.5154477E0,-3.45136E-2,-1.7975854E-3,-1.9474236E-2,-8.042334E-1,2.2516955E-1,7.6410013E-1,2.9371915E-2,5.5543657E-2,8.802443E-3,-6.44155E-3,1.1214906E-2,2.1631785E-2,-9.267526E-2,2.7205053E-1,1.0268234E-2,1.9318027E-2,6.8049817E-3,-4.879161E-3,1.0219542E-2,7.0628785E-3,2.7537164E-1,-4.719694E-2,1.8944038E-1,-1.1076959E-3,2.4658716E-3,-1.5017435E-4,-2.571377E-3,-4.7196936E-2,-1.6615437E-3,5.929029E-3,9.775895E-4],"split_indices":[4,4,4,0,4,4,4,2,0,4,4,0,0,0,0,0,0,2,4,1,0,0,0,0,0,0,1,2,0,0,0,0,4,0,0,0,0,0,0,0,0,0,0,0,0],"split_type":[0,0,0,0,0,0,0,0,0,0,0,0,0,0,0,0,0,0,0,0,0,0,0,0,0,0,0,0,0,0,0,0,0,0,0,0,0,0,0,0,0,0,0,0,0],"sum_hessian":[7.36E2,2.84E2,4.52E2,1.43E2,1.41E2,2.98E2,1.54E2,1.04E2,3.7E1,1.45E2,1.53E2,8.8E1,6.6E1,2E0,1.02E2,1E0,3.6E1,7.6E1,6.9E1,8.3E1,7E1,8.5E1,3E0,1E0,1E0,2E0,7.4E1,3.5E1,3.4E1,7.9E1,4E0,1.9E1,5.5E1,3.3E1,2E0,5.1E1,4E0,1E0,1E0,1.5E1,3.6E1,2E0,2E0,1E0,1E0],"tree_param":{"num_deleted":"0","num_feature":"9","num_nodes":"45","size_leaf_vector":"1"}},{"base_weights":[4.138296E-2,-8.871052E-1,5.8368444E-1,-6.0251445E-2,-5.701765E-1,2.4989605E-1,1.2174518E0,-3.255301E-2,-1.737734E-2,4.8038762E-2,4.4568953E-1,5.6006636E-2,7.18186E-2,-5.241382E-2,1.407207E-1,3.4508166E-1,2.7184924E-2,-8.651461E-2,-4.1199334E-2,3.8687498E-3,8.788405E-3,1.3869165E-2,1.986092E-2,-7.591003E-4,-4.462292E-3,-1.0969298E-3,-2.4728857E-3],"categories":[],"categories_nodes":[],"categories_segments":[],"categories_sizes":[],"default_left":[0,0,0,0,0,0,0,0,0,0,0,0,0,0,0,0,0,0,0,0,0,0,0,0,0,0,0],"id":3,"left_children":[1,3,5,-1,7,9,11,-1,-1,13,15,-1,-1,17,19,21,-1,23,25,-1,-1,-1,-1,-1,-1,-1,-1],"loss_changes":[3.550105E2,2.4823227E1,9.352869E1,0E0,1.9604034E0,1.1576748E1,4.182434E-2,0E0,0E0,1.3833418E0,1.0939674E0,0E0,0E0,2.0405754E-2,1.4374769E-1,5.8472633E-2,0E0,4.073605E-4,7.055551E-3,0E0,0E0,0E0,0E0,0E0,0E0,0E0,0E0],"parents":[2147483647,0,0,1,1,2,2,4,4,5,5,6,6,9,9,10,10,13,13,14,14,15,15,17,17,18,18],"right_children":[2,4,6,-1,8,10,12,-1,-1,14,16,-1,-1,18,20,22,-1,24,26,-1,-1,-1,-1,-1,-1,-1,-1],"split_conditions":[-9.9788584E-2,-8.009521E-1,1.2061632E0,-6.0251445E-2,-4.1214347E-1,4.07621E-1,1.7882234E0,-3.255301E-2,-1.737734E-2,8.4290765E-2,6.024183E-1,5.6006636E-2,7.18186E-2,-9.584754E-2,1.8430793E-1,5.037261E-1,2.7184924E-2,-1.5233672E0,-5.1687546E-2,3.8687498E-3,8.788405E-3,1.3869165E-2,1.986092E-2,-7.591003E-4,-4.462292E-3,-1.0969298E-3,-2.4728857E-3],"split_indices":[8,8,8,0,8,8,8,0,0,8,8,0,0,3,3,3,0,3,3,0,0,0,0,0,0,0,0],"split_type":[0,0,0,0,0,0,0,0,0,0,0,0,0,0,0,0,0,0,0,0,0,0,0,0,0,0,0],"sum_hessian":[7.01E2,2.58E2,4.43E2,1.26E2,1.32E2,2.92E2,1.51E2,9.4E1,3.8E1,1.45E2,1.47E2,1.13E2,3.8E1,7E1,7.5E1,7.7E1,7E1,1.4E1,5.6E1,2.9E1,4.6E1,3.9E1,3.8E1,1E0,1.3E1,1.9E1,3.7E1],"tree_param":{"num_deleted":"0","num_feature":"9","num_nodes":"27","size_leaf_vector":"1"}},{"base_weights":[1.569097E-2,-8.4966785E-1,5.5747783E-1,-5.7166625E-2,-5.5217344E-1,2.4236834E-1,1.1442618E0,-3.1232907E-2,-1.6522748E-2,3.853173E-2,4.2765436E-1,4.9939804E-2,6.3796714E-2,-5.1023375E-2,1.3506058E-1,3.2889485E-1,2.6205206E-2,-4.365153E-3,-3.841282E-2,1.5773457E-3,8.346154E-3,1.313658E-2,1.893067E-2,-8.804419E-4,-2.355582E-3],"categories":[],"categories_nodes":[],"categories_segments":[],"categories_sizes":[],"default_left":[0,0,0,0,0,0,0,0,0,0,0,0,0,0,0,0,0,0,0,0,0,0,0,0,0],"id":4,"left_children":[1,3,5,-1,7,9,11,-1,-1,13,15,-1,-1,17,19,21,-1,-1,23,-1,-1,-1,-1,-1,-1],"loss_changes":[3.2632233E2,2.2150803E1,7.858305E1,0E0,1.7889137E0,1.057987E1,3.0511475E-1,0E0,0E0,1.1894552E0,1.0554733E0,0E0,0E0,2.623339E-2,2.071495E-1,5.7637215E-2,0E0,0E0,8.656137E-3,0E0,0E0,0E0,0E0,0E0,0E0],"parents":[2147483647,0,0,1,1,2,2,4,4,5,5,6,6,9,9,10,10,13,13,14,14,15,15,18,18],"right_children":[2,4,6,-1,8,10,12,-1,-1,14,16,-1,-1,18,20,22,-1,-1,24,-1,-1,-1,-1,-1,-1],"split_conditions":[-9.9788584E-2,-8.009521E-1,1.2061632E0,-5.7166625E-2,-4.1214347E-1,4.07621E-1,1.4709196E0,-3.1232907E-2,-1.6522748E-2,8.4290765E-2,6.024183E-1,4.9939804E-2,6.3796714E-2,-9.1477245E-2,1.8944041E-1,5.097299E-1,2.6205206E-2,-4.365153E-3,-4.719694E-2,1.5773457E-3,8.346154E-3,1.313658E-2,1.893067E-2,-8.804419E-4,-2.355582E-3],"split_indices":[8,8,8,0,8,8,7,0,0,8,8,0,0,0,0,0,0,0,0,0,0,0,0,0,0],"split_type":[0,0,0,0,0,0,0,0,0,0,0,0,0,0,0,0,0,0,0,0,0,0,0,0,0],"sum_hessian":[6.92E2,2.66E2,4.26E2,1.31E2,1.35E2,2.79E2,1.47E2,9.9E1,3.6E1,1.34E2,1.45E2,7.8E1,6.9E1,7E1,6.4E1,7.6E1,6.9E1,1.5E1,5.5E1,1.6E1,4.8E1,3.8E1,3.8E1,1.8E1,3.7E1],"tree_param":{"num_deleted":"0","num_feature":"9","num_nodes":"25","size_leaf_vector":"1"}},{"base_weights":[2.058255E-2,-8.022619E-1,5.301345E-1,-5.4178715E-2,-5.1551676E-1,2.2085148E-1,1.098287E0,-2.9127598E-2,-1.686011E-2,3.713138E-2,4.0919128E-1,4.7185197E-2,6.125327E-2,-5.722897E-2,1.2927301E-1,3.0787674E-1,2.516301E-2,-8.288045E-2,-4.6220418E-2,3.0132562E-3,1.5880491E-1,1.2653464E-2,1.7873485E-2,-6.736961E-4,-4.2557563E-3,-1.2449638E-3,-2.8199726E-3,5.593207E-3,8.760624E-3],"categories":[],"categories_nodes":[],"categories_segments":[],"categories_sizes":[],"default_left":[0,0,0,0,0,0,0,0,0,0,0,0,0,0,0,0,0,0,0,0,0,0,0,0,0,0,0,0,0],"id":5,"left_children":[1,3,5,-1,7,9,11,-1,-1,13,15,-1,-1,17,19,21,-1,23,25,-1,27,-1,-1,-1,-1,-1,-1,-1,-1],"loss_changes":[3.014758E2,2.1065674E1,7.7534515E1,0E0,1.28059E0,1.0004138E1,7.4505615E-1,0E0,0E0,1.3102793E0,1.0529823E0,0E0,0E0,1.3517395E-2,1.3574219E-1,2.0207405E-2,0E0,8.083433E-4,9.5620155E-3,0E0,8.496046E-4,0E0,0E0,0E0,0E0,0E0,0E0,0E0,0E0],"parents":[2147483647,0,0,1,1,2,2,4,4,5,5,6,6,9,9,10,10,13,13,14,14,15,15,17,17,18,18,20,20],"right_children":[2,4,6,-1,8,10,12,-1,-1,14,16,-1,-1,18,20,22,-1,24,26,-1,28,-1,-1,-1,-1,-1,-1,-1,-1],"split_conditions":[-9.9788584E-2,-8.009521E-1,1.2061632E0,-5.4178715E-2,-4.1214347E-1,4.07621E-1,1.4678959E0,-2.9127598E-2,-1.686011E-2,8.4290765E-2,6.024183E-1,4.7185197E-2,6.125327E-2,-9.267526E-2,1.8628055E-1,5.0796473E-1,2.516301E-2,-1.5228328E0,-5.3459663E-2,3.0132562E-3,2.6175117E-1,1.2653464E-2,1.7873485E-2,-6.736961E-4,-4.2557563E-3,-1.2449638E-3,-2.8199726E-3,5.593207E-3,8.760624E-3],"split_indices":[8,8,8,0,8,8,8,0,0,8,8,0,0,1,2,1,0,2,1,0,8,0,0,0,0,0,0,0,0],"split_type":[0,0,0,0,0,0,0,0,0,0,0,0,0,0,0,0,0,0,0,0,0,0,0,0,0,0,0,0,0],"sum_hessian":[7.15E2,2.73E2,4.42E2,1.35E2,1.38E2,2.88E2,1.54E2,9.7E1,4.1E1,1.47E2,1.41E2,7.7E1,7.7E1,7.3E1,7.4E1,7.2E1,6.9E1,1.8E1,5.5E1,2.4E1,5E1,4E1,3.2E1,1E0,1.7E1,2E1,3.5E1,1.7E1,3.3E1],"tree_param":{"num_deleted":"0","num_feature":"9","num_nodes":"29","size_leaf_vector":"1"}},{"base_weights":[2.5073346E-2,-7.4132764E-1,4.8479998E-1,-4.936294E-2,-4.9893516E-1,1.9400683E-1,1.0332237E0,-2.7849287E-2,-1.7545994E-2,5.8817383E-2,4.458204E-1,4.7501493E-2,6.1277658E-2,-2.9507505E-2,1.6507949E-1,1.7178215E-2,2.4372796E-2,-4.1142628E-3,-1.6089715E-2,1.13170885E-1,1.897728E-1,1.8302578E-3,-3.1889904E-2,-9.5252943E-4,5.9246733E-3,1.1073082E-2,7.4964724E-3,-4.4765283E-4,-2.2404431E-3],"categories":[],"categories_nodes":[],"categories_segments":[],"categories_sizes":[],"default_left":[0,0,0,0,0,0,0,0,0,0,0,0,0,0,0,0,0,0,0,0,0,0,0,0,0,0,0,0,0],"id":6,"left_children":[1,3,5,-1,7,9,11,-1,-1,13,15,-1,-1,17,19,-1,-1,-1,21,23,25,-1,27,-1,-1,-1,-1,-1,-1],"loss_changes":[2.480579E2,1.475238E1,6.976934E1,0E0,7.862396E-1,9.819892E0,1.0348511E-1,0E0,0E0,1.8023896E0,9.506035E-2,0E0,0E0,7.241714E-2,6.8562746E-2,0E0,0E0,0E0,7.4769914E-2,2.773881E-2,4.2977333E-3,0E0,1.9347414E-2,0E0,0E0,0E0,0E0,0E0,0E0],"parents":[2147483647,0,0,1,1,2,2,4,4,5,5,6,6,9,9,10,10,13,13,14,14,18,18,19,19,20,20,22,22],"right_children":[2,4,6,-1,8,10,12,-1,-1,14,16,-1,-1,18,20,-1,-1,-1,22,24,26,-1,28,-1,-1,-1,-1,-1,-1],"split_conditions":[-9.559044E-2,-7.97586E-1,1.2119111E0,-4.936294E-2,-4.08316E-1,4.976191E-1,1.5790496E0,-2.7849287E-2,-1.7545994E-2,1.8628055E-1,6.074497E-1,4.7501493E-2,6.1277658E-2,-9.267526E-2,2.7382758E-1,1.7178215E-2,2.4372796E-2,-4.1142628E-3,-5.3459663E-2,8.870736E-2,4.216997E-1,1.8302578E-3,-4.843672E-2,-9.5252943E-4,5.9246733E-3,1.1073082E-2,7.4964724E-3,-4.4765283E-4,-2.2404431E-3],"split_indices":[6,6,6,0,6,6,2,0,0,2,6,0,0,1,1,0,0,0,1,6,1,0,1,0,0,0,0,0,0],"split_type":[0,0,0,0,0,0,0,0,0,0,0,0,0,0,0,0,0,0,0,0,0,0,0,0,0,0,0,0,0],"sum_hessian":[7E2,2.62E2,4.38E2,1.27E2,1.35E2,2.88E2,1.5E2,9.3E1,4.2E1,1.89E2,9.9E1,1.13E2,3.7E1,1.04E2,8.5E1,3.4E1,6.5E1,1.9E1,8.5E1,3.1E1,5.4E1,1.9E1,6.6E1,1E0,3E1,2.5E1,2.9E1,2.5E1,4.1E1],"tree_param":{"num_deleted":"0","num_feature":"9","num_nodes":"29","size_leaf_vector":"1"}},{"base_weights":[2.5921265E-2,-7.396392E-1,4.9507502E-1,-4.9686536E-2,-4.710407E-1,2.1432565E-1,9.959901E-1,-2.6583973E-2,-1.5156082E-2,4.7563992E-2,3.7700915E-1,4.5451883E-2,5.9849884E-2,-4.3811347E-2,1.4142542E-1,1.4087795E-2,2.34846E-2,-7.455475E-2,-2.9920848E-2,8.576479E-4,7.1346276E-3,1.6024783E-4,-3.928141E-3,2.4496063E-4,-2.1024805E-3],"categories":[],"categories_nodes":[],"categories_segments":[],"categories_sizes":[],"default_left":[0,0,0,0,0,0,0,0,0,0,0,0,0,0,0,0,0,0,0,0,0,0,0,0,0],"id":7,"left_children":[1,3,5,-1,7,9,11,-1,-1,13,15,-1,-1,17,19,-1,-1,21,23,-1,-1,-1,-1,-1,-1],"loss_changes":[2.589724E2,1.7763931E1,6.2435394E1,0E0,1.0726624E0,7.8045244E0,6.202698E-1,0E0,0E0,1.2560021E0,1.0242596E0,0E0,0E0,2.7566597E-2,6.442547E-3,0E0,0E0,7.360257E-3,2.3639861E-2,0E0,0E0,0E0,0E0,0E0,0E0],"parents":[2147483647,0,0,1,1,2,2,4,4,5,5,6,6,9,9,10,10,13,13,14,14,17,17,18,18],"right_children":[2,4,6,-1,8,10,12,-1,-1,14,16,-1,-1,18,20,-1,-1,22,24,-1,-1,-1,-1,-1,-1],"split_conditions":[-9.9788584E-2,-8.009521E-1,1.2061632E0,-4.9686536E-2,-4.1214347E-1,4.07621E-1,1.7882234E0,-2.6583973E-2,-1.5156082E-2,8.4290765E-2,6.024183E-1,4.5451883E-2,5.9849884E-2,-9.267526E-2,1.8797736E-1,1.4087795E-2,2.34846E-2,-1.0020403E0,-5.3459663E-2,8.576479E-4,7.1346276E-3,1.6024783E-4,-3.928141E-3,2.4496063E-4,-2.1024805E-3],"split_indices":[8,8,8,0,8,8,8,0,0,8,8,0,0,1,1,0,0,4,1,0,0,0,0,0,0],"split_type":[0,0,0,0,0,0,0,0,0,0,0,0,0,0,0,0,0,0,0,0,0,0,0,0,0],"sum_hessian":[7.17E2,2.72E2,4.45E2,1.37E2,1.35E2,2.87E2,1.58E2,9.6E1,3.9E1,1.43E2,1.44E2,1.18E2,4E1,7.3E1,7E1,7.5E1,6.9E1,2E1,5.3E1,1E0,6.9E1,1E0,1.9E1,1.4E1,3.9E1],"tree_param":{"num_deleted":"0","num_feature":"9","num_nodes":"25","size_leaf_vector":"1"}},{"base_weights":[9.191971E-3,-6.7911E-1,4.483211E-1,-4.578606E-2,-4.478924E-1,1.9606394E-1,9.431723E-1,-2.4868328E-2,-1.4250517E-2,2.9148763E-2,3.513855E-1,4.0813096E-2,5.229904E-2,-1.868968E-2,1.2875815E-1,2.7430958E-1,2.1639895E-2,-3.7583404E-3,-2.0679147E-3,-1.0162327E-3,6.6487207E-3,1.08862175E-2,1.5775217E-2,2.4928171E-3,-1.8441666E-2,-2.885757E-2,-1.5507925E-3,-7.368397E-4,-2.2774495E-3,-5.6263874E-4,2.7505502E-3],"categories":[],"categories_nodes":[],"categories_segments":[],"categories_sizes":[],"default_left":[0,0,0,0,0,0,0,0,0,0,0,0,0,0,0,0,0,0,0,0,0,0,0,0,0,0,0,0,0,0,0],"id":8,"left_children":[1,3,5,-1,7,9,11,-1,-1,13,15,-1,-1,17,19,21,-1,-1,23,-1,-1,-1,-1,-1,25,27,29,-1,-1,-1,-1],"loss_changes":[2.1339536E2,1.42245865E1,5.3431778E1,0E0,8.688469E-1,7.446066E0,1.8429565E-1,0E0,0E0,6.767002E-1,6.97525E-1,0E0,0E0,9.074783E-2,3.431976E-2,5.3757668E-2,0E0,0E0,6.730387E-2,0E0,0E0,0E0,0E0,0E0,1.0466522E-2,7.3782504E-3,1.4957092E-2,0E0,0E0,0E0,0E0],"parents":[2147483647,0,0,1,1,2,2,4,4,5,5,6,6,9,9,10,10,13,13,14,14,15,15,18,18,24,24,25,25,26,26],"right_children":[2,4,6,-1,8,10,12,-1,-1,14,16,-1,-1,18,20,22,-1,-1,24,-1,-1,-1,-1,-1,26,28,30,-1,-1,-1,-1],"split_conditions":[-9.7690515E-2,-7.9926807E-1,1.2090323E0,-4.578606E-2,-6.480589E-1,4.1001868E-1,1.4709196E0,-2.4868328E-2,-1.4250517E-2,1.8430793E-1,6.04931E-1,4.0813096E-2,5.229904E-2,-9.267526E-2,8.649754E-2,5.0796473E-1,2.1639895E-2,-3.7583404E-3,-5.3459663E-2,-1.0162327E-3,6.6487207E-3,1.08862175E-2,1.5775217E-2,2.4928171E-3,9.0427466E-2,-4.843672E-2,1.8797752E-1,-7.368397E-4,-2.2774495E-3,-5.6263874E-4,2.7505502E-3],"split_indices":[7,7,7,0,3,7,7,0,0,3,7,0,0,1,7,1,0,0,1,0,0,0,0,0,3,1,1,0,0,0,0],"split_type":[0,0,0,0,0,0,0,0,0,0,0,0,0,0,0,0,0,0,0,0,0,0,0,0,0,0,0,0,0,0,0],"sum_hessian":[7.02E2,2.73E2,4.29E2,1.32E2,1.41E2,2.86E2,1.43E2,1.05E2,3.6E1,1.39E2,1.47E2,7.2E1,7.1E1,9.5E1,4.4E1,8E1,6.7E1,2E1,7.5E1,1E0,4.3E1,3.9E1,4.1E1,1.7E1,5.8E1,3.5E1,2.3E1,2.1E1,1.4E1,2.1E1,2E0],"tree_param":{"num_deleted":"0","num_feature":"9","num_nodes":"31","size_leaf_vector":"1"}},{"base_weights":[1.8883939E-3,-6.5475285E-1,4.2261097E-1,-4.4252563E-2,-4.2495638E-1,1.8311009E-1,8.926044E-1,-2.3660138E-2,-1.3539772E-2,3.1814877E-2,3.381661E-1,4.096612E-2,5.2676138E-2,-2.2200363E-2,1.15879074E-1,2.5600827E-1,2.0771334E-2,-3.593718E-3,-5.7156063E-3,-1.5920084E-3,1.2492975E-1,1.0443296E-2,1.4897503E-2,2.44474E-3,-2.4373177E-2,4.537947E-3,6.9435686E-3,-7.868411E-4,-2.9177003E-2,-2.0993738E-3,-1.8954724E-2,8.5273106E-4,-1.1146852E-3],"categories":[],"categories_nodes":[],"categories_segments":[],"categories_sizes":[],"default_left":[0,0,0,0,0,0,0,0,0,0,0,0,0,0,0,0,0,0,0,0,0,0,0,0,0,0,0,0,0,0,0,0,0],"id":9,"left_children":[1,3,5,-1,7,9,11,-1,-1,13,15,-1,-1,17,19,21,-1,-1,23,-1,25,-1,-1,-1,27,-1,-1,-1,29,-1,31,-1,-1],"loss_changes":[1.9808202E2,1.406588E1,4.886351E1,0E0,8.1474686E-1,6.828579E0,7.133484E-3,0E0,0E0,6.8625724E-1,7.013416E-1,0E0,0E0,7.53327E-2,8.683616E-2,2.382946E-2,0E0,0E0,7.574406E-2,0E0,1.4705658E-3,0E0,0E0,0E0,1.3635084E-3,0E0,0E0,0E0,2.7297009E-3,0E0,3.4055803E-3,0E0,0E0],"parents":[2147483647,0,0,1,1,2,2,4,4,5,5,6,6,9,9,10,10,13,13,14,14,15,15,18,18,20,20,24,24,28,28,30,30],"right_children":[2,4,6,-1,8,10,12,-1,-1,14,16,-1,-1,18,20,22,-1,-1,24,-1,26,-1,-1,-1,28,-1,-1,-1,30,-1,32,-1,-1],"split_conditions":[-9.7690515E-2,-7.9926807E-1,1.2090323E0,-4.4252563E-2,-4.1022983E-1,4.1001868E-1,1.7914363E0,-2.3660138E-2,-1.3539772E-2,1.8944041E-1,6.04931E-1,4.096612E-2,5.2676138E-2,-9.1477245E-2,8.649754E-2,5.097299E-1,2.0771334E-2,-3.593718E-3,-4.719694E-2,-1.5920084E-3,2.6406273E-1,1.0443296E-2,1.4897503E-2,2.44474E-3,-4.7196936E-2,4.537947E-3,6.9435686E-3,-7.868411E-4,-2.2322997E-2,-2.0993738E-3,1.8944038E-1,8.5273106E-4,-1.1146852E-3],"split_indices":[7,7,7,0,7,7,7,0,0,0,7,0,0,0,7,0,0,0,0,0,7,0,0,0,0,0,0,0,3,0,0,0,0],"split_type":[0,0,0,0,0,0,0,0,0,0,0,0,0,0,0,0,0,0,0,0,0,0,0,0,0,0,0,0,0,0,0,0,0],"sum_hessian":[7.13E2,2.78E2,4.35E2,1.36E2,1.42E2,2.9E2,1.45E2,1.05E2,3.7E1,1.48E2,1.42E2,1.08E2,3.7E1,9.1E1,5.7E1,7.3E1,6.9E1,2.1E1,7E1,3E0,5.4E1,4E1,3.3E1,1.7E1,5.3E1,2E1,3.4E1,2.2E1,3.1E1,1.1E1,2E1,1E0,1.9E1],"tree_param":{"num_deleted":"0","num_feature":"9","num_nodes":"33","size_leaf_vector":"1"}},{"base_weights":[1.38971815E-2,-6.2018365E-1,4.0538535E-1,-4.1451607E-2,-4.052861E-1,1.8444602E-1,8.431962E-1,-2.2135207E-2,-1.40618775E-2,3.175365E-2,3.236614E-1,3.8919393E-2,5.1170077E-2,-2.5117965E-2,1.1897371E-1,2.4727242E-1,1.9774674E-2,-3.3925578E-3,-1.2801301E-2,-1.5442482E-3,1.2862176E-1,9.896454E-3,1.4274286E-2,1.5246219E-3,-3.012612E-2,4.318708E-3,7.357493E-3,-1.7022552E-3,-1.0642592E-3],"categories":[],"categories_nodes":[],"categories_segments":[],"categories_sizes":[],"default_left":[0,0,0,0,0,0,0,0,0,0,0,0,0,0,0,0,0,0,0,0,0,0,0,0,0,0,0,0,0],"id":10,"left_children":[1,3,5,-1,7,9,11,-1,-1,13,15,-1,-1,17,19,21,-1,-1,23,-1,25,-1,-1,-1,27,-1,-1,-1,-1],"loss_changes":[1.7426743E2,1.1356125E1,4.166961E1,0E0,3.8225555E-1,6.165267E0,1.0021973E-1,0E0,0E0,7.0538557E-1,6.384611E-1,0E0,0E0,4.405358E-2,8.891213E-2,3.5948277E-2,0E0,0E0,5.4341175E-2,0E0,1.606679E-2,0E0,0E0,0E0,3.1771138E-4,0E0,0E0,0E0,0E0],"parents":[2147483647,0,0,1,1,2,2,4,4,5,5,6,6,9,9,10,10,13,13,14,14,15,15,18,18,20,20,24,24],"right_children":[2,4,6,-1,8,10,12,-1,-1,14,16,-1,-1,18,20,22,-1,-1,24,-1,26,-1,-1,-1,28,-1,-1,-1,-1],"split_conditions":[-9.7690515E-2,-7.9926807E-1,1.2090323E0,-4.1451607E-2,-4.1022983E-1,4.1001868E-1,1.794662E0,-2.2135207E-2,-1.40618775E-2,1.8944041E-1,6.04931E-1,3.8919393E-2,5.1170077E-2,-9.267526E-2,8.649754E-2,5.097299E-1,1.9774674E-2,-3.3925578E-3,-4.719694E-2,-1.5442482E-3,2.6406273E-1,9.896454E-3,1.4274286E-2,1.5246219E-3,8.358542E-2,4.318708E-3,7.357493E-3,-1.7022552E-3,-1.0642592E-3],"split_indices":[7,7,7,0,7,7,6,0,0,0,7,0,0,1,7,0,0,0,0,0,7,0,0,0,0,0,0,0,0],"split_type":[0,0,0,0,0,0,0,0,0,0,0,0,0,0,0,0,0,0,0,0,0,0,0,0,0,0,0,0,0],"sum_hessian":[6.98E2,2.66E2,4.32E2,1.32E2,1.34E2,2.89E2,1.43E2,9.9E1,3.5E1,1.39E2,1.5E2,1.13E2,3E1,8.5E1,5.4E1,7.7E1,7.3E1,1.7E1,6.8E1,3E0,5.1E1,3.9E1,3.8E1,1.9E1,4.9E1,1.9E1,3.2E1,3E1,1.9E1],"tree_param":{"num_deleted":"0","num_feature":"9","num_nodes":"29","size_leaf_vector":"1"}},{"base_weights":[-6.628249E-4,-5.9704036E-1,3.8349327E-1,-4.0542215E-2,-3.8672525E-1,1.2638243E-1,7.420821E-1,-2.2123387E-2,-1.1248599E-2,-1.0529171E-2,2.3270202E-1,5.499414E-1,4.3154415E-2,-4.5607712E-2,6.106732E-2,1.5979648E-1,1.4830299E-2,2.2063283E-2,3.142016E-2,2.349081E-3,-4.799941E-2,2.0736952E-3,7.73263E-2,8.170912E-3,7.8061037E-4,-3.2157246E-3,-4.1343912E-2,4.1206134E-3,8.523889E-4,-1.1689817E-3,-2.388821E-3],"categories":[],"categories_nodes":[],"categories_segments":[],"categories_sizes":[],"default_left":[0,0,0,0,0,0,0,0,0,0,0,0,0,0,0,0,0,0,0,0,0,0,0,0,0,0,0,0,0,0,0],"id":11,"left_children":[1,3,5,-1,7,9,11,-1,-1,13,15,17,-1,19,21,23,-1,-1,-1,-1,25,-1,27,-1,-1,-1,29,-1,-1,-1,-1],"loss_changes":[1.6724422E2,1.2233185E1,4.0747932E1,0E0,1.1353607E0,3.8041172E0,3.3519897E0,0E0,0E0,2.9690433E-1,5.9007263E-1,1.0198593E-1,0E0,2.200441E-2,6.01016E-3,3.3017874E-2,0E0,0E0,0E0,0E0,3.1515956E-3,0E0,3.015019E-3,0E0,0E0,0E0,4.814893E-3,0E0,0E0,0E0,0E0],"parents":[2147483647,0,0,1,1,2,2,4,4,5,5,6,6,9,9,10,10,11,11,13,13,14,14,15,15,20,20,22,22,26,26],"right_children":[2,4,6,-1,8,10,12,-1,-1,14,16,18,-1,20,22,24,-1,-1,-1,-1,26,-1,28,-1,-1,-1,30,-1,-1,-1,-1],"split_conditions":[-9.9788584E-2,-8.009521E-1,7.517266E-1,-4.0542215E-2,-4.1214347E-1,2.6175117E-1,1.3461468E0,-2.2123387E-2,-1.1248599E-2,8.4290765E-2,4.9271783E-1,1.2061632E0,4.3154415E-2,-1.5006185E0,1.8944041E-1,1.4876941E0,1.4830299E-2,2.2063283E-2,3.142016E-2,2.349081E-3,-9.1477245E-2,2.0736952E-3,6.207075E-1,8.170912E-3,7.8061037E-4,-3.2157246E-3,-4.719694E-2,4.1206134E-3,8.523889E-4,-1.1689817E-3,-2.388821E-3],"split_indices":[8,8,8,0,8,8,8,0,0,8,8,8,0,6,0,0,0,0,0,0,0,0,0,0,0,0,0,0,0,0,0],"split_type":[0,0,0,0,0,0,0,0,0,0,0,0,0,0,0,0,0,0,0,0,0,0,0,0,0,0,0,0,0,0,0],"sum_hessian":[7.26E2,2.84E2,4.42E2,1.38E2,1.46E2,2.59E2,1.83E2,1.06E2,4E1,1.14E2,1.45E2,7.5E1,1.08E2,7.7E1,3.7E1,7.1E1,7.4E1,3.7E1,3.8E1,1E0,7.6E1,2E1,1.7E1,6.9E1,2E0,1.7E1,5.9E1,1.5E1,2E0,1.8E1,4.1E1],"tree_param":{"num_deleted":"0","num_feature":"9","num_nodes":"31","size_leaf_vector":"1"}},{"base_weights":[1.7530465E-2,-5.5390024E-1,3.7975445E-1,-3.8421143E-2,-3.7442946E-1,1.6092025E-1,7.456579E-1,1.5817232E-1,-3.8727608E-1,3.3875234E-2,2.9418924E-1,5.9010535E-1,4.018464E-2,-1.1027639E-3,1.0712842E-2,-4.424371E-1,-2.3071931E-1,-3.4338474E-2,9.481899E-2,1.3036615E-2,1.8937904E-2,3.0293182E-2,5.100693E-3,-3.4133089E-3,-2.2232903E-2,1.5075432E-2,-1.2887448E-2,-2.9419009E-3,-2.640811E-2,6.5989785E-2,6.1192266E-3,-5.907446E-4,-1.6157409E-3,3.4820873E-3,-1.3348128E-3],"categories":[],"categories_nodes":[],"categories_segments":[],"categories_sizes":[],"default_left":[0,0,0,0,0,0,0,0,0,0,0,0,0,0,0,0,0,0,0,0,0,0,0,0,0,0,0,0,0,0,0,0,0,0,0],"id":12,"left_children":[1,3,5,-1,7,9,11,13,15,17,19,21,-1,-1,-1,23,25,27,29,-1,-1,-1,-1,-1,-1,-1,-1,-1,31,33,-1,-1,-1,-1,-1],"loss_changes":[1.4510384E2,9.896698E0,3.411099E1,0E0,1.1625175E0,4.568413E0,4.9586487E-1,5.9990883E-2,1.0825806E0,5.92677E-1,1.7597389E-1,2.6865196E-1,0E0,0E0,0E0,2.9039383E-2,7.7402234E-1,1.0104135E-2,4.34497E-2,0E0,0E0,0E0,0E0,0E0,0E0,0E0,0E0,0E0,3.977295E-3,1.7596275E-2,0E0,0E0,0E0,0E0,0E0],"parents":[2147483647,0,0,1,1,2,2,4,4,5,5,6,6,7,7,8,8,9,9,10,10,11,11,15,15,16,16,17,17,18,18,28,28,29,29],"right_children":[2,4,6,-1,8,10,12,14,16,18,20,22,-1,-1,-1,24,26,28,30,-1,-1,-1,-1,-1,-1,-1,-1,-1,32,34,-1,-1,-1,-1,-1],"split_conditions":[-1.2240202E-1,-1.2952495E0,8.1129444E-1,-3.8421143E-2,-1.374795E0,4.1001868E-1,1.3340489E0,-1.2122914E0,-5.143215E-1,1.0219542E-2,7.5432754E-1,1.2293992E0,4.018464E-2,-1.1027639E-3,1.0712842E-2,-1.3596225E0,-8.0537426E-1,-9.584754E-2,2.6780403E-1,1.3036615E-2,1.8937904E-2,3.0293182E-2,5.100693E-3,-3.4133089E-3,-2.2232903E-2,1.5075432E-2,-1.2887448E-2,-2.9419009E-3,-5.1687546E-2,2.686981E-1,6.1192266E-3,-5.907446E-4,-1.6157409E-3,3.4820873E-3,-1.3348128E-3],"split_indices":[4,4,4,0,3,7,4,4,4,4,7,3,0,0,0,5,3,3,4,0,0,0,0,0,0,0,0,0,3,5,0,0,0,0,0],"split_type":[0,0,0,0,0,0,0,0,0,0,0,0,0,0,0,0,0,0,0,0,0,0,0,0,0,0,0,0,0,0,0,0,0,0,0],"sum_hessian":[6.97E2,2.7E2,4.27E2,1.2E2,1.5E2,2.69E2,1.58E2,3E0,1.47E2,1.39E2,1.3E2,4.9E1,1.09E2,1E0,2E0,1.06E2,4.1E1,6.6E1,7.3E1,9.9E1,3.1E1,4.7E1,2E0,1E0,1.05E2,1E0,4E1,1.3E1,5.3E1,3.9E1,3.4E1,1.7E1,3.6E1,3.8E1,1E0],"tree_param":{"num_deleted":"0","num_feature":"9","num_nodes":"35","size_leaf_vector":"1"}},{"base_weights":[9.199463E-3,-5.376514E-1,3.4421006E-1,-3.6676433E-2,-3.4516528E-1,1.6182825E-1,7.1532714E-1,5.4070286E-2,-3.601961E-1,2.5148097E-2,2.8394485E-1,6.583093E-1,4.4221815E-2,1.0445021E-2,-4.5710974E-3,-2.184027E-2,-2.7791622E-1,-5.426617E-2,9.400688E-2,2.4077679E-1,3.448219E-1,3.322456E-2,-1.2889763E-3,-3.4071356E-3,-1.4095291E-2,-8.529374E-2,-2.0223808E-2,3.3251438E-3,6.1964137E-3,1.2392241E-2,4.5073602E-2,1.7444225E-2,1.549014E-3,-2.9663595E-3,-5.0067133E-3,-2.9032668E-2,4.8014387E-3,2.9344757E-3,-3.8343223E-4,-9.082335E-4,-1.8639297E-3],"categories":[],"categories_nodes":[],"categories_segments":[],"categories_sizes":[],"default_left":[0,0,0,0,0,0,0,0,0,0,0,0,0,0,0,0,0,0,0,0,0,0,0,0,0,0,0,0,0,0,0,0,0,0,0,0,0,0,0,0,0],"id":13,"left_children":[1,3,5,-1,7,9,11,13,15,17,19,21,-1,-1,-1,-1,23,25,27,29,31,-1,-1,-1,-1,33,35,-1,-1,-1,37,-1,-1,-1,-1,39,-1,-1,-1,-1,-1],"loss_changes":[1.3502275E2,1.0050644E1,3.0700523E1,0E0,9.090748E-1,5.1432123E0,2.8186798E-1,1.9588225E-1,6.396866E-1,8.195215E-1,2.623043E-1,5.417404E-1,0E0,0E0,0E0,0E0,2.267456E-2,7.048766E-2,4.935348E-2,1.1874771E-1,5.870819E-2,0E0,0E0,0E0,0E0,1.9915104E-3,4.2441837E-2,0E0,0E0,0E0,5.2089384E-3,0E0,0E0,0E0,0E0,1.7822795E-3,0E0,0E0,0E0,0E0,0E0],"parents":[2147483647,0,0,1,1,2,2,4,4,5,5,6,6,7,7,8,8,9,9,10,10,11,11,16,16,17,17,18,18,19,19,20,20,25,25,26,26,30,30,35,35],"right_children":[2,4,6,-1,8,10,12,14,16,18,20,22,-1,-1,-1,-1,24,26,28,30,32,-1,-1,-1,-1,34,36,-1,-1,-1,38,-1,-1,-1,-1,40,-1,-1,-1,-1,-1],"split_conditions":[-1.2240202E-1,-1.146767E0,1.2090323E0,-3.6676433E-2,-1.3738985E0,2.78996E-1,1.757622E0,-1.2979445E0,-6.6428673E-1,8.649754E-2,6.122801E-1,1.7673975E0,4.4221815E-2,1.0445021E-2,-4.5710974E-3,-2.184027E-2,-1.13001E0,-5.3459663E-2,2.6406273E-1,7.595499E-1,1.7673975E0,3.322456E-2,-1.2889763E-3,-3.4071356E-3,-1.4095291E-2,-9.267526E-2,1.0219542E-2,3.3251438E-3,6.1964137E-3,1.2392241E-2,5.913586E-1,1.7444225E-2,1.549014E-3,-2.9663595E-3,-5.0067133E-3,-4.843672E-2,4.8014387E-3,2.9344757E-3,-3.8343223E-4,-9.082335E-4,-1.8639297E-3],"split_indices":[4,4,7,0,1,4,4,7,7,7,4,1,0,0,0,0,1,1,7,5,1,0,0,0,0,1,4,0,0,0,4,0,0,0,0,1,0,0,0,0,0],"split_type":[0,0,0,0,0,0,0,0,0,0,0,0,0,0,0,0,0,0,0,0,0,0,0,0,0,0,0,0,0,0,0,0,0,0,0,0,0,0,0,0,0],"sum_hessian":[7.33E2,2.78E2,4.55E2,1.35E2,1.43E2,3.07E2,1.48E2,5E0,1.38E2,1.46E2,1.61E2,1.18E2,3E1,2E0,3E0,6.7E1,7.1E1,6.8E1,7.8E1,1E2,6.1E1,1.17E2,1E0,2E0,6.9E1,3.4E1,3.4E1,4.4E1,3.4E1,9.6E1,4E0,6E1,1E0,1.6E1,1.8E1,3.3E1,1E0,3E0,1E0,1.7E1,1.6E1],"tree_param":{"num_deleted":"0","num_feature":"9","num_nodes":"41","size_leaf_vector":"1"}},{"base_weights":[2.1407593E-3,-5.217314E-1,3.2386982E-1,-3.464781E-2,-3.3077765E-1,1.4123204E-1,6.986648E-1,-2.0089498E-2,-2.5316948E-1,2.216188E-2,2.6080725E-1,3.1549346E-2,4.292227E-2,-4.7311038E-4,-1.2826222E-2,-3.8429376E-2,8.2967184E-2,1.5954922E-1,2.9535562E-1,1.9572983E-3,-4.0480264E-2,1.2129273E-3,1.003506E-1,9.652073E-3,5.7547754E-3,1.2899959E-2,1.8231016E-2,-2.7706241E-3,-3.393535E-2,1.0344534E-1,-1.2674932E-3,-7.006402E-4,-2.1099928E-3,3.5838403E-3,5.7216007E-3],"categories":[],"categories_nodes":[],"categories_segments":[],"categories_sizes":[],"default_left":[0,0,0,0,0,0,0,0,0,0,0,0,0,0,0,0,0,0,0,0,0,0,0,0,0,0,0,0,0,0,0,0,0,0,0],"id":14,"left_children":[1,3,5,-1,7,9,11,-1,13,15,17,-1,-1,-1,-1,19,21,23,25,-1,27,-1,29,-1,-1,-1,-1,-1,31,33,-1,-1,-1,-1,-1],"loss_changes":[1.191621E2,8.3368E0,2.9784504E1,0E0,5.185175E-1,4.2170787E0,4.630127E-1,0E0,5.074358E-2,5.627015E-1,4.2350006E-1,0E0,0E0,0E0,0E0,1.5419833E-2,7.269359E-2,1.8095493E-2,9.130478E-2,0E0,3.666602E-3,0E0,2.7807295E-2,0E0,0E0,0E0,0E0,0E0,8.367024E-3,3.490448E-3,0E0,0E0,0E0,0E0,0E0],"parents":[2147483647,0,0,1,1,2,2,4,4,5,5,6,6,8,8,9,9,10,10,15,15,16,16,17,17,18,18,20,20,22,22,28,28,29,29],"right_children":[2,4,6,-1,8,10,12,-1,14,16,18,-1,-1,-1,-1,20,22,24,26,-1,28,-1,30,-1,-1,-1,-1,-1,32,34,-1,-1,-1,-1,-1],"split_conditions":[-9.9788584E-2,-8.009521E-1,1.2061632E0,-3.464781E-2,-6.6605043E-1,4.07621E-1,1.7882234E0,-2.0089498E-2,-1.5159491E0,8.4290765E-2,4.9271783E-1,3.1549346E-2,4.292227E-2,-4.7311038E-4,-1.2826222E-2,-1.5228328E0,1.8628055E-1,4.197847E-1,7.517266E-1,1.9572983E-3,-9.411004E-2,1.2129273E-3,1.4790334E0,9.652073E-3,5.7547754E-3,1.2899959E-2,1.8231016E-2,-2.7706241E-3,-5.493106E-2,2.6175117E-1,-1.2674932E-3,-7.006402E-4,-2.1099928E-3,3.5838403E-3,5.7216007E-3],"split_indices":[8,8,8,0,8,8,8,0,3,8,8,0,0,0,0,2,2,2,8,0,2,0,3,0,0,0,0,0,2,8,0,0,0,0,0],"split_type":[0,0,0,0,0,0,0,0,0,0,0,0,0,0,0,0,0,0,0,0,0,0,0,0,0,0,0,0,0,0,0,0,0,0,0],"sum_hessian":[7.03E2,2.67E2,4.36E2,1.38E2,1.29E2,2.95E2,1.41E2,6.3E1,6.6E1,1.49E2,1.46E2,1.06E2,3.5E1,1E0,6.5E1,7.5E1,7.4E1,4E1,1.06E2,1E0,7.4E1,1.8E1,5.6E1,1.9E1,2.1E1,7.5E1,3.1E1,1.8E1,5.6E1,5.5E1,1E0,1.8E1,3.8E1,1.8E1,3.7E1],"tree_param":{"num_deleted":"0","num_feature":"9","num_nodes":"35","size_leaf_vector":"1"}},{"base_weights":[-1.4607472E-2,-5.118835E-1,3.1543928E-1,-6.7499363E-1,-3.167885E-1,1.317343E-1,6.7596453E-1,-3.723466E-2,-2.9193139E-2,-1.7880851E-2,-1.9899502E-1,2.2387305E-2,2.5883213E-1,2.9932842E-2,4.1575056E-2,-4.652252E-4,-1.0174858E-2,-3.3502284E-2,8.13246E-2,2.0682503E-1,1.5585843E-2,1.9246767E-3,-3.534158E-2,1.8133782E-3,9.692572E-2,1.0409058E-2,1.8197292E-3,-2.6922438E-3,-2.7509522E-2,1.00047685E-1,-1.2463684E-3,-1.0271193E-3,-1.8996431E-3,3.4917016E-3,5.4944423E-3],"categories":[],"categories_nodes":[],"categories_segments":[],"categories_sizes":[],"default_left":[0,0,0,0,0,0,0,0,0,0,0,0,0,0,0,0,0,0,0,0,0,0,0,0,0,0,0,0,0,0,0,0,0,0,0],"id":15,"left_children":[1,3,5,7,9,11,13,-1,-1,-1,15,17,19,-1,-1,-1,-1,21,23,25,-1,-1,27,-1,29,-1,-1,-1,31,33,-1,-1,-1,-1,-1],"loss_changes":[1.1767184E2,8.673431E0,2.836716E1,1.0857391E-1,5.021219E-1,3.9909668E0,7.4793243E-1,0E0,0E0,0E0,2.9519677E-2,5.226042E-1,2.3685932E-1,0E0,0E0,0E0,0E0,1.3579406E-2,4.7095895E-2,1.718998E-3,0E0,0E0,8.7759495E-3,0E0,2.629143E-2,0E0,0E0,0E0,2.894435E-3,1.00559E-3,0E0,0E0,0E0,0E0,0E0],"parents":[2147483647,0,0,1,1,2,2,3,3,4,4,5,5,6,6,10,10,11,11,12,12,17,17,18,18,19,19,22,22,24,24,28,28,29,29],"right_children":[2,4,6,8,10,12,14,-1,-1,-1,16,18,20,-1,-1,-1,-1,22,24,26,-1,-1,28,-1,30,-1,-1,-1,32,34,-1,-1,-1,-1,-1],"split_conditions":[-9.9788584E-2,-8.009521E-1,1.2061632E0,-1.3636621E0,-4.1214347E-1,4.07621E-1,1.7882234E0,-3.723466E-2,-2.9193139E-2,-1.7880851E-2,-1.5159491E0,8.4290765E-2,6.024183E-1,2.9932842E-2,4.1575056E-2,-4.652252E-4,-1.0174858E-2,-1.5233672E0,1.8944041E-1,1.3457304E0,1.5585843E-2,1.9246767E-3,-9.1477245E-2,1.8133782E-3,9.0378165E-1,1.0409058E-2,1.8197292E-3,-2.6922438E-3,-4.7196936E-2,2.6780403E-1,-1.2463684E-3,-1.0271193E-3,-1.8996431E-3,3.4917016E-3,5.4944423E-3],"split_indices":[8,8,8,8,8,8,8,0,0,0,3,8,8,0,0,0,0,3,0,3,0,0,0,0,3,0,0,0,0,4,0,0,0,0,0],"split_type":[0,0,0,0,0,0,0,0,0,0,0,0,0,0,0,0,0,0,0,0,0,0,0,0,0,0,0,0,0,0,0,0,0,0,0],"sum_hessian":[7.13E2,2.84E2,4.29E2,1.52E2,1.32E2,2.86E2,1.43E2,7.8E1,7.4E1,9.5E1,3.7E1,1.55E2,1.31E2,1.02E2,4.1E1,1E0,3.6E1,8E1,7.5E1,7.1E1,6E1,1E0,7.9E1,2.1E1,5.4E1,7E1,1E0,2E1,5.9E1,5.3E1,1E0,3.9E1,2E1,1.7E1,3.6E1],"tree_param":{"num_deleted":"0","num_feature":"9","num_nodes":"35","size_leaf_vector":"1"}},{"base_weights":[5.0670314E-3,-4.741252E-1,3.0127195E-1,-6.3701934E-1,-3.0186313E-1,1.3533676E-1,6.3017213E-1,-3.5154812E-2,-2.7300483E-2,-1.6836435E-2,-1.903727E-1,2.0844601E-2,2.5189596E-1,2.8587187E-2,3.8928147E-2,-4.5747161E-4,-9.744919E-3,-3.700219E-2,7.593204E-2,2.1857567E-1,1.6605208E-2,1.8925987E-3,-1.9518379E-3,2.516451E-3,9.895408E-2,1.0980271E-2,1.7894006E-3,5.1746643E-3,-1.2255957E-3],"categories":[],"categories_nodes":[],"categories_segments":[],"categories_sizes":[],"default_left":[0,0,0,0,0,0,0,0,0,0,0,0,0,0,0,0,0,0,0,0,0,0,0,0,0,0,0,0,0],"id":16,"left_children":[1,3,5,7,9,11,13,-1,-1,-1,15,17,19,-1,-1,-1,-1,21,23,25,-1,-1,-1,-1,27,-1,-1,-1,-1],"loss_changes":[1.0106244E2,7.247864E0,2.3842922E1,6.2084198E-2,4.0044785E-1,3.9263077E0,3.8424683E-1,0E0,0E0,0E0,2.6779413E-2,4.8680067E-1,2.4501324E-1,0E0,0E0,0E0,0E0,1.43774375E-2,3.601533E-2,4.7979355E-3,0E0,0E0,0E0,0E0,2.693069E-2,0E0,0E0,0E0,0E0],"parents":[2147483647,0,0,1,1,2,2,3,3,4,4,5,5,6,6,10,10,11,11,12,12,17,17,18,18,19,19,24,24],"right_children":[2,4,6,8,10,12,14,-1,-1,-1,16,18,20,-1,-1,-1,-1,22,24,26,-1,-1,-1,-1,28,-1,-1,-1,-1],"split_conditions":[-9.9788584E-2,-8.009521E-1,1.2061632E0,-1.3636621E0,-4.1214347E-1,4.07621E-1,1.7882234E0,-3.5154812E-2,-2.7300483E-2,-1.6836435E-2,-1.2122914E0,8.4290765E-2,7.517266E-1,2.8587187E-2,3.8928147E-2,-4.5747161E-4,-9.744919E-3,-1.0020403E0,2.6406273E-1,1.1410685E0,1.6605208E-2,1.8925987E-3,-1.9518379E-3,2.516451E-3,1.1410685E0,1.0980271E-2,1.7894006E-3,5.1746643E-3,-1.2255957E-3],"split_indices":[8,8,8,8,8,8,8,0,0,0,4,8,8,0,0,0,0,4,7,4,0,0,0,0,4,0,0,0,0],"split_type":[0,0,0,0,0,0,0,0,0,0,0,0,0,0,0,0,0,0,0,0,0,0,0,0,0,0,0,0,0],"sum_hessian":[7.08E2,2.7E2,4.38E2,1.36E2,1.34E2,2.93E2,1.45E2,7.1E1,6.5E1,9.9E1,3.5E1,1.49E2,1.44E2,1.11E2,3.4E1,1E0,3.4E1,7.3E1,7.6E1,1.07E2,3.7E1,1E0,7.2E1,3.9E1,3.7E1,1.06E2,1E0,3.6E1,1E0],"tree_param":{"num_deleted":"0","num_feature":"9","num_nodes":"29","size_leaf_vector":"1"}},{"base_weights":[1.05901575E-2,-4.358046E-1,2.9515687E-1,-5.750772E-1,-2.8124377E-1,1.22385874E-1,6.1272895E-1,-3.176933E-2,-2.5148183E-2,-1.7332112E-2,-1.0895486E-2,1.5388312E-2,2.2347173E-1,2.7348796E-2,3.8336035E-2,-2.6102912E-2,8.3477855E-2,1.3456771E-1,2.5783625E-1,-2.2386878E-3,-1.3394905E-2,-1.1967149E-3,4.421716E-3,8.144616E-3,4.8871827E-3,1.0014861E-2,1.408525E-2,-2.5796198E-4,-1.791242E-2,-1.4589914E-3,-9.847064E-3,6.1586185E-4,-5.940897E-4],"categories":[],"categories_nodes":[],"categories_segments":[],"categories_sizes":[],"default_left":[0,0,0,0,0,0,0,0,0,0,0,0,0,0,0,0,0,0,0,0,0,0,0,0,0,0,0,0,0,0,0,0,0],"id":17,"left_children":[1,3,5,7,9,11,13,-1,-1,-1,-1,15,17,-1,-1,19,21,23,25,-1,27,-1,-1,-1,-1,-1,-1,-1,29,-1,31,-1,-1],"loss_changes":[9.29885E1,5.8114586E0,2.4375683E1,4.5166016E-3,4.2465782E-1,3.1513762E0,7.509384E-1,0E0,0E0,0E0,0E0,4.1117504E-1,3.888793E-1,0E0,0E0,2.039202E-2,3.351444E-2,1.6135871E-2,3.272915E-2,0E0,1.9358406E-3,0E0,0E0,0E0,0E0,0E0,0E0,0E0,2.6968522E-3,0E0,1.3750619E-3,0E0,0E0],"parents":[2147483647,0,0,1,1,2,2,3,3,4,4,5,5,6,6,11,11,12,12,15,15,16,16,17,17,18,18,20,20,28,28,30,30],"right_children":[2,4,6,8,10,12,14,-1,-1,-1,-1,16,18,-1,-1,20,22,24,26,-1,28,-1,-1,-1,-1,-1,-1,-1,30,-1,32,-1,-1],"split_conditions":[-9.7690515E-2,-7.9926807E-1,1.2090323E0,-1.3623104E0,-6.6428673E-1,4.1001868E-1,1.7914363E0,-3.176933E-2,-2.5148183E-2,-1.7332112E-2,-1.0895486E-2,1.8944041E-1,4.9516577E-1,2.7348796E-2,3.8336035E-2,-4.719694E-2,8.649754E-2,4.2338344E-1,6.04931E-1,-2.2386878E-3,-4.7196936E-2,-1.1967149E-3,4.421716E-3,8.144616E-3,4.8871827E-3,1.0014861E-2,1.408525E-2,-2.5796198E-4,-2.2322997E-2,-1.4589914E-3,1.8944038E-1,6.1586185E-4,-5.940897E-4],"split_indices":[7,7,7,7,7,7,7,0,0,0,0,0,7,0,0,0,7,0,7,0,0,0,0,0,0,0,0,0,3,0,0,0,0],"split_type":[0,0,0,0,0,0,0,0,0,0,0,0,0,0,0,0,0,0,0,0,0,0,0,0,0,0,0,0,0,0,0,0,0],"sum_hessian":[7.28E2,2.83E2,4.45E2,1.46E2,1.37E2,2.9E2,1.55E2,7.1E1,7.5E1,6.3E1,7.4E1,1.42E2,1.48E2,1.15E2,4E1,8.9E1,5.3E1,4.4E1,1.04E2,3.4E1,5.5E1,2E0,5.1E1,2.1E1,2.3E1,3.6E1,6.8E1,2.1E1,3.4E1,1.2E1,2.2E1,1E0,2.1E1],"tree_param":{"num_deleted":"0","num_feature":"9","num_nodes":"33","size_leaf_vector":"1"}},{"base_weights":[7.969709E-3,-4.2290807E-1,2.7534357E-1,-2.8442165E-2,-2.878012E-1,1.0381959E-1,5.209709E-1,5.921887E-2,-3.0297747E-1,1.146301E-2,1.6774867E-1,3.8103154E-1,3.0813888E-2,-2.8321275E-2,1.1199999E-2,-1.6941799E-2,-8.779087E-3,1.5790632E-2,2.889158E-4,1.2514926E-1,2.0521764E-1,3.913745E-1,3.3634347E-3,3.705279E-2,-3.4646012E-3,-2.5522625E-1,9.660318E-3,1.5956858E-2,1.1199221E-1,1.0488759E-2,5.112173E-2,1.570144E-2,2.1986216E-2,2.3905444E-3,7.9641744E-5,-6.99034E-4,-1.6316049E-2,-2.331196E-2,5.2533917E-2,5.676018E-3,1.348059E-3,-8.493449E-4,3.8321167E-3,-2.410147E-3,-1.352507E-2,2.8867172E-3,-1.6768962E-3,1.8158305E-4,-2.1543683E-2,-7.0705544E-4,-1.4270648E-3],"categories":[],"categories_nodes":[],"categories_segments":[],"categories_sizes":[],"default_left":[0,0,0,0,0,0,0,0,0,0,0,0,0,0,0,0,0,0,0,0,0,0,0,0,0,0,0,0,0,0,0,0,0,0,0,0,0,0,0,0,0,0,0,0,0,0,0,0,0,0,0],"id":18,"left_children":[1,3,5,-1,7,9,11,13,15,17,19,21,-1,23,-1,-1,-1,-1,25,27,29,31,-1,33,-1,35,37,-1,39,-1,41,-1,-1,-1,-1,-1,-1,43,45,-1,-1,-1,-1,-1,47,-1,-1,-1,49,-1,-1],"loss_changes":[8.51393E1,5.2524414E0,1.910355E1,0E0,8.3112144E-1,1.5962119E0,2.0244102E0,1.2808761E-1,5.434046E-1,3.8411143E-1,2.0401907E-1,2.1020985E-1,0E0,2.3883896E-2,0E0,0E0,0E0,0E0,2.7072456E-1,1.3270295E-1,3.6140442E-2,1.5520096E-2,0E0,1.3736165E-3,0E0,5.9480786E-2,1.5653613E-1,0E0,4.0141344E-3,0E0,1.1294698E-2,0E0,0E0,0E0,0E0,0E0,0E0,1.4043242E-2,2.5357857E-2,0E0,0E0,0E0,0E0,0E0,6.759992E-3,0E0,0E0,0E0,9.02202E-4,0E0,0E0],"parents":[2147483647,0,0,1,1,2,2,4,4,5,5,6,6,7,7,8,8,9,9,10,10,11,11,13,13,18,18,19,19,20,20,21,21,23,23,25,25,26,26,28,28,30,30,37,37,38,38,44,44,48,48],"right_children":[2,4,6,-1,8,10,12,14,16,18,20,22,-1,24,-1,-1,-1,-1,26,28,30,32,-1,34,-1,36,38,-1,40,-1,42,-1,-1,-1,-1,-1,-1,44,46,-1,-1,-1,-1,-1,48,-1,-1,-1,50,-1,-1],"split_conditions":[-2.6970747E-1,-1.2952495E0,7.263332E-1,-2.8442165E-2,-1.3739102E0,2.2516955E-1,1.3340489E0,-1.5154477E0,-5.143215E-1,-7.808383E-1,5.013531E-1,1.23738E0,3.0813888E-2,-1.0020403E0,1.1199999E-2,-1.6941799E-2,-8.779087E-3,1.5790632E-2,-1.2240202E-1,-4.719694E-2,7.595499E-1,8.1129444E-1,3.3634347E-3,-1.5228846E0,-3.4646012E-3,-1.5228846E0,1.0219542E-2,1.5956858E-2,5.0007784E-1,1.0488759E-2,8.207452E-1,1.570144E-2,2.1986216E-2,2.3905444E-3,7.9641744E-5,-6.99034E-4,-1.6316049E-2,-9.267526E-2,2.686981E-1,5.676018E-3,1.348059E-3,-8.493449E-4,3.8321167E-3,-2.410147E-3,-4.719694E-2,2.8867172E-3,-1.6768962E-3,1.8158305E-4,-4.7196936E-2,-7.0705544E-4,-1.4270648E-3],"split_indices":[4,4,4,0,0,4,4,0,4,5,4,0,0,4,0,0,0,0,4,0,5,4,0,0,0,0,4,0,5,0,0,0,0,0,0,0,0,1,5,0,0,0,0,0,0,0,0,0,0,0,0],"split_type":[0,0,0,0,0,0,0,0,0,0,0,0,0,0,0,0,0,0,0,0,0,0,0,0,0,0,0,0,0,0,0,0,0,0,0,0,0,0,0,0,0,0,0,0,0,0,0,0,0,0,0],"sum_hessian":[7.35E2,2.81E2,4.54E2,1.32E2,1.49E2,2.69E2,1.85E2,6E0,1.43E2,1.11E2,1.58E2,7.9E1,1.06E2,5E0,1E0,1.09E2,3.4E1,2E0,1.09E2,7.8E1,8E1,7.6E1,3E0,2E0,3E0,2E0,1.07E2,2E0,7.6E1,7.7E1,3E0,3.5E1,4.1E1,1E0,1E0,1E0,1E0,6.1E1,4.6E1,7.4E1,2E0,1E0,2E0,1.5E1,4.6E1,4.4E1,2E0,1.5E1,3.1E1,1.8E1,1.3E1],"tree_param":{"num_deleted":"0","num_feature":"9","num_nodes":"51","size_leaf_vector":"1"}},{"base_weights":[-9.6677905E-3,-4.0544468E-1,2.5149843E-1,-5.552855E-1,-2.5104493E-1,7.9708256E-2,4.939822E-1,-3.0829856E-2,-2.3538506E-2,-2.8727445E-1,-1.6058251E-1,-1.658832E-4,1.4542267E-1,1.8039124E-2,2.9008174E-2,-1.5671771E-2,-1.158536E-2,-1.7658037E-3,-8.233558E-3,-2.8645882E-2,4.565698E-2,9.954822E-2,9.392341E-3,2.350702E-3,-3.0970374E-2,4.7868095E-2,-7.4690026E-5,5.1678396E-3,-8.437911E-4,-2.310688E-3,-2.3895342E-2,1.6892813E-3,2.9439572E-3,4.985355E-4,-1.8123499E-3],"categories":[],"categories_nodes":[],"categories_segments":[],"categories_sizes":[],"default_left":[0,0,0,0,0,0,0,0,0,0,0,0,0,0,0,0,0,0,0,0,0,0,0,0,0,0,0,0,0,0,0,0,0,0,0],"id":19,"left_children":[1,3,5,7,9,11,13,-1,-1,15,17,19,21,-1,-1,-1,-1,-1,-1,23,25,27,-1,-1,29,31,-1,-1,-1,-1,33,-1,-1,-1,-1],"loss_changes":[7.4625694E1,6.3610535E0,1.8041756E1,1.6562653E-1,3.8296223E-1,1.349011E0,1.6476517E0,0E0,0E0,1.572609E-3,1.1928678E-2,1.566099E-1,2.3701215E-1,0E0,0E0,0E0,0E0,0E0,0E0,1.592654E-2,4.9387887E-3,3.541392E-2,0E0,0E0,5.6642666E-3,2.844222E-3,0E0,0E0,0E0,0E0,2.3311112E-2,0E0,0E0,0E0,0E0],"parents":[2147483647,0,0,1,1,2,2,3,3,4,4,5,5,6,6,9,9,10,10,11,11,12,12,19,19,20,20,21,21,24,24,25,25,30,30],"right_children":[2,4,6,8,10,12,14,-1,-1,16,18,20,22,-1,-1,-1,-1,-1,-1,24,26,28,-1,-1,30,32,-1,-1,-1,-1,34,-1,-1,-1,-1],"split_conditions":[-9.9788584E-2,-8.009521E-1,7.517266E-1,-1.3636621E0,-4.1214347E-1,2.6175117E-1,1.3461468E0,-3.0829856E-2,-2.3538506E-2,-6.6605043E-1,-1.3609638E0,8.4290765E-2,4.9271783E-1,1.8039124E-2,2.9008174E-2,-1.5671771E-2,-1.158536E-2,-1.7658037E-3,-8.233558E-3,-1.5006185E0,2.6637837E-1,4.976191E-1,9.392341E-3,2.350702E-3,-9.267526E-2,1.8944041E-1,-7.4690026E-5,5.1678396E-3,-8.437911E-4,-2.310688E-3,-4.719694E-2,1.6892813E-3,2.9439572E-3,4.985355E-4,-1.8123499E-3],"split_indices":[8,8,8,8,8,8,8,0,0,8,6,8,8,0,0,0,0,0,0,6,6,6,0,0,1,0,0,0,0,0,0,0,0,0,0],"split_type":[0,0,0,0,0,0,0,0,0,0,0,0,0,0,0,0,0,0,0,0,0,0,0,0,0,0,0,0,0,0,0,0,0,0,0],"sum_hessian":[7.18E2,2.85E2,4.33E2,1.42E2,1.43E2,2.55E2,1.78E2,7.5E1,6.7E1,9.9E1,4.4E1,1.16E2,1.39E2,7.4E1,1.04E2,6.1E1,3.8E1,2E0,4.2E1,7.2E1,4.4E1,7E1,6.9E1,1E0,7.1E1,4.2E1,2E0,6.8E1,2E0,1.9E1,5.2E1,2.2E1,2E1,1.4E1,3.8E1],"tree_param":{"num_deleted":"0","num_feature":"9","num_nodes":"35","size_leaf_vector":"1"}},{"base_weights":[2.1606842E-3,-3.7569678E-1,2.4950682E-1,-5.0111777E-1,-2.4512921E-1,1.1076097E-1,5.2456427E-1,-2.6995907E-2,-3.9329448E-1,-1.51761845E-2,-1.8936568E-1,3.287112E-2,1.8563631E-1,4.311711E-1,3.081559E-2,3.6289025E-2,-2.0723527E-2,-6.347394E-4,-9.564033E-3,-2.7623104E-2,8.9368984E-2,1.6052939E-1,2.625908E-1,2.179001E-2,1.0911678E-3,2.3115235E-3,1.0774484E-4,-3.106526E-2,3.1616323E-2,1.16480455E-1,7.350742E-2,1.4991099E-2,1.5302315E-1,1.341407E-2,1.2466762E-3,-2.1803882E-3,-2.5396615E-2,4.074115E-3,-1.0795657E-3,5.2933086E-4,6.000524E-3,4.9302343E-2,4.1915025E-3,1.0976003E-1,1.7701371E-1,-5.4780854E-4,-1.6098531E-3,2.7881765E-3,-1.3320227E-3,7.126888E-3,3.979252E-3,9.01058E-3,-8.3394424E-4],"categories":[],"categories_nodes":[],"categories_segments":[],"categories_sizes":[],"default_left":[0,0,0,0,0,0,0,0,0,0,0,0,0,0,0,0,0,0,0,0,0,0,0,0,0,0,0,0,0,0,0,0,0,0,0,0,0,0,0,0,0,0,0,0,0,0,0,0,0,0,0,0,0],"id":20,"left_children":[1,3,5,7,9,11,13,-1,15,-1,17,19,21,23,-1,25,-1,-1,-1,27,29,31,33,-1,-1,-1,-1,35,37,39,41,-1,43,-1,-1,-1,45,-1,-1,-1,-1,47,-1,49,51,-1,-1,-1,-1,-1,-1,-1,-1],"loss_changes":[6.85079E1,4.503334E0,1.6790041E1,1.8611145E-1,3.6046314E-1,1.7199085E0,7.366791E-1,0E0,4.4853783E-1,0E0,2.2208929E-2,5.107709E-1,2.0743895E-1,1.3257217E-1,0E0,1.1581262E-3,0E0,0E0,0E0,1.6849875E-2,1.5987992E-2,3.266263E-2,3.260374E-2,0E0,0E0,0E0,0E0,2.7619451E-3,1.6784871E-2,6.804198E-3,5.2263737E-3,0E0,8.257723E-2,0E0,0E0,0E0,4.499167E-3,0E0,0E0,0E0,0E0,1.3275426E-2,0E0,2.3798406E-2,5.0608635E-2,0E0,0E0,0E0,0E0,0E0,0E0,0E0,0E0],"parents":[2147483647,0,0,1,1,2,2,3,3,4,4,5,5,6,6,8,8,10,10,11,11,12,12,13,13,15,15,19,19,20,20,21,21,22,22,27,27,28,28,29,29,30,30,32,32,36,36,41,41,43,43,44,44],"right_children":[2,4,6,8,10,12,14,-1,16,-1,18,20,22,24,-1,26,-1,-1,-1,28,30,32,34,-1,-1,-1,-1,36,38,40,42,-1,44,-1,-1,-1,46,-1,-1,-1,-1,48,-1,50,52,-1,-1,-1,-1,-1,-1,-1,-1],"split_conditions":[-1.2240202E-1,-8.947129E-1,1.2090323E0,-1.3107356E0,-6.6428673E-1,2.78996E-1,1.4028859E0,-2.6995907E-2,-1.5154477E0,-1.51761845E-2,-1.5228846E0,8.649754E-2,7.263332E-1,1.4143866E0,3.081559E-2,-1.5228846E0,-2.0723527E-2,-6.347394E-4,-9.564033E-3,1.0219542E-2,1.8944041E-1,-4.719694E-2,1.706925E0,2.179001E-2,1.0911678E-3,2.3115235E-3,1.0774484E-4,-9.1477245E-2,-4.7196936E-2,1.7932512E-1,2.6780403E-1,1.4991099E-2,4.9516577E-1,1.341407E-2,1.2466762E-3,-2.1803882E-3,-4.719694E-2,4.074115E-3,-1.0795657E-3,5.2933086E-4,6.000524E-3,2.6637837E-1,4.1915025E-3,4.2338344E-1,7.569353E-1,-5.4780854E-4,-1.6098531E-3,2.7881765E-3,-1.3320227E-3,7.126888E-3,3.979252E-3,9.01058E-3,-8.3394424E-4],"split_indices":[4,4,7,4,7,4,4,0,0,0,0,7,4,0,0,0,0,0,0,4,0,0,0,0,0,0,0,0,0,7,4,0,7,0,0,0,0,0,0,0,0,6,0,0,6,0,0,0,0,0,0,0,0],"split_type":[0,0,0,0,0,0,0,0,0,0,0,0,0,0,0,0,0,0,0,0,0,0,0,0,0,0,0,0,0,0,0,0,0,0,0,0,0,0,0,0,0,0,0,0,0,0,0,0,0,0,0,0,0],"sum_hessian":[7.29E2,2.88E2,4.41E2,1.44E2,1.44E2,2.95E2,1.46E2,1E2,4.4E1,6.6E1,7.8E1,1.46E2,1.49E2,7.8E1,6.8E1,2E0,4.2E1,1E0,7.7E1,7.1E1,7.5E1,1.17E2,3.2E1,7.7E1,1E0,1E0,1E0,6.8E1,3E0,2.3E1,5.2E1,2E0,1.15E2,3.1E1,1E0,1.7E1,5.1E1,1E0,2E0,1E0,2.2E1,1.9E1,3.3E1,4.5E1,7E1,1.8E1,3.3E1,1.8E1,1E0,1.8E1,2.7E1,6.9E1,1E0],"tree_param":{"num_deleted":"0","num_feature":"9","num_nodes":"53","size_leaf_vector":"1"}},{"base_weights":[8.371828E-3,-3.7124142E-1,2.4233134E-1,-4.919724E-1,-2.3606755E-1,1.0497511E-1,4.982089E-1,-2.5916014E-2,-1.917006E-2,-1.3424597E-2,-1.4563504E-1,4.4957895E-2,2.0711552E-1,2.2306161E-2,3.1412672E-2,1.0594925E-4,-7.476614E-3,-2.1779206E-2,9.022849E-2,1.8015495E-1,1.3036485E-2,2.272998E-3,-2.3833219E-2,9.256475E-2,-2.8571978E-3,9.0819625E-3,1.0729815E-3,-2.0285829E-3,-1.811259E-2,9.933788E-2,3.05236E-3,-1.8934976E-2,5.205087E-4,4.184149E-3,7.103007E-3,-1.4212377E-2,-1.4604165E-3,-4.8598807E-4,-8.243737E-4],"categories":[],"categories_nodes":[],"categories_segments":[],"categories_sizes":[],"default_left":[0,0,0,0,0,0,0,0,0,0,0,0,0,0,0,0,0,0,0,0,0,0,0,0,0,0,0,0,0,0,0,0,0,0,0,0,0,0,0],"id":21,"left_children":[1,3,5,7,9,11,13,-1,-1,-1,15,17,19,-1,-1,-1,-1,21,23,25,-1,-1,27,29,-1,-1,-1,-1,31,33,-1,35,-1,-1,-1,37,-1,-1,-1],"loss_changes":[6.4747795E1,4.304592E0,1.5746416E1,1.73378E-2,3.1764555E-1,1.7959113E0,5.028763E-1,0E0,0E0,0E0,2.3666978E-2,5.7494235E-1,6.361294E-2,0E0,0E0,0E0,0E0,1.2939513E-2,4.948491E-2,1.0812998E-2,0E0,0E0,5.9033707E-3,1.1780381E-2,0E0,0E0,0E0,0E0,1.8250924E-3,3.5748303E-2,0E0,2.0807758E-3,0E0,0E0,0E0,1.3944227E-4,0E0,0E0,0E0],"parents":[2147483647,0,0,1,1,2,2,3,3,4,4,5,5,6,6,10,10,11,11,12,12,17,17,18,18,19,19,22,22,23,23,28,28,29,29,31,31,35,35],"right_children":[2,4,6,8,10,12,14,-1,-1,-1,16,18,20,-1,-1,-1,-1,22,24,26,-1,-1,28,30,-1,-1,-1,-1,32,34,-1,36,-1,-1,-1,38,-1,-1,-1],"split_conditions":[-9.9788584E-2,-8.009521E-1,1.2061632E0,-1.2993343E0,-4.1214347E-1,4.9271783E-1,1.7882234E0,-2.5916014E-2,-1.917006E-2,-1.3424597E-2,-1.5154078E0,1.7706357E-1,7.517266E-1,2.2306161E-2,3.1412672E-2,1.0594925E-4,-7.476614E-3,-1.5228328E0,4.9516577E-1,7.5432754E-1,1.3036485E-2,2.272998E-3,-9.411004E-2,4.197847E-1,-2.8571978E-3,9.0819625E-3,1.0729815E-3,-2.0285829E-3,8.4290765E-2,4.07621E-1,3.05236E-3,-4.9912784E-2,5.205087E-4,4.184149E-3,7.103007E-3,-5.493106E-2,-1.4604165E-3,-4.8598807E-4,-8.243737E-4],"split_indices":[8,8,8,8,8,8,8,0,0,0,2,8,8,0,0,0,0,2,7,7,0,0,2,2,0,0,0,0,8,8,0,2,0,0,0,2,0,0,0],"split_type":[0,0,0,0,0,0,0,0,0,0,0,0,0,0,0,0,0,0,0,0,0,0,0,0,0,0,0,0,0,0,0,0,0,0,0,0,0,0,0],"sum_hessian":[7.25E2,2.76E2,4.49E2,1.43E2,1.33E2,2.94E2,1.55E2,1.09E2,3.4E1,9.5E1,3.8E1,1.87E2,1.07E2,1.17E2,3.8E1,1E0,3.7E1,7.6E1,1.11E2,7.7E1,3E1,1E0,7.5E1,1.1E2,1E0,7.6E1,1E0,1.6E1,5.9E1,8.7E1,2.3E1,5.8E1,1E0,6.8E1,1.9E1,4.3E1,1.5E1,1.8E1,2.5E1],"tree_param":{"num_deleted":"0","num_feature":"9","num_nodes":"39","size_leaf_vector":"1"}},{"base_weights":[1.5524668E-3,-3.4113702E-1,2.1765596E-1,-4.5127538E-1,-2.1958712E-1,7.169016E-2,4.1749462E-1,-2.50794E-2,-1.9235384E-2,-1.2319986E-2,-7.112329E-3,-4.671022E-3,1.3273792E-1,3.097927E-1,2.4444072E-2,-1.4205524E-2,4.026818E-2,8.7395914E-2,8.844766E-3,1.2251816E-2,1.7463414E-2,-1.967073E-3,-7.5664027E-3,-1.0160663E-3,2.4392556E-3,9.638716E-2,3.012862E-3,6.963176E-3,-1.2414259E-3,3.5621193E-3,6.53759E-3,7.223902E-4,-7.261815E-5],"categories":[],"categories_nodes":[],"categories_segments":[],"categories_sizes":[],"default_left":[0,0,0,0,0,0,0,0,0,0,0,0,0,0,0,0,0,0,0,0,0,0,0,0,0,0,0,0,0,0,0,0,0],"id":22,"left_children":[1,3,5,7,9,11,13,-1,-1,-1,-1,15,17,19,-1,21,23,25,-1,-1,-1,-1,27,-1,-1,29,-1,31,-1,-1,-1,-1,-1],"loss_changes":[5.3617218E1,3.5502586E0,1.2891445E1,9.9702835E-2,2.1399832E-1,1.2086148E0,1.1348457E0,0E0,0E0,0E0,0E0,5.127539E-2,2.573948E-1,3.333664E-2,0E0,1.5758941E-2,1.2819521E-2,6.68478E-3,0E0,0E0,0E0,0E0,2.041067E-2,0E0,0E0,2.7166665E-2,0E0,2.8763898E-3,0E0,0E0,0E0,0E0,0E0],"parents":[2147483647,0,0,1,1,2,2,3,3,4,4,5,5,6,6,11,11,12,12,13,13,15,15,16,16,17,17,22,22,25,25,27,27],"right_children":[2,4,6,8,10,12,14,-1,-1,-1,-1,16,18,20,-1,22,24,26,-1,-1,-1,-1,28,-1,-1,30,-1,32,-1,-1,-1,-1,-1],"split_conditions":[-9.7690515E-2,-7.9926807E-1,7.5432754E-1,-1.3623104E0,-4.1022983E-1,2.6406273E-1,1.3490987E0,-2.50794E-2,-1.9235384E-2,-1.2319986E-2,-7.112329E-3,1.8628055E-1,4.9516577E-1,1.2090323E0,2.4444072E-2,-9.1477245E-2,8.649754E-2,4.2338338E-1,8.844766E-3,1.2251816E-2,1.7463414E-2,-1.967073E-3,-4.7196936E-2,-1.0160663E-3,2.4392556E-3,4.1001868E-1,3.012862E-3,-4.719694E-2,-1.2414259E-3,3.5621193E-3,6.53759E-3,7.223902E-4,-7.261815E-5],"split_indices":[7,7,7,7,7,7,7,0,0,0,0,2,7,7,0,0,7,0,0,0,0,0,0,0,0,7,0,0,0,0,0,0,0],"split_type":[0,0,0,0,0,0,0,0,0,0,0,0,0,0,0,0,0,0,0,0,0,0,0,0,0,0,0,0,0,0,0,0,0],"sum_hessian":[7.2E2,2.78E2,4.42E2,1.43E2,1.35E2,2.57E2,1.85E2,7.4E1,6.9E1,9.7E1,3.8E1,1.15E2,1.42E2,7.8E1,1.07E2,9.6E1,1.9E1,7.3E1,6.9E1,3.5E1,4.3E1,1.8E1,7.8E1,2E0,1.7E1,5.1E1,2.2E1,4.3E1,3.5E1,3.3E1,1.8E1,2.2E1,2.1E1],"tree_param":{"num_deleted":"0","num_feature":"9","num_nodes":"33","size_leaf_vector":"1"}},{"base_weights":[5.869975E-4,-3.322672E-1,2.1407008E-1,-4.491013E-1,-2.0985186E-1,7.274423E-2,4.1730186E-1,-2.52398E-2,-1.9251596E-2,-1.2949678E-2,-1.517787E-1,-3.998289E-4,1.2847847E-1,1.4898327E-2,4.8737714E-1,-1.2037065E-3,-7.7436077E-3,-2.2831608E-2,3.6324892E-2,9.058411E-2,1.6341254E-1,2.1355085E-2,2.8683057E-2,-1.8511423E-3,-1.7798025E-2,1.931134E-3,-2.9821714E-4,9.988276E-2,3.3327227E-3,8.255935E-3,6.4769736E-4,-1.32242665E-2,-1.218965E-3,3.5292578E-3,6.5376894E-3,-8.252584E-4,-4.1029902E-4],"categories":[],"categories_nodes":[],"categories_segments":[],"categories_sizes":[],"default_left":[0,0,0,0,0,0,0,0,0,0,0,0,0,0,0,0,0,0,0,0,0,0,0,0,0,0,0,0,0,0,0,0,0,0,0,0,0],"id":23,"left_children":[1,3,5,7,9,11,13,-1,-1,-1,15,17,19,-1,21,-1,-1,23,25,27,29,-1,-1,-1,31,-1,-1,33,-1,-1,-1,35,-1,-1,-1,-1,-1],"loss_changes":[5.0736076E1,3.8018456E0,1.2433317E1,1.14406586E-1,3.2091475E-1,1.0559496E0,1.1980705E0,0E0,0E0,0E0,1.9801497E-2,9.557201E-2,1.64994E-1,0E0,7.686424E-2,0E0,0E0,3.825292E-3,4.7362745E-3,3.3732653E-3,1.4718413E-2,0E0,0E0,0E0,1.0709688E-3,0E0,0E0,2.6763797E-2,0E0,0E0,0E0,3.5476824E-4,0E0,0E0,0E0,0E0,0E0],"parents":[2147483647,0,0,1,1,2,2,3,3,4,4,5,5,6,6,10,10,11,11,12,12,14,14,17,17,18,18,19,19,20,20,24,24,27,27,31,31],"right_children":[2,4,6,8,10,12,14,-1,-1,-1,16,18,20,-1,22,-1,-1,24,26,28,30,-1,-1,-1,32,-1,-1,34,-1,-1,-1,36,-1,-1,-1,-1,-1],"split_conditions":[-9.9788584E-2,-8.009521E-1,7.517266E-1,-1.3636621E0,-6.6605043E-1,2.6175117E-1,1.3461468E0,-2.52398E-2,-1.9251596E-2,-1.2949678E-2,-1.5154477E0,8.4290765E-2,4.9271783E-1,1.4898327E-2,1.7882234E0,-1.2037065E-3,-7.7436077E-3,-9.1477245E-2,2.6637837E-1,4.2338344E-1,1.3427577E0,2.1355085E-2,2.8683057E-2,-1.8511423E-3,-4.7196936E-2,1.931134E-3,-2.9821714E-4,4.07621E-1,3.3327227E-3,8.255935E-3,6.4769736E-4,-4.719694E-2,-1.218965E-3,3.5292578E-3,6.5376894E-3,-8.252584E-4,-4.1029902E-4],"split_indices":[8,8,8,8,8,8,8,0,0,0,0,8,8,0,8,0,0,0,6,0,1,0,0,0,0,0,0,8,0,0,0,0,0,0,0,0,0],"split_type":[0,0,0,0,0,0,0,0,0,0,0,0,0,0,0,0,0,0,0,0,0,0,0,0,0,0,0,0,0,0,0,0,0,0,0,0,0],"sum_hessian":[7.1E2,2.77E2,4.33E2,1.39E2,1.38E2,2.57E2,1.76E2,6.7E1,7.2E1,7.1E1,6.7E1,1.12E2,1.45E2,6.9E1,1.07E2,2E0,6.5E1,7E1,4.2E1,7.3E1,7.2E1,7E1,3.7E1,1.5E1,5.5E1,4E1,2E0,4.8E1,2.5E1,7.1E1,1E0,3.6E1,1.9E1,2.8E1,2E1,1.9E1,1.7E1],"tree_param":{"num_deleted":"0","num_feature":"9","num_nodes":"37","size_leaf_vector":"1"}},{"base_weights":[2.171337E-3,-3.0888143E-1,2.0691401E-1,-2.0962557E-2,-1.965484E-1,6.865931E-2,3.8353747E-1,-2.2849922E-1,-1.0357682E-1,3.288969E-3,1.1940334E-1,2.867343E-1,4.4960645E-1,1.3070357E-1,-2.3783077E-1,-5.2671385E-4,-5.268808E-3,1.4246193E-2,-7.2028595E-3,9.153685E-2,1.4279197E-1,2.9450655E-1,2.3842321E-3,3.9935464E-1,2.6723433E-2,-2.1070535E-3,1.0820625E-2,-1.9352967E-3,-1.1950055E-2,-2.2557662E-1,1.1735631E-3,1.37521615E-2,8.074872E-2,7.2812117E-3,-9.716518E-4,1.1490292E-2,1.6302994E-2,2.0359643E-2,-3.2725246E-3,-5.408464E-4,-1.4497595E-2,-1.9233473E-2,3.196682E-2,9.2926845E-2,2.4420675E-3,-1.8167992E-3,-1.2165878E-2,3.8271517E-2,-1.5628731E-3,3.4495238E-3,5.917095E-3,-3.8904097E-4,-1.0533951E-3,3.780078E-3,3.3437334E-2,1.132478E-3,2.2366664E-3],"categories":[],"categories_nodes":[],"categories_segments":[],"categories_sizes":[],"default_left":[0,0,0,0,0,0,0,0,0,0,0,0,0,0,0,0,0,0,0,0,0,0,0,0,0,0,0,0,0,0,0,0,0,0,0,0,0,0,0,0,0,0,0,0,0,0,0,0,0,0,0,0,0,0,0,0,0],"id":24,"left_children":[1,3,5,-1,7,9,11,13,15,17,19,21,23,25,27,-1,-1,-1,29,31,33,35,-1,37,-1,-1,-1,-1,-1,39,41,-1,43,-1,-1,-1,-1,-1,-1,-1,-1,45,47,49,-1,-1,51,53,-1,-1,-1,-1,-1,-1,55,-1,-1],"loss_changes":[4.604527E1,3.393467E0,1.0594027E1,0E0,3.863616E-1,8.185518E-1,9.637394E-1,4.2082548E-1,4.643917E-3,3.2913962E-1,6.445289E-2,1.261239E-1,4.2207718E-2,7.7497035E-2,5.968094E-3,0E0,0E0,0E0,1.9808207E-1,9.2179894E-2,3.874135E-2,1.3460159E-2,0E0,3.3383274E-1,0E0,0E0,0E0,0E0,0E0,4.902807E-2,6.783997E-2,0E0,1.7345548E-2,0E0,0E0,0E0,0E0,0E0,0E0,0E0,0E0,6.972667E-3,1.9532766E-2,1.2263268E-2,0E0,0E0,1.5849075E-3,2.1625757E-3,0E0,0E0,0E0,0E0,0E0,0E0,2.7261078E-3,0E0,0E0],"parents":[2147483647,0,0,1,1,2,2,4,4,5,5,6,6,7,7,8,8,9,9,10,10,11,11,12,12,13,13,14,14,18,18,19,19,20,20,21,21,23,23,29,29,30,30,32,32,41,41,42,42,43,43,46,46,47,47,54,54],"right_children":[2,4,6,-1,8,10,12,14,16,18,20,22,24,26,28,-1,-1,-1,30,32,34,36,-1,38,-1,-1,-1,-1,-1,40,42,-1,44,-1,-1,-1,-1,-1,-1,-1,-1,46,48,50,-1,-1,52,54,-1,-1,-1,-1,-1,-1,56,-1,-1],"split_conditions":[-2.6970747E-1,-8.947129E-1,7.263332E-1,-2.0962557E-2,-5.143215E-1,2.2516955E-1,1.3340489E0,-1.2965596E0,-1.5228846E0,-7.808383E-1,5.013531E-1,1.23738E0,1.757622E0,-1.5154477E0,-1.5154477E0,-5.2671385E-4,-5.268808E-3,1.4246193E-2,-1.2240202E-1,-4.719694E-2,7.569353E-1,8.1129444E-1,2.3842321E-3,1.706925E0,2.6723433E-2,-2.1070535E-3,1.0820625E-2,-1.9352967E-3,-1.1950055E-2,-1.5228846E0,1.0219542E-2,1.37521615E-2,4.2338344E-1,7.2812117E-3,-9.716518E-4,1.1490292E-2,1.6302994E-2,2.0359643E-2,-3.2725246E-3,-5.408464E-4,-1.4497595E-2,-9.1477245E-2,2.686981E-1,2.78996E-1,2.4420675E-3,-1.8167992E-3,-4.7196936E-2,-4.7196936E-2,-1.5628731E-3,3.4495238E-3,5.917095E-3,-3.8904097E-4,-1.0533951E-3,3.780078E-3,1.8944041E-1,1.132478E-3,2.2366664E-3],"split_indices":[4,4,4,0,4,4,4,6,0,5,4,0,4,0,0,0,0,0,4,0,6,4,0,0,0,0,0,0,0,0,4,0,0,0,0,0,0,0,0,0,0,0,5,4,0,0,0,0,0,0,0,0,0,0,0,0,0],"split_type":[0,0,0,0,0,0,0,0,0,0,0,0,0,0,0,0,0,0,0,0,0,0,0,0,0,0,0,0,0,0,0,0,0,0,0,0,0,0,0,0,0,0,0,0,0,0,0,0,0,0,0,0,0,0,0,0,0],"sum_hessian":[7.19E2,2.85E2,4.34E2,1.41E2,1.44E2,2.45E2,1.89E2,1.05E2,3.9E1,1.08E2,1.37E2,8.1E1,1.08E2,2E0,1.03E2,1E0,3.8E1,2E0,1.06E2,6.7E1,7E1,7.8E1,3E0,7.5E1,3.3E1,1E0,1E0,1E0,1.02E2,2E0,1.04E2,1E0,6.6E1,6.9E1,1E0,3.1E1,4.7E1,7.4E1,1E0,1E0,1E0,6.3E1,4.1E1,4.5E1,2.1E1,1.6E1,4.7E1,3.8E1,3E0,2.7E1,1.8E1,3.4E1,1.3E1,1E0,3.7E1,2.2E1,1.5E1],"tree_param":{"num_deleted":"0","num_feature":"9","num_nodes":"57","size_leaf_vector":"1"}},{"base_weights":[5.903905E-4,-2.9857522E-1,1.8673526E-1,-4.0299848E-1,-1.9141744E-1,8.028656E-2,4.141421E-1,-2.1410845E-2,-1.514368E-2,-2.1853693E-1,-1.1881507E-1,1.036188E-2,1.4962642E-1,1.834285E-2,2.607112E-2,-1.4047314E-3,-2.1987945E-1,8.9161145E-4,-6.1458866E-3,-2.077115E-2,4.3680098E-2,1.2464122E-1,1.0999723E-2,-1.1837485E-2,-8.563965E-3,3.0333332E-3,-2.3274496E-2,4.6836887E-2,-3.2179821E-3,9.476375E-2,1.379162E-1,-1.705621E-3,-1.9095013E-2,2.6379952E-2,3.3210383E-3,5.972778E-3,3.2630719E-3,6.9620996E-3,5.97165E-4,-7.8547857E-4,-1.1988053E-3,2.8526297E-2,-9.5545774E-4,7.0932176E-4,2.106379E-3],"categories":[],"categories_nodes":[],"categories_segments":[],"categories_sizes":[],"default_left":[0,0,0,0,0,0,0,0,0,0,0,0,0,0,0,0,0,0,0,0,0,0,0,0,0,0,0,0,0,0,0,0,0,0,0,0,0,0,0,0,0,0,0,0,0],"id":25,"left_children":[1,3,5,7,9,11,13,-1,-1,15,17,19,21,-1,-1,-1,23,-1,-1,25,27,29,-1,-1,-1,-1,31,33,-1,35,37,-1,39,41,-1,-1,-1,-1,-1,-1,-1,43,-1,-1,-1],"loss_changes":[4.0652477E1,2.9788513E0,1.0826724E1,9.4106674E-2,2.2765827E-1,1.4951061E0,3.4282875E-1,0E0,0E0,1.34682655E-2,2.8490424E-2,1.6363291E-1,2.1767402E-1,0E0,0E0,0E0,8.8882446E-4,0E0,0E0,1.9541074E-2,3.1949252E-2,2.1059275E-2,0E0,0E0,0E0,0E0,2.3663007E-3,2.6542604E-2,0E0,1.5732348E-2,9.701133E-3,0E0,2.8774515E-4,4.9956385E-3,0E0,0E0,0E0,0E0,0E0,0E0,0E0,6.411299E-3,0E0,0E0,0E0],"parents":[2147483647,0,0,1,1,2,2,3,3,4,4,5,5,6,6,9,9,10,10,11,11,12,12,16,16,19,19,20,20,21,21,26,26,27,27,29,29,30,30,32,32,33,33,41,41],"right_children":[2,4,6,8,10,12,14,-1,-1,16,18,20,22,-1,-1,-1,24,-1,-1,26,28,30,-1,-1,-1,-1,32,34,-1,36,38,-1,40,42,-1,-1,-1,-1,-1,-1,-1,44,-1,-1,-1],"split_conditions":[-9.9788584E-2,-8.009521E-1,1.2061632E0,-1.2993343E0,-4.1214347E-1,4.07621E-1,1.7882234E0,-2.1410845E-2,-1.514368E-2,-1.3097004E0,-1.5159491E0,8.4290765E-2,7.517266E-1,1.834285E-2,2.607112E-2,-1.4047314E-3,-6.6605043E-1,8.9161145E-4,-6.1458866E-3,-1.5233672E0,1.4790334E0,5.097299E-1,1.0999723E-2,-1.1837485E-2,-8.563965E-3,3.0333332E-3,-9.1477245E-2,2.6175117E-1,-3.2179821E-3,4.2338344E-1,1.3457304E0,-1.705621E-3,-4.7196936E-2,6.1281884E-1,3.3210383E-3,5.972778E-3,3.2630719E-3,6.9620996E-3,5.97165E-4,-7.8547857E-4,-1.1988053E-3,1.8944041E-1,-9.5545774E-4,7.0932176E-4,2.106379E-3],"split_indices":[8,8,8,8,8,8,8,0,0,3,3,8,8,0,0,0,8,0,0,3,3,0,0,0,0,0,0,8,0,0,3,0,0,3,0,0,0,0,0,0,0,0,0,0,0],"split_type":[0,0,0,0,0,0,0,0,0,0,0,0,0,0,0,0,0,0,0,0,0,0,0,0,0,0,0,0,0,0,0,0,0,0,0,0,0,0,0,0,0,0,0,0,0],"sum_hessian":[7.26E2,2.78E2,4.48E2,1.38E2,1.4E2,3.07E2,1.41E2,1.05E2,3.3E1,9.9E1,4.1E1,1.54E2,1.53E2,1.04E2,3.7E1,1E0,9.8E1,1E0,4E1,8E1,7.4E1,1.17E2,3.6E1,6.7E1,3.1E1,1E0,7.9E1,7.3E1,1E0,4.1E1,7.6E1,1.8E1,6.1E1,3.8E1,3.5E1,1.9E1,2.2E1,7.5E1,1E0,4.1E1,2E1,3.7E1,1E0,2E1,1.7E1],"tree_param":{"num_deleted":"0","num_feature":"9","num_nodes":"45","size_leaf_vector":"1"}},{"base_weights":[2.284617E-3,-2.6394057E-1,1.7290038E-1,-3.5168853E-1,-1.7618299E-1,7.452291E-2,3.659894E-1,-1.9785497E-2,-1.4704324E-2,-1.9033417E-1,-1.3376231E-1,1.8600117E-2,1.6249575E-1,1.4520901E-2,1.9430032E-2,-6.5673264E-3,-9.981292E-3,-4.5555197E-3,-7.859143E-3,-1.5623489E-2,5.4712955E-2,6.2738555E-3,8.8512385E-3,-4.3588947E-3,-2.5253769E-3,6.701741E-2,1.9743111E-2,-1.7355277E-3,6.636658E-3,5.1349826E-2,5.2607073E-3,2.325826E-3,2.4913746E-4,1.7045763E-3,-8.16257E-3,-5.2627886E-4,2.6521103E-3,-1.0692642E-4,-1.6178312E-2,-9.567717E-4,4.6964176E-4],"categories":[],"categories_nodes":[],"categories_segments":[],"categories_sizes":[],"default_left":[0,0,0,0,0,0,0,0,0,0,0,0,0,0,0,0,0,0,0,0,0,0,0,0,0,0,0,0,0,0,0,0,0,0,0,0,0,0,0,0,0],"id":26,"left_children":[1,3,5,7,9,11,13,-1,-1,15,17,19,21,-1,-1,-1,-1,-1,-1,23,25,-1,-1,27,-1,29,31,-1,33,35,-1,-1,-1,-1,37,-1,-1,-1,39,-1,-1],"loss_changes":[3.279526E1,2.0476322E0,8.303518E0,1.1971855E-1,3.6125183E-2,1.4403428E0,2.7183533E-2,0E0,0E0,4.5614243E-3,1.4312029E-2,2.2664553E-1,1.6889334E-2,0E0,0E0,0E0,0E0,0E0,0E0,3.6890376E-2,3.564909E-2,0E0,0E0,2.5156986E-2,0E0,2.8093874E-2,9.811254E-3,0E0,2.3309957E-2,6.3524395E-3,0E0,0E0,0E0,0E0,1.7657168E-3,0E0,0E0,0E0,1.5693437E-3,0E0,0E0],"parents":[2147483647,0,0,1,1,2,2,3,3,4,4,5,5,6,6,9,9,10,10,11,11,12,12,19,19,20,20,23,23,25,25,26,26,28,28,29,29,34,34,38,38],"right_children":[2,4,6,8,10,12,14,-1,-1,16,18,20,22,-1,-1,-1,-1,-1,-1,24,26,-1,-1,28,-1,30,32,-1,34,36,-1,-1,-1,-1,38,-1,-1,-1,40,-1,-1],"split_conditions":[-9.559044E-2,-7.97586E-1,1.2119111E0,-1.3609638E0,-4.08316E-1,4.976191E-1,1.3520609E0,-1.9785497E-2,-1.4704324E-2,-8.0293703E-1,-4.0931797E-1,1.8628055E-1,6.074497E-1,1.4520901E-2,1.9430032E-2,-6.5673264E-3,-9.981292E-3,-4.5555197E-3,-7.859143E-3,1.8628053E-1,4.2338344E-1,6.2738555E-3,8.8512385E-3,-9.267526E-2,-2.5253769E-3,4.1242126E-1,4.1242126E-1,-1.7355277E-3,-4.719694E-2,8.870736E-2,5.2607073E-3,2.325826E-3,2.4913746E-4,1.7045763E-3,-4.7196936E-2,-5.2627886E-4,2.6521103E-3,-1.0692642E-4,8.870736E-2,-9.567717E-4,4.6964176E-4],"split_indices":[6,6,6,6,6,6,6,0,0,0,1,2,6,0,0,0,0,0,0,2,0,0,0,1,0,6,6,0,0,6,0,0,0,0,0,0,0,0,6,0,0],"split_type":[0,0,0,0,0,0,0,0,0,0,0,0,0,0,0,0,0,0,0,0,0,0,0,0,0,0,0,0,0,0,0,0,0,0,0,0,0,0,0,0,0],"sum_hessian":[7.18E2,2.8E2,4.38E2,1.37E2,1.43E2,2.92E2,1.46E2,7.1E1,6.6E1,1.02E2,4.1E1,1.8E2,1.12E2,4E1,1.06E2,1.8E1,8.4E1,1.8E1,2.3E1,9.3E1,8.7E1,3.7E1,7.5E1,7.2E1,2.1E1,6.3E1,2.4E1,1.8E1,5.4E1,4.8E1,1.5E1,7E0,1.7E1,1.8E1,3.6E1,1E0,4.7E1,2.2E1,1.4E1,1.3E1,1E0],"tree_param":{"num_deleted":"0","num_feature":"9","num_nodes":"41","size_leaf_vector":"1"}},{"base_weights":[-2.268946E-4,-2.638515E-1,1.761384E-1,-3.482833E-1,-1.7148545E-1,8.3115935E-2,3.6297795E-1,-1.941817E-2,-1.4626327E-2,-1.0661084E-2,-6.6666207E-3,1.1679415E-2,1.538987E-1,1.4948593E-2,2.0764291E-2,-1.3523898E-2,2.6333868E-3,6.2279925E-3,9.0887165E-3,-1.5420663E-3,-8.7761795E-3,5.6200814E-3,-1.1176623E-3,9.909322E-4,-1.6743313E-4],"categories":[],"categories_nodes":[],"categories_segments":[],"categories_sizes":[],"default_left":[0,0,0,0,0,0,0,0,0,0,0,0,0,0,0,0,0,0,0,0,0,0,0,0,0],"id":27,"left_children":[1,3,5,7,9,11,13,-1,-1,-1,-1,15,17,-1,-1,19,-1,-1,-1,-1,21,23,-1,-1,-1],"loss_changes":[3.3289825E1,2.1187553E0,7.3957987E0,1.0352898E-1,1.6766453E-1,1.4577261E0,2.2710228E-1,0E0,0E0,0E0,0E0,1.5224859E-1,7.330322E-2,0E0,0E0,7.022744E-3,0E0,0E0,0E0,0E0,1.4910677E-2,4.971776E-3,0E0,0E0,0E0],"parents":[2147483647,0,0,1,1,2,2,3,3,4,4,5,5,6,6,11,11,12,12,15,15,20,20,21,21],"right_children":[2,4,6,8,10,12,14,-1,-1,-1,-1,16,18,-1,-1,20,-1,-1,-1,-1,22,24,-1,-1,-1],"split_conditions":[-9.7690515E-2,-7.9926807E-1,1.2090323E0,-1.3623104E0,-6.6428673E-1,4.1001868E-1,1.4709196E0,-1.941817E-2,-1.4626327E-2,-1.0661084E-2,-6.6666207E-3,1.8628055E-1,6.04931E-1,1.4948593E-2,2.0764291E-2,-9.1477245E-2,2.6333868E-3,6.2279925E-3,9.0887165E-3,-1.5420663E-3,-4.7196936E-2,-4.719694E-2,-1.1176623E-3,9.909322E-4,-1.6743313E-4],"split_indices":[7,7,7,7,7,7,7,0,0,0,0,2,7,0,0,0,0,0,0,0,0,0,0,0,0],"split_type":[0,0,0,0,0,0,0,0,0,0,0,0,0,0,0,0,0,0,0,0,0,0,0,0,0],"sum_hessian":[7.12E2,2.85E2,4.27E2,1.46E2,1.39E2,2.87E2,1.4E2,7.8E1,6.8E1,6.2E1,7.7E1,1.44E2,1.43E2,6.9E1,7.1E1,9E1,5.4E1,7.5E1,6.8E1,1.7E1,7.3E1,3.6E1,3.7E1,1.3E1,2.3E1],"tree_param":{"num_deleted":"0","num_feature":"9","num_nodes":"25","size_leaf_vector":"1"}},{"base_weights":[3.5335843E-3,-2.6298252E-1,1.7093615E-1,-3.589646E-1,-1.6597857E-1,7.149056E-2,3.576036E-1,-2.0172106E-2,-1.4932605E-2,-1.0310787E-2,-1.2506172E-1,1.3440902E-2,1.3142142E-1,1.5873479E-2,2.2777539E-2,1.5301456E-3,-6.401628E-3,-1.5973382E-2,4.2104572E-2,9.603741E-2,8.5809855E-3,3.636172E-3,-1.918083E-2,4.578241E-2,-3.8342548E-3,9.733227E-2,-8.26935E-5,-1.4824365E-3,-1.5202166E-2,2.6667815E-2,6.670147E-2,7.72813E-2,5.6258314E-3,-5.6329905E-4,-1.0944322E-3,2.9130736E-2,-1.2385327E-3,3.3810043E-3,6.064544E-4,4.831285E-3,2.8166445E-3,1.0117603E-3,3.567551E-2,1.8254515E-3,3.167515E-4],"categories":[],"categories_nodes":[],"categories_segments":[],"categories_sizes":[],"default_left":[0,0,0,0,0,0,0,0,0,0,0,0,0,0,0,0,0,0,0,0,0,0,0,0,0,0,0,0,0,0,0,0,0,0,0,0,0,0,0,0,0,0,0,0,0],"id":28,"left_children":[1,3,5,7,9,11,13,-1,-1,-1,15,17,19,-1,-1,-1,-1,21,23,25,-1,-1,27,29,-1,31,-1,-1,33,35,37,39,-1,-1,-1,41,-1,-1,-1,-1,-1,-1,43,-1,-1],"loss_changes":[3.1454588E1,2.413334E0,7.9867573E0,1.2116623E-1,1.7726707E-1,9.879725E-1,3.004055E-1,0E0,0E0,0E0,4.205787E-2,1.2528394E-1,1.6616869E-1,0E0,0E0,0E0,0E0,2.3842083E-2,3.978832E-2,1.0315239E-2,0E0,0E0,2.1388717E-3,2.603203E-2,0E0,6.357074E-3,0E0,0E0,1.0070009E-3,6.7641046E-3,6.4104795E-5,5.322963E-3,0E0,0E0,0E0,9.4319135E-4,0E0,0E0,0E0,0E0,0E0,0E0,5.1001087E-5,0E0,0E0],"parents":[2147483647,0,0,1,1,2,2,3,3,4,4,5,5,6,6,10,10,11,11,12,12,17,17,18,18,19,19,22,22,23,23,25,25,28,28,29,29,30,30,31,31,35,35,42,42],"right_children":[2,4,6,8,10,12,14,-1,-1,-1,16,18,20,-1,-1,-1,-1,22,24,26,-1,-1,28,30,-1,32,-1,-1,34,36,38,40,-1,-1,-1,42,-1,-1,-1,-1,-1,-1,44,-1,-1],"split_conditions":[-9.9788584E-2,-8.009521E-1,1.2061632E0,-1.3636621E0,-6.6605043E-1,4.07621E-1,1.7882234E0,-2.0172106E-2,-1.4932605E-2,-1.0310787E-2,-1.5159491E0,8.4290765E-2,6.024183E-1,1.5873479E-2,2.2777539E-2,1.5301456E-3,-6.401628E-3,-1.5233672E0,1.4790334E0,1.3457304E0,8.5809855E-3,3.636172E-3,-9.1477245E-2,2.6175117E-1,-3.8342548E-3,5.097299E-1,-8.26935E-5,-1.4824365E-3,-4.7196936E-2,6.1281884E-1,9.0378165E-1,4.2338344E-1,5.6258314E-3,-5.6329905E-4,-1.0944322E-3,1.8944041E-1,-1.2385327E-3,3.3810043E-3,6.064544E-4,4.831285E-3,2.8166445E-3,1.0117603E-3,5.037261E-1,1.8254515E-3,3.167515E-4],"split_indices":[8,8,8,8,8,8,8,0,0,0,3,8,8,0,0,0,0,3,3,3,0,0,0,8,0,0,0,0,0,3,3,0,0,0,0,0,0,0,0,0,0,0,3,0,0],"split_type":[0,0,0,0,0,0,0,0,0,0,0,0,0,0,0,0,0,0,0,0,0,0,0,0,0,0,0,0,0,0,0,0,0,0,0,0,0,0,0,0,0,0,0,0,0],"sum_hessian":[7.01E2,2.7E2,4.31E2,1.33E2,1.37E2,2.83E2,1.48E2,7E1,6.3E1,6.5E1,7.2E1,1.45E2,1.38E2,1.11E2,3.7E1,1E0,7.1E1,7.2E1,7.3E1,7.7E1,6.1E1,1E0,7.1E1,7.2E1,1E0,7.6E1,1E0,1.6E1,5.5E1,4E1,3.2E1,3.8E1,3.8E1,3.8E1,1.7E1,3.9E1,1E0,3.1E1,1E0,1.6E1,2.2E1,2E1,1.9E1,1.8E1,1E0],"tree_param":{"num_deleted":"0","num_feature":"9","num_nodes":"45","size_leaf_vector":"1"}},{"base_weights":[-4.80654E-3,-2.3806569E-1,1.5558137E-1,-3.0231655E-1,-1.6464426E-1,6.976805E-2,3.2100493E-1,-1.70352E-2,-2.6034436E-1,7.296457E-2,-1.6904955E-1,-7.91546E-3,1.1400256E-1,1.3205829E-2,1.8428734E-2,-1.5068804E-3,-1.3120835E-2,-4.1017434E-4,5.2744793E-3,-9.356996E-3,-1.0808528E-1,-3.4182493E-3,-8.002043E-3,7.178001E-2,1.4135034E-1,6.3182185E-3,-1.2161802E-1,-9.87493E-3,3.1166324E-2,8.220898E-2,1.935405E-3,5.564466E-3,8.027428E-3,-6.615471E-2,-7.191839E-3,3.443877E-3,-1.2307599E-2,-5.431568E-4,1.7575528E-3,3.2576115E-3,5.428332E-3,-4.2407127E-4,-3.464314E-3,-1.5435219E-3,-7.067194E-3,8.529799E-4,-1.2961559E-2,-9.2574017E-4,-5.4908386E-3,2.282682E-3,-5.383415E-4],"categories":[],"categories_nodes":[],"categories_segments":[],"categories_sizes":[],"default_left":[0,0,0,0,0,0,0,0,0,0,0,0,0,0,0,0,0,0,0,0,0,0,0,0,0,0,0,0,0,0,0,0,0,0,0,0,0,0,0,0,0,0,0,0,0,0,0,0,0,0,0],"id":29,"left_children":[1,3,5,7,9,11,13,-1,15,17,19,21,23,-1,-1,-1,-1,-1,-1,-1,25,27,-1,29,31,-1,33,35,37,39,-1,-1,-1,41,-1,-1,43,-1,-1,-1,-1,-1,-1,-1,45,-1,47,-1,49,-1,-1],"loss_changes":[2.7272564E1,1.3015156E0,6.0876846E0,7.394791E-2,1.7435288E-1,9.8802054E-1,2.031126E-1,0E0,2.3778915E-2,1.2290733E-2,1.15050316E-1,7.1424715E-2,1.9101644E-1,0E0,0E0,0E0,0E0,0E0,0E0,0E0,1.4812791E-1,2.4062194E-2,0E0,1.9848526E-2,2.7171373E-2,0E0,2.5332808E-2,1.8937517E-2,3.6107972E-3,1.10295415E-2,0E0,0E0,0E0,1.3532154E-3,0E0,0E0,8.221299E-3,0E0,0E0,0E0,0E0,0E0,0E0,0E0,1.068151E-2,0E0,2.2443933E-3,0E0,8.53855E-3,0E0,0E0],"parents":[2147483647,0,0,1,1,2,2,3,3,4,4,5,5,6,6,8,8,9,9,10,10,11,11,12,12,20,20,21,21,23,23,24,24,26,26,27,27,28,28,29,29,33,33,36,36,44,44,46,46,48,48],"right_children":[2,4,6,8,10,12,14,-1,16,18,20,22,24,-1,-1,-1,-1,-1,-1,-1,26,28,-1,30,32,-1,34,36,38,40,-1,-1,-1,42,-1,-1,44,-1,-1,-1,-1,-1,-1,-1,46,-1,48,-1,50,-1,-1],"split_conditions":[-1.0619826E-1,-8.265781E-1,1.2119111E0,-1.3609638E0,-1.3738985E0,2.2733863E-1,1.4739543E0,-1.70352E-2,-1.5153012E0,-1.5227332E0,-4.563731E-1,3.444526E-1,4.976191E-1,1.3205829E-2,1.8428734E-2,-1.5068804E-3,-1.3120835E-2,-4.1017434E-4,5.2744793E-3,-9.356996E-3,-8.042334E-1,1.8628055E-1,-8.002043E-3,4.1761425E-1,6.1473507E-1,6.3182185E-3,-4.0931797E-1,-1.3738985E0,9.0427466E-2,3.239461E-1,1.935405E-3,5.564466E-3,8.027428E-3,-1.13001E0,-7.191839E-3,3.443877E-3,-9.267526E-2,-5.431568E-4,1.7575528E-3,3.2576115E-3,5.428332E-3,-4.2407127E-4,-3.464314E-3,-1.5435219E-3,-5.3459663E-2,8.529799E-4,-2.2322997E-2,-9.2574017E-4,-4.843672E-2,2.282682E-3,-5.383415E-4],"split_indices":[3,3,6,6,1,3,6,0,1,1,3,1,6,0,0,0,0,0,0,0,2,2,0,3,3,0,1,1,3,3,0,0,0,1,0,0,1,0,0,0,0,0,0,0,1,0,3,0,1,0,0],"split_type":[0,0,0,0,0,0,0,0,0,0,0,0,0,0,0,0,0,0,0,0,0,0,0,0,0,0,0,0,0,0,0,0,0,0,0,0,0,0,0,0,0,0,0,0,0,0,0,0,0,0,0],"sum_hessian":[7.25E2,2.95E2,4.3E2,1.54E2,1.41E2,2.85E2,1.45E2,7.3E1,8.1E1,2E0,1.39E2,1.04E2,1.81E2,7.2E1,7.3E1,1E0,8E1,1E0,1E0,1.04E2,3.5E1,1.03E2,1E0,7.4E1,1.07E2,1E0,3.4E1,8.8E1,1.5E1,5.4E1,2E1,4.7E1,6E1,1.2E1,2.2E1,1E0,8.7E1,1E0,1.4E1,3.7E1,1.7E1,1E0,1.1E1,1.7E1,7E1,1.3E1,5.7E1,3.1E1,2.6E1,1E0,2.5E1],"tree_param":{"num_deleted":"0","num_feature":"9","num_nodes":"51","size_leaf_vector":"1"}},{"base_weights":[-2.3242184E-3,-2.3856257E-1,1.5067373E-1,-3.253765E-1,-1.490192E-1,4.6769116E-2,2.999131E-1,-1.7667908E-2,-1.222592E-2,-1.8494405E-1,-1.1151549E-1,9.253483E-3,9.939753E-2,2.1339081E-1,3.490729E-1,-5.019486E-4,-9.359396E-3,1.7885625E-3,-5.7236324E-3,-2.0434693E-2,3.6514055E-2,6.61833E-2,5.6434697E-3,1.807201E-2,9.798624E-3,1.51094515E-2,2.1006545E-2,3.8594888E-3,-1.1920076E-3,4.0028602E-2,-4.077496E-3,4.7920877E-3,1.4779092E-3,2.8165706E-2,5.165782E-2,3.0706787E-2,-1.3516806E-3,2.62925E-3,2.8920147E-4,1.5562715E-3,2.1873116E-4],"categories":[],"categories_nodes":[],"categories_segments":[],"categories_sizes":[],"default_left":[0,0,0,0,0,0,0,0,0,0,0,0,0,0,0,0,0,0,0,0,0,0,0,0,0,0,0,0,0,0,0,0,0,0,0,0,0,0,0,0,0],"id":30,"left_children":[1,3,5,7,9,11,13,-1,-1,15,17,19,21,23,25,-1,-1,-1,-1,27,29,31,-1,-1,-1,-1,-1,-1,-1,33,-1,-1,-1,35,37,39,-1,-1,-1,-1,-1],"loss_changes":[2.602327E1,2.1029587E0,6.748357E0,1.4847565E-1,1.5141797E-1,5.1150143E-1,6.123848E-1,0E0,0E0,2.3714066E-2,4.0855825E-2,1.2612706E-1,3.3385277E-2,3.8849592E-2,1.15875244E-1,0E0,0E0,0E0,0E0,2.8614644E-2,4.0138915E-2,3.3438995E-2,0E0,0E0,0E0,0E0,0E0,0E0,0E0,8.126542E-3,0E0,0E0,0E0,7.831935E-3,1.0079592E-3,2.0169467E-4,0E0,0E0,0E0,0E0,0E0],"parents":[2147483647,0,0,1,1,2,2,3,3,4,4,5,5,6,6,9,9,10,10,11,11,12,12,13,13,14,14,19,19,20,20,21,21,29,29,33,33,34,34,35,35],"right_children":[2,4,6,8,10,12,14,-1,-1,16,18,20,22,24,26,-1,-1,-1,-1,28,30,32,-1,-1,-1,-1,-1,-1,-1,34,-1,-1,-1,36,38,40,-1,-1,-1,-1,-1],"split_conditions":[-9.9788584E-2,-8.009521E-1,7.517266E-1,-1.2993343E0,-6.6605043E-1,4.07621E-1,1.3461468E0,-1.7667908E-2,-1.222592E-2,-1.3097004E0,-1.5159491E0,8.4290765E-2,5.0796473E-1,-2.6561168E-1,1.7882234E0,-5.019486E-4,-9.359396E-3,1.7885625E-3,-5.7236324E-3,-1.5227332E0,1.4790334E0,4.2169973E-1,5.6434697E-3,1.807201E-2,9.798624E-3,1.51094515E-2,2.1006545E-2,3.8594888E-3,-1.1920076E-3,2.6175117E-1,-4.077496E-3,4.7920877E-3,1.4779092E-3,6.1281884E-1,9.0378165E-1,6.1836475E-1,-1.3516806E-3,2.62925E-3,2.8920147E-4,1.5562715E-3,2.1873116E-4],"split_indices":[8,8,8,8,8,8,8,0,0,3,3,8,1,3,8,0,0,0,0,1,3,1,0,0,0,0,0,0,0,8,0,0,0,3,3,1,0,0,0,0,0],"split_type":[0,0,0,0,0,0,0,0,0,0,0,0,0,0,0,0,0,0,0,0,0,0,0,0,0,0,0,0,0,0,0,0,0,0,0,0,0,0,0,0,0],"sum_hessian":[7.16E2,2.81E2,4.35E2,1.4E2,1.41E2,2.58E2,1.77E2,9.9E1,4.1E1,6.8E1,7.3E1,1.52E2,1.06E2,6.8E1,1.09E2,1E0,6.7E1,1E0,7.2E1,7.3E1,7.9E1,3.4E1,7.2E1,3E0,6.5E1,7.2E1,3.7E1,1E0,7.2E1,7.8E1,1E0,1.7E1,1.7E1,4.2E1,3.6E1,4.1E1,1E0,3.5E1,1E0,4E1,1E0],"tree_param":{"num_deleted":"0","num_feature":"9","num_nodes":"41","size_leaf_vector":"1"}},{"base_weights":[2.4591666E-3,-2.3017715E-1,1.4804353E-1,-3.2393807E-1,-1.3172147E-1,6.687403E-2,3.0947268E-1,-1.850889E-2,-1.2959723E-2,-1.7828904E-1,-8.1390426E-2,1.0531932E-2,1.2700884E-1,1.37299765E-2,1.975255E-2,-4.935831E-4,-9.0221865E-3,5.370937E-4,-8.4416136E-2,-1.3059698E-2,3.35583E-2,5.5874526E-3,8.3078025E-3,-5.0016055E-3,-3.248897E-3,3.7951637E-3,-1.6186574E-2,3.7332665E-2,-2.7938674E-3,-1.3774544E-3,-1.2048894E-2,2.7046688E-2,2.4375212E-3,-6.9849924E-3,-2.0160632E-2,1.4929593E-3,-8.355502E-4,-1.14419265E-4,-4.962682E-4,-7.506338E-4,-1.5829308E-3],"categories":[],"categories_nodes":[],"categories_segments":[],"categories_sizes":[],"default_left":[0,0,0,0,0,0,0,0,0,0,0,0,0,0,0,0,0,0,0,0,0,0,0,0,0,0,0,0,0,0,0,0,0,0,0,0,0,0,0,0,0],"id":31,"left_children":[1,3,5,7,9,11,13,-1,-1,15,17,19,21,-1,-1,-1,-1,-1,23,25,27,-1,-1,-1,-1,-1,29,31,-1,-1,33,35,-1,37,39,-1,-1,-1,-1,-1,-1],"loss_changes":[2.4283922E1,2.4624987E0,5.7370863E0,2.2722435E-1,2.9442167E-1,1.0002086E0,2.2174358E-1,0E0,0E0,2.1839619E-2,2.1327138E-2,8.5077114E-2,4.8289537E-2,0E0,0E0,0E0,0E0,0E0,7.6414347E-3,2.4154976E-2,3.0839555E-2,0E0,0E0,0E0,0E0,0E0,2.9562432E-3,6.4060166E-3,0E0,0E0,2.1829791E-3,6.536033E-3,0E0,5.0696486E-4,3.516432E-4,0E0,0E0,0E0,0E0,0E0,0E0],"parents":[2147483647,0,0,1,1,2,2,3,3,4,4,5,5,6,6,9,9,10,10,11,11,12,12,18,18,19,19,20,20,26,26,27,27,30,30,31,31,33,33,34,34],"right_children":[2,4,6,8,10,12,14,-1,-1,16,18,20,22,-1,-1,-1,-1,-1,24,26,28,-1,-1,-1,-1,-1,30,32,-1,-1,34,36,-1,38,40,-1,-1,-1,-1,-1,-1],"split_conditions":[-9.9788584E-2,-8.009521E-1,1.2061632E0,-1.3636621E0,-6.6605043E-1,4.07621E-1,1.7882234E0,-1.850889E-2,-1.2959723E-2,-1.3089868E0,-1.5154078E0,8.4290765E-2,7.517266E-1,1.37299765E-2,1.975255E-2,-4.935831E-4,-9.0221865E-3,5.370937E-4,-6.46787E-1,-1.5228328E0,1.4820986E0,5.5874526E-3,8.3078025E-3,-5.0016055E-3,-3.248897E-3,3.7951637E-3,-9.267526E-2,2.6175117E-1,-2.7938674E-3,-1.3774544E-3,-4.7196936E-2,6.1836475E-1,2.4375212E-3,-4.719694E-2,1.8869062E-1,1.4929593E-3,-8.355502E-4,-1.14419265E-4,-4.962682E-4,-7.506338E-4,-1.5829308E-3],"split_indices":[8,8,8,8,8,8,8,0,0,2,2,8,8,0,0,0,0,0,2,2,2,0,0,0,0,0,1,8,0,0,0,1,0,0,1,0,0,0,0,0,0],"split_type":[0,0,0,0,0,0,0,0,0,0,0,0,0,0,0,0,0,0,0,0,0,0,0,0,0,0,0,0,0,0,0,0,0,0,0,0,0,0,0,0,0],"sum_hessian":[7.13E2,2.74E2,4.39E2,1.38E2,1.36E2,2.94E2,1.45E2,7.5E1,6.3E1,6.8E1,6.8E1,1.53E2,1.41E2,1.09E2,3.6E1,1E0,6.7E1,2E0,6.6E1,7.6E1,7.7E1,1.07E2,3.4E1,3.2E1,3.4E1,1E0,7.5E1,7.5E1,2E0,1.7E1,5.8E1,4.3E1,3.2E1,3.8E1,2E1,4.1E1,2E0,1.6E1,2.2E1,1.7E1,3E0],"tree_param":{"num_deleted":"0","num_feature":"9","num_nodes":"41","size_leaf_vector":"1"}},{"base_weights":[-9.5092127E-4,-2.0934913E-1,1.3361366E-1,-2.7592295E-1,-1.458353E-1,6.104092E-2,2.7943262E-1,-1.4741093E-2,-2.1095166E-1,-1.6423193E-1,-8.4906355E-2,8.199322E-3,1.0790405E-1,2.4177796E-1,1.8661072E-2,1.7498017E-3,-1.0986389E-2,3.7319108E-3,-1.677929E-1,-4.4470528E-4,-4.323999E-3,1.2826884E-2,7.746745E-4,1.2708284E-2,1.0158993E-1,1.2422935E-2,-5.448041E-2,-1.3030117E-3,-8.431132E-3,-1.9896694E-1,6.7255483E-3,8.077797E-2,6.6819685E-3,3.3094586E-4,-3.962973E-3,-3.7417896E-4,-1.2890284E-2,-1.5280636E-2,2.9861636E-2,6.1954692E-2,4.716125E-3,-1.2236614E-3,-1.1157307E-2,1.6811313E-2,2.2676324E-3,6.3026115E-2,2.2901148E-4,-7.1672193E-4,-8.459295E-3,2.2477375E-2,-1.5354428E-3,3.7818623E-3,2.450797E-3,-1.5602699E-4,-6.870828E-4,3.384018E-3,1.7318413E-2,2.2983085E-4,1.5123886E-3],"categories":[],"categories_nodes":[],"categories_segments":[],"categories_sizes":[],"default_left":[0,0,0,0,0,0,0,0,0,0,0,0,0,0,0,0,0,0,0,0,0,0,0,0,0,0,0,0,0,0,0,0,0,0,0,0,0,0,0,0,0,0,0,0,0,0,0,0,0,0,0,0,0,0,0,0,0,0,0],"id":32,"left_children":[1,3,5,7,9,11,13,-1,15,17,19,21,23,25,-1,-1,-1,-1,27,-1,-1,-1,29,-1,31,-1,33,-1,-1,35,37,39,-1,-1,-1,-1,-1,41,43,45,-1,-1,47,49,-1,51,-1,-1,53,55,-1,-1,-1,-1,-1,-1,57,-1,-1],"loss_changes":[1.9798227E1,1.0907774E0,4.5057716E0,3.892231E-2,1.3576078E-1,7.138878E-1,3.2101154E-1,0E0,9.524238E-2,1.1861491E-1,3.0070245E-3,2.5405034E-1,8.9655876E-2,2.3884916E-1,0E0,0E0,0E0,0E0,4.029751E-3,0E0,0E0,0E0,1.6433097E-1,0E0,7.846141E-2,0E0,7.1051586E-3,0E0,0E0,4.120794E-2,6.913697E-2,1.2787998E-2,0E0,0E0,0E0,0E0,0E0,2.107175E-3,1.1817865E-2,2.2503883E-3,0E0,0E0,2.0322204E-4,1.1881345E-2,0E0,5.3593516E-4,0E0,0E0,8.4487814E-4,6.0509853E-3,0E0,0E0,0E0,0E0,0E0,0E0,5.478888E-3,0E0,0E0],"parents":[2147483647,0,0,1,1,2,2,3,3,4,4,5,5,6,6,8,8,9,9,10,10,11,11,12,12,13,13,18,18,22,22,24,24,26,26,29,29,30,30,31,31,37,37,38,38,39,39,42,42,43,43,45,45,48,48,49,49,56,56],"right_children":[2,4,6,8,10,12,14,-1,16,18,20,22,24,26,-1,-1,-1,-1,28,-1,-1,-1,30,-1,32,-1,34,-1,-1,36,38,40,-1,-1,-1,-1,-1,42,44,46,-1,-1,48,50,-1,52,-1,-1,54,56,-1,-1,-1,-1,-1,-1,58,-1,-1],"split_conditions":[-2.6970747E-1,-1.146767E0,8.1129444E-1,-1.3107356E0,-5.143215E-1,2.78996E-1,1.757622E0,-1.4741093E-2,-1.5154078E0,-1.5228328E0,-9.998032E-1,-8.042334E-1,-5.493106E-2,1.5790496E0,1.8661072E-2,1.7498017E-3,-1.0986389E-2,3.7319108E-3,-1.3596225E0,-4.4470528E-4,-4.323999E-3,1.2826884E-2,-1.2240202E-1,1.2708284E-2,6.122801E-1,1.2422935E-2,1.4790334E0,-1.3030117E-3,-8.431132E-3,-6.6848946E-1,1.0219542E-2,5.013531E-1,6.6819685E-3,3.3094586E-4,-3.962973E-3,-3.7417896E-4,-1.2890284E-2,-9.411004E-2,2.2516955E-1,6.046029E-1,4.716125E-3,-1.2236614E-3,-5.493106E-2,2.686981E-1,2.2676324E-3,4.197847E-1,2.2901148E-4,-7.1672193E-4,-5.1687542E-2,-4.9912784E-2,-1.5354428E-3,3.7818623E-3,2.450797E-3,-1.5602699E-4,-6.870828E-4,3.384018E-3,1.8628055E-1,2.2983085E-4,1.5123886E-3],"split_indices":[4,4,4,4,4,4,4,0,2,2,2,2,2,2,0,0,0,0,5,0,0,0,4,0,4,0,3,0,0,2,4,4,0,0,0,0,0,2,4,3,0,0,2,5,0,2,0,0,3,2,0,0,0,0,0,0,2,0,0],"split_type":[0,0,0,0,0,0,0,0,0,0,0,0,0,0,0,0,0,0,0,0,0,0,0,0,0,0,0,0,0,0,0,0,0,0,0,0,0,0,0,0,0,0,0,0,0,0,0,0,0,0,0,0,0,0,0,0,0,0,0],"sum_hessian":[7.02E2,2.75E2,4.27E2,1.31E2,1.44E2,2.87E2,1.4E2,9.6E1,3.5E1,1.08E2,3.6E1,1.36E2,1.51E2,1.05E2,3.5E1,1E0,3.4E1,1E0,1.07E2,1E0,3.5E1,2E0,1.34E2,3E0,1.48E2,1.03E2,2E0,1E0,1.06E2,2E0,1.32E2,9.4E1,5.4E1,1E0,1E0,1E0,1E0,6.8E1,6.4E1,4.4E1,5E1,1.8E1,5E1,3.7E1,2.7E1,4.3E1,1E0,1.9E1,3.1E1,3.4E1,3E0,1.8E1,2.5E1,1.7E1,1.4E1,1E0,3.3E1,1.8E1,1.5E1],"tree_param":{"num_deleted":"0","num_feature":"9","num_nodes":"59","size_leaf_vector":"1"}},{"base_weights":[2.682202E-3,-1.6238339E-1,1.6819389E-1,-2.5485048E-1,-7.0668064E-2,6.430146E-2,2.6907983E-1,-1.4438315E-2,-9.7801825E-3,-1.1168541E-1,-1.5066092E-2,4.1998338E-2,9.41085E-2,2.0918122E-1,1.75983E-2,-1.2865034E-1,-4.00559E-3,3.6697125E-3,-1.8043926E-2,4.5858357E-2,-3.9680647E-3,4.8007425E-3,-7.82692E-4,9.233213E-3,1.2142636E-2,-3.022502E-4,-6.518857E-3,-1.1821748E-3,-5.8503693E-4,1.124033E-3,5.7573587E-2,6.775549E-2,1.5880344E-3,2.653872E-3,4.113156E-3],"categories":[],"categories_nodes":[],"categories_segments":[],"categories_sizes":[],"default_left":[0,0,0,0,0,0,0,0,0,0,0,0,0,0,0,0,0,0,0,0,0,0,0,0,0,0,0,0,0,0,0,0,0,0,0],"id":33,"left_children":[1,3,5,7,9,11,13,-1,-1,15,17,19,21,23,-1,25,-1,-1,27,29,-1,-1,-1,-1,-1,-1,-1,-1,-1,-1,31,33,-1,-1,-1],"loss_changes":[1.9588629E1,3.0085325E0,3.7176962E0,2.4470711E-1,4.1399264E-1,1.1109263E-1,7.5137234E-1,0E0,0E0,3.562987E-2,2.3722256E-2,5.6934476E-2,1.8699408E-2,1.1153221E-3,0E0,1.2185216E-2,0E0,0E0,2.2527184E-3,2.5894418E-2,0E0,0E0,0E0,0E0,0E0,0E0,0E0,0E0,0E0,0E0,1.3568163E-2,1.2757182E-3,0E0,0E0,0E0],"parents":[2147483647,0,0,1,1,2,2,3,3,4,4,5,5,6,6,9,9,10,10,11,11,12,12,13,13,15,15,18,18,19,19,30,30,31,31],"right_children":[2,4,6,8,10,12,14,-1,-1,16,18,20,22,24,-1,26,-1,-1,28,30,-1,-1,-1,-1,-1,-1,-1,-1,-1,-1,32,34,-1,-1,-1],"split_conditions":[8.4290765E-2,-7.859113E-1,7.517266E-1,-1.2979445E0,-9.9788584E-2,4.9271783E-1,1.4678959E0,-1.4438315E-2,-9.7801825E-3,-4.08316E-1,-1.5228328E0,4.9516577E-1,7.5432754E-1,1.3461468E0,1.75983E-2,-7.9926807E-1,-4.00559E-3,3.6697125E-3,-5.493106E-2,2.6175117E-1,-3.9680647E-3,4.8007425E-3,-7.82692E-4,9.233213E-3,1.2142636E-2,-3.022502E-4,-6.518857E-3,-1.1821748E-3,-5.8503693E-4,1.124033E-3,4.197847E-1,4.07621E-1,1.5880344E-3,2.653872E-3,4.113156E-3],"split_indices":[8,8,8,7,8,8,8,0,0,6,2,7,7,8,0,7,0,0,2,8,0,0,0,0,0,0,0,0,0,0,2,8,0,0,0],"split_type":[0,0,0,0,0,0,0,0,0,0,0,0,0,0,0,0,0,0,0,0,0,0,0,0,0,0,0,0,0,0,0,0,0,0,0],"sum_hessian":[7.13E2,3.57E2,3.56E2,1.76E2,1.81E2,1.77E2,1.79E2,1.07E2,6.9E1,1.03E2,7.8E1,1.04E2,7.3E1,1.08E2,7.1E1,6.3E1,4E1,1E0,7.7E1,1.02E2,2E0,7.2E1,1E0,7E1,3.8E1,1E0,6.2E1,3.8E1,3.9E1,3.6E1,6.6E1,4.5E1,2.1E1,2.7E1,1.8E1],"tree_param":{"num_deleted":"0","num_feature":"9","num_nodes":"35","size_leaf_vector":"1"}},{"base_weights":[5.9834165E-3,-1.8406174E-1,1.280979E-1,-2.4662714E-1,-1.1714152E-1,6.603544E-2,2.505034E-1,-1.3604216E-2,-1.0560704E-2,-6.7388746E-3,-3.2715455E-3,1.9995147E-2,1.105913E-1,1.1042026E-2,1.6276352E-2,6.3282205E-4,3.9602023E-2,9.428243E-2,6.190793E-3,-1.1224995E-3,8.96857E-3,1.9949395E-3,2.9896302E-4,4.744617E-3,8.0899254E-4,2.2332582E-3,-6.7570433E-3,3.1697706E-5,-7.475268E-4],"categories":[],"categories_nodes":[],"categories_segments":[],"categories_sizes":[],"default_left":[0,0,0,0,0,0,0,0,0,0,0,0,0,0,0,0,0,0,0,0,0,0,0,0,0,0,0,0,0],"id":34,"left_children":[1,3,5,7,9,11,13,-1,-1,-1,-1,15,17,-1,-1,19,21,23,-1,-1,25,-1,-1,-1,-1,-1,27,-1,-1],"loss_changes":[1.6965256E1,1.1396704E0,3.3474855E0,1.6684532E-2,1.11861944E-1,6.068841E-1,1.8780804E-1,0E0,0E0,0E0,0E0,5.651544E-2,9.220004E-3,0E0,0E0,1.5218451E-2,2.6126206E-4,5.495548E-4,0E0,0E0,3.3161953E-2,0E0,0E0,0E0,0E0,0E0,2.5623953E-3,0E0,0E0],"parents":[2147483647,0,0,1,1,2,2,3,3,4,4,5,5,6,6,11,11,12,12,15,15,16,16,17,17,20,20,26,26],"right_children":[2,4,6,8,10,12,14,-1,-1,-1,-1,16,18,-1,-1,20,22,24,-1,-1,26,-1,-1,-1,-1,-1,28,-1,-1],"split_conditions":[-9.7690515E-2,-7.9926807E-1,1.2090323E0,-1.3623104E0,-4.1022983E-1,4.1001868E-1,1.7914363E0,-1.3604216E-2,-1.0560704E-2,-6.7388746E-3,-3.2715455E-3,8.649754E-2,6.04931E-1,1.1042026E-2,1.6276352E-2,-9.1477245E-2,1.4820986E0,1.3015541E0,6.190793E-3,-1.1224995E-3,-4.719694E-2,1.9949395E-3,2.9896302E-4,4.744617E-3,8.0899254E-4,2.2332582E-3,-4.7196936E-2,3.1697706E-5,-7.475268E-4],"split_indices":[7,7,7,7,7,7,7,0,0,0,0,7,7,0,0,0,2,2,0,0,0,0,0,0,0,0,0,0,0],"split_type":[0,0,0,0,0,0,0,0,0,0,0,0,0,0,0,0,0,0,0,0,0,0,0,0,0,0,0,0,0],"sum_hessian":[7.27E2,2.84E2,4.43E2,1.44E2,1.4E2,2.96E2,1.47E2,7.6E1,6.8E1,1.02E2,3.8E1,1.47E2,1.49E2,1.11E2,3.6E1,7.5E1,7.2E1,7.4E1,7.5E1,1.9E1,5.6E1,7.1E1,1E0,7.3E1,1E0,1.6E1,4E1,2.2E1,1.8E1],"tree_param":{"num_deleted":"0","num_feature":"9","num_nodes":"29","size_leaf_vector":"1"}},{"base_weights":[5.2078143E-3,-1.769107E-1,1.23170786E-1,-2.3940964E-1,-1.1240262E-1,4.9661662E-2,2.2234899E-1,-1.2849583E-2,-1.8615928E-1,1.0744441E-2,-1.17660046E-1,-1.0356894E-2,7.5451344E-2,1.5973267E-1,2.638454E-1,3.8352876E-3,-9.803532E-3,-1.4041089E-1,-2.5743651E-3,1.2282233E-2,-2.3386665E-2,1.0646955E-2,7.071495E-2,8.29251E-3,1.6297072E-3,2.2944938E-1,1.6090062E-2,-1.3127011E-1,-1.3627322E-2,-1.378989E-2,-1.2545692E-2,5.0502263E-2,8.330076E-2,8.171173E-4,-9.536808E-4,1.1789518E-2,-4.102062E-3,-1.4453481E-1,-5.0486713E-3,-1.0743404E-3,-5.421884E-4,8.6640105E-2,3.151574E-2,8.5080765E-2,-4.6298318E-3,-8.6668925E-4,-7.2968416E-3,3.65918E-4,4.472625E-3,-8.3030167E-4,3.4157693E-2,4.3047783E-3,3.0549532E-2,-1.4308748E-3,1.1222194E-3,1.7053202E-2,1.9693456E-3,1.732116E-4,1.7794371E-3,1.2037738E-3,-1.3543101E-3],"categories":[],"categories_nodes":[],"categories_segments":[],"categories_sizes":[],"default_left":[0,0,0,0,0,0,0,0,0,0,0,0,0,0,0,0,0,0,0,0,0,0,0,0,0,0,0,0,0,0,0,0,0,0,0,0,0,0,0,0,0,0,0,0,0,0,0,0,0,0,0,0,0,0,0,0,0,0,0,0,0],"id":35,"left_children":[1,3,5,7,9,11,13,-1,15,-1,17,19,21,23,25,-1,-1,27,-1,-1,29,-1,31,-1,33,35,-1,37,-1,39,-1,41,43,-1,-1,-1,-1,45,-1,-1,-1,47,49,51,53,-1,-1,-1,-1,-1,55,-1,57,-1,-1,59,-1,-1,-1,-1,-1],"loss_changes":[1.5683379E1,1.1032734E0,3.2076087E0,3.9136887E-2,3.000704E-1,3.993628E-1,4.042015E-1,0E0,1.4210951E-1,0E0,2.0233119E-1,2.7500528E-1,8.7099314E-2,7.683563E-2,7.1605206E-2,0E0,0E0,5.6474686E-2,0E0,0E0,1.6121143E-1,0E0,3.6613762E-2,0E0,2.1464177E-3,1.8880033E-1,0E0,1.2205005E-2,0E0,1.2573861E-3,0E0,4.4626594E-2,1.7378688E-2,0E0,0E0,0E0,0E0,6.8893433E-3,0E0,0E0,0E0,4.0447265E-3,7.6183453E-3,4.9477816E-4,3.8823932E-3,0E0,0E0,0E0,0E0,0E0,3.0393712E-3,0E0,4.3586735E-4,0E0,0E0,5.9536095E-3,0E0,0E0,0E0,0E0,0E0],"parents":[2147483647,0,0,1,1,2,2,3,3,4,4,5,5,6,6,8,8,10,10,11,11,12,12,13,13,14,14,17,17,20,20,22,22,24,24,25,25,27,27,29,29,31,31,32,32,37,37,41,41,42,42,43,43,44,44,50,50,52,52,55,55],"right_children":[2,4,6,8,10,12,14,-1,16,-1,18,20,22,24,26,-1,-1,28,-1,-1,30,-1,32,-1,34,36,-1,38,-1,40,-1,42,44,-1,-1,-1,-1,46,-1,-1,-1,48,50,52,54,-1,-1,-1,-1,-1,56,-1,58,-1,-1,60,-1,-1,-1,-1,-1],"split_conditions":[-2.6970747E-1,-8.947129E-1,7.263332E-1,-1.3107356E0,-1.374795E0,1.0219542E-2,1.3340489E0,-1.2849583E-2,-1.5228846E0,1.0744441E-2,-5.143215E-1,-8.0537426E-1,-5.1687542E-2,1.23738E0,1.757622E0,3.8352876E-3,-9.803532E-3,-4.563731E-1,-2.5743651E-3,1.2282233E-2,9.0427466E-2,1.0646955E-2,3.9642546E-1,8.29251E-3,1.4790334E0,1.706925E0,1.6090062E-2,-7.594992E-1,-1.3627322E-2,-9.1477245E-2,-1.2545692E-2,1.8944041E-1,7.5030327E-1,8.171173E-4,-9.536808E-4,1.1789518E-2,-4.102062E-3,-1.5154477E0,-5.0486713E-3,-1.0743404E-3,-5.421884E-4,1.8430685E-1,8.835946E-2,7.699143E-1,8.207452E-1,-8.6668925E-4,-7.2968416E-3,3.65918E-4,4.472625E-3,-8.3030167E-4,2.2516955E-1,4.3047783E-3,8.207452E-1,-1.4308748E-3,1.1222194E-3,2.700046E-1,1.9693456E-3,1.732116E-4,1.7794371E-3,1.2037738E-3,-1.3543101E-3],"split_indices":[4,4,4,4,3,4,4,0,0,0,4,3,3,0,4,0,0,3,0,0,3,0,4,0,3,0,0,4,0,0,0,0,3,0,0,0,0,0,0,0,0,3,4,0,0,0,0,0,0,0,4,0,0,0,0,3,0,0,0,0,0],"split_type":[0,0,0,0,0,0,0,0,0,0,0,0,0,0,0,0,0,0,0,0,0,0,0,0,0,0,0,0,0,0,0,0,0,0,0,0,0,0,0,0,0,0,0,0,0,0,0,0,0,0,0,0,0,0,0,0,0,0,0,0,0],"sum_hessian":[7.26E2,2.85E2,4.41E2,1.42E2,1.43E2,2.55E2,1.86E2,1.01E2,4.1E1,1E0,1.42E2,7.7E1,1.78E2,7.8E1,1.08E2,1E0,4E1,1.04E2,3.8E1,2E0,7.5E1,3E0,1.75E2,7.5E1,3E0,7.4E1,3.4E1,1.01E2,3E0,7.4E1,1E0,7.1E1,1.04E2,2E0,1E0,7.3E1,1E0,6.5E1,3.6E1,1.7E1,5.7E1,2.2E1,4.9E1,1.02E2,2E0,1E0,6.4E1,1E0,2.1E1,2E0,4.7E1,9.9E1,3E0,1E0,1E0,1.3E1,3.4E1,1E0,2E0,1.2E1,1E0],"tree_param":{"num_deleted":"0","num_feature":"9","num_nodes":"61","size_leaf_vector":"1"}},{"base_weights":[8.244927E-3,-1.3101138E-1,1.4089625E-1,-2.1528167E-1,-7.453529E-2,7.7437356E-2,2.2611897E-1,-1.20740365E-2,-1.8117334E-1,-1.14968695E-1,-3.239464E-2,3.470228E-2,4.895444E-3,1.9941112E-1,1.4880367E-2,-1.0758649E-3,-9.141969E-3,4.071355E-3,-1.1820518E-1,5.5455677E-3,-3.7059177E-2,2.4383639E-3,2.7814379E-2,1.0099978E-2,1.037908E-3,-6.474253E-3,-4.537027E-3,-7.22991E-2,-1.915577E-2,-4.9747084E-4,2.9614879E-2,-4.7098316E-2,-4.3874946E-3,-1.4084424E-2,-6.573924E-3,1.1699982E-3,3.7529487E-2,-3.1162574E-4,-2.4384474E-3,-1.1257617E-3,-5.389982E-4,3.84879E-2,3.2199424E-4,5.743759E-4,2.0156472E-3],"categories":[],"categories_nodes":[],"categories_segments":[],"categories_sizes":[],"default_left":[0,0,0,0,0,0,0,0,0,0,0,0,0,0,0,0,0,0,0,0,0,0,0,0,0,0,0,0,0,0,0,0,0,0,0,0,0,0,0,0,0,0,0,0,0],"id":36,"left_children":[1,3,5,7,9,11,13,-1,15,17,19,21,-1,23,-1,-1,-1,-1,25,-1,27,-1,29,-1,-1,-1,-1,31,33,-1,35,37,-1,39,-1,-1,41,-1,-1,-1,-1,43,-1,-1,-1],"loss_changes":[1.3780482E1,1.7002773E0,2.030889E0,4.207325E-2,3.6911082E-1,1.874218E-1,1.9061375E-1,0E0,1.1016846E-2,9.044111E-2,8.241923E-2,4.553005E-3,0E0,4.8955917E-2,0E0,0E0,0E0,0E0,1.08885765E-2,0E0,6.599979E-2,0E0,4.328955E-3,0E0,0E0,0E0,0E0,5.7516545E-3,3.901845E-2,0E0,8.506179E-4,6.2098727E-4,0E0,1.576161E-3,0E0,0E0,1.0021962E-4,0E0,0E0,0E0,0E0,1.006946E-5,0E0,0E0,0E0],"parents":[2147483647,0,0,1,1,2,2,3,3,4,4,5,5,6,6,8,8,9,9,10,10,11,11,13,13,18,18,20,20,22,22,27,27,28,28,30,30,31,31,33,33,36,36,41,41],"right_children":[2,4,6,8,10,12,14,-1,16,18,20,22,-1,24,-1,-1,-1,-1,26,-1,28,-1,30,-1,-1,-1,-1,32,34,-1,36,38,-1,40,-1,-1,42,-1,-1,-1,-1,44,-1,-1,-1],"split_conditions":[-2.2322997E-2,-8.265781E-1,8.22123E-1,-1.3747963E0,-4.563731E-1,3.239461E-1,1.6976684E0,-1.20740365E-2,-1.5154477E0,-1.3738985E0,-8.042334E-1,1.8944041E-1,4.895444E-3,1.706925E0,1.4880367E-2,-1.0758649E-3,-9.141969E-3,4.071355E-3,-6.929599E-1,5.5455677E-3,-2.2320691E-1,2.4383639E-3,9.0427466E-2,1.0099978E-2,1.037908E-3,-6.474253E-3,-4.537027E-3,-4.0931797E-1,1.8944038E-1,-4.9747084E-4,2.7537164E-1,-1.5228846E0,-4.3874946E-3,-9.267526E-2,-6.573924E-3,1.1699982E-3,6.207075E-1,-3.1162574E-4,-2.4384474E-3,-1.1257617E-3,-5.389982E-4,2.7205053E-1,3.2199424E-4,5.743759E-4,2.0156472E-3],"split_indices":[3,3,3,3,3,3,3,0,0,1,2,0,0,0,0,0,0,0,3,0,1,0,3,0,0,0,0,1,0,0,0,0,0,1,0,0,0,0,0,0,0,2,0,0,0],"split_type":[0,0,0,0,0,0,0,0,0,0,0,0,0,0,0,0,0,0,0,0,0,0,0,0,0,0,0,0,0,0,0,0,0,0,0,0,0,0,0,0,0,0,0,0,0],"sum_hessian":[7.42E2,3.62E2,3.8E2,1.43E2,2.19E2,2.2E2,1.6E2,7.4E1,6.9E1,1.1E2,1.09E2,7.3E1,1.47E2,1.22E2,3.8E1,1E0,6.8E1,1E0,1.09E2,2E0,1.07E2,2E1,5.3E1,1.2E2,2E0,7.2E1,3.7E1,3.4E1,7.3E1,2E0,5.1E1,1.6E1,1.8E1,7.2E1,1E0,3.3E1,1.8E1,1E0,1.5E1,1.7E1,5.5E1,1.7E1,1E0,2E0,1.5E1],"tree_param":{"num_deleted":"0","num_feature":"9","num_nodes":"45","size_leaf_vector":"1"}},{"base_weights":[-6.5534683E-3,-1.4159375E-1,1.2518391E-1,-2.3279753E-1,-7.860535E-2,7.489387E-2,2.4946877E-1,-1.1064847E-2,-1.7806461E-2,-1.3126451E-1,-5.209947E-2,4.3092575E-2,1.201557E-1,9.721598E-3,1.3532287E-2,-1.2970671E-2,-6.7181126E-3,-6.184035E-2,-2.343764E-2,1.3314982E-2,5.3045344E-2,1.1750708E-2,1.1232297E-1,1.9455752E-4,-1.059269E-3,2.317039E-3,-6.3735284E-2,-1.3325323E-3,-1.6549451E-2,1.5818203E-2,-1.4886179E-3,5.4407727E-2,-1.2645848E-2,4.284775E-3,6.2234807E-3,-4.2383224E-4,-6.4100094E-2,-5.514229E-4,-1.5179351E-3,5.227417E-4,2.150975E-2,4.5324143E-2,6.803757E-2,-1.1061196E-3,2.6306312E-4,-5.9514794E-2,-4.2701215E-3,1.1230925E-3,8.8733934E-5,4.9779538E-2,1.6858032E-3,3.4399566E-3,6.135578E-4,-3.436119E-3,-1.0700473E-3,1.744166E-3,3.3514143E-3],"categories":[],"categories_nodes":[],"categories_segments":[],"categories_sizes":[],"default_left":[0,0,0,0,0,0,0,0,0,0,0,0,0,0,0,0,0,0,0,0,0,0,0,0,0,0,0,0,0,0,0,0,0,0,0,0,0,0,0,0,0,0,0,0,0,0,0,0,0,0,0,0,0,0,0,0,0],"id":37,"left_children":[1,3,5,7,9,11,13,-1,-1,15,17,19,21,-1,-1,23,-1,25,27,29,31,-1,33,-1,-1,-1,35,-1,37,39,-1,41,43,-1,-1,-1,45,-1,-1,-1,47,49,51,-1,-1,53,-1,-1,-1,55,-1,-1,-1,-1,-1,-1,-1],"loss_changes":[1.2790775E1,2.002798E0,2.2377386E0,4.662752E-2,2.8362286E-1,3.6676335E-1,1.5969276E-2,0E0,0E0,2.2165537E-2,3.7583947E-2,4.5117438E-2,4.3468E-2,0E0,0E0,7.189306E-4,0E0,2.7841657E-2,3.164634E-6,5.4718894E-3,1.1847168E-2,0E0,1.2304187E-2,0E0,0E0,0E0,1.0501444E-3,0E0,7.02715E-4,8.017989E-4,0E0,8.0703795E-3,9.115736E-4,0E0,0E0,0E0,9.074807E-5,0E0,0E0,0E0,2.5849044E-4,5.221665E-4,9.523332E-5,0E0,0E0,2.969566E-2,0E0,0E0,0E0,8.170724E-3,0E0,0E0,0E0,0E0,0E0,0E0,0E0],"parents":[2147483647,0,0,1,1,2,2,3,3,4,4,5,5,6,6,9,9,10,10,11,11,12,12,15,15,17,17,18,18,19,19,20,20,22,22,26,26,28,28,29,29,31,31,32,32,36,36,40,40,41,41,42,42,45,45,49,49],"right_children":[2,4,6,8,10,12,14,-1,-1,16,18,20,22,-1,-1,24,-1,26,28,30,32,-1,34,-1,-1,-1,36,-1,38,40,-1,42,44,-1,-1,-1,46,-1,-1,-1,48,50,52,-1,-1,54,-1,-1,-1,56,-1,-1,-1,-1,-1,-1,-1],"split_conditions":[8.4290765E-2,-8.009521E-1,1.3461468E0,-8.949902E-1,-6.6605043E-1,6.024183E-1,1.4678959E0,-1.1064847E-2,-1.7806461E-2,-1.018663E0,-5.3459663E-2,2.6175117E-1,-2.6561168E-1,9.721598E-3,1.3532287E-2,-1.3097004E0,-6.7181126E-3,-1.5159491E0,-4.843672E-2,6.1281884E-1,1.3457304E0,1.1750708E-2,7.517266E-1,1.9455752E-4,-1.059269E-3,2.317039E-3,-1.5227332E0,-1.3325323E-3,1.8869062E-1,1.8797752E-1,-1.4886179E-3,5.0007784E-1,1.7673975E0,4.284775E-3,6.2234807E-3,-4.2383224E-4,-9.267526E-2,-5.514229E-4,-1.5179351E-3,5.227417E-4,6.1836475E-1,4.2169973E-1,1.1753396E0,-1.1061196E-3,2.6306312E-4,-9.3488336E-2,-4.2701215E-3,1.1230925E-3,8.8733934E-5,4.07621E-1,1.6858032E-3,3.4399566E-3,6.135578E-4,-3.436119E-3,-1.0700473E-3,1.744166E-3,3.3514143E-3],"split_indices":[8,8,8,3,8,8,8,0,0,3,1,8,3,0,0,3,0,3,1,3,3,0,8,0,0,0,1,0,1,1,0,5,1,0,0,0,1,0,0,0,1,1,3,0,0,5,0,0,0,8,0,0,0,0,0,0,0],"split_type":[0,0,0,0,0,0,0,0,0,0,0,0,0,0,0,0,0,0,0,0,0,0,0,0,0,0,0,0,0,0,0,0,0,0,0,0,0,0,0,0,0,0,0,0,0,0,0,0,0,0,0,0,0,0,0,0,0],"sum_hessian":[7.15E2,3.53E2,3.62E2,1.42E2,2.11E2,2.6E2,1.02E2,1.35E2,7E0,6.8E1,1.43E2,1.55E2,1.05E2,3.4E1,6.8E1,2E0,6.6E1,1.05E2,3.8E1,4E1,1.15E2,3E0,1.02E2,1E0,1E0,1E0,1.04E2,2.2E1,1.6E1,3.9E1,1E0,1.13E2,2E0,3.7E1,6.5E1,1E0,1.03E2,1.4E1,2E0,2.3E1,1.6E1,7.3E1,4E1,1E0,1E0,9.1E1,1.2E1,1.5E1,1E0,4.8E1,2.5E1,3.9E1,1E0,7.2E1,1.9E1,2.9E1,1.9E1],"tree_param":{"num_deleted":"0","num_feature":"9","num_nodes":"57","size_leaf_vector":"1"}},{"base_weights":[2.0301554E-3,-1.5453678E-1,1.0341037E-1,-2.108072E-1,-9.992408E-2,4.587573E-2,2.075464E-1,-1.1160949E-2,-8.1591625E-3,1.0040577E-2,-1.0861628E-1,1.8291207E-2,8.812614E-2,1.799994E-1,1.4224417E-2,-1.4021513E-1,-7.144447E-2,1.1807607E-2,1.4456957E-2,6.787855E-2,1.0300495E-1,1.8355358E-1,-4.286085E-3,-1.2618145E-1,-1.1066283E-2,-5.8480185E-2,-4.8988485E-3,-1.855359E-1,1.878874E-2,3.5381007E-3,-1.4638074E-3,5.2408404E-3,1.1935857E-3,1.472714E-1,1.0105784E-2,1.9131502E-4,-6.4060166E-3,-4.1676834E-4,-2.9555885E-3,-2.8859786E-4,-1.2080462E-2,1.6495431E-3,4.174794E-2,7.584958E-3,-1.087684E-3,-6.5841787E-3,1.6296754E-2,2.531973E-3,2.2888226E-2,-1.029965E-3,-1.1046553E-3,3.034214E-3,1.1816859E-2,3.3408497E-4,1.1810454E-3,7.238843E-4,-7.783254E-3,1.4355004E-2,-1.3259392E-3,-2.5766183E-4,-5.295499E-4,4.9869565E-4,1.028586E-3],"categories":[],"categories_nodes":[],"categories_segments":[],"categories_sizes":[],"default_left":[0,0,0,0,0,0,0,0,0,0,0,0,0,0,0,0,0,0,0,0,0,0,0,0,0,0,0,0,0,0,0,0,0,0,0,0,0,0,0,0,0,0,0,0,0,0,0,0,0,0,0,0,0,0,0,0,0,0,0,0,0,0,0],"id":38,"left_children":[1,3,5,7,9,11,13,-1,-1,-1,15,17,19,21,-1,23,25,-1,27,29,31,33,-1,35,-1,37,-1,39,41,-1,-1,-1,-1,43,-1,-1,-1,-1,-1,-1,-1,45,47,-1,-1,49,51,-1,53,-1,55,-1,57,-1,-1,-1,59,61,-1,-1,-1,-1,-1],"loss_changes":[1.1873063E1,8.613558E-1,2.701066E0,1.1675835E-2,4.4357312E-1,3.4058607E-1,2.3882723E-1,0E0,0E0,0E0,1.5615273E-1,1.4436728E-1,2.0962477E-2,1.4857721E-1,0E0,3.4069777E-2,1.3650715E-2,0E0,1.629106E-1,1.9551069E-2,4.0285587E-3,2.3305416E-2,0E0,1.9129395E-2,0E0,7.247925E-4,0E0,3.7530735E-2,6.9905676E-2,0E0,0E0,0E0,0E0,4.327178E-2,0E0,0E0,0E0,0E0,0E0,0E0,0E0,1.275711E-2,1.0426462E-2,0E0,0E0,5.176631E-3,6.122158E-3,0E0,1.6820617E-5,0E0,5.5328454E-3,0E0,4.361507E-3,0E0,0E0,0E0,1.640676E-4,5.701352E-4,0E0,0E0,0E0,0E0,0E0],"parents":[2147483647,0,0,1,1,2,2,3,3,4,4,5,5,6,6,10,10,11,11,12,12,13,13,15,15,16,16,18,18,19,19,20,20,21,21,23,23,25,25,27,27,28,28,33,33,41,41,42,42,45,45,46,46,48,48,50,50,52,52,56,56,57,57],"right_children":[2,4,6,8,10,12,14,-1,-1,-1,16,18,20,22,-1,24,26,-1,28,30,32,34,-1,36,-1,38,-1,40,42,-1,-1,-1,-1,44,-1,-1,-1,-1,-1,-1,-1,46,48,-1,-1,50,52,-1,54,-1,56,-1,58,-1,-1,-1,60,62,-1,-1,-1,-1,-1],"split_conditions":[-2.6970747E-1,-1.2952495E0,1.2090323E0,-1.3107356E0,-1.374795E0,4.9516577E-1,1.757622E0,-1.1160949E-2,-8.1591625E-3,1.0040577E-2,-6.6428673E-1,-8.0537426E-1,6.122801E-1,1.7673975E0,1.4224417E-2,-4.2840973E-1,-4.0931797E-1,1.1807607E-2,-1.2240202E-1,7.5030327E-1,8.521822E-1,1.3340489E0,-4.286085E-3,-1.3097004E0,-1.1066283E-2,-1.5227332E0,-4.8988485E-3,-1.13001E0,2.2516955E-1,3.5381007E-3,-1.4638074E-3,5.2408404E-3,1.1935857E-3,1.3427577E0,1.0105784E-2,1.9131502E-4,-6.4060166E-3,-4.1676834E-4,-2.9555885E-3,-2.8859786E-4,-1.2080462E-2,1.0219542E-2,4.216997E-1,7.584958E-3,-1.087684E-3,-9.267526E-2,-4.843672E-2,2.531973E-3,2.6406273E-1,-1.029965E-3,-5.3459663E-2,3.034214E-3,2.2733863E-1,3.3408497E-4,1.1810454E-3,7.238843E-4,-4.843672E-2,1.8797752E-1,-1.3259392E-3,-2.5766183E-4,-5.295499E-4,4.9869565E-4,1.028586E-3],"split_indices":[4,4,7,4,3,7,4,0,0,0,7,3,4,1,0,1,1,0,4,3,1,4,0,3,0,1,0,1,4,0,0,0,0,1,0,0,0,0,0,0,0,4,1,0,0,1,1,0,7,0,1,0,3,0,0,0,1,1,0,0,0,0,0],"split_type":[0,0,0,0,0,0,0,0,0,0,0,0,0,0,0,0,0,0,0,0,0,0,0,0,0,0,0,0,0,0,0,0,0,0,0,0,0,0,0,0,0,0,0,0,0,0,0,0,0,0,0,0,0,0,0,0,0,0,0,0,0,0,0],"sum_hessian":[7.44E2,2.92E2,4.52E2,1.41E2,1.51E2,2.93E2,1.59E2,1.06E2,3.5E1,3E0,1.48E2,1.79E2,1.14E2,1.22E2,3.7E1,7.7E1,7.1E1,1E0,1.78E2,5.3E1,6.1E1,1.21E2,1E0,7E1,7E0,5.2E1,1.9E1,2E0,1.76E2,5.2E1,1E0,5.9E1,2E0,4.7E1,7.4E1,1E0,6.9E1,1E0,5.1E1,1E0,1E0,1.02E2,7.4E1,4.6E1,1E0,6.6E1,3.6E1,4.8E1,2.6E1,1.7E1,4.9E1,1E0,3.5E1,2E0,2.4E1,1.4E1,3.5E1,3.4E1,1E0,2.1E1,1.4E1,2.3E1,1.1E1],"tree_param":{"num_deleted":"0","num_feature":"9","num_nodes":"63","size_leaf_vector":"1"}},{"base_weights":[-4.978108E-4,-1.3751245E-1,1.0027022E-1,-1.9057441E-1,-8.959941E-2,4.2537894E-2,1.9949579E-1,-1.0589913E-2,-8.134639E-3,-1.0492437E-1,-2.9707188E-2,-3.3711344E-3,6.228548E-2,7.837761E-3,1.2043457E-2,-1.1421375E-1,-7.458161E-2,-8.042916E-4,-1.8952374E-3,-7.816177E-3,1.4282695E-2,3.8178414E-2,7.85427E-2,-9.3484716E-4,-5.741604E-3,-2.0548613E-3,-4.7292504E-3,7.5772594E-5,-1.2878E-2,-6.6451955E-4,1.7667312E-2,1.9244005E-3,2.3899451E-4,6.499443E-2,4.958984E-3,-8.328706E-3,-7.2499085E-4,9.259192E-4,8.168693E-5,3.2711418E-3,5.834386E-4,-5.046289E-4,3.0215606E-4],"categories":[],"categories_nodes":[],"categories_segments":[],"categories_sizes":[],"default_left":[0,0,0,0,0,0,0,0,0,0,0,0,0,0,0,0,0,0,0,0,0,0,0,0,0,0,0,0,0,0,0,0,0,0,0,0,0,0,0,0,0,0,0],"id":39,"left_children":[1,3,5,7,9,11,13,-1,-1,15,17,19,21,-1,-1,23,25,-1,-1,27,29,31,33,-1,-1,-1,-1,-1,35,-1,37,-1,-1,39,-1,41,-1,-1,-1,-1,-1,-1,-1],"loss_changes":[9.87175E0,7.361841E-1,2.3431792E0,1.5113354E-2,1.4337492E-1,2.3885372E-1,1.9150114E-1,0E0,0E0,1.9324064E-2,2.8003678E-3,6.579506E-3,6.61149E-2,0E0,0E0,1.3167858E-3,1.6338497E-2,0E0,0E0,3.1565456E-3,2.0561246E-3,4.3859333E-4,1.7304122E-2,0E0,0E0,0E0,0E0,0E0,7.5729564E-5,0E0,1.5782332E-4,0E0,0E0,9.512901E-5,0E0,5.2758225E-4,0E0,0E0,0E0,0E0,0E0,0E0,0E0],"parents":[2147483647,0,0,1,1,2,2,3,3,4,4,5,5,6,6,9,9,10,10,11,11,12,12,15,15,16,16,19,19,20,20,21,21,22,22,28,28,30,30,33,33,35,35],"right_children":[2,4,6,8,10,12,14,-1,-1,16,18,20,22,-1,-1,24,26,-1,-1,28,30,32,34,-1,-1,-1,-1,-1,36,-1,38,-1,-1,40,-1,42,-1,-1,-1,-1,-1,-1,-1],"split_conditions":[-5.4025274E-2,-7.9926807E-1,1.2090323E0,-1.3623104E0,-9.3488336E-2,2.6406273E-1,1.4709196E0,-1.0589913E-2,-8.134639E-3,-4.1022983E-1,-9.584754E-2,1.8430793E-1,4.9516577E-1,7.837761E-3,1.2043457E-2,-1.018663E0,-4.1192812E-1,-8.042916E-4,-1.8952374E-3,-5.1687542E-2,8.649754E-2,6.046029E-1,7.5432754E-1,-9.3484716E-4,-5.741604E-3,-2.0548613E-3,-4.7292504E-3,7.5772594E-5,1.83859E-1,-6.6451955E-4,5.037261E-1,1.9244005E-3,2.3899451E-4,1.1753396E0,4.958984E-3,9.0427466E-2,-7.2499085E-4,9.259192E-4,8.168693E-5,3.2711418E-3,5.834386E-4,-5.046289E-4,3.0215606E-4],"split_indices":[7,7,7,7,5,7,7,0,0,7,3,3,7,0,0,3,3,0,0,3,7,3,7,0,0,0,0,0,5,0,3,0,0,3,0,3,0,0,0,0,0,0,0],"split_type":[0,0,0,0,0,0,0,0,0,0,0,0,0,0,0,0,0,0,0,0,0,0,0,0,0,0,0,0,0,0,0,0,0,0,0,0,0,0,0,0,0,0,0],"sum_hessian":[7.11E2,3.01E2,4.1E2,1.4E2,1.61E2,2.61E2,1.49E2,7.2E1,6.8E1,1.27E2,3.4E1,7.9E1,1.82E2,7.8E1,7.1E1,9.3E1,3.4E1,1.5E1,1.9E1,6.4E1,1.5E1,7.6E1,1.06E2,1E0,9.2E1,1.5E1,1.9E1,2.3E1,4.1E1,1E0,1.4E1,7.5E1,1E0,6.9E1,3.7E1,1.4E1,2.7E1,1.3E1,1E0,6.8E1,1E0,1.3E1,1E0],"tree_param":{"num_deleted":"0","num_feature":"9","num_nodes":"43","size_leaf_vector":"1"}},{"base_weights":[3.803196E-4,-1.3540252E-1,8.603594E-2,-1.7970887E-1,-9.106042E-2,3.718185E-2,1.8288244E-1,-1.995076E-1,-7.606438E-3,-4.9277353E-3,-6.758434E-2,1.1459601E-2,8.2222745E-2,6.476693E-3,9.986113E-3,-7.2004534E-3,-1.07812155E-2,-2.0189837E-3,-4.2090435E-3,-5.009082E-3,3.0952385E-2,2.8545654E-3,9.133085E-2,2.7232962E-3,-1.574529E-2,1.7384075E-2,3.3138134E-2,4.8826793E-3,3.0580496E-3,-9.556369E-4,1.2028706E-2,-1.8057927E-2,4.5352876E-3,9.110856E-4,8.032546E-5,3.701895E-2,1.1517957E-3,1.056875E-3,1.3382934E-4,-7.987864E-3,-1.1843032E-3,7.901814E-4,-4.5003483E-4,1.2928228E-3,2.6375086E-3,-4.8006533E-4,2.971201E-4],"categories":[],"categories_nodes":[],"categories_segments":[],"categories_sizes":[],"default_left":[0,0,0,0,0,0,0,0,0,0,0,