{"learner":{"attributes":{"scikit_learn":"{\"_estimator_type\": \"regressor\"}"},"feature_names":[],"feature_types":[],"gradient_booster":{"model":{"gbtree_model_param":{"num_parallel_tree":"1","num_trees":"40"},"iteration_indptr":[0,1,2,3,4,5,6,7,8,9,10,11,12,13,14,15,16,17,18,19,20,21,22,23,24,25,26,27,28,29,30,31,32,33,34,35,36,37,38,39,40],"tree_info":[0,0,0,0,0,0,0,0,0,0,0,0,0,0,0,0,0,0,0,0,0,0,0,0,0,0,0,0,0,0,0,0,0,0,0,0,0,0,0,0],"trees":[{"base_weights":[-1.7407088E-2,-1.0593876E0,6.8853086E-1,-1.2609682E0,-4.2601344E-1,2.67961E-1,1.1514144E0,5.574652E-2,-1.2917768E0,5.64878E-2,-4.5519885E-1,9.065528E-2,5.8576506E-1,2.3598337E-1,-1.9197269E-1,-2.805262E-1,-2.2433563E-1,-2.7107268E-3,1.9657066E-2,-1.030038E-1,-1.8892862E-1,-6.666418E-3,2.1553151E-1,5.23197E-2,1.2000401E-1,-9.3602465E-4,-7.5229034E-2,8.730582E-3,-4.9863424E-2,3.3255834E-2,5.2463647E-2],"categories":[],"categories_nodes":[],"categories_segments":[],"categories_sizes":[],"default_left":[0,0,0,0,0,0,0,0,0,0,0,0,0,0,0,0,0,0,0,0,0,0,0,0,0,0,0,0,0,0,0],"id":0,"left_children":[1,3,5,7,9,11,13,-1,15,17,19,21,23,-1,25,-1,-1,-1,-1,-1,27,-1,29,-1,-1,-1,-1,-1,-1,-1,-1],"loss_changes":[5.354852E2,3.646237E1,8.387181E1,1.1250946E1,1.0934944E0,1.2853945E1,8.340759E0,0E0,9.640198E-1,2.02296E-2,9.2037773E-1,2.3368292E0,6.4992905E-2,0E0,2.03444E-1,0E0,0E0,0E0,0E0,0E0,2.4649078E-1,0E0,8.55906E-2,0E0,0E0,0E0,0E0,0E0,0E0,0E0,0E0],"parents":[2147483647,0,0,1,1,2,2,3,3,4,4,5,5,6,6,8,8,9,9,10,10,11,11,12,12,14,14,20,20,22,22],"right_children":[2,4,6,8,10,12,14,-1,16,18,20,22,24,-1,26,-1,-1,-1,-1,-1,28,-1,30,-1,-1,-1,-1,-1,-1,-1,-1],"split_conditions":[-2.7460204E-2,-1.0041865E0,7.532465E-1,-1.6695961E0,-6.2036073E-1,3.6289456E-1,1.9308974E0,5.574652E-2,-1.1850271E0,-8.3380175E-1,-4.0882292E-1,5.9113675E-3,5.677082E-1,2.3598337E-1,5.6846952E0,-2.805262E-1,-2.2433563E-1,-2.7107268E-3,1.9657066E-2,-1.030038E-1,-3.9976186E-1,-6.666418E-3,1.6668686E-1,5.23197E-2,1.2000401E-1,-9.3602465E-4,-7.5229034E-2,8.730582E-3,-4.9863424E-2,3.3255834E-2,5.2463647E-2],"split_indices":[1,1,1,1,1,1,1,0,1,1,1,1,1,0,1,0,0,0,0,0,1,0,1,0,0,0,0,0,0,0,0],"split_type":[0,0,0,0,0,0,0,0,0,0,0,0,0,0,0,0,0,0,0,0,0,0,0,0,0,0,0,0,0,0,0],"sum_hessian":[7.24E2,2.92E2,4.32E2,2.2E2,7.2E1,2.28E2,2.04E2,4E0,2.16E2,4E0,6.8E1,1.48E2,8E1,2E2,4E0,1.22E2,9.4E1,2E0,2E0,5.4E1,1.4E1,7.5E1,7.3E1,5E0,7.5E1,3E0,1E0,3E0,1.1E1,4E1,3.3E1],"tree_param":{"num_deleted":"0","num_feature":"3","num_nodes":"31","size_leaf_vector":"1"}},{"base_weights":[-1.7836188E-3,-8.190527E-1,5.519818E-1,-9.994351E-1,-3.4510043E-1,2.2206397E-1,9.258675E-1,4.831365E-2,-1.0260066E0,-7.675203E-2,-1.7448254E-1,6.1540123E-2,4.5300186E-1,1.9211036E-1,-6.097434E-2,-7.2992794E-2,-1.0355302E0,1.3698717E-2,-4.5720454E-2,-5.3619617E-3,3.174686E-2,4.7686204E-1,1.8626387E-1,-2.2582297E-1,-1.8002136E-1,3.561676E-2,9.744388E-2,-1.2764767E-2,2.9600272E-1,7.2330035E-2,2.2390839E-2],"categories":[],"categories_nodes":[],"categories_segments":[],"categories_sizes":[],"default_left":[0,0,0,0,0,0,0,0,0,0,0,0,0,0,0,0,0,0,0,0,0,0,0,0,0,0,0,0,0,0,0],"id":1,"left_children":[1,3,5,7,9,11,13,-1,15,-1,17,19,21,-1,-1,-1,23,-1,-1,-1,-1,25,27,-1,-1,-1,-1,-1,29,-1,-1],"loss_changes":[3.2494815E2,2.4103073E1,5.2383255E1,7.387512E0,4.1355133E-1,8.470584E0,9.123184E0,0E0,5.34729E-1,0E0,2.811618E-1,1.1935307E0,4.2061043E-1,0E0,0E0,0E0,5.1472473E-1,0E0,0E0,0E0,0E0,8.950615E-2,3.396717E-1,0E0,0E0,0E0,0E0,0E0,1.5681982E-2,0E0,0E0],"parents":[2147483647,0,0,1,1,2,2,3,3,4,4,5,5,6,6,8,8,10,10,11,11,12,12,16,16,21,21,22,22,28,28],"right_children":[2,4,6,8,10,12,14,-1,16,-1,18,20,22,-1,-1,-1,24,-1,-1,-1,-1,26,28,-1,-1,-1,-1,-1,30,-1,-1],"split_conditions":[-2.7460204E-2,-1.0041865E0,9.137473E-1,-1.6695961E0,-4.0882292E-1,2.3392531E-1,1.9308974E0,4.831365E-2,-1.3411568E0,-7.675203E-2,-3.9976186E-1,5.9113675E-3,7.532465E-1,1.9211036E-1,-6.097434E-2,-7.2992794E-2,-1.2108192E0,1.3698717E-2,-4.5720454E-2,-5.3619617E-3,3.174686E-2,2.7770776E-1,8.041959E-1,-2.2582297E-1,-1.8002136E-1,3.561676E-2,9.744388E-2,-1.2764767E-2,8.9421153E-1,7.2330035E-2,2.2390839E-2],"split_indices":[1,1,1,1,1,1,1,0,1,0,1,1,1,0,0,0,1,0,0,0,0,1,1,0,0,0,0,0,1,0,0],"split_type":[0,0,0,0,0,0,0,0,0,0,0,0,0,0,0,0,0,0,0,0,0,0,0,0,0,0,0,0,0,0,0],"sum_hessian":[7.14E2,2.88E2,4.26E2,2.07E2,8.1E1,2.28E2,1.98E2,4E0,2.03E2,6.4E1,1.7E1,1.36E2,9.2E1,1.93E2,5E0,4E0,1.99E2,3E0,1.4E1,7.2E1,6.4E1,8.3E1,9E0,1.09E2,9E1,4E0,7.9E1,3E0,6E0,3E0,3E0],"tree_param":{"num_deleted":"0","num_feature":"3","num_nodes":"31","size_leaf_vector":"1"}},{"base_weights":[-1.762845E-2,-7.1901834E-1,4.6545425E-1,-8.400434E-1,-6.708583E-2,5.1028285E-2,6.8163514E-1,-1.8091114E-1,-1.4279063E-1,-5.2155848E-3,1.2983531E-1,8.345002E-2,1.5441036E-1,2.0955918E-2,1.8951333E-1,4.1964915E-2,8.929959E-3],"categories":[],"categories_nodes":[],"categories_segments":[],"categories_sizes":[],"default_left":[0,0,0,0,0,0,0,0,0,0,0,0,0,0,0,0,0],"id":2,"left_children":[1,3,5,7,-1,9,11,-1,-1,-1,13,-1,-1,-1,15,-1,-1],"loss_changes":[2.5174187E2,1.3502899E1,3.9350456E1,5.7115173E-1,0E0,9.364777E-1,6.264206E0,0E0,0E0,0E0,7.392669E-2,0E0,0E0,0E0,4.0109932E-2,0E0,0E0],"parents":[2147483647,0,0,1,1,2,2,3,3,5,5,6,6,10,10,14,14],"right_children":[2,4,6,8,-1,10,12,-1,-1,-1,14,-1,-1,-1,16,-1,-1],"split_conditions":[-7.9079166E-2,-8.004859E-1,6.211747E-1,-1.1847427E0,-6.708583E-2,1.6682315E-1,7.741961E-1,-1.8091114E-1,-1.4279063E-1,-5.2155848E-3,2.4049753E-1,8.345002E-2,1.5441036E-1,2.0955918E-2,6.1399716E-1,4.1964915E-2,8.929959E-3],"split_indices":[2,2,2,2,0,2,2,0,0,0,2,0,0,0,2,0,0],"split_type":[0,0,0,0,0,0,0,0,0,0,0,0,0,0,0,0,0],"sum_hessian":[7.39E2,3.01E2,4.38E2,2.27E2,7.4E1,1.51E2,2.87E2,1.42E2,8.5E1,7.7E1,7.4E1,7.6E1,2.11E2,5.6E1,1.8E1,1.5E1,3E0],"tree_param":{"num_deleted":"0","num_feature":"3","num_nodes":"17","size_leaf_vector":"1"}},{"base_weights":[-4.7623785E-3,-5.5687326E-1,3.4175667E-1,-6.59561E-1,-2.1482049E-1,1.1504322E-1,5.705537E-1,-9.571552E-3,-6.7539823E-1,6.243611E-2,-2.3959354E-1,9.985617E-3,2.4669746E-1,5.925505E-1,-7.937034E-2,9.9001E-3,-1.0600114E-2,-1.4784044E-1,-1.19138636E-1,2.1000335E-2,6.818438E-4,-5.3629667E-2,-2.5152925E-2,-2.5536804E-2,1.6280144E-2,2.6261166E-1,-5.171839E-2,7.532655E-2,1.256297E-1,1.4996021E-2,-3.1043034E-2,1.4237241E-1,6.365643E-2,-3.6350947E-2,-1.8653851E-2,4.6987142E-2,2.3651509E-2,-3.304852E-3,-8.627238E-3],"categories":[],"categories_nodes":[],"categories_segments":[],"categories_sizes":[],"default_left":[0,0,0,0,0,0,0,0,0,0,0,0,0,0,0,0,0,0,0,0,0,0,0,0,0,0,0,0,0,0,0,0,0,0,0,0,0,0,0],"id":3,"left_children":[1,3,5,7,9,11,13,15,17,19,21,23,25,27,-1,-1,-1,-1,-1,-1,-1,-1,-1,29,-1,31,-1,-1,-1,-1,33,35,-1,-1,37,-1,-1,-1,-1],"loss_changes":[1.354504E2,9.305656E0,2.2432762E1,2.138527E0,4.8323894E-1,3.0517852E0,5.066757E0,2.3205193E-2,1.5676117E-1,1.6871644E-2,1.308248E-1,3.2126212E-1,9.238639E-1,1.1563187E0,0E0,0E0,0E0,0E0,0E0,0E0,0E0,0E0,0E0,5.170011E-2,0E0,5.5197334E-1,0E0,0E0,0E0,0E0,1.463291E-1,2.032733E-2,0E0,0E0,2.6411284E-3,0E0,0E0,0E0,0E0],"parents":[2147483647,0,0,1,1,2,2,3,3,4,4,5,5,6,6,7,7,8,8,9,9,10,10,11,11,12,12,13,13,23,23,25,25,30,30,31,31,34,34],"right_children":[2,4,6,8,10,12,14,16,18,20,22,24,26,28,-1,-1,-1,-1,-1,-1,-1,-1,-1,30,-1,32,-1,-1,-1,-1,34,36,-1,-1,38,-1,-1,-1,-1],"split_conditions":[-3.412809E-1,-8.3380175E-1,6.1380213E-1,-1.3411568E0,-4.862425E-1,1.6668686E-1,1.9308974E0,-1.6695961E0,-1.2576761E0,-6.2036073E-1,-4.3617508E-1,1.55824E-1,6.048403E-1,1.004242E0,-7.937034E-2,9.9001E-3,-1.0600114E-2,-1.4784044E-1,-1.19138636E-1,2.1000335E-2,6.818438E-4,-5.3629667E-2,-2.5152925E-2,-2.499092E-1,1.6280144E-2,3.6289456E-1,-5.171839E-2,7.532655E-2,1.256297E-1,1.4996021E-2,-2.7460204E-2,1.6938864E-1,6.365643E-2,-3.6350947E-2,5.9113675E-3,4.6987142E-2,2.3651509E-2,-3.304852E-3,-8.627238E-3],"split_indices":[1,1,1,1,1,1,1,1,1,1,1,1,1,1,0,0,0,0,0,0,0,0,0,1,0,1,0,0,0,0,1,1,0,0,1,0,0,0,0],"split_type":[0,0,0,0,0,0,0,0,0,0,0,0,0,0,0,0,0,0,0,0,0,0,0,0,0,0,0,0,0,0,0,0,0,0,0,0,0,0,0],"sum_hessian":[7.04E2,2.71E2,4.33E2,2.07E2,6.4E1,2.19E2,2.14E2,5E0,2.02E2,5E0,5.9E1,1.23E2,9.6E1,2.1E2,4E0,2E0,3E0,1.03E2,9.9E1,2E0,3E0,4.5E1,1.4E1,8.3E1,4E1,9.4E1,2E0,3.3E1,1.77E2,3E0,8E1,3.2E1,6.2E1,4E0,7.6E1,3E0,2.9E1,7.3E1,3E0],"tree_param":{"num_deleted":"0","num_feature":"3","num_nodes":"39","size_leaf_vector":"1"}},{"base_weights":[-4.0427404E-3,-4.697664E-1,2.998528E-1,-5.443486E-1,-2.208653E-1,9.3786456E-2,4.7864705E-1,-1.1727005E-1,-9.249214E-2,-1.5152407E-2,-4.5059886E-2,1.5694203E-2,2.0955633E-1,7.000516E-2,1.03777006E-1,-3.2760792E-3,1.2698563E-2,2.5700612E-2,5.0121218E-2],"categories":[],"categories_nodes":[],"categories_segments":[],"categories_sizes":[],"default_left":[0,0,0,0,0,0,0,0,0,0,0,0,0,0,0,0,0,0,0],"id":4,"left_children":[1,3,5,7,9,11,13,-1,-1,-1,-1,15,17,-1,-1,-1,-1,-1,-1],"loss_changes":[9.892907E1,4.883095E0,1.549501E1,1.8339539E-1,8.970022E-3,1.7925278E0,8.064041E-1,0E0,0E0,0E0,0E0,1.8758774E-1,2.0177007E-1,0E0,0E0,0E0,0E0,0E0,0E0],"parents":[2147483647,0,0,1,1,2,2,3,3,4,4,5,5,6,6,11,11,12,12],"right_children":[2,4,6,8,10,12,14,-1,-1,-1,-1,16,18,-1,-1,-1,-1,-1,-1],"split_conditions":[-3.5368975E-2,-8.004859E-1,6.347873E-1,-1.1847427E0,-5.415116E-1,1.9432409E-1,1.0886194E0,-1.1727005E-1,-9.249214E-2,-1.5152407E-2,-4.5059886E-2,1.6682315E-1,4.7536007E-1,7.000516E-2,1.03777006E-1,-3.2760792E-3,1.2698563E-2,2.5700612E-2,5.0121218E-2],"split_indices":[2,2,2,2,2,2,2,0,0,0,0,2,2,0,0,0,0,0,0],"split_type":[0,0,0,0,0,0,0,0,0,0,0,0,0,0,0,0,0,0,0],"sum_hessian":[6.95E2,2.74E2,4.21E2,2.09E2,6.5E1,1.97E2,2.24E2,1.3E2,7.9E1,3E0,6.2E1,1.19E2,7.8E1,5.8E1,1.66E2,7.2E1,4.7E1,2.9E1,4.9E1],"tree_param":{"num_deleted":"0","num_feature":"3","num_nodes":"19","size_leaf_vector":"1"}},{"base_weights":[-2.1588777E-3,-3.8013333E-1,2.443561E-1,-4.451496E-1,-1.6370131E-1,8.3979376E-2,4.0917316E-1,-9.7614996E-2,-7.811711E-2,-3.5834655E-2,-1.0412526E-1,2.2697616E-2,2.0038226E-1,6.865248E-2,8.923918E-2,-5.3999044E-2,-2.4873143E-2,-9.7704455E-3,6.062495E-2,4.2295642E-2,1.1322101E-1,-1.618964E-2,-2.7083464E-3,-2.0278709E-3,1.340744E-3,1.0343274E-2,1.6023932E-2,-1.7592207E-2,3.8233567E-2],"categories":[],"categories_nodes":[],"categories_segments":[],"categories_sizes":[],"default_left":[0,0,0,0,0,0,0,0,0,0,0,0,0,0,0,0,0,0,0,0,0,0,0,0,0,0,0,0,0],"id":5,"left_children":[1,3,5,7,9,11,13,-1,-1,-1,15,17,19,-1,-1,21,-1,23,25,-1,27,-1,-1,-1,-1,-1,-1,-1,-1],"loss_changes":[6.727276E1,3.8646622E0,1.148242E1,1.2932587E-1,2.628851E-2,1.5887793E0,2.1831894E-1,0E0,0E0,0E0,5.8457106E-3,1.8466729E-1,2.6582003E-2,0E0,0E0,7.6202583E-3,0E0,6.3429493E-4,3.696233E-3,0E0,2.3749013E-1,0E0,0E0,0E0,0E0,0E0,0E0,0E0,0E0],"parents":[2147483647,0,0,1,1,2,2,3,3,4,4,5,5,6,6,10,10,11,11,12,12,15,15,17,17,18,18,20,20],"right_children":[2,4,6,8,10,12,14,-1,-1,-1,16,18,20,-1,-1,22,-1,24,26,-1,28,-1,-1,-1,-1,-1,-1,-1,-1],"split_conditions":[-2.8801275E-2,-5.510204E-1,6.4785564E-1,-1.233482E0,-4.2205876E-1,3.834402E-1,1.0739415E0,-9.7614996E-2,-7.811711E-2,-3.5834655E-2,-4.0143877E-1,1.5464827E-1,6.037664E-1,6.865248E-2,8.923918E-2,-4.071821E-1,-2.4873143E-2,4.6004E-3,2.0314886E-1,4.2295642E-2,6.078663E-1,-1.618964E-2,-2.7083464E-3,-2.0278709E-3,1.340744E-3,1.0343274E-2,1.6023932E-2,-1.7592207E-2,3.8233567E-2],"split_indices":[0,0,0,0,0,0,0,0,0,0,0,0,0,0,0,0,0,0,0,0,0,0,0,0,0,0,0,0,0],"split_type":[0,0,0,0,0,0,0,0,0,0,0,0,0,0,0,0,0,0,0,0,0,0,0,0,0,0,0,0,0],"sum_hessian":[7.18E2,2.83E2,4.35E2,2.16E2,6.7E1,2.22E2,2.13E2,1.12E2,1.04E2,5E1,1.7E1,1.47E2,7.5E1,8.4E1,1.29E2,7E0,1E1,8E1,6.7E1,6.4E1,1.1E1,3E0,4E0,7.9E1,1E0,5.1E1,1.6E1,3E0,8E0],"tree_param":{"num_deleted":"0","num_feature":"3","num_nodes":"29","size_leaf_vector":"1"}},{"base_weights":[7.3616565E-3,-2.704372E-1,1.789657E-1,-3.260626E-1,-1.0219149E-1,7.916521E-2,3.066756E-1,3.1548843E-1,-3.4220996E-1,2.6027758E-2,-1.2196245E-1,2.5394639E-2,1.4507313E-1,3.222011E-1,-3.869615E-2,2.2242298E-2,8.912487E-2,-7.740079E-2,-6.002563E-2,-7.493917E-3,2.344248E-2,-2.829725E-2,-6.779006E-2,-1.0463239E-2,6.537269E-2,3.2276332E-2,9.864606E-2,5.244804E-2,7.1949415E-2,-4.0968526E-2,-2.1179238E-2,1.7146775E-2,-1.6852947E-2,3.1666953E-2,5.5919427E-2,-4.4122647E-2,1.323881E-1,-1.5891692E-2,8.650507E-3,-2.2037089E-2,-1.6244106E-3,8.762595E-3,7.08162E-2,1.4228429E-1,2.2034932E-2,2.9822594E-2,8.340257E-3,7.696469E-2,3.7147176E-2,-2.9289126E-3,7.7054175E-3,3.3585377E-2,-3.442609E-2],"categories":[],"categories_nodes":[],"categories_segments":[],"categories_sizes":[],"default_left":[0,0,0,0,0,0,0,0,0,0,0,0,0,0,0,0,0,0,0,0,0,0,0,0,0,0,0,0,0,0,0,0,0,0,0,0,0,0,0,0,0,0,0,0,0,0,0,0,0,0,0,0,0],"id":6,"left_children":[1,3,5,7,9,11,13,15,17,19,21,23,25,27,-1,-1,-1,-1,-1,-1,-1,-1,29,31,33,-1,35,-1,-1,37,-1,-1,39,-1,41,-1,43,-1,-1,-1,-1,-1,45,47,49,-1,-1,51,-1,-1,-1,-1,-1],"loss_changes":[3.370514E1,2.4602146E0,5.5212326E0,2.3085194E0,1.838001E-1,8.7152064E-1,1.6078281E0,6.0385525E-2,1.4093208E-1,7.2473615E-2,4.5333922E-2,2.0062846E-1,5.2205324E-2,2.3006058E-1,0E0,0E0,0E0,0E0,0E0,0E0,0E0,0E0,1.1764474E-2,4.8990108E-2,4.029247E-2,0E0,4.246767E-1,0E0,0E0,5.5498503E-2,0E0,0E0,5.6881227E-2,0E0,5.156532E-3,0E0,2.8676033E-2,0E0,0E0,0E0,0E0,0E0,4.4553682E-2,5.3718746E-2,4.153044E-3,0E0,0E0,3.9768422E-1,0E0,0E0,0E0,0E0,0E0],"parents":[2147483647,0,0,1,1,2,2,3,3,4,4,5,5,6,6,7,7,8,8,9,9,10,10,11,11,12,12,13,13,22,22,23,23,24,24,26,26,29,29,32,32,34,34,36,36,42,42,43,43,44,44,47,47],"right_children":[2,4,6,8,10,12,14,16,18,20,22,24,26,28,-1,-1,-1,-1,-1,-1,-1,-1,30,32,34,-1,36,-1,-1,38,-1,-1,40,-1,42,-1,44,-1,-1,-1,-1,-1,46,48,50,-1,-1,52,-1,-1,-1,-1,-1],"split_conditions":[-3.412809E-1,-1.0041865E0,1.0020528E0,-1.3411568E0,-4.862425E-1,2.3392531E-1,1.9308974E0,-1.6695961E0,-1.2686683E0,-6.2036073E-1,-4.484535E-1,5.9113675E-3,6.048403E-1,1.1152191E0,-3.869615E-2,2.2242298E-2,8.912487E-2,-7.740079E-2,-6.002563E-2,-7.493917E-3,2.344248E-2,-2.829725E-2,-3.9976186E-1,-2.499092E-1,1.55824E-1,3.2276332E-2,6.1380213E-1,5.244804E-2,7.1949415E-2,-4.0882292E-1,-2.1179238E-2,1.7146775E-2,-2.7460204E-2,3.1666953E-2,1.6668686E-1,-4.4122647E-2,9.6475106E-1,-1.5891692E-2,8.650507E-3,-2.2037089E-2,-1.6244106E-3,8.762595E-3,1.6938864E-1,8.041959E-1,9.813334E-1,2.9822594E-2,8.340257E-3,7.532465E-1,3.7147176E-2,-2.9289126E-3,7.7054175E-3,3.3585377E-2,-3.442609E-2],"split_indices":[1,1,1,1,1,1,1,1,1,1,1,1,1,1,0,0,0,0,0,0,0,0,1,1,1,0,1,0,0,1,0,0,1,0,1,0,1,0,0,0,0,0,1,1,1,0,0,1,0,0,0,0,0],"split_type":[0,0,0,0,0,0,0,0,0,0,0,0,0,0,0,0,0,0,0,0,0,0,0,0,0,0,0,0,0,0,0,0,0,0,0,0,0,0,0,0,0,0,0,0,0,0,0,0,0,0,0,0,0],"sum_hessian":[7.03E2,2.68E2,4.35E2,2E2,6.8E1,2.46E2,1.89E2,4E0,1.96E2,9E0,5.9E1,1.37E2,1.09E2,1.84E2,5E0,3E0,1E0,8.7E1,1.09E2,6E0,3E0,4.1E1,1.8E1,7.3E1,6.4E1,7.7E1,3.2E1,7.7E1,1.07E2,1.3E1,5E0,3E0,7E1,3E0,6.1E1,2E0,3E1,9E0,4E0,4E0,6.6E1,3.8E1,2.3E1,2.7E1,3E0,4E0,1.9E1,1.3E1,1.4E1,1E0,2E0,1E1,3E0],"tree_param":{"num_deleted":"0","num_feature":"3","num_nodes":"53","size_leaf_vector":"1"}},{"base_weights":[1.4480216E-3,-2.3023766E-1,1.352036E-1,-2.6560727E-1,-8.8747345E-2,5.4328676E-2,2.4317017E-1,2.9111514E-2,-2.7495882E-1,2.405182E-2,-1.00942366E-1,-6.9438955E-3,8.591964E-2,2.556138E-1,-3.3168133E-2,-3.036878E-1,-2.3879397E-1,-1.5293337E-2,-2.2202253E-2,2.099774E-2,-1.3076201E-2,9.556464E-2,-2.1873131E-2,4.2618427E-2,2.8369266E-1,-1.4961533E-2,-6.1760467E-2,-7.843955E-3,-4.8001066E-2,-5.0202957E-3,1.2642742E-4,-1.5496318E-2,-7.3977467E-3,5.8315743E-2,1.23653986E-1,-5.919495E-2,5.956634E-2,5.8205277E-2,1.2157601E-2,1.5089162E-2,-1.2328886E-2,2.7866919E-2,5.0862517E-2,2.6605753E-2,5.375821E-2,2.2539249E-2,-2.5762482E-2,-1.9444546E-2,-1.3141695E-3,7.0829378E-3,6.69934E-2,-1.7209245E-2,2.1506293E-2,-3.031954E-2,1.7042136E-2,2.5846248E-2,4.8871472E-2,5.088938E-3,1.2652195E-2],"categories":[],"categories_nodes":[],"categories_segments":[],"categories_sizes":[],"default_left":[0,0,0,0,0,0,0,0,0,0,0,0,0,0,0,0,0,0,0,0,0,0,0,0,0,0,0,0,0,0,0,0,0,0,0,0,0,0,0,0,0,0,0,0,0,0,0,0,0,0,0,0,0,0,0,0,0,0,0],"id":7,"left_children":[1,3,5,7,9,11,13,-1,15,-1,17,19,21,23,-1,25,27,29,-1,-1,31,33,35,-1,37,-1,-1,-1,-1,-1,-1,-1,39,41,43,-1,45,-1,-1,-1,47,-1,49,-1,51,-1,53,-1,-1,-1,55,-1,-1,-1,-1,-1,57,-1,-1],"loss_changes":[2.2436499E1,1.2790365E0,3.9814682E0,8.913479E-1,1.670134E-1,5.1414305E-1,1.0823412E0,0E0,7.0031166E-2,0E0,4.317373E-2,6.589496E-2,1.8612123E-1,1.0714054E-1,0E0,8.022404E-2,5.5913925E-3,1.2813293E-3,0E0,0E0,3.1402975E-2,1.5403199E-1,3.924233E-1,0E0,1.4280319E-1,0E0,0E0,0E0,0E0,0E0,0E0,0E0,3.6175426E-2,2.990736E-2,4.4670463E-2,0E0,6.9275826E-2,0E0,0E0,0E0,3.8316913E-2,0E0,1.2697995E-2,0E0,1.2375368E-1,0E0,1.2358581E-1,0E0,0E0,0E0,2.3460388E-2,0E0,0E0,0E0,0E0,0E0,6.2194765E-3,0E0,0E0],"parents":[2147483647,0,0,1,1,2,2,3,3,4,4,5,5,6,6,8,8,10,10,11,11,12,12,13,13,15,15,16,16,17,17,20,20,21,21,22,22,24,24,32,32,33,33,34,34,36,36,40,40,42,42,44,44,46,46,50,50,56,56],"right_children":[2,4,6,8,10,12,14,-1,16,-1,18,20,22,24,-1,26,28,30,-1,-1,32,34,36,-1,38,-1,-1,-1,-1,-1,-1,-1,40,42,44,-1,46,-1,-1,-1,48,-1,50,-1,52,-1,54,-1,-1,-1,56,-1,-1,-1,-1,-1,58,-1,-1],"split_conditions":[-4.0882292E-1,-1.0041865E0,9.41677E-1,-1.6695961E0,-8.3380175E-1,5.9113675E-3,1.9308974E0,2.9111514E-2,-1.2576761E0,2.405182E-2,-4.862425E-1,-3.9976186E-1,7.532465E-1,1.122131E0,-3.3168133E-2,-1.3411568E0,-1.2480208E0,-6.2036073E-1,-2.2202253E-2,2.099774E-2,-3.412809E-1,2.7770776E-1,8.041959E-1,4.2618427E-2,1.1755564E0,-1.4961533E-2,-6.1760467E-2,-7.843955E-3,-4.8001066E-2,-5.0202957E-3,1.2642742E-4,-1.5496318E-2,-2.499092E-1,1.55824E-1,6.048403E-1,-5.919495E-2,8.9421153E-1,5.8205277E-2,1.2157601E-2,1.5089162E-2,-2.7460204E-2,2.7866919E-2,1.6668686E-1,2.6605753E-2,6.1380213E-1,2.2539249E-2,9.137473E-1,-1.9444546E-2,-1.3141695E-3,7.0829378E-3,1.6938864E-1,-1.7209245E-2,2.1506293E-2,-3.031954E-2,1.7042136E-2,2.5846248E-2,1.9505395E-1,5.088938E-3,1.2652195E-2],"split_indices":[1,1,1,1,1,1,1,0,1,0,1,1,1,1,0,1,1,1,0,0,1,1,1,0,1,0,0,0,0,0,0,0,1,1,1,0,1,0,0,0,1,0,1,0,1,0,1,0,0,0,1,0,0,0,0,0,1,0,0],"split_type":[0,0,0,0,0,0,0,0,0,0,0,0,0,0,0,0,0,0,0,0,0,0,0,0,0,0,0,0,0,0,0,0,0,0,0,0,0,0,0,0,0,0,0,0,0,0,0,0,0,0,0,0,0,0,0,0,0,0,0],"sum_hessian":[7.2E2,2.63E2,4.57E2,2.09E2,5.4E1,2.63E2,1.94E2,4E0,2.05E2,2E0,5.2E1,9E1,1.73E2,1.89E2,5E0,1.06E2,9.9E1,6E0,4.6E1,3E0,8.7E1,1.59E2,1.4E1,8.2E1,1.07E2,3E0,1.03E2,1E0,9.8E1,3E0,3E0,5E0,8.2E1,7.1E1,8.8E1,2E0,1.2E1,1.03E2,4E0,3E0,7.9E1,3E0,6.8E1,7.6E1,1.2E1,7E0,5E0,3E0,7.6E1,3.8E1,3E1,3E0,9E0,2E0,3E0,4E0,2.6E1,1.2E1,1.4E1],"tree_param":{"num_deleted":"0","num_feature":"3","num_nodes":"59","size_leaf_vector":"1"}},{"base_weights":[-4.708931E-3,-1.861297E-1,1.1442344E-1,-2.1534383E-1,-9.01285E-2,4.246075E-2,2.016064E-1,1.6079841E-2,-2.2031079E-1,1.7891174E-2,-9.8159544E-2,7.1127824E-3,7.8593485E-2,2.0824696E-1,-2.627559E-2,-2.44204E-1,-3.778105E-2,-7.784673E-3,-2.0136982E-2,-6.859073E-3,6.4385696E-3,8.909332E-2,-1.9111825E-2,3.3061463E-2,4.6794653E-2,-1.3166146E-2,-4.957436E-2,1.3278459E-2,-1.1437498E-2,6.3370235E-2,1.01604156E-1,-2.3191564E-2,3.3133537E-2,-1.65062E-2,-1.056168E-3,7.707516E-2,-1.26788635E-2,2.197795E-2,3.868977E-2,1.70022E-2,-1.7437631E-2,5.8873836E-2,2.4123685E-2,-1.5144139E-2,2.0104773E-2,2.2400085E-2,4.20851E-2,4.6623107E-3,1.2689385E-2],"categories":[],"categories_nodes":[],"categories_segments":[],"categories_sizes":[],"default_left":[0,0,0,0,0,0,0,0,0,0,0,0,0,0,0,0,0,0,0,0,0,0,0,0,0,0,0,0,0,0,0,0,0,0,0,0,0,0,0,0,0,0,0,0,0,0,0,0,0],"id":8,"left_children":[1,3,5,7,9,11,13,-1,15,-1,17,19,21,23,-1,25,-1,-1,-1,27,-1,29,31,-1,-1,-1,-1,-1,33,35,37,-1,39,-1,-1,41,-1,-1,43,-1,-1,45,-1,-1,-1,-1,47,-1,-1],"loss_changes":[1.5323047E1,7.492733E-1,2.6681175E0,3.4977913E-1,1.1707723E-1,3.015828E-1,4.8148108E-1,0E0,6.606674E-2,0E0,2.1848083E-3,4.3192264E-2,1.2343454E-1,1.3253403E-1,0E0,4.1293144E-2,0E0,0E0,0E0,2.8348796E-2,0E0,2.1235287E-2,7.346099E-2,0E0,0E0,0E0,0E0,0E0,3.283111E-2,7.926421E-2,2.6943982E-2,0E0,7.7243745E-2,0E0,0E0,1.5121624E-2,0E0,0E0,9.304261E-2,0E0,0E0,1.733075E-2,0E0,0E0,0E0,0E0,7.4688755E-3,0E0,0E0],"parents":[2147483647,0,0,1,1,2,2,3,3,4,4,5,5,6,6,8,8,10,10,11,11,12,12,13,13,15,15,19,19,21,21,22,22,28,28,29,29,30,30,32,32,35,35,38,38,41,41,46,46],"right_children":[2,4,6,8,10,12,14,-1,16,-1,18,20,22,24,-1,26,-1,-1,-1,28,-1,30,32,-1,-1,-1,-1,-1,34,36,38,-1,40,-1,-1,42,-1,-1,44,-1,-1,46,-1,-1,-1,-1,48,-1,-1],"split_conditions":[-3.412809E-1,-8.3380175E-1,9.137473E-1,-1.6695961E0,-6.2036073E-1,1.6668686E-1,1.9308974E0,1.6079841E-2,-1.2224728E0,1.7891174E-2,-4.862425E-1,5.9113675E-3,7.532465E-1,1.1047082E0,-2.627559E-2,-1.3411568E0,-3.778105E-2,-7.784673E-3,-2.0136982E-2,-2.499092E-1,6.4385696E-3,5.677082E-1,8.041959E-1,3.3061463E-2,4.6794653E-2,-1.3166146E-2,-4.957436E-2,1.3278459E-2,-2.7460204E-2,3.974374E-1,6.048403E-1,-2.3191564E-2,8.9421153E-1,-1.65062E-2,-1.056168E-3,2.7770776E-1,-1.26788635E-2,2.197795E-2,6.1380213E-1,1.70022E-2,-1.7437631E-2,1.6938864E-1,2.4123685E-2,-1.5144139E-2,2.0104773E-2,2.2400085E-2,2.0428088E-1,4.6623107E-3,1.2689385E-2],"split_indices":[1,1,1,1,1,1,1,0,1,0,1,1,1,1,0,1,0,0,0,1,0,1,1,0,0,0,0,0,1,1,1,0,1,0,0,1,0,0,1,0,0,1,0,0,0,0,1,0,0],"split_type":[0,0,0,0,0,0,0,0,0,0,0,0,0,0,0,0,0,0,0,0,0,0,0,0,0,0,0,0,0,0,0,0,0,0,0,0,0,0,0,0,0,0,0,0,0,0,0,0,0],"sum_hessian":[7.05E2,2.79E2,4.26E2,2.12E2,6.7E1,2.35E2,1.91E2,3E0,2.09E2,2E0,6.5E1,1.2E2,1.15E2,1.88E2,3E0,1.11E2,9.8E1,4E0,6.1E1,7.8E1,4.2E1,1.04E2,1.1E1,7.6E1,1.12E2,3E0,1.08E2,3E0,7.5E1,3.8E1,6.6E1,3E0,8E0,4E0,7.1E1,3.5E1,3E0,5.7E1,9E0,6E0,2E0,2.8E1,7E0,3E0,6E0,4E0,2.4E1,1.5E1,9E0],"tree_param":{"num_deleted":"0","num_feature":"3","num_nodes":"49","size_leaf_vector":"1"}},{"base_weights":[-8.704955E-4,-1.7174777E-1,1.07239485E-1,-1.9969127E-1,-8.742254E-2,3.35084E-2,1.6704088E-1,-1.8955126E-1,-8.733933E-2,-7.441097E-2,-2.4894983E-2,4.1037365E-3,8.037289E-2,1.5163578E-1,3.7887964E-2,-4.1771036E-2,-1.4777905E-1,-7.878643E-2,-8.828531E-3,-7.154705E-4,1.7918E-2,3.561305E-2,7.440154E-2,1.5350403E-1,6.912045E-3,-3.0372266E-2,-6.940335E-4,-5.8570406E-3,-1.61483E-2,4.343625E-3,-2.108751E-3,5.334182E-3,1.7248137E-2,1.9162524E-2,3.1421196E-2,-5.07739E-3,1.4426907E-3,-1.84924E-4,-1.4398409E-3],"categories":[],"categories_nodes":[],"categories_segments":[],"categories_sizes":[],"default_left":[0,0,0,0,0,0,0,0,0,0,0,0,0,0,0,0,0,0,0,0,0,0,0,0,0,0,0,0,0,0,0,0,0,0,0,0,0,0,0],"id":9,"left_children":[1,3,5,7,9,11,13,15,-1,17,-1,19,21,23,-1,-1,25,27,-1,-1,29,-1,31,33,-1,-1,-1,-1,-1,-1,35,-1,-1,-1,-1,37,-1,-1,-1],"loss_changes":[1.33008375E1,6.225052E-1,1.9332724E0,3.3432007E-1,1.6669452E-2,2.7494726E-1,2.6397228E-2,1.01964E-1,0E0,8.581877E-4,0E0,1.3391772E-2,1.842177E-2,2.3073435E-2,0E0,0E0,4.0772676E-2,1.3053417E-5,0E0,0E0,3.5162838E-3,0E0,3.834653E-2,1.2726784E-3,0E0,0E0,0E0,0E0,0E0,0E0,3.2231933E-4,0E0,0E0,0E0,0E0,5.71782E-5,0E0,0E0,0E0],"parents":[2147483647,0,0,1,1,2,2,3,3,4,4,5,5,6,6,7,7,9,9,11,11,12,12,13,13,16,16,17,17,20,20,22,22,23,23,30,30,35,35],"right_children":[2,4,6,8,10,12,14,16,-1,18,-1,20,22,24,-1,-1,26,28,-1,-1,30,-1,32,34,-1,-1,-1,-1,-1,-1,36,-1,-1,-1,-1,38,-1,-1,-1],"split_conditions":[-7.9079166E-2,-8.004859E-1,6.347873E-1,-1.0635173E0,-4.4073847E-1,1.9432409E-1,1.259155E0,-1.1792904E0,-8.733933E-2,-5.109707E-1,-2.4894983E-2,1.6693307E-1,2.0330352E-1,1.2567759E0,3.7887964E-2,-4.1771036E-2,-1.1307878E0,-5.415116E-1,-8.828531E-3,-7.154705E-4,1.8032345E-1,3.561305E-2,3.1999072E-1,6.6944647E-1,6.912045E-3,-3.0372266E-2,-6.940335E-4,-5.8570406E-3,-1.61483E-2,4.343625E-3,1.890579E-1,5.334182E-3,1.7248137E-2,1.9162524E-2,3.1421196E-2,1.8355216E-1,1.4426907E-3,-1.84924E-4,-1.4398409E-3],"split_indices":[2,2,2,2,2,2,2,2,0,2,0,2,2,2,0,0,2,2,0,0,2,0,2,2,0,0,0,0,0,0,2,0,0,0,0,2,0,0,0],"split_type":[0,0,0,0,0,0,0,0,0,0,0,0,0,0,0,0,0,0,0,0,0,0,0,0,0,0,0,0,0,0,0,0,0,0,0,0,0,0,0],"sum_hessian":[7.16E2,2.77E2,4.39E2,2.06E2,7.1E1,1.98E2,2.41E2,2.01E2,5E0,5.7E1,1.4E1,1.23E2,7.5E1,1.52E2,8.9E1,1.32E2,6.9E1,4.7E1,1E1,8E1,4.3E1,1E0,7.4E1,1.49E2,3E0,6.7E1,2E0,3E0,4.4E1,3.6E1,7E0,1.6E1,5.8E1,1.2E1,1.37E2,6E0,1E0,3E0,3E0],"tree_param":{"num_deleted":"0","num_feature":"3","num_nodes":"39","size_leaf_vector":"1"}},{"base_weights":[-9.289791E-4,-1.3536622E-1,8.9980625E-2,-1.6774687E-1,-9.38585E-2,2.4361532E-2,1.450251E-1,-4.0456984E-2,-3.0322993E-2,-8.6831294E-2,-1.4320415E-1,8.8189235E-3,6.999501E-2,1.5634272E-2,1.4899911E-1,-1.1155699E-1,-1.2340776E-2,-3.0081106E-2,-3.7858468E-3,-3.0960531E-3,2.1316359E-2,3.3979837E-2,5.8514014E-2,2.2351214E-1,1.3671267E-1,-8.1327826E-2,-2.763787E-1,-5.637308E-4,-1.349853E-3,2.322136E-2,-4.535866E-3,-1.7113183E-2,1.37441E-2,1.16222054E-1,5.6549262E-2,6.995824E-3,2.7936429E-2,-2.2372974E-2,3.6997654E-2,-7.018941E-2,-1.8251766E-2,1.4918207E-2,3.6125295E-2,3.0563185E-2,-6.909013E-4,3.607175E-3,1.7191049E-3,1.442835E-2,4.6037016E-3,-4.6119783E-3,2.2322393E-3,-1.627332E-4,-1.3130999E-3],"categories":[],"categories_nodes":[],"categories_segments":[],"categories_sizes":[],"default_left":[0,0,0,0,0,0,0,0,0,0,0,0,0,0,0,0,0,0,0,0,0,0,0,0,0,0,0,0,0,0,0,0,0,0,0,0,0,0,0,0,0,0,0,0,0,0,0,0,0,0,0,0,0],"id":10,"left_children":[1,3,5,7,9,11,13,-1,-1,15,17,19,21,-1,23,25,-1,-1,-1,27,29,-1,31,33,35,37,39,-1,-1,41,-1,-1,-1,43,-1,-1,-1,-1,-1,-1,-1,45,47,-1,-1,-1,49,-1,-1,51,-1,-1,-1],"loss_changes":[8.60395E0,3.502202E-1,1.5099616E0,2.6136398E-2,1.9863129E-2,1.3636252E-1,3.7278652E-2,0E0,0E0,5.9545517E-2,5.9402287E-3,2.2021271E-2,3.632E-2,0E0,1.3388777E-1,2.3904353E-1,0E0,0E0,0E0,3.9984006E-5,7.087741E-3,0E0,8.087608E-2,1.0586882E-1,4.7021866E-2,4.561451E-1,4.6378672E-2,0E0,0E0,6.4221844E-3,0E0,0E0,0E0,5.7988375E-2,0E0,0E0,0E0,0E0,0E0,0E0,0E0,1.8309085E-3,8.952368E-3,0E0,0E0,0E0,7.605157E-4,0E0,0E0,4.867642E-5,0E0,0E0,0E0],"parents":[2147483647,0,0,1,1,2,2,3,3,4,4,5,5,6,6,9,9,10,10,11,11,12,12,14,14,15,15,19,19,20,20,22,22,23,23,24,24,25,25,26,26,29,29,33,33,41,41,42,42,46,46,49,49],"right_children":[2,4,6,8,10,12,14,-1,-1,16,18,20,22,-1,24,26,-1,-1,-1,28,30,-1,32,34,36,38,40,-1,-1,42,-1,-1,-1,44,-1,-1,-1,-1,-1,-1,-1,46,48,-1,-1,-1,50,-1,-1,52,-1,-1,-1],"split_conditions":[-3.5368975E-2,-1.1373276E0,6.347873E-1,-1.4392844E0,-3.8895983E-1,4.7536007E-1,6.6944647E-1,-4.0456984E-2,-3.0322993E-2,-8.004859E-1,-7.9079166E-2,1.6693307E-1,6.1399716E-1,1.5634272E-2,1.0052714E0,-1.0635173E0,-1.2340776E-2,-3.0081106E-2,-3.7858468E-3,1.6682315E-1,3.4494492E-1,3.3979837E-2,6.211747E-1,7.416684E-1,1.0386214E0,-1.1307878E0,-1.0404365E0,-5.637308E-4,-1.349853E-3,1.9432409E-1,-4.535866E-3,-1.7113183E-2,1.37441E-2,7.0611256E-1,5.6549262E-2,6.995824E-3,2.7936429E-2,-2.2372974E-2,3.6997654E-2,-7.018941E-2,-1.8251766E-2,1.8032345E-1,2.0330352E-1,3.0563185E-2,-6.909013E-4,3.607175E-3,1.890579E-1,1.442835E-2,4.6037016E-3,1.8355216E-1,2.2322393E-3,-1.627332E-4,-1.3130999E-3],"split_indices":[2,2,2,2,2,2,2,0,0,2,2,2,2,0,2,2,0,0,0,2,2,0,2,2,2,2,2,0,0,2,0,0,0,2,0,0,0,0,0,0,0,2,2,0,0,0,2,0,0,2,0,0,0],"split_type":[0,0,0,0,0,0,0,0,0,0,0,0,0,0,0,0,0,0,0,0,0,0,0,0,0,0,0,0,0,0,0,0,0,0,0,0,0,0,0,0,0,0,0,0,0,0,0,0,0,0,0,0,0],"sum_hessian":[7E2,2.82E2,4.18E2,1.55E2,1.27E2,1.92E2,2.26E2,4.2E1,1.13E2,1.16E2,1.1E1,1.45E2,4.7E1,1.5E1,2.11E2,5.5E1,6.1E1,1E1,1E0,7.5E1,7E1,2E0,4.5E1,2.5E1,1.86E2,4.9E1,6E0,7.3E1,2E0,6.8E1,2E0,2E0,4.3E1,1.1E1,1.4E1,6E0,1.8E2,4.5E1,4E0,3E0,3E0,4.4E1,2.4E1,8E0,3E0,3.5E1,9E0,4E0,2E1,6E0,3E0,3E0,3E0],"tree_param":{"num_deleted":"0","num_feature":"3","num_nodes":"53","size_leaf_vector":"1"}},{"base_weights":[-3.5885165E-3,-1.1387448E-1,6.739634E-2,-1.3183285E-1,-6.0547087E-2,7.6364186E-3,9.886126E-2,-1.24967255E-1,-2.9817262E-1,-4.9085125E-2,-2.0122875E-2,1.985487E-3,2.8578648E-2,6.4928934E-2,1.0917501E-1,-1.3121043E-1,3.6197968E-2,-8.231078E-2,-1.763971E-2,-5.5573188E-2,-6.163263E-3,-4.793706E-4,1.0759962E-2,5.1179446E-2,1.9765178E-2,3.537966E-2,5.8459964E-2,1.012336E-1,2.7639976E-2,-6.246532E-2,-1.2542824E-1,-3.6733008E-3,-1.147994E-2,2.8965108E-3,-1.640311E-2,1.7149225E-3,1.2504572E-2,2.1650592E-2,1.1898726E-3,3.2547077E-3,1.2092577E-2,1.07371874E-1,-3.1556446E-2,-2.6377589E-2,-1.955744E-2,-4.712098E-3,-1.1094881E-3,2.6725128E-3,6.3147247E-3,2.0806618E-2,4.0118452E-2],"categories":[],"categories_nodes":[],"categories_segments":[],"categories_sizes":[],"default_left":[0,0,0,0,0,0,0,0,0,0,0,0,0,0,0,0,0,0,0,0,0,0,0,0,0,0,0,0,0,0,0,0,0,0,0,0,0,0,0,0,0,0,0,0,0,0,0,0,0,0,0],"id":11,"left_children":[1,3,5,7,9,11,13,15,17,19,-1,21,23,25,27,29,-1,-1,-1,31,-1,-1,33,35,37,-1,39,41,-1,-1,43,-1,-1,-1,45,-1,-1,47,-1,-1,-1,49,-1,-1,-1,-1,-1,-1,-1,-1,-1],"loss_changes":[5.7380815E0,2.5888777E-1,8.371222E-1,1.6872692E-1,2.5025636E-2,1.8348038E-2,8.801389E-2,4.4480538E-1,9.405297E-2,4.042223E-3,0E0,4.858171E-3,4.5501757E-3,3.2192886E-2,2.295947E-2,1.3633657E-1,0E0,0E0,0E0,8.817017E-4,0E0,0E0,4.7220336E-3,2.7940553E-3,4.456956E-4,0E0,4.11582E-3,3.216561E-1,0E0,0E0,1.0273933E-2,0E0,0E0,0E0,2.0478806E-4,0E0,0E0,1.0477658E-3,0E0,0E0,0E0,1.3664722E-2,0E0,0E0,0E0,0E0,0E0,0E0,0E0,0E0,0E0],"parents":[2147483647,0,0,1,1,2,2,3,3,4,4,5,5,6,6,7,7,8,8,9,9,11,11,12,12,13,13,14,14,15,15,19,19,22,22,23,23,24,24,26,26,27,27,30,30,34,34,37,37,41,41],"right_children":[2,4,6,8,10,12,14,16,18,20,-1,22,24,26,28,30,-1,-1,-1,32,-1,-1,34,36,38,-1,40,42,-1,-1,44,-1,-1,-1,46,-1,-1,48,-1,-1,-1,50,-1,-1,-1,-1,-1,-1,-1,-1,-1],"split_conditions":[-7.9079166E-2,-8.004859E-1,4.7536007E-1,-1.0635173E0,-4.4073847E-1,1.890579E-1,6.6944647E-1,-1.1307878E0,-1.0404365E0,-5.242018E-1,-2.0122875E-2,1.6693307E-1,2.0330352E-1,6.1399716E-1,1.2745013E0,-1.4840827E0,3.6197968E-2,-8.231078E-2,-1.763971E-2,-5.415116E-1,-6.163263E-3,-4.793706E-4,1.8032345E-1,1.9432409E-1,3.4494492E-1,3.537966E-2,6.211747E-1,1.2708164E0,2.7639976E-2,-6.246532E-2,-1.1373276E0,-3.6733008E-3,-1.147994E-2,2.8965108E-3,1.8355216E-1,1.7149225E-3,1.2504572E-2,2.8611857E-1,1.1898726E-3,3.2547077E-3,1.2092577E-2,1.2706512E0,-3.1556446E-2,-2.6377589E-2,-1.955744E-2,-4.712098E-3,-1.1094881E-3,2.6725128E-3,6.3147247E-3,2.0806618E-2,4.0118452E-2],"split_indices":[2,2,2,2,2,2,2,2,2,2,0,2,2,2,2,2,0,0,0,2,0,0,2,2,2,0,2,2,0,0,2,0,0,0,2,0,0,2,0,0,0,2,0,0,0,0,0,0,0,0,0],"split_type":[0,0,0,0,0,0,0,0,0,0,0,0,0,0,0,0,0,0,0,0,0,0,0,0,0,0,0,0,0,0,0,0,0,0,0,0,0,0,0,0,0,0,0,0,0,0,0,0,0,0,0],"sum_hessian":[7.29E2,2.85E2,4.44E2,2.11E2,7.4E1,1.54E2,2.9E2,2.06E2,5E0,6.1E1,1.3E1,1.23E2,3.1E1,7.1E1,2.19E2,2.03E2,3E0,2E0,3E0,4.2E1,1.9E1,8.3E1,4E1,6E0,2.5E1,1E0,7E1,1.79E2,4E1,3E0,2E2,3E0,3.9E1,3.6E1,4E0,2E0,4E0,2.1E1,4E0,4E0,6.6E1,1.76E2,3E0,1.56E2,4.4E1,1E0,3E0,1.4E1,7E0,1.74E2,2E0],"tree_param":{"num_deleted":"0","num_feature":"3","num_nodes":"51","size_leaf_vector":"1"}},{"base_weights":[-2.4506992E-3,-7.361954E-2,6.8529874E-2,-1.00353524E-1,-3.5153948E-2,2.9293563E-2,8.857199E-2,-2.6626185E-2,-9.208761E-2,-5.344362E-2,-3.133402E-3,9.827968E-3,9.44225E-3,8.244219E-2,2.2475246E-2,-8.633784E-2,-2.8846651E-2,-3.8312174E-2,-1.088611E-1,7.220127E-3,3.051115E-3,8.742403E-2,-2.7769668E-2,-9.4112135E-2,-7.185687E-2,-8.579567E-3,-4.683709E-3,-1.128853E-1,-3.5014988E-3,9.929199E-3,-1.8424127E-2,8.4487095E-2,3.2341667E-2,-1.7479353E-2,-1.4697145E-1,-4.069847E-3,-1.4572396E-2,-1.3114217E-2,-2.8292982E-2,2.353002E-3,1.7016039E-3,-4.9132123E-3,4.095743E-4,1.0483263E-1,7.784659E-2,-3.5483003E-2,-1.1547862E-2,-1.7315727E-3,1.543431E-3,8.0051765E-2,5.75669E-2,1.6101887E-2,7.9780295E-2,4.2224705E-4,-9.7635033E-4,8.227128E-2,-1.3801256E-4,5.876988E-3,-1.9306183E-4,7.267138E-2,1.937445E-2,1.1669672E-2,1.0637656E-1,7.419809E-2,4.346049E-3,2.384633E-2,6.0805394E-3,2.0011066E-2,1.3808682E-2],"categories":[],"categories_nodes":[],"categories_segments":[],"categories_sizes":[],"default_left":[0,0,0,0,0,0,0,0,0,0,0,0,0,0,0,0,0,0,0,0,0,0,0,0,0,0,0,0,0,0,0,0,0,0,0,0,0,0,0,0,0,0,0,0,0,0,0,0,0,0,0,0,0,0,0,0,0,0,0,0,0,0,0,0,0,0,0,0,0],"id":12,"left_children":[1,3,5,7,9,11,13,-1,15,17,-1,19,-1,21,-1,23,-1,25,27,29,-1,31,-1,33,35,-1,-1,37,-1,39,41,43,-1,-1,45,-1,-1,-1,-1,-1,47,-1,-1,49,51,-1,-1,53,-1,55,-1,57,59,-1,-1,61,-1,-1,-1,63,-1,-1,65,67,-1,-1,-1,-1,-1],"loss_changes":[3.5512652E0,3.5389113E-1,2.7161598E-1,3.1293154E-2,5.0717622E-2,4.162298E-2,1.5323281E-2,0E0,2.6364565E-2,5.4549605E-2,0E0,6.431192E-4,0E0,2.3594475E-1,0E0,4.374981E-3,0E0,2.2252053E-3,1.5616864E-3,3.492119E-3,0E0,1.3909221E-2,0E0,8.742392E-3,3.4797192E-4,0E0,0E0,3.7908554E-4,0E0,5.943421E-4,7.293045E-4,8.807778E-3,0E0,0E0,1.2447089E-3,0E0,0E0,0E0,0E0,0E0,2.3325012E-4,0E0,0E0,1.3531446E-1,1.5101373E-2,0E0,0E0,1.1745731E-4,0E0,6.923437E-3,0E0,1.6436626E-3,3.2954812E-3,0E0,0E0,8.9229345E-3,0E0,0E0,0E0,5.25254E-3,0E0,0E0,8.376479E-3,1.7869473E-4,0E0,0E0,0E0,0E0,0E0],"parents":[2147483647,0,0,1,1,2,2,3,3,4,4,5,5,6,6,8,8,9,9,11,11,13,13,15,15,17,17,18,18,19,19,21,21,23,23,24,24,27,27,29,29,30,30,31,31,34,34,40,40,43,43,44,44,47,47,49,49,51,51,52,52,55,55,59,59,62,62,63,63],"right_children":[2,4,6,8,10,12,14,-1,16,18,-1,20,-1,22,-1,24,-1,26,28,30,-1,32,-1,34,36,-1,-1,38,-1,40,42,44,-1,-1,46,-1,-1,-1,-1,-1,48,-1,-1,50,52,-1,-1,54,-1,56,-1,58,60,-1,-1,62,-1,-1,-1,64,-1,-1,66,68,-1,-1,-1,-1,-1],"split_conditions":[1.6693307E-1,-8.004859E-1,6.347873E-1,-1.4597083E0,-3.5368975E-2,3.1999072E-1,1.2745013E0,-2.6626185E-2,-1.1308082E0,-4.4073847E-1,-3.133402E-3,2.1189202E-1,9.44225E-3,1.2708164E0,2.2475246E-2,-1.1792904E0,-2.8846651E-2,-5.185049E-1,-7.9079166E-2,1.9432409E-1,3.051115E-3,1.2706512E0,-2.7769668E-2,-1.1934786E0,-1.1704464E0,-8.579567E-3,-4.683709E-3,-3.635728E-1,-3.5014988E-3,1.8032345E-1,2.0330352E-1,1.0052714E0,3.2341667E-2,-1.7479353E-2,-1.1847427E0,-4.069847E-3,-1.4572396E-2,-1.3114217E-2,-2.8292982E-2,2.353002E-3,1.890579E-1,-4.9132123E-3,4.095743E-4,9.836843E-1,1.0386214E0,-3.5483003E-2,-1.1547862E-2,1.8355216E-1,1.543431E-3,9.346979E-1,5.75669E-2,1.0173889E0,1.259155E0,4.2224705E-4,-9.7635033E-4,7.0611256E-1,-1.3801256E-4,5.876988E-3,-1.9306183E-4,1.2567759E0,1.937445E-2,1.1669672E-2,8.820921E-1,1.1049733E0,4.346049E-3,2.384633E-2,6.0805394E-3,2.0011066E-2,1.3808682E-2],"split_indices":[2,2,2,2,2,2,2,0,2,2,0,2,0,2,0,2,0,2,2,2,0,2,0,2,2,0,0,2,0,2,2,2,0,0,2,0,0,0,0,0,2,0,0,2,2,0,0,2,0,2,0,2,2,0,0,2,0,0,0,2,0,0,2,2,0,0,0,0,0],"split_type":[0,0,0,0,0,0,0,0,0,0,0,0,0,0,0,0,0,0,0,0,0,0,0,0,0,0,0,0,0,0,0,0,0,0,0,0,0,0,0,0,0,0,0,0,0,0,0,0,0,0,0,0,0,0,0,0,0,0,0,0,0,0,0,0,0,0,0,0,0],"sum_hessian":[6.99E2,3.49E2,3.5E2,2.04E2,1.45E2,1.2E2,2.3E2,3.5E1,1.69E2,7.3E1,7.2E1,5.9E1,6.1E1,1.9E2,4E1,1.57E2,1.2E1,6E1,1.3E1,4.3E1,1.6E1,1.87E2,3E0,9.5E1,6.2E1,4.3E1,1.7E1,1.2E1,1E0,4E1,3E0,1.84E2,3E0,8.9E1,6E0,2E0,6E1,7E0,5E0,3.2E1,8E0,2E0,1E0,3.8E1,1.46E2,3E0,3E0,6E0,2E0,3.6E1,2E0,5E0,1.41E2,3E0,3E0,3.5E1,1E0,2E0,3E0,1.07E2,3.4E1,2.1E1,1.4E1,1.03E2,4E0,1.1E1,3E0,1.1E1,9.2E1],"tree_param":{"num_deleted":"0","num_feature":"3","num_nodes":"69","size_leaf_vector":"1"}},{"base_weights":[-1.4649322E-3,-6.2200766E-2,3.282555E-2,4.306392E-2,-6.914062E-2,3.622227E-2,-3.006875E-2,-7.739804E-2,-2.7001485E-2,1.3906507E-2,7.420495E-2,-6.898397E-2,-7.034009E-2,5.3115417E-3,-6.394684E-3,1.8843029E-2,-1.1746695E-2,1.1117304E-2,1.736215E-2,-1.7310183E-2,-5.763601E-2,5.5000423E-3,3.560371E-2,-7.795414E-2,1.2369251E-2,-1.17130745E-2,-1.9721175E-3,2.9225633E-2,2.2116688E-3,8.216004E-2,3.1337768E-2,6.2014543E-2,-3.9592227E-3,2.0104693E-3,1.568999E-2,-3.208106E-2,5.397965E-3,3.773871E-3,2.2517342E-2,4.705003E-3,3.503904E-2,3.3444222E-2,2.508587E-2,-5.8882525E-3,7.244453E-3,-1.9397944E-3,1.4818268E-2,-3.597681E-3,-1.0923597E-2,1.0111637E-4,1.5156804E-2,-9.7518E-4,1.9837916E-3,5.8702238E-2,2.84255E-2,1.7925343E-2,-1.0030884E-2,-7.795974E-5,3.7150166E-3,7.5350883E-3,-1.8789554E-3,-3.5009445E-3,1.7934049E-3,9.546022E-3,1.958138E-3,2.1615524E-3,-2.0938476E-3,6.774527E-3,1.6254216E-2,-1.4204201E-2,6.908382E-3,-1.0608213E-2,4.397239E-3,2.910036E-3,-3.510703E-3,-1.9086639E-3,5.2415853E-4],"categories":[],"categories_nodes":[],"categories_segments":[],"categories_sizes":[],"default_left":[0,0,0,0,0,0,0,0,0,0,0,0,0,0,0,0,0,0,0,0,0,0,0,0,0,0,0,0,0,0,0,0,0,0,0,0,0,0,0,0,0,0,0,0,0,0,0,0,0,0,0,0,0,0,0,0,0,0,0,0,0,0,0,0,0,0,0,0,0,0,0,0,0,0,0,0,0],"id":13,"left_children":[1,3,5,-1,7,9,-1,11,13,15,17,19,-1,-1,-1,21,23,-1,-1,-1,25,27,29,-1,31,-1,-1,33,35,37,39,41,43,45,-1,47,49,-1,-1,51,53,55,-1,-1,57,-1,59,61,-1,-1,63,65,-1,67,69,-1,71,73,-1,-1,-1,-1,-1,-1,-1,-1,-1,-1,-1,-1,-1,-1,-1,-1,75,-1,-1],"loss_changes":[1.5410873E0,5.4400337E-1,3.0518043E-1,0E0,8.6986065E-2,3.9292365E-1,0E0,4.5462036E-1,1.3947744E-2,3.7927415E-2,3.0717432E-2,3.268385E-2,0E0,0E0,0E0,5.5294096E-2,4.5634627E-1,0E0,0E0,0E0,4.8835576E-3,1.0871349E-2,1.6697302E-2,0E0,3.9401386E-2,0E0,0E0,2.2458564E-2,1.4113962E-2,1.115692E-2,9.922095E-3,1.3351601E-2,1.1275286E-2,2.2370822E-3,0E0,6.668208E-3,5.570719E-3,0E0,0E0,4.635888E-4,1.0903992E-2,2.8666005E-2,0E0,0E0,2.3259874E-3,0E0,4.5819962E-3,1.5370956E-3,0E0,0E0,5.882269E-3,1.2331095E-3,0E0,4.581034E-3,5.0525576E-2,0E0,1.3348825E-2,1.056241E-3,0E0,0E0,0E0,0E0,0E0,0E0,0E0,0E0,0E0,0E0,0E0,0E0,0E0,0E0,0E0,0E0,6.788344E-4,0E0,0E0],"parents":[2147483647,0,0,1,1,2,2,4,4,5,5,7,7,8,8,9,9,10,10,11,11,15,15,16,16,20,20,21,21,22,22,24,24,27,27,28,28,29,29,30,30,31,31,32,32,33,33,35,35,36,36,39,39,40,40,41,41,44,44,46,46,47,47,50,50,51,51,53,53,54,54,56,56,57,57,74,74],"right_children":[2,4,6,-1,8,10,-1,12,14,16,18,20,-1,-1,-1,22,24,-1,-1,-1,26,28,30,-1,32,-1,-1,34,36,38,40,42,44,46,-1,48,50,-1,-1,52,54,56,-1,-1,58,-1,60,62,-1,-1,64,66,-1,68,70,-1,72,74,-1,-1,-1,-1,-1,-1,-1,-1,-1,-1,-1,-1,-1,-1,-1,-1,76,-1,-1],"split_conditions":[-4.5972064E-1,-1.3411568E0,1.1755564E0,4.306392E-2,-6.2036073E-1,1.0501618E0,-3.006875E-2,-1.0041865E0,-4.862425E-1,6.048403E-1,1.1362884E0,-1.2942797E0,-7.034009E-2,5.3115417E-3,-6.394684E-3,1.646412E-1,6.1380213E-1,1.1117304E-2,1.736215E-2,-1.7310183E-2,-1.0205044E0,-3.9976186E-1,1.6938864E-1,-7.795414E-2,8.041959E-1,-1.17130745E-2,-1.9721175E-3,-4.0882292E-1,-2.7460204E-2,1.6668686E-1,2.0428088E-1,7.532465E-1,9.41677E-1,-4.3617508E-1,1.568999E-2,-3.412809E-1,5.9113675E-3,3.773871E-3,2.2517342E-2,1.797715E-1,3.974374E-1,6.1597824E-1,2.508587E-2,-5.8882525E-3,1.0250965E0,-1.9397944E-3,-4.242416E-1,-3.8705918E-1,-1.0923597E-2,1.0111637E-4,1.55824E-1,1.7262185E-1,1.9837916E-3,2.7770776E-1,5.677082E-1,1.7925343E-2,6.3386303E-1,9.6475106E-1,3.7150166E-3,7.5350883E-3,-1.8789554E-3,-3.5009445E-3,1.7934049E-3,9.546022E-3,1.958138E-3,2.1615524E-3,-2.0938476E-3,6.774527E-3,1.6254216E-2,-1.4204201E-2,6.908382E-3,-1.0608213E-2,4.397239E-3,2.910036E-3,1.0020528E0,-1.9086639E-3,5.2415853E-4],"split_indices":[1,1,1,0,1,1,0,1,1,1,1,1,0,0,0,1,1,0,0,0,1,1,1,0,1,0,0,1,1,1,1,1,1,1,0,1,1,0,0,1,1,1,0,0,1,0,1,1,0,0,1,1,0,1,1,0,1,1,0,0,0,0,0,0,0,0,0,0,0,0,0,0,0,0,1,0,0],"split_type":[0,0,0,0,0,0,0,0,0,0,0,0,0,0,0,0,0,0,0,0,0,0,0,0,0,0,0,0,0,0,0,0,0,0,0,0,0,0,0,0,0,0,0,0,0,0,0,0,0,0,0,0,0,0,0,0,0,0,0,0,0,0,0,0,0,0,0,0,0,0,0,0,0,0,0,0,0],"sum_hessian":[7.36E2,2.65E2,4.71E2,5E0,2.6E2,4.64E2,7E0,2.16E2,4.4E1,2.94E2,1.7E2,2.12E2,4E0,3E0,4.1E1,2.47E2,4.7E1,7.3E1,9.7E1,7.8E1,1.34E2,1.39E2,1.08E2,1E0,4.6E1,1.31E2,3E0,1.5E1,1.24E2,6E0,1.02E2,1E1,3.6E1,1.1E1,4E0,9E0,1.15E2,3E0,3E0,1.3E1,8.9E1,9E0,1E0,1E1,2.6E1,6E0,5E0,5E0,4E0,7.8E1,3.7E1,7E0,6E0,1.6E1,7.3E1,3E0,6E0,1.7E1,9E0,2E0,3E0,2E0,3E0,3E0,3.4E1,3E0,4E0,1E1,6E0,3E0,7E1,2E0,4E0,2E0,1.5E1,7E0,8E0],"tree_param":{"num_deleted":"0","num_feature":"3","num_nodes":"77","size_leaf_vector":"1"}},{"base_weights":[-8.878584E-4,-7.078552E-2,3.9993756E-2,-7.512653E-2,-5.8226302E-2,3.455859E-2,1.0154518E-1,-6.8255536E-2,-2.4966234E-2,3.7886687E-2,-4.43152E-2,-6.405502E-2,-4.0282637E-2,3.978622E-2,-4.309427E-2,1.17633315E-2,6.982835E-2,-7.276437E-2,-9.854134E-3,-3.3989254E-2,-2.505441E-2,1.3217296E-1,9.178312E-3,2.085598E-2,6.5006346E-2,-6.376979E-2,-2.1079702E-2,-5.700089E-3,-3.8301905E-3,-4.317239E-4,4.4633284E-2,-5.1625862E-5,2.3967171E-2,5.5880282E-2,8.631636E-2,-1.3957332E-2,-7.7208676E-3,1.9291503E-3,-1.173239E-2,2.912843E-2,-3.8153328E-2,2.852806E-2,6.0010962E-2,2.8747609E-2,1.501474E-2,-3.5493623E-2,4.862907E-3,6.4965844E-2,2.4869712E-2,-1.3106435E-2,8.9736935E-4,1.4170726E-3,6.547966E-3,1.2130484E-2,4.4045686E-3,-9.657373E-3,-3.724888E-3,2.7710242E-2,8.886075E-4,3.4250282E-3,1.7364044E-2,1.8316023E-2,4.9204573E-2,7.2183384E-4,-2.4442936E-3,5.107693E-3,-1.6291527E-2,2.5321562E-2,5.4326635E-3],"categories":[],"categories_nodes":[],"categories_segments":[],"categories_sizes":[],"default_left":[0,0,0,0,0,0,0,0,0,0,0,0,0,0,0,0,0,0,0,0,0,0,0,0,0,0,0,0,0,0,0,0,0,0,0,0,0,0,0,0,0,0,0,0,0,0,0,0,0,0,0,0,0,0,0,0,0,0,0,0,0,0,0,0,0,0,0,0,0],"id":14,"left_children":[1,3,5,-1,7,9,-1,11,13,15,-1,17,-1,-1,19,21,23,25,-1,-1,27,29,31,-1,33,35,-1,-1,-1,-1,-1,37,39,41,43,-1,-1,45,-1,47,49,51,53,-1,-1,55,57,59,61,-1,-1,-1,-1,-1,-1,-1,-1,-1,63,-1,-1,65,67,-1,-1,-1,-1,-1,-1],"loss_changes":[2.0287926E0,9.5936084E-1,1.1038136E0,0E0,8.131939E-2,3.9612556E-1,0E0,8.270717E-2,2.6879236E-1,3.6633795E-1,0E0,1.7423272E-2,0E0,0E0,1.2649935E-1,7.3832765E-2,1.9335091E-2,2.0607054E-2,0E0,0E0,6.9253147E-6,6.2079944E-2,3.303553E-2,0E0,2.5164545E-2,9.147942E-3,0E0,0E0,0E0,0E0,0E0,1.7756518E-2,3.2040358E-2,1.1376798E-2,1.0696739E-2,0E0,0E0,1.6594024E-2,0E0,1.0046706E-2,9.9275755E-3,1.4325995E-3,5.7697296E-5,0E0,0E0,5.752938E-4,7.360687E-2,5.3906105E-3,1.111567E-2,0E0,0E0,0E0,0E0,0E0,0E0,0E0,0E0,0E0,4.974566E-3,0E0,0E0,5.244143E-2,2.041886E-2,0E0,0E0,0E0,0E0,0E0,0E0],"parents":[2147483647,0,0,1,1,2,2,4,4,5,5,7,7,8,8,9,9,11,11,14,14,15,15,16,16,17,17,20,20,21,21,22,22,24,24,25,25,31,31,32,32,33,33,34,34,37,37,39,39,40,40,41,41,42,42,45,45,46,46,47,47,48,48,58,58,61,61,62,62],"right_children":[2,4,6,-1,8,10,-1,12,14,16,-1,18,-1,-1,20,22,24,26,-1,-1,28,30,32,-1,34,36,-1,-1,-1,-1,-1,38,40,42,44,-1,-1,46,-1,48,50,52,54,-1,-1,56,58,60,62,-1,-1,-1,-1,-1,-1,-1,-1,-1,64,-1,-1,66,68,-1,-1,-1,-1,-1,-1],"split_conditions":[-4.2205876E-1,-1.3435009E0,1.9515147E0,-7.512653E-2,-9.9997413E-1,1.1753006E0,1.0154518E-1,-1.0227412E0,-8.8685685E-1,9.304633E-1,-4.43152E-2,-1.1385871E0,-4.0282637E-2,3.978622E-2,-4.8797E-1,-4.0143877E-1,1.0247049E0,-1.2576156E0,-9.854134E-3,-3.3989254E-2,-4.8123935E-1,-4.071821E-1,3.834402E-1,2.085598E-2,1.156432E0,-1.2910863E0,-2.1079702E-2,-5.700089E-3,-3.8301905E-3,-4.317239E-4,4.4633284E-2,2.76642E-1,8.7658906E-1,1.0625013E0,1.1632426E0,-1.3957332E-2,-7.7208676E-3,-2.5145096E-1,-1.173239E-2,5.6692773E-1,9.0184814E-1,1.0341417E0,1.1563349E0,2.8747609E-2,1.501474E-2,-3.8872465E-1,-2.8801275E-2,5.6688344E-1,6.078663E-1,-1.3106435E-2,8.9736935E-4,1.4170726E-3,6.547966E-3,1.2130484E-2,4.4045686E-3,-9.657373E-3,-3.724888E-3,2.7710242E-2,1.6552092E-1,3.4250282E-3,1.7364044E-2,6.037664E-1,6.1420125E-1,7.2183384E-4,-2.4442936E-3,5.107693E-3,-1.6291527E-2,2.5321562E-2,5.4326635E-3],"split_indices":[0,0,0,0,0,0,0,0,0,0,0,0,0,0,0,0,0,0,0,0,0,0,0,0,0,0,0,0,0,0,0,0,0,0,0,0,0,0,0,0,0,0,0,0,0,0,0,0,0,0,0,0,0,0,0,0,0,0,0,0,0,0,0,0,0,0,0,0,0],"split_type":[0,0,0,0,0,0,0,0,0,0,0,0,0,0,0,0,0,0,0,0,0,0,0,0,0,0,0,0,0,0,0,0,0,0,0,0,0,0,0,0,0,0,0,0,0,0,0,0,0,0,0,0,0,0,0,0,0,0,0,0,0,0,0,0,0,0,0,0,0],"sum_hessian":[7.06E2,2.6E2,4.46E2,8E0,2.52E2,4.43E2,3E0,1.92E2,6E1,4.39E2,4E0,1.89E2,3E0,3E0,5.7E1,2.43E2,1.96E2,1.14E2,7.5E1,5E0,5.2E1,3E0,2.4E2,1.9E1,1.77E2,9.4E1,2E1,2.8E1,2.4E1,2E0,1E0,1.49E2,9.1E1,1.29E2,4.8E1,7.3E1,2.1E1,1.46E2,3E0,8.5E1,6E0,1.9E1,1.1E2,4E0,4.4E1,9E0,1.37E2,6E0,7.9E1,3E0,3E0,4E0,1.5E1,1.07E2,3E0,3E0,6E0,2E0,1.35E2,3E0,3E0,6.5E1,1.4E1,1.13E2,2.2E1,6.2E1,3E0,1E0,1.3E1],"tree_param":{"num_deleted":"0","num_feature":"3","num_nodes":"69","size_leaf_vector":"1"}},{"base_weights":[2.7297663E-3,-5.5172216E-2,3.815977E-2,-7.388483E-2,-4.8944052E-2,3.1738874E-2,8.635472E-2,-5.4978598E-2,-2.4990946E-2,3.466599E-2,-3.8406502E-2,-5.1369432E-2,-1.07171275E-1,-1.896071E-2,-8.589561E-3,1.1432989E-2,5.876923E-2,-7.0590355E-2,-4.6118975E-2,-3.6937486E-2,-6.654482E-2,-4.5398055E-3,-2.4341017E-3,5.1023536E-3,2.5597835E-2,4.8603978E-2,6.549955E-2,1.457994E-3,-7.729903E-2,-5.0165225E-2,-7.1737566E-3,-4.713106E-4,-1.8005257E-2,4.869132E-2,2.7410612E-3,6.530928E-2,1.9007536E-2,5.956541E-2,3.7241016E-2,2.8917888E-2,5.8233965E-2,-2.792277E-2,-1.315205E-2,-4.298037E-2,-5.8917608E-2,-4.5170783E-4,1.6032932E-2,1.7210037E-3,8.612218E-3,3.0140257E-3,1.7081095E-2,3.986758E-3,9.494067E-5,4.1332304E-2,1.4808207E-2,2.2559835E-2,9.202771E-3,6.5629235E-3,6.381478E-2,-9.0625575E-3,-4.8309728E-3,-2.945522E-2,-4.8206944E-2,3.2180373E-3,-1.135657E-2,2.0083912E-2,-2.4195553E-3,1.3005212E-2,-2.231171E-2,8.5323333E-4,4.975454E-3,1.0583478E-2,7.14403E-2,-1.5541033E-2,-6.0902905E-2,7.570777E-4,7.922956E-3,-5.3870864E-3,-2.2104383E-3,2.1005988E-3,5.475963E-3,-6.54781E-3,1.3609553E-3,-1.15336655E-2,4.3939184E-3,2.1604897E-2,1.20397825E-2,-7.814845E-3,9.431007E-3,-1.6793698E-2,-8.766697E-3,5.9073285E-4,-5.536962E-3,1.0974263E-3,2.2826868E-3,1.2259883E-3,-2.934174E-3,1.7602519E-4,-1.7249652E-3],"categories":[],"categories_nodes":[],"categories_segments":[],"categories_sizes":[],"default_left":[0,0,0,0,0,0,0,0,0,0,0,0,0,0,0,0,0,0,0,0,0,0,0,0,0,0,0,0,0,0,0,0,0,0,0,0,0,0,0,0,0,0,0,0,0,0,0,0,0,0,0,0,0,0,0,0,0,0,0,0,0,0,0,0,0,0,0,0,0,0,0,0,0,0,0,0,0,0,0,0,0,0,0,0,0,0,0,0,0,0,0,0,0,0,0,0,0,0,0],"id":15,"left_children":[1,3,5,-1,7,9,-1,11,13,15,-1,17,19,21,-1,23,25,27,29,-1,31,-1,-1,33,35,37,39,-1,41,43,-1,-1,-1,45,47,49,51,53,55,-1,57,-1,-1,59,61,-1,-1,63,65,-1,-1,-1,-1,67,-1,69,-1,-1,71,-1,-1,-1,73,75,77,79,81,-1,83,-1,-1,-1,85,87,89,91,93,-1,95,-1,-1,97,-1,-1,-1,-1,-1,-1,-1,-1,-1,-1,-1,-1,-1,-1,-1,-1,-1],"loss_changes":[1.4751129E0,4.9815673E-1,1.099792E0,0E0,3.62795E-2,3.0217126E-1,0E0,2.9300928E-2,4.651837E-3,2.4337208E-1,0E0,1.40762925E-2,1.321049E-2,6.405264E-4,0E0,1.991509E-2,8.27384E-3,2.2025973E-2,3.2860935E-3,0E0,1.6155284E-2,0E0,0E0,1.5995424E-2,1.5575279E-2,7.1469992E-3,5.383998E-2,0E0,8.242279E-3,2.1042228E-3,0E0,0E0,0E0,1.3190603E-2,8.8067236E-4,6.5123998E-3,1.0453742E-3,5.492583E-3,4.492454E-3,0E0,1.2267709E-2,0E0,0E0,8.8457763E-4,2.9333934E-2,0E0,0E0,2.6573306E-3,2.8813567E-3,0E0,0E0,0E0,0E0,3.909286E-2,0E0,7.6280814E-4,0E0,0E0,1.6728044E-4,0E0,0E0,0E0,1.6354918E-2,1.3774368E-3,1.8757305E-3,1.9377563E-4,5.841578E-4,0E0,1.5058996E-2,0E0,0E0,0E0,7.145673E-3,2.5816668E-2,4.843943E-3,5.2240235E-3,2.2333604E-4,0E0,1.3230351E-3,0E0,0E0,1.6946127E-4,0E0,0E0,0E0,0E0,0E0,0E0,0E0,0E0,0E0,0E0,0E0,0E0,0E0,0E0,0E0,0E0,0E0],"parents":[2147483647,0,0,1,1,2,2,4,4,5,5,7,7,8,8,9,9,11,11,12,12,13,13,15,15,16,16,17,17,18,18,20,20,23,23,24,24,25,25,26,26,28,28,29,29,33,33,34,34,35,35,36,36,37,37,38,38,40,40,43,43,44,44,47,47,48,48,53,53,55,55,58,58,62,62,63,63,64,64,65,65,66,66,68,68,72,72,73,73,74,74,75,75,76,76,78,78,81,81],"right_children":[2,4,6,-1,8,10,-1,12,14,16,-1,18,20,22,-1,24,26,28,30,-1,32,-1,-1,34,36,38,40,-1,42,44,-1,-1,-1,46,48,50,52,54,56,-1,58,-1,-1,60,62,-1,-1,64,66,-1,-1,-1,-1,68,-1,70,-1,-1,72,-1,-1,-1,74,76,78,80,82,-1,84,-1,-1,-1,86,88,90,92,94,-1,96,-1,-1,98,-1,-1,-1,-1,-1,-1,-1,-1,-1,-1,-1,-1,-1,-1,-1,-1,-1],"split_conditions":[-3.8872465E-1,-2.0069714E0,1.9515147E0,-7.388483E-2,-4.8797E-1,1.1753006E0,8.635472E-2,-1.0227412E0,-4.3433306E-1,6.078663E-1,-3.8406502E-2,-1.3204942E0,-9.9997413E-1,-4.7893766E-1,-8.589561E-3,3.834402E-1,1.0739415E0,-1.3436829E0,-1.0380696E0,-3.6937486E-2,-8.8685685E-1,-4.5398055E-3,-2.4341017E-3,-2.8801275E-2,5.6692773E-1,1.0247049E0,1.0834011E0,1.457994E-3,-1.3435009E0,-1.2576156E0,-7.1737566E-3,-4.713106E-4,-1.8005257E-2,-3.4290507E-1,1.842796E-1,5.6688344E-1,6.037664E-1,9.304633E-1,1.0638738E0,2.8917888E-2,1.1399409E0,-2.792277E-2,-1.315205E-2,-1.2804371E0,-1.2504629E0,-4.5170783E-4,1.6032932E-2,1.6552092E-1,2.1469264E-1,3.0140257E-3,1.7081095E-2,3.986758E-3,9.494067E-5,8.7658906E-1,1.4808207E-2,1.0341417E0,9.202771E-3,6.5629235E-3,1.156432E0,-9.0625575E-3,-4.8309728E-3,-2.945522E-2,-1.2041496E0,1.5464827E-1,1.6822514E-1,2.0314886E-1,2.76642E-1,1.3005212E-2,9.0184814E-1,8.5323333E-4,4.975454E-3,1.0583478E-2,1.1632426E0,-1.2132279E0,-1.1385871E0,4.6004E-3,1.5802869E-1,-5.3870864E-3,1.7861736E-1,2.1005988E-3,5.475963E-3,2.3282003E-1,1.3609553E-3,-1.15336655E-2,4.3939184E-3,2.1604897E-2,1.20397825E-2,-7.814845E-3,9.431007E-3,-1.6793698E-2,-8.766697E-3,5.9073285E-4,-5.536962E-3,1.0974263E-3,2.2826868E-3,1.2259883E-3,-2.934174E-3,1.7602519E-4,-1.7249652E-3],"split_indices":[0,0,0,0,0,0,0,0,0,0,0,0,0,0,0,0,0,0,0,0,0,0,0,0,0,0,0,0,0,0,0,0,0,0,0,0,0,0,0,0,0,0,0,0,0,0,0,0,0,0,0,0,0,0,0,0,0,0,0,0,0,0,0,0,0,0,0,0,0,0,0,0,0,0,0,0,0,0,0,0,0,0,0,0,0,0,0,0,0,0,0,0,0,0,0,0,0,0,0],"split_type":[0,0,0,0,0,0,0,0,0,0,0,0,0,0,0,0,0,0,0,0,0,0,0,0,0,0,0,0,0,0,0,0,0,0,0,0,0,0,0,0,0,0,0,0,0,0,0,0,0,0,0,0,0,0,0,0,0,0,0,0,0,0,0,0,0,0,0,0,0,0,0,0,0,0,0,0,0,0,0,0,0,0,0,0,0,0,0,0,0,0,0,0,0,0,0,0,0,0,0],"sum_hessian":[7.15E2,2.71E2,4.44E2,3E0,2.68E2,4.39E2,5E0,2.12E2,5.6E1,4.35E2,4E0,2.02E2,1E1,4.5E1,1.1E1,2.23E2,2.12E2,3.8E1,1.64E2,1E0,9E0,2.6E1,1.9E1,1.56E2,6.7E1,9.1E1,1.21E2,3E0,3.5E1,1.12E2,5.2E1,3E0,6E0,6E0,1.5E2,7E0,6E1,4.2E1,4.9E1,7E0,1.14E2,2E0,3.3E1,6.8E1,4.4E1,3E0,3E0,1.3E2,2E1,3E0,4E0,5.7E1,3E0,2.2E1,2E1,2.1E1,2.8E1,2.3E1,9.1E1,5.8E1,1E1,2E0,4.2E1,1.18E2,1.2E1,9E0,1.1E1,1.6E1,6E0,3E0,1.8E1,4.4E1,4.7E1,1.3E1,2.9E1,7.9E1,3.9E1,3E0,9E0,6E0,3E0,8E0,3E0,3E0,3E0,7E0,4E1,1E1,3E0,9E0,2E1,7.5E1,4E0,2.6E1,1.3E1,6E0,3E0,2E0,6E0],"tree_param":{"num_deleted":"0","num_feature":"3","num_nodes":"99","size_leaf_vector":"1"}},{"base_weights":[-3.1658867E-3,-4.7966793E-2,2.7775476E-2,-4.3336373E-2,-4.47159E-2,3.8957458E-3,4.777981E-2,-4.902354E-2,-2.8979437E-2,-1.176664E-3,1.8652802E-2,8.401513E-2,3.8549066E-2,-4.0697422E-2,-1.8933532E-1,-1.5980968E-2,-7.191E-2,1.435399E-3,-5.382804E-2,7.5553143E-3,3.344124E-3,3.6042806E-2,2.70816E-2,2.2777513E-2,4.3083284E-2,-4.4998713E-2,2.4682708E-2,-4.4081714E-2,-1.1533864E-2,-3.7257143E-3,-2.3393475E-3,-2.701003E-2,-4.1419186E-2,1.3203744E-4,1.3332985E-2,-1.8814726E-2,-2.0070076E-5,4.4873957E-2,-1.2315731E-2,4.118684E-2,1.0213415E-2,4.1583087E-2,1.7074076E-2,-5.0024886E-2,-2.9014958E-2,2.3634657E-2,-7.558415E-2,1.7052311E-3,-6.5898085E-3,1.6576834E-2,1.7266512E-4,2.7579252E-2,6.949138E-2,1.2917185E-2,2.1904213E-2,-4.728353E-3,2.0647356E-2,4.60994E-2,2.9428605E-2,-4.4826623E-2,-6.6840984E-2,-6.055962E-3,4.5035483E-4,-2.0901337E-3,9.180531E-3,-1.9426066E-2,-1.9495081E-2,2.3977063E-3,-7.829769E-3,7.3169096E-4,3.726919E-3,7.915467E-3,2.9967974E-3,2.9626215E-2,4.52573E-3,-3.0660273E-3,1.962141E-2,1.2195254E-3,4.4290326E-3,4.2028986E-2,1.9171905E-2,-2.2691267E-2,9.083612E-3,-6.2454052E-2,-3.4854475E-2,-2.7713535E-2,-5.043047E-2,-1.0031558E-3,-5.1608193E-3,6.8915257E-4,1.0786132E-2,-4.704485E-3,1.5714735E-3,2.7085012E-2,-2.1428408E-3,5.4426435E-2,7.0646764E-3,-1.0455772E-2,-2.3774793E-2,-3.660433E-2,-8.861035E-3,-7.4626803E-3,-1.809219E-2,-3.0918597E-4,7.497673E-4,1.2581644E-3,2.8046553E-3,6.4534605E-3,1.5918683E-3,7.299948E-3,2.5892003E-2,-8.299317E-3,-5.6910873E-3,-5.296588E-4,-2.0098367E-3,1.20432946E-4,-3.494051E-3],"categories":[],"categories_nodes":[],"categories_segments":[],"categories_sizes":[],"default_left":[0,0,0,0,0,0,0,0,0,0,0,0,0,0,0,0,0,0,0,0,0,0,0,0,0,0,0,0,0,0,0,0,0,0,0,0,0,0,0,0,0,0,0,0,0,0,0,0,0,0,0,0,0,0,0,0,0,0,0,0,0,0,0,0,0,0,0,0,0,0,0,0,0,0,0,0,0,0,0,0,0,0,0,0,0,0,0,0,0,0,0,0,0,0,0,0,0,0,0,0,0,0,0,0,0,0,0,0,0,0,0,0,0,0,0,0,0],"id":16,"left_children":[1,3,5,-1,7,9,11,13,15,17,19,21,23,25,27,29,31,33,35,-1,-1,37,-1,39,41,43,-1,-1,-1,-1,-1,-1,45,47,49,-1,-1,51,-1,53,55,57,-1,59,61,63,65,67,-1,69,-1,71,73,75,-1,-1,77,79,81,83,85,-1,-1,-1,-1,-1,87,89,91,-1,-1,-1,-1,-1,-1,-1,93,-1,-1,95,-1,-1,-1,97,99,-1,101,-1,-1,103,105,-1,-1,107,-1,109,-1,-1,-1,111,113,-1,-1,115,-1,-1,-1,-1,-1,-1,-1,-1,-1,-1,-1,-1,-1],"loss_changes":[9.91026E-1,1.4077646E-1,2.0169404E-1,0E0,1.6749084E-2,1.4640394E-2,7.045275E-2,2.4627751E-1,3.5089735E-2,2.037125E-2,5.842354E-4,1.0118362E-1,1.1410028E-2,1.621671E-1,2.3673892E-2,1.7673243E-4,1.7690592E-2,2.1984526E-3,1.5117239E-2,0E0,0E0,2.794141E-2,0E0,9.798324E-3,1.971811E-3,1.3967872E-2,0E0,0E0,0E0,0E0,0E0,0E0,3.2466125E-2,6.8779546E-3,5.37673E-4,0E0,0E0,6.810736E-3,0E0,3.1942725E-2,1.157357E-2,5.081594E-3,0E0,7.731557E-3,2.311483E-3,5.5134986E-3,7.0894137E-3,8.694934E-4,0E0,1.5606475E-4,0E0,1.5340904E-3,2.6463427E-2,3.4422427E-3,0E0,0E0,2.529584E-4,1.2196645E-2,1.108306E-1,1.7795086E-2,2.4867311E-2,0E0,0E0,0E0,0E0,0E0,1.9789557E-4,1.6906504E-3,2.5852043E-3,0E0,0E0,0E0,0E0,0E0,0E0,0E0,3.5237567E-3,0E0,0E0,4.1356683E-3,0E0,0E0,0E0,1.2256399E-2,3.217496E-3,0E0,9.001665E-3,0E0,0E0,3.108328E-4,1.14603434E-4,0E0,0E0,5.766107E-4,0E0,3.090261E-2,0E0,0E0,0E0,7.878393E-4,5.826878E-6,0E0,0E0,1.2409406E-3,0E0,0E0,0E0,0E0,0E0,0E0,0E0,0E0,0E0,0E0,0E0,0E0,0E0],"parents":[2147483647,0,0,1,1,2,2,4,4,5,5,6,6,7,7,8,8,9,9,10,10,11,11,12,12,13,13,14,14,15,15,16,16,17,17,18,18,21,21,23,23,24,24,25,25,32,32,33,33,34,34,37,37,39,39,40,40,41,41,43,43,44,44,45,45,46,46,47,47,49,49,51,51,52,52,53,53,56,56,57,57,58,58,59,59,60,60,66,66,67,67,68,68,76,76,79,79,83,83,84,84,86,86,89,89,90,90,93,93,95,95,99,99,100,100,103,103],"right_children":[2,4,6,-1,8,10,12,14,16,18,20,22,24,26,28,30,32,34,36,-1,-1,38,-1,40,42,44,-1,-1,-1,-1,-1,-1,46,48,50,-1,-1,52,-1,54,56,58,-1,60,62,64,66,68,-1,70,-1,72,74,76,-1,-1,78,80,82,84,86,-1,-1,-1,-1,-1,88,90,92,-1,-1,-1,-1,-1,-1,-1,94,-1,-1,96,-1,-1,-1,98,100,-1,102,-1,-1,104,106,-1,-1,108,-1,110,-1,-1,-1,112,114,-1,-1,116,-1,-1,-1,-1,-1,-1,-1,-1,-1,-1,-1,-1,-1],"split_conditions":[-3.5368975E-2,-1.4840827E0,6.3217574E-1,-4.3336373E-2,-5.4128903E-1,6.211747E-1,1.0052714E0,-1.0635173E0,-4.4073847E-1,4.7536007E-1,6.2122005E-1,7.416684E-1,1.1699822E0,-1.1307878E0,-5.415116E-1,-5.3103536E-1,-4.1807306E-1,2.642149E-1,6.1399716E-1,7.5553143E-3,3.344124E-3,7.0611256E-1,2.70816E-2,1.1049733E0,1.2915937E0,-1.1373276E0,2.4682708E-2,-4.4081714E-2,-1.1533864E-2,-3.7257143E-3,-2.3393475E-3,-2.701003E-2,-3.635728E-1,2.4049753E-1,3.4494492E-1,-1.8814726E-2,-2.0070076E-5,6.6944647E-1,-1.2315731E-2,1.0886194E0,1.120573E0,1.2708164E0,1.7074076E-2,-1.1934786E0,-1.1308082E0,-3.8895983E-1,-2.9236418E-1,1.9432409E-1,-6.5898085E-3,2.8611857E-1,1.7266512E-4,6.3924026E-1,6.805518E-1,1.0173889E0,2.1904213E-2,-4.728353E-3,1.1272994E0,1.2706512E0,1.2745013E0,-1.4392844E0,-1.1847427E0,-6.055962E-3,4.5035483E-4,-2.0901337E-3,9.180531E-3,-1.9426066E-2,-7.9079166E-2,1.6945699E-1,2.0330352E-1,7.3169096E-4,3.726919E-3,7.915467E-3,2.9967974E-3,2.9626215E-2,4.52573E-3,-3.0660273E-3,1.0813147E0,1.2195254E-3,4.4290326E-3,1.1810635E0,1.9171905E-2,-2.2691267E-2,9.083612E-3,-1.4435253E0,-1.2322999E0,-2.7713535E-2,-1.1388731E0,-1.0031558E-3,-5.1608193E-3,1.6693307E-1,1.7624138E-1,-4.704485E-3,1.5714735E-3,1.0572282E0,-2.1428408E-3,1.179928E0,7.0646764E-3,-1.0455772E-2,-2.3774793E-2,-1.4098314E0,-1.2134641E0,-7.4626803E-3,-1.809219E-2,1.6682315E-1,7.497673E-4,1.2581644E-3,2.8046553E-3,6.4534605E-3,1.5918683E-3,7.299948E-3,2.5892003E-2,-8.299317E-3,-5.6910873E-3,-5.296588E-4,-2.0098367E-3,1.20432946E-4,-3.494051E-3],"split_indices":[2,2,2,0,2,2,2,2,2,2,2,2,2,2,2,2,2,2,2,0,0,2,0,2,2,2,0,0,0,0,0,0,2,2,2,0,0,2,0,2,2,2,0,2,2,2,2,2,0,2,0,2,2,2,0,0,2,2,2,2,2,0,0,0,0,0,2,2,2,0,0,0,0,0,0,0,2,0,0,2,0,0,0,2,2,0,2,0,0,2,2,0,0,2,0,2,0,0,0,2,2,0,0,2,0,0,0,0,0,0,0,0,0,0,0,0,0],"split_type":[0,0,0,0,0,0,0,0,0,0,0,0,0,0,0,0,0,0,0,0,0,0,0,0,0,0,0,0,0,0,0,0,0,0,0,0,0,0,0,0,0,0,0,0,0,0,0,0,0,0,0,0,0,0,0,0,0,0,0,0,0,0,0,0,0,0,0,0,0,0,0,0,0,0,0,0,0,0,0,0,0,0,0,0,0,0,0,0,0,0,0,0,0,0,0,0,0,0,0,0,0,0,0,0,0,0,0,0,0,0,0,0,0,0,0,0,0],"sum_hessian":[7.11E2,2.9E2,4.21E2,3E0,2.87E2,1.93E2,2.28E2,2.22E2,6.5E1,1.45E2,4.8E1,4.3E1,1.85E2,2.12E2,1E1,5.2E1,1.3E1,1.4E2,5E0,1E0,4.7E1,2.4E1,1.9E1,4.4E1,1.41E2,2.08E2,4E0,7E0,3E0,2.8E1,2.4E1,2E0,1.1E1,1.28E2,1.2E1,2E0,3E0,2.3E1,1E0,1.6E1,2.8E1,1.4E2,1E0,1.55E2,5.3E1,4E0,7E0,1.24E2,4E0,9E0,3E0,1.6E1,7E0,1.3E1,3E0,6E0,2.2E1,9.8E1,4.2E1,1.24E2,3.1E1,5.1E1,2E0,2E0,2E0,4E0,3E0,1.17E2,7E0,2E0,7E0,6E0,1E1,1E0,6E0,2E0,1.1E1,3E0,1.9E1,9.4E1,4E0,3E0,3.9E1,4.1E1,8.3E1,3E0,2.8E1,2E0,1E0,9.9E1,1.8E1,3E0,4E0,9E0,2E0,2.8E1,6.6E1,3.8E1,3E0,7.7E1,6E0,2.4E1,4E0,7.6E1,2.3E1,1E1,8E0,6E0,3E0,2.5E1,3E0,4.3E1,3.4E1,2E0,4E0,7.4E1,2E0],"tree_param":{"num_deleted":"0","num_feature":"3","num_nodes":"117","size_leaf_vector":"1"}},{"base_weights":[-1.7461171E-3,-5.783976E-3,1.1769594E-1,-3.609793E-1,-1.3464575E-3,-8.094146E-2,-2.079313E-2,-2.3011137E-2,2.7502E-2,-3.105411E-2,-4.134275E-3,3.1061778E-2,-7.173531E-2,-2.8563922E-2,-7.0128076E-2,-4.8765002E-4,-3.869594E-2,1.2525574E-2,4.1131437E-2,-3.3631567E-2,-1.0726366E-2,-3.0296883E-2,-5.609648E-3,-3.053882E-3,5.384748E-3,-1.037621E-2,-8.217141E-3,1.7305247E-2,-6.411389E-2,3.7931774E-2,5.0751515E-2,-3.063948E-2,-2.928899E-2,3.6397945E-2,-2.964043E-2,-1.9790596E-4,-5.7745E-3,8.0152805E-4,1.7250968E-3,-6.4831675E-4,-2.2063286E-3,1.2367199E-2,4.19929E-2,-2.5799945E-2,2.688067E-3,4.401432E-2,3.0734943E-2,2.0105496E-2,7.520247E-3,-3.6475405E-2,-2.1820007E-2,-2.6061166E-2,-1.14278E-2,4.2710365E-3,1.4641528E-2,2.0791363E-2,2.5125552E-2,3.41368E-2,2.5122497E-2,3.1847715E-2,3.0536653E-4,-3.2583736E-2,-6.2397983E-2,1.4192131E-2,-2.5584174E-2,-1.26359E-2,1.9378721E-3,1.3385279E-3,-2.155751E-4,5.5158962E-3,1.3045845E-2,5.8105495E-3,1.3058868E-2,1.0528925E-2,2.4989512E-2,1.9040447E-2,7.033163E-3,-8.656445E-3,-5.230324E-3,-2.5320536E-2,-6.119351E-3,-6.739603E-3,-4.6209726E-3,-2.7643868E-3,-1.1619937E-3,-5.975996E-4,7.504094E-4,2.6888805E-3,9.024759E-4,3.0006529E-3,-6.966802E-3,1.7633418E-3,5.652878E-3,5.329426E-3,1.2208676E-3],"categories":[],"categories_nodes":[],"categories_segments":[],"categories_sizes":[],"default_left":[0,0,0,0,0,0,0,0,0,0,0,0,0,0,0,0,0,0,0,0,0,0,0,0,0,0,0,0,0,0,0,0,0,0,0,0,0,0,0,0,0,0,0,0,0,0,0,0,0,0,0,0,0,0,0,0,0,0,0,0,0,0,0,0,0,0,0,0,0,0,0,0,0,0,0,0,0,0,0,0,0,0,0,0,0,0,0,0,0,0,0,0,0,0,0],"id":17,"left_children":[1,3,-1,5,7,-1,-1,9,11,13,15,17,-1,19,21,23,25,27,29,31,33,-1,-1,35,37,-1,39,41,43,45,47,49,-1,-1,51,-1,-1,-1,-1,-1,-1,53,55,-1,-1,57,59,-1,-1,61,63,-1,65,67,69,-1,71,73,-1,75,-1,77,79,-1,81,83,-1,-1,85,-1,87,89,-1,-1,91,93,-1,-1,-1,-1,-1,-1,-1,-1,-1,-1,-1,-1,-1,-1,-1,-1,-1,-1,-1],"loss_changes":[1.7537287E0,1.1496434E0,0E0,1.699698E-2,4.531353E-1,0E0,0E0,6.259924E-2,4.4981718E-1,2.4211168E-2,1.5842471E-2,5.6832105E-2,0E0,2.4227351E-2,4.6277642E-2,1.7810012E-3,3.96977E-3,4.324592E-2,2.3059845E-3,6.326111E-2,2.4407138E-1,0E0,0E0,4.3133544E-3,9.1526774E-5,0E0,1.2502278E-5,1.2005575E-2,3.8692795E-2,4.2108893E-3,2.1241084E-2,9.268343E-3,0E0,0E0,1.0702467E-1,0E0,0E0,0E0,0E0,0E0,0E0,1.5689572E-3,1.2543891E-2,0E0,0E0,5.670896E-2,2.4703965E-3,0E0,0E0,8.443058E-3,3.471348E-2,0E0,1.596983E-3,2.527757E-4,7.461915E-4,0E0,1.165497E-2,1.0066107E-2,0E0,1.8905401E-3,0E0,5.4433644E-3,2.0837773E-2,0E0,1.9297749E-4,2.522748E-4,0E0,0E0,1.3242147E-4,0E0,1.0653958E-4,5.9024873E-3,0E0,0E0,2.3616552E-3,1.6426914E-3,0E0,0E0,0E0,0E0,0E0,0E0,0E0,0E0,0E0,0E0,0E0,0E0,0E0,0E0,0E0,0E0,0E0,0E0,0E0],"parents":[2147483647,0,0,1,1,3,3,4,4,7,7,8,8,9,9,10,10,11,11,13,13,14,14,15,15,16,16,17,17,18,18,19,19,20,20,23,23,24,24,26,26,27,27,28,28,29,29,30,30,31,31,34,34,41,41,42,42,45,45,46,46,49,49,50,50,52,52,53,53,54,54,56,56,57,57,59,59,61,61,62,62,64,64,65,65,68,68,70,70,71,71,74,74,75,75],"right_children":[2,4,-1,6,8,-1,-1,10,12,14,16,18,-1,20,22,24,26,28,30,32,34,-1,-1,36,38,-1,40,42,44,46,48,50,-1,-1,52,-1,-1,-1,-1,-1,-1,54,56,-1,-1,58,60,-1,-1,62,64,-1,66,68,70,-1,72,74,-1,76,-1,78,80,-1,82,84,-1,-1,86,-1,88,90,-1,-1,92,94,-1,-1,-1,-1,-1,-1,-1,-1,-1,-1,-1,-1,-1,-1,-1,-1,-1,-1,-1],"split_conditions":[1.9515147E0,-1.3435009E0,1.1769594E-1,-1.3436829E0,1.842796E-1,-8.094146E-2,-2.079313E-2,-2.8801275E-2,1.1753006E0,-4.071821E-1,1.6552092E-1,9.304633E-1,-7.173531E-2,-9.9997413E-1,-4.0143877E-1,1.5464827E-1,1.7146127E-1,8.7658906E-1,1.156432E0,-1.0227412E0,-8.8685685E-1,-3.0296883E-2,-5.609648E-3,4.6004E-3,1.595668E-1,-1.037621E-2,1.7861736E-1,6.078663E-1,9.0184814E-1,1.0834011E0,1.1632426E0,-1.2132279E0,-2.928899E-2,3.6397945E-2,-4.8797E-1,-1.9790596E-4,-5.7745E-3,8.0152805E-4,1.7250968E-3,-6.4831675E-4,-2.2063286E-3,3.834402E-1,6.1420125E-1,-2.5799945E-2,2.688067E-3,1.0739415E0,1.1563349E0,2.0105496E-2,7.520247E-3,-1.2576156E0,-1.2041496E0,-2.6061166E-2,-4.2205876E-1,2.3282003E-1,5.6692773E-1,2.0791363E-2,8.036051E-1,1.0247049E0,2.5122497E-2,1.1272756E0,3.0536653E-4,-1.3204942E0,-1.2504629E0,1.4192131E-2,-1.1097203E0,-4.594989E-1,1.9378721E-3,1.3385279E-3,2.76642E-1,5.5158962E-3,6.037664E-1,7.8554666E-1,1.3058868E-2,1.0528925E-2,1.0479975E0,1.1118672E0,7.033163E-3,-8.656445E-3,-5.230324E-3,-2.5320536E-2,-6.119351E-3,-6.739603E-3,-4.6209726E-3,-2.7643868E-3,-1.1619937E-3,-5.975996E-4,7.504094E-4,2.6888805E-3,9.024759E-4,3.0006529E-3,-6.966802E-3,1.7633418E-3,5.652878E-3,5.329426E-3,1.2208676E-3],"split_indices":[0,0,0,0,0,0,0,0,0,0,0,0,0,0,0,0,0,0,0,0,0,0,0,0,0,0,0,0,0,0,0,0,0,0,0,0,0,0,0,0,0,0,0,0,0,0,0,0,0,0,0,0,0,0,0,0,0,0,0,0,0,0,0,0,0,0,0,0,0,0,0,0,0,0,0,0,0,0,0,0,0,0,0,0,0,0,0,0,0,0,0,0,0,0,0],"split_type":[0,0,0,0,0,0,0,0,0,0,0,0,0,0,0,0,0,0,0,0,0,0,0,0,0,0,0,0,0,0,0,0,0,0,0,0,0,0,0,0,0,0,0,0,0,0,0,0,0,0,0,0,0,0,0,0,0,0,0,0,0,0,0,0,0,0,0,0,0,0,0,0,0,0,0,0,0,0,0,0,0,0,0,0,0,0,0,0,0,0,0,0,0,0,0],"sum_hessian":[7.31E2,7.28E2,3E0,7E0,7.21E2,5E0,2E0,4.12E2,3.09E2,2.88E2,1.24E2,3.08E2,1E0,2.74E2,1.4E1,1.14E2,1E1,1.1E2,1.98E2,2.12E2,6.2E1,3E0,1.1E1,8E1,3.4E1,6E0,4E0,1.05E2,5E0,1.56E2,4.2E1,2.09E2,3E0,4E0,5.8E1,7.6E1,4E0,2.7E1,7E0,3E0,1E0,9E1,1.5E1,2E0,3E0,7.9E1,7.7E1,6E0,3.6E1,1.22E2,8.7E1,7E0,5.1E1,2.1E1,6.9E1,1E0,1.4E1,7.3E1,6E0,7.4E1,3E0,1.1E2,1.2E1,2E0,8.5E1,4.9E1,2E0,1.3E1,8E0,4E0,6.5E1,1.1E1,3E0,2.1E1,5.2E1,1.8E1,5.6E1,3.7E1,7.3E1,2E0,1E1,1.4E1,7.1E1,4E1,9E0,5E0,3E0,6.1E1,4E0,1E1,1E0,1E1,4.2E1,1E1,8E0],"tree_param":{"num_deleted":"0","num_feature":"3","num_nodes":"95","size_leaf_vector":"1"}},{"base_weights":[-1.1738326E-3,-2.0081552E-2,6.559071E-3,1.3007221E-2,-2.2311613E-2,7.343349E-2,4.443624E-3,-1.8506253E-2,-2.0060688E-2,8.3806224E-2,5.642039E-3,-3.2191204E-3,1.910908E-2,7.281113E-3,-2.1247992E-2,9.202487E-3,2.3662513E-2,3.175473E-3,-4.3948952E-2,2.2499926E-2,-1.6892975E-2,-3.0822828E-2,-1.6430598E-2,-8.368483E-3,1.3082209E-2,-6.330763E-2,-1.2451911E-2,1.3128744E-2,2.8827613E-2,-7.480404E-3,-4.8699905E-3,-1.1928179E-2,-2.1258676E-2,-1.6030343E-2,-1.5892624E-4,1.16865635E-2,8.955131E-3,-2.0425964E-2,-7.314572E-2,3.8535644E-3,-2.0316314E-2,1.6903495E-2,6.924018E-3,5.9612724E-3,6.790598E-4,-1.8929642E-2,2.228264E-2,-5.626611E-3,-3.7632752E-3,-6.7795063E-3,-3.21308E-2,1.2947364E-2,-6.263276E-3,-6.879117E-3,3.428078E-4,-2.01627E-2,-9.358457E-3,-6.1995117E-3,-5.505234E-4,9.236243E-3,5.2039498E-3,-1.0884881E-2,1.2068944E-2,-2.028052E-2,-4.2345077E-3,4.0161032E-2,-1.4140675E-3,-1.2262437E-2,1.6867427E-2,1.8932821E-2,6.297419E-3,1.4869214E-4,-3.248596E-4,3.0158672E-3,-6.3802423E-3,-8.495927E-4,-3.0795634E-3,2.4335862E-4,1.3438165E-2,-3.4461971E-3,-9.264617E-3,-3.2712458E-4,-1.0279178E-3,9.522746E-3,3.0306769E-3,-1.5769938E-2,3.2465116E-3,1.4133352E-2,2.0371238E-2,-2.1896532E-2,1.2469001E-2,4.030278E-3,7.618475E-3,-1.5240449E-3,-1.9821763E-2,3.4787941E-3,-7.955434E-3,2.0077978E-3,7.251563E-3,-3.2221128E-3,3.2471658E-3],"categories":[],"categories_nodes":[],"categories_segments":[],"categories_sizes":[],"default_left":[0,0,0,0,0,0,0,0,0,0,0,0,0,0,0,0,0,0,0,0,0,0,0,0,0,0,0,0,0,0,0,0,0,0,0,0,0,0,0,0,0,0,0,0,0,0,0,0,0,0,0,0,0,0,0,0,0,0,0,0,0,0,0,0,0,0,0,0,0,0,0,0,0,0,0,0,0,0,0,0,0,0,0,0,0,0,0,0,0,0,0,0,0,0,0,0,0,0,0,0,0],"id":18,"left_children":[1,3,5,-1,7,9,11,-1,13,15,-1,17,19,-1,21,-1,-1,23,25,27,-1,29,31,33,35,37,39,41,43,-1,-1,45,47,49,-1,51,-1,53,55,-1,57,59,61,-1,-1,63,65,-1,-1,67,-1,69,-1,-1,-1,-1,-1,-1,71,73,-1,75,77,79,81,83,-1,85,-1,87,89,-1,-1,-1,-1,-1,-1,-1,91,-1,-1,-1,-1,-1,-1,93,-1,95,-1,-1,97,-1,99,-1,-1,-1,-1,-1,-1,-1,-1],"loss_changes":[1.0831378E-1,4.3712907E-2,7.3760234E-2,0E0,2.963797E-2,2.7770475E-3,5.766039E-2,0E0,1.54249E-2,4.7618E-3,0E0,8.831145E-2,6.5612696E-2,0E0,8.396782E-3,0E0,0E0,3.384166E-2,2.647148E-2,9.4423E-3,0E0,9.89221E-4,2.5361665E-3,7.924606E-3,5.9864745E-3,8.824326E-3,5.7720374E-3,1.475675E-3,2.3116916E-3,0E0,0E0,1.928709E-2,3.2579526E-5,8.87982E-2,0E0,9.214738E-3,0E0,2.5922097E-3,6.6065267E-3,0E0,3.5549654E-3,2.5948016E-3,3.1031277E-3,0E0,0E0,1.1185799E-3,7.914882E-3,0E0,0E0,3.5041038E-2,0E0,5.8115926E-3,0E0,0E0,0E0,0E0,0E0,0E0,1.3530781E-5,7.4520875E-3,0E0,1.0879722E-4,3.3877185E-4,3.0892584E-3,2.0047592E-6,2.3434963E-4,0E0,6.9085313E-3,0E0,2.8561922E-2,5.6321245E-2,0E0,0E0,0E0,0E0,0E0,0E0,0E0,5.5247033E-4,0E0,0E0,0E0,0E0,0E0,0E0,3.7882436E-2,0E0,1.4918956E-2,0E0,0E0,3.4919363E-3,0E0,3.5903596E-3,0E0,0E0,0E0,0E0,0E0,0E0,0E0,0E0],"parents":[2147483647,0,0,1,1,2,2,4,4,5,5,6,6,8,8,9,9,11,11,12,12,14,14,17,17,18,18,19,19,21,21,22,22,23,23,24,24,25,25,26,26,27,27,28,28,31,31,32,32,33,33,35,35,37,37,38,38,40,40,41,41,42,42,45,45,46,46,49,49,51,51,58,58,59,59,61,61,62,62,63,63,64,64,65,65,67,67,69,69,70,70,78,78,85,85,87,87,90,90,92,92],"right_children":[2,4,6,-1,8,10,12,-1,14,16,-1,18,20,-1,22,-1,-1,24,26,28,-1,30,32,34,36,38,40,42,44,-1,-1,46,48,50,-1,52,-1,54,56,-1,58,60,62,-1,-1,64,66,-1,-1,68,-1,70,-1,-1,-1,-1,-1,-1,72,74,-1,76,78,80,82,84,-1,86,-1,88,90,-1,-1,-1,-1,-1,-1,-1,92,-1,-1,-1,-1,-1,-1,94,-1,96,-1,-1,98,-1,100,-1,-1,-1,-1,-1,-1,-1,-1],"split_conditions":[-1.0205044E0,-1.6695961E0,-4.862425E-1,1.3007221E-2,-1.3411568E0,-6.2036073E-1,1.0421693E0,-1.8506253E-2,-1.3409748E0,-8.3380175E-1,5.642039E-3,6.1597824E-1,1.9308974E0,7.281113E-3,-1.2975372E0,9.202487E-3,2.3662513E-2,5.9113675E-3,9.813334E-1,1.1331632E0,-1.6892975E-2,-1.3300309E0,-1.0538789E0,-2.7460204E-2,6.1380213E-1,7.532465E-1,1.0020528E0,1.0742887E0,1.1755564E0,-7.480404E-3,-4.8699905E-3,-1.1498271E0,-1.0369308E0,-2.499092E-1,-1.5892624E-4,6.048403E-1,8.955131E-3,6.3386303E-1,8.771141E-1,3.8535644E-3,1.0250965E0,1.0714412E0,1.0837398E0,5.9612724E-3,6.790598E-4,-1.1722459E0,-1.1061832E0,-5.626611E-3,-3.7632752E-3,-3.412809E-1,-3.21308E-2,3.974374E-1,-6.263276E-3,-6.879117E-3,3.428078E-4,-2.01627E-2,-9.358457E-3,-6.1995117E-3,1.0359367E0,1.0706242E0,5.2039498E-3,1.0777562E0,1.0976688E0,-1.1850271E0,-1.1611389E0,-1.1096692E0,-1.4140675E-3,-3.9976186E-1,1.6867427E-2,3.6289456E-1,5.677082E-1,1.4869214E-4,-3.248596E-4,3.0158672E-3,-6.3802423E-3,-8.495927E-4,-3.0795634E-3,2.4335862E-4,1.1121802E0,-3.4461971E-3,-9.264617E-3,-3.2712458E-4,-1.0279178E-3,9.522746E-3,3.0306769E-3,-4.0882292E-1,3.2465116E-3,2.7770776E-1,2.0371238E-2,-2.1896532E-2,5.974479E-1,4.030278E-3,1.1152191E0,-1.5240449E-3,-1.9821763E-2,3.4787941E-3,-7.955434E-3,2.0077978E-3,7.251563E-3,-3.2221128E-3,3.2471658E-3],"split_indices":[1,1,1,0,1,1,1,0,1,1,0,1,1,0,1,0,0,1,1,1,0,1,1,1,1,1,1,1,1,0,0,1,1,1,0,1,0,1,1,0,1,1,1,0,0,1,1,0,0,1,0,1,0,0,0,0,0,0,1,1,0,1,1,1,1,1,0,1,0,1,1,0,0,0,0,0,0,0,1,0,0,0,0,0,0,1,0,1,0,0,1,0,1,0,0,0,0,0,0,0,0],"split_type":[0,0,0,0,0,0,0,0,0,0,0,0,0,0,0,0,0,0,0,0,0,0,0,0,0,0,0,0,0,0,0,0,0,0,0,0,0,0,0,0,0,0,0,0,0,0,0,0,0,0,0,0,0,0,0,0,0,0,0,0,0,0,0,0,0,0,0,0,0,0,0,0,0,0,0,0,0,0,0,0,0,0,0,0,0,0,0,0,0,0,0,0,0,0,0,0,0,0,0,0,0],"sum_hessian":[7.37E2,2.13E2,5.24E2,4E0,2.09E2,1.4E1,5.1E2,4E0,2.05E2,1E1,4E0,3.36E2,1.74E2,3E0,2.02E2,7E0,3E0,2.92E2,4.4E1,1.7E2,4E0,6.4E1,1.38E2,1.35E2,1.57E2,2.6E1,1.8E1,7.1E1,9.9E1,2.7E1,3.7E1,7.5E1,6.3E1,6.6E1,6.9E1,1.53E2,4E0,6E0,2E1,3E0,1.5E1,4.2E1,2.9E1,9.5E1,4E0,6.3E1,1.2E1,1.1E1,5.2E1,6.4E1,2E0,1.5E2,3E0,3E0,3E0,7E0,1.3E1,9E0,6E0,2.5E1,1.7E1,6E0,2.3E1,5.7E1,6E0,7E0,5E0,6.2E1,2E0,7.7E1,7.3E1,3E0,3E0,2.3E1,2E0,4E0,2E0,3E0,2E1,5.4E1,3E0,3E0,3E0,4E0,3E0,5.6E1,6E0,7.5E1,2E0,2E0,7.1E1,7E0,1.3E1,5.3E1,3E0,7.2E1,3E0,6.7E1,4E0,3E0,1E1],"tree_param":{"num_deleted":"0","num_feature":"3","num_nodes":"101","size_leaf_vector":"1"}},{"base_weights":[6.452196E-4,-2.4450757E-2,1.0574534E-2,-1.1337329E-1,-2.0161845E-2,1.1896958E-2,-2.1247592E-2,1.1272925E-2,-5.4341894E-2,2.7258873E-3,-2.064573E-2,7.2522484E-2,1.0406282E-2,-5.85458E-3,-1.9042075E-2,7.77099E-3,2.082301E-2,7.0233517E-3,2.2257138E-2,-2.0538192E-2,-1.53292045E-2,1.0055378E-2,-1.5423477E-3,2.3906572E-2,-4.454696E-3,-1.7110927E-2,-3.8483918E-2,-6.2220227E-3,-3.2710657E-3,3.2580192E-3,2.061164E-2,-4.4693276E-2,6.0785264E-3,2.0048758E-2,2.8416453E-2,-1.8315088E-2,2.666998E-3,-1.0522626E-2,-3.6141684E-3,-1.8206325E-3,3.861964E-4,-5.451212E-3,6.691588E-3,6.9824696E-2,1.6584532E-2,-1.6386148E-2,-6.890386E-2,1.8744035E-2,9.607388E-4,2.1916876E-2,1.2591928E-3,1.178881E-2,2.4254981E-2,-1.9272542E-2,-7.238399E-3,4.8897667E-3,-8.9615835E-3,4.950377E-2,-1.0729366E-3,2.9169281E-3,1.9426977E-2,2.7633803E-2,1.0760981E-2,-9.818549E-3,1.853155E-2,-1.8082699E-2,-3.966539E-3,-1.9234091E-2,8.2752E-3,3.1385494E-3,4.906119E-3,7.4554444E-4,-3.4260273E-4,-2.0276905E-4,5.107413E-3,-1.7574819E-2,-8.152867E-3,-5.3013326E-4,-1.6592265E-3,-2.358913E-3,-5.411676E-3,2.9523414E-2,2.86087E-2,-3.262781E-3,-2.0634687E-4,1.1350394E-2,1.8370135E-2,8.049701E-3,7.7611147E-3,-2.1581387E-2,-9.996812E-4,1.3902819E-2,-5.1080612E-3,-4.038147E-3,-2.429964E-3,-1.2443225E-3,-1.5460154E-4,1.5760589E-3,9.485233E-3,-1.0088105E-4,3.7339202E-4,3.9060315E-4,3.5840776E-3,2.0933468E-3,-5.5116834E-3,-1.3937891E-3,-4.872676E-3,1.7650388E-3,4.3650153E-3,-3.6129057E-3,4.966259E-4],"categories":[],"categories_nodes":[],"categories_segments":[],"categories_sizes":[],"default_left":[0,0,0,0,0,0,0,0,0,0,0,0,0,0,0,0,0,0,0,0,0,0,0,0,0,0,0,0,0,0,0,0,0,0,0,0,0,0,0,0,0,0,0,0,0,0,0,0,0,0,0,0,0,0,0,0,0,0,0,0,0,0,0,0,0,0,0,0,0,0,0,0,0,0,0,0,0,0,0,0,0,0,0,0,0,0,0,0,0,0,0,0,0,0,0,0,0,0,0,0,0,0,0,0,0,0,0,0,0,0,0],"id":19,"left_children":[1,3,5,7,9,11,-1,-1,-1,-1,13,15,17,-1,19,-1,-1,21,23,25,27,29,31,33,-1,35,37,39,-1,41,43,45,47,49,51,53,-1,-1,-1,-1,-1,55,57,59,61,63,65,-1,67,69,71,-1,73,75,77,-1,79,81,83,-1,-1,85,87,-1,-1,-1,-1,89,91,-1,-1,-1,-1,-1,-1,93,-1,-1,-1,-1,95,97,-1,-1,99,101,-1,103,-1,105,-1,107,109,-1,-1,-1,-1,-1,-1,-1,-1,-1,-1,-1,-1,-1,-1,-1,-1,-1,-1],"loss_changes":[1.8018009E-1,7.361142E-2,8.254619E-2,2.7251047E-1,3.8003027E-3,4.4942312E-2,0E0,0E0,0E0,0E0,1.5968233E-3,4.6729594E-3,1.9893032E-2,0E0,3.2021478E-4,0E0,0E0,1.0289732E-2,9.217948E-3,5.8175623E-3,3.291443E-4,2.0818071E-2,3.5072356E-2,7.395856E-4,0E0,4.1913055E-3,3.0016247E-3,2.4656559E-4,0E0,5.45563E-3,2.0277224E-2,8.707177E-3,4.0636268E-2,2.2263806E-3,2.8574131E-3,7.603243E-4,0E0,0E0,0E0,0E0,0E0,5.8961343E-3,4.3320335E-2,9.235572E-3,6.3546337E-3,4.4762198E-2,4.857734E-3,0E0,1.331719E-2,1.8991157E-4,7.1467104E-5,0E0,1.4448371E-3,1.8144995E-3,9.397976E-6,0E0,3.5507046E-4,2.893287E-2,1.472526E-3,0E0,0E0,3.5559025E-2,5.0019706E-3,0E0,0E0,0E0,0E0,5.862247E-4,5.112882E-3,0E0,0E0,0E0,0E0,0E0,0E0,7.2982535E-4,0E0,0E0,0E0,0E0,8.430693E-5,6.6144913E-3,0E0,0E0,6.862379E-5,1.8439642E-3,0E0,6.601512E-3,0E0,4.7346018E-4,0E0,1.5054131E-3,2.1551684E-3,0E0,0E0,0E0,0E0,0E0,0E0,0E0,0E0,0E0,0E0,0E0,0E0,0E0,0E0,0E0,0E0,0E0,0E0],"parents":[2147483647,0,0,1,1,2,2,3,3,4,4,5,5,10,10,11,11,12,12,14,14,17,17,18,18,19,19,20,20,21,21,22,22,23,23,25,25,26,26,27,27,29,29,30,30,31,31,32,32,33,33,34,34,35,35,41,41,42,42,43,43,44,44,45,45,46,46,48,48,49,49,50,50,52,52,53,53,54,54,56,56,57,57,58,58,61,61,62,62,67,67,68,68,75,75,80,80,81,81,84,84,85,85,87,87,89,89,91,91,92,92],"right_children":[2,4,6,8,10,12,-1,-1,-1,-1,14,16,18,-1,20,-1,-1,22,24,26,28,30,32,34,-1,36,38,40,-1,42,44,46,48,50,52,54,-1,-1,-1,-1,-1,56,58,60,62,64,66,-1,68,70,72,-1,74,76,78,-1,80,82,84,-1,-1,86,88,-1,-1,-1,-1,90,92,-1,-1,-1,-1,-1,-1,94,-1,-1,-1,-1,96,98,-1,-1,100,102,-1,104,-1,106,-1,108,110,-1,-1,-1,-1,-1,-1,-1,-1,-1,-1,-1,-1,-1,-1,-1,-1,-1,-1],"split_conditions":[-1.0205044E0,-1.3411568E0,1.9308974E0,-1.6695961E0,-1.3409748E0,-6.2036073E-1,-2.1247592E-2,1.1272925E-2,-5.4341894E-2,2.7258873E-3,-1.3300309E0,-8.3380175E-1,1.1152191E0,-5.85458E-3,-1.0337735E0,7.77099E-3,2.082301E-2,6.1597824E-1,1.1755564E0,-1.1061832E0,-1.0251082E0,1.646412E-1,8.9421153E-1,1.1606231E0,-4.454696E-3,-1.1096692E0,-1.0465584E0,-1.0266176E0,-3.2710657E-3,-4.484535E-1,1.6938864E-1,8.041959E-1,9.137473E-1,1.1566079E0,1.1635092E0,-1.1722459E0,2.666998E-3,-1.0522626E-2,-3.6141684E-3,-1.8206325E-3,3.861964E-4,-4.862425E-1,-2.499092E-1,1.6668686E-1,5.677082E-1,7.532465E-1,8.771141E-1,1.8744035E-2,1.0359367E0,1.1451898E0,1.1567049E0,1.178881E-2,1.1665268E0,-1.1850271E0,-1.1611389E0,4.8897667E-3,-4.815934E-1,-3.412809E-1,-2.7460204E-2,2.9169281E-3,1.9426977E-2,3.6289456E-1,6.1380213E-1,-9.818549E-3,1.853155E-2,-1.8082699E-2,-3.966539E-3,1.0250965E0,1.0742887E0,3.1385494E-3,4.906119E-3,7.4554444E-4,-3.4260273E-4,-2.0276905E-4,5.107413E-3,-1.286538E0,-8.152867E-3,-5.3013326E-4,-1.6592265E-3,-2.358913E-3,-4.5972064E-1,-4.0882292E-1,2.86087E-2,-3.262781E-3,1.581178E-1,2.0428088E-1,1.8370135E-2,6.048403E-1,7.7611147E-3,9.6475106E-1,-9.996812E-4,1.0714412E0,1.0837398E0,-4.038147E-3,-2.429964E-3,-1.2443225E-3,-1.5460154E-4,1.5760589E-3,9.485233E-3,-1.0088105E-4,3.7339202E-4,3.9060315E-4,3.5840776E-3,2.0933468E-3,-5.5116834E-3,-1.3937891E-3,-4.872676E-3,1.7650388E-3,4.3650153E-3,-3.6129057E-3,4.966259E-4],"split_indices":[1,1,1,1,1,1,0,0,0,0,1,1,1,0,1,0,0,1,1,1,1,1,1,1,0,1,1,1,0,1,1,1,1,1,1,1,0,0,0,0,0,1,1,1,1,1,1,0,1,1,1,0,1,1,1,0,1,1,1,0,0,1,1,0,0,0,0,1,1,0,0,0,0,0,0,1,0,0,0,0,1,1,0,0,1,1,0,1,0,1,0,1,1,0,0,0,0,0,0,0,0,0,0,0,0,0,0,0,0,0,0],"split_type":[0,0,0,0,0,0,0,0,0,0,0,0,0,0,0,0,0,0,0,0,0,0,0,0,0,0,0,0,0,0,0,0,0,0,0,0,0,0,0,0,0,0,0,0,0,0,0,0,0,0,0,0,0,0,0,0,0,0,0,0,0,0,0,0,0,0,0,0,0,0,0,0,0,0,0,0,0,0,0,0,0,0,0,0,0,0,0,0,0,0,0,0,0,0,0,0,0,0,0,0,0,0,0,0,0,0,0,0,0,0,0],"sum_hessian":[7.19E2,2.03E2,5.16E2,7E0,1.96E2,5.12E2,4E0,4E0,3E0,2E0,1.94E2,1E1,5.02E2,2.5E1,1.69E2,7E0,3E0,3.93E2,1.09E2,1.14E2,5.5E1,2.9E2,1.03E2,1.06E2,3E0,9.9E1,1.5E1,7E0,4.8E1,1.78E2,1.12E2,1.4E1,8.9E1,6.3E1,4.3E1,9.6E1,3E0,7E0,8E0,5E0,2E0,5E1,1.28E2,6E0,1.06E2,8E0,6E0,3E0,8.6E1,5.7E1,6E0,2E0,4.1E1,8.7E1,9E0,4E0,4.6E1,1.8E1,1.1E2,3E0,3E0,3.4E1,7.2E1,7E0,1E0,3E0,3E0,2.2E1,6.4E1,2.1E1,3.6E1,3E0,3E0,2E0,3.9E1,8.4E1,3E0,3E0,6E0,2.3E1,2.3E1,1.7E1,1E0,4E0,1.06E2,2.9E1,5E0,6.8E1,4E0,1.8E1,4E0,4.5E1,1.9E1,5.3E1,3.1E1,1.9E1,4E0,9E0,8E0,9.4E1,1.2E1,1.3E1,1.6E1,6.5E1,3E0,4E0,1.4E1,3E1,1.5E1,6E0,1.3E1],"tree_param":{"num_deleted":"0","num_feature":"3","num_nodes":"111","size_leaf_vector":"1"}},{"base_weights":[3.548273E-3,3.2323435E-2,2.02073E-3,-1.3234214E-2,8.039302E-3,6.0802842E-3,-1.4173967E-2,1.2689602E-1,5.2331556E-3,-2.029579E-2,-1.07443575E-2,4.0109395E-3,1.580532E-1,5.9687626E-3,-1.1807569E-2,-5.038773E-3,-3.2692128E-3,-3.7683088E-3,-1.7114451E-2,3.96395E-2,9.331755E-3,2.4221044E-4,1.6375123E-2,-9.786909E-3,4.30656E-2,-1.5592358E-2,-1.303183E-2,5.179861E-3,-2.9814225E-2,1.1274032E-2,2.0019172E-2,-1.0962182E-2,4.64048E-3,1.1434029E-2,2.3469639E-3,1.3154984E-3,-1.382537E-2,-7.270978E-3,8.008859E-3,-6.444907E-2,-7.780169E-3,1.5479892E-2,5.273544E-3,2.04697E-2,1.1824768E-3,-9.156137E-3,-3.1332632E-3,1.1590899E-3,2.3305416E-4,-4.209427E-3,-2.536102E-3,-1.8506667E-3,-5.448671E-3,4.975839E-2,4.2795558E-3,-2.1205558E-2,-4.599826E-2,2.4715155E-2,-1.755626E-2,7.835401E-3,3.8069186E-3,-1.9026557E-2,9.500217E-3,1.7400797E-2,2.3249056E-2,-2.511705E-3,-4.3027564E-3,-4.2744596E-3,-2.0628942E-3,1.6160313E-2,2.0547574E-2,-2.4739285E-3,1.1016475E-2,9.433885E-3,-1.4951067E-2,5.2490237E-4,3.1203866E-2,-1.850584E-2,3.489097E-4,2.2235052E-3,-1.8421591E-3,-3.077984E-4,-5.400169E-3,2.823096E-3,2.545778E-3,1.9055959E-2,-1.3546372E-3,1.0609925E-2,1.9483138E-2,-3.3613364E-4,-1.5433471E-3,-1.0864417E-3,5.3480268E-5,5.3717783E-3,-4.42447E-4,-1.08596454E-4,-1.2508567E-3,8.688146E-3,1.5879003E-3,8.421662E-3,9.394974E-4,-9.799575E-4,-3.9965827E-3,2.1815326E-3,-2.8950549E-3,3.8801653E-3,1.043427E-3,9.575765E-4,4.142654E-3],"categories":[],"categories_nodes":[],"categories_segments":[],"categories_sizes":[],"default_left":[0,0,0,0,0,0,0,0,0,0,0,0,0,0,0,0,0,0,0,0,0,0,0,0,0,0,0,0,0,0,0,0,0,0,0,0,0,0,0,0,0,0,0,0,0,0,0,0,0,0,0,0,0,0,0,0,0,0,0,0,0,0,0,0,0,0,0,0,0,0,0,0,0,0,0,0,0,0,0,0,0,0,0,0,0,0,0,0,0,0,0,0,0,0,0,0,0,0,0,0,0,0,0,0,0,0,0,0,0],"id":20,"left_children":[1,-1,3,5,7,-1,9,11,13,15,17,-1,19,21,-1,-1,-1,23,25,-1,-1,27,29,31,33,-1,35,37,39,41,43,45,47,-1,-1,-1,49,51,53,55,57,59,61,63,-1,65,-1,-1,-1,-1,-1,-1,67,69,71,-1,73,75,77,79,-1,81,83,85,87,-1,89,91,-1,93,-1,95,97,-1,-1,-1,99,101,-1,-1,-1,-1,-1,103,-1,105,-1,-1,107,-1,-1,-1,-1,-1,-1,-1,-1,-1,-1,-1,-1,-1,-1,-1,-1,-1,-1,-1,-1],"loss_changes":[1.7657627E-1,0E0,6.714445E-2,9.350218E-3,1.7344128E-1,0E0,3.8469434E-3,3.360708E-2,2.5005769E-2,5.499292E-4,5.870156E-3,0E0,2.175133E-2,3.0384274E-2,0E0,0E0,0E0,1.9728556E-2,1.53571945E-2,0E0,0E0,4.9431972E-2,2.913151E-3,1.1360627E-3,2.1934872E-3,0E0,1.2400057E-3,1.01903565E-2,3.486502E-2,1.8557087E-3,4.1256845E-4,1.9737892E-4,1.0576026E-5,0E0,0E0,0E0,1.19050965E-5,9.423611E-5,3.6007132E-2,4.054703E-3,1.0715805E-2,9.517111E-4,4.059022E-3,3.5323203E-5,0E0,6.515295E-4,0E0,0E0,0E0,0E0,0E0,0E0,1.0036712E-4,3.0499611E-2,9.927504E-3,0E0,4.9920008E-2,9.82929E-4,5.2275974E-4,1.2118617E-3,0E0,7.535969E-4,6.17994E-4,2.4587885E-3,3.0952748E-3,0E0,1.7100008E-4,1.6065518E-4,0E0,2.8706782E-3,0E0,7.9617096E-4,1.0184979E-2,0E0,0E0,0E0,1.3386179E-3,2.8650835E-4,0E0,0E0,0E0,0E0,0E0,2.1338305E-3,0E0,4.5740977E-5,0E0,0E0,5.970467E-4,0E0,0E0,0E0,0E0,0E0,0E0,0E0,0E0,0E0,0E0,0E0,0E0,0E0,0E0,0E0,0E0,0E0,0E0,0E0,0E0],"parents":[2147483647,0,0,2,2,3,3,4,4,6,6,7,7,8,8,9,9,10,10,12,12,13,13,17,17,18,18,21,21,22,22,23,23,24,24,26,26,27,27,28,28,29,29,30,30,31,31,32,32,36,36,37,37,38,38,39,39,40,40,41,41,42,42,43,43,45,45,52,52,53,53,54,54,56,56,57,57,58,58,59,59,61,61,62,62,63,63,64,64,66,66,67,67,69,69,71,71,72,72,76,76,77,77,83,83,85,85,88,88],"right_children":[2,-1,4,6,8,-1,10,12,14,16,18,-1,20,22,-1,-1,-1,24,26,-1,-1,28,30,32,34,-1,36,38,40,42,44,46,48,-1,-1,-1,50,52,54,56,58,60,62,64,-1,66,-1,-1,-1,-1,-1,-1,68,70,72,-1,74,76,78,80,-1,82,84,86,88,-1,90,92,-1,94,-1,96,98,-1,-1,-1,100,102,-1,-1,-1,-1,-1,104,-1,106,-1,-1,108,-1,-1,-1,-1,-1,-1,-1,-1,-1,-1,-1,-1,-1,-1,-1,-1,-1,-1,-1,-1],"split_conditions":[-1.3411568E0,3.2323435E-2,-1.0205044E0,-1.3409748E0,-4.862425E-1,6.0802842E-3,-1.2975372E0,-1.0041865E0,1.9308974E0,-1.3335419E0,-1.1061832E0,4.0109395E-3,-6.2036073E-1,1.0421693E0,-1.1807569E-2,-5.038773E-3,-3.2692128E-3,-1.1498271E0,-1.0772703E0,3.96395E-2,9.331755E-3,6.048403E-1,1.1424321E0,-1.1722459E0,-1.1096692E0,-1.5592358E-2,-1.0538789E0,-4.242416E-1,8.771141E-1,1.0742887E0,1.1755564E0,-1.2224728E0,-1.1611389E0,1.1434029E-2,2.3469639E-3,1.3154984E-3,-1.0465584E0,-4.8254436E-1,-2.7460204E-2,6.1380213E-1,9.41677E-1,1.0649531E0,1.0837398E0,1.1606231E0,1.1824768E-3,-1.2782328E0,-3.1332632E-3,1.1590899E-3,2.3305416E-4,-4.209427E-3,-2.536102E-3,-1.8506667E-3,-4.3617508E-1,-3.412809E-1,1.646412E-1,-2.1205558E-2,6.1597824E-1,8.9421153E-1,1.0359367E0,1.0628588E0,3.8069186E-3,1.0777562E0,1.1152191E0,1.1567049E0,1.1635092E0,-2.511705E-3,-1.2576761E0,-4.5972064E-1,-2.0628942E-3,-3.9976186E-1,2.0547574E-2,5.9113675E-3,1.6938864E-1,9.433885E-3,-1.4951067E-2,5.2490237E-4,9.137473E-1,9.6475106E-1,3.489097E-4,2.2235052E-3,-1.8421591E-3,-3.077984E-4,-5.400169E-3,1.1121802E0,2.545778E-3,1.1566079E0,-1.3546372E-3,1.0609925E-2,1.1665268E0,-3.3613364E-4,-1.5433471E-3,-1.0864417E-3,5.3480268E-5,5.3717783E-3,-4.42447E-4,-1.08596454E-4,-1.2508567E-3,8.688146E-3,1.5879003E-3,8.421662E-3,9.394974E-4,-9.799575E-4,-3.9965827E-3,2.1815326E-3,-2.8950549E-3,3.8801653E-3,1.043427E-3,9.575765E-4,4.142654E-3],"split_indices":[1,0,1,1,1,0,1,1,1,1,1,0,1,1,0,0,0,1,1,0,0,1,1,1,1,0,1,1,1,1,1,1,1,0,0,0,1,1,1,1,1,1,1,1,0,1,0,0,0,0,0,0,1,1,1,0,1,1,1,1,0,1,1,1,1,0,1,1,0,1,0,1,1,0,0,0,1,1,0,0,0,0,0,1,0,1,0,0,1,0,0,0,0,0,0,0,0,0,0,0,0,0,0,0,0,0,0,0,0],"split_type":[0,0,0,0,0,0,0,0,0,0,0,0,0,0,0,0,0,0,0,0,0,0,0,0,0,0,0,0,0,0,0,0,0,0,0,0,0,0,0,0,0,0,0,0,0,0,0,0,0,0,0,0,0,0,0,0,0,0,0,0,0,0,0,0,0,0,0,0,0,0,0,0,0,0,0,0,0,0,0,0,0,0,0,0,0,0,0,0,0,0,0,0,0,0,0,0,0,0,0,0,0,0,0,0,0,0,0,0,0],"sum_hessian":[7.32E2,5E0,7.27E2,2.05E2,5.22E2,3E0,2.02E2,1E1,5.12E2,6.9E1,1.33E2,3E0,7E0,5.08E2,4E0,2.6E1,4.3E1,6.5E1,6.8E1,4E0,3E0,3.29E2,1.79E2,5.9E1,6E0,2E0,6.6E1,2.84E2,4.5E1,7.8E1,1.01E2,5.5E1,4E0,3E0,3E0,2E0,6.4E1,5.2E1,2.32E2,1.6E1,2.9E1,4.4E1,3.4E1,9.7E1,4E0,4.4E1,1.1E1,2E0,2E0,4E0,6E1,2.1E1,3.1E1,1.7E1,2.15E2,2E0,1.4E1,6E0,2.3E1,1.6E1,2.8E1,4E0,3E1,5.3E1,4.4E1,2.4E1,2E1,2.8E1,3E0,1.2E1,5E0,1.08E2,1.07E2,3E0,1.1E1,2E0,4E0,2.2E1,1E0,1.4E1,2E0,2E0,2E0,1.1E1,1.9E1,5E1,3E0,2E0,4.2E1,1.3E1,7E0,2.2E1,6E0,7E0,5E0,7.3E1,3.5E1,7E0,1E2,2E0,2E0,3E0,1.9E1,8E0,3E0,4.8E1,2E0,4E0,3.8E1],"tree_param":{"num_deleted":"0","num_feature":"3","num_nodes":"109","size_leaf_vector":"1"}},{"base_weights":[-6.6819135E-4,-1.7238341E-2,2.4106765E-2,-2.2301646E-2,-1.5855633E-2,4.376298E-2,1.4528996E-2,-2.1635199E-2,-4.624515E-3,1.1399023E-2,1.0387713E-1,1.2337991E-2,1.625177E-2,-1.8440938E-2,-2.3169901E-2,-1.1288302E-3,-1.5142766E-2,7.022002E-3,9.081761E-3,8.453116E-2,3.2551393E-2,-2.3664935E-2,1.3528276E-2,-2.1828676E-2,-6.132861E-3,5.945529E-4,-1.3354317E-2,5.78215E-3,1.7639149E-2,1.1106298E-1,1.1908102E-2,-1.3781929E-3,-6.559986E-3,3.6829434E-2,1.1269095E-2,-1.5979527E-2,-3.4274787E-2,2.055941E-2,-1.3074729E-2,-1.7813568E-3,1.8888982E-2,-9.819066E-3,3.8710195E-3,8.1111304E-4,1.6226504E-3,8.434725E-3,5.489097E-3,7.8207776E-2,3.3426344E-2,-1.1446002E-2,8.700027E-3,1.0517518E-2,1.5435358E-2,-4.711032E-3,1.2766497E-2,-2.0030497E-2,3.194856E-2,-8.518363E-3,-2.5911799E-2,4.0339562E-4,-2.5020411E-2,8.838823E-3,1.6518221E-3,1.6745906E-2,-3.7754935E-3,-7.21554E-4,1.6819465E-3,3.252197E-2,3.6891643E-2,3.932251E-3,-2.0296432E-3,1.630733E-2,-5.4133245E-5,-1.600593E-2,-2.665228E-2,-5.8966996E-3,-6.324945E-3,-3.03393E-2,-9.842146E-4,3.7455058E-4,-2.1881494E-3,-3.8911216E-2,8.869762E-4,2.2945683E-3,-7.460117E-6,4.5248233E-3,6.563024E-3,-3.344804E-4,1.1801422E-4,1.8454975E-2,1.25391325E-2,1.3576718E-2,1.6265288E-2,-2.806862E-2,1.5115168E-2,-1.8743962E-2,-9.491181E-3,-2.4159722E-2,-1.9473702E-2,-1.6760713E-3,-9.0841856E-4,-2.555156E-3,-3.5927117E-2,-8.571265E-3,1.0523846E-3,-2.3706288E-3,-1.0655641E-2,1.3545931E-4,5.988026E-4,2.7227253E-4,1.0251045E-3,5.272322E-3,1.7799169E-3,7.297849E-3,1.7397052E-2,1.0983021E-3,3.324704E-3,-3.1134726E-3,-1.1923107E-2,-2.1065597E-3,5.693102E-4,1.1707704E-3,-4.222329E-3,-1.0171073E-2,-2.7998497E-3,1.676616E-5,3.5863832E-4,2.5032787E-3,-1.2577504E-2,8.5316235E-3,1.9497437E-3],"categories":[],"categories_nodes":[],"categories_segments":[],"categories_sizes":[],"default_left":[0,0,0,0,0,0,0,0,0,0,0,0,0,0,0,0,0,0,0,0,0,0,0,0,0,0,0,0,0,0,0,0,0,0,0,0,0,0,0,0,0,0,0,0,0,0,0,0,0,0,0,0,0,0,0,0,0,0,0,0,0,0,0,0,0,0,0,0,0,0,0,0,0,0,0,0,0,0,0,0,0,0,0,0,0,0,0,0,0,0,0,0,0,0,0,0,0,0,0,0,0,0,0,0,0,0,0,0,0,0,0,0,0,0,0,0,0,0,0,0,0,0,0,0,0,0,0,0,0,0,0],"id":21,"left_children":[1,3,5,-1,7,9,11,13,15,17,19,21,-1,23,-1,25,-1,-1,27,29,-1,31,33,35,37,39,41,43,45,47,49,-1,-1,51,53,55,-1,-1,57,59,61,-1,63,-1,-1,-1,65,67,-1,-1,-1,69,-1,-1,71,73,-1,75,77,79,81,-1,83,85,-1,87,-1,-1,89,-1,-1,91,93,95,97,-1,99,101,-1,-1,103,105,-1,107,-1,109,-1,-1,-1,111,-1,113,-1,-1,115,117,119,-1,121,-1,-1,-1,123,-1,125,-1,-1,-1,-1,-1,-1,-1,-1,127,129,-1,-1,-1,-1,-1,-1,-1,-1,-1,-1,-1,-1,-1,-1,-1,-1],"loss_changes":[3.0010366E-1,5.355631E-2,5.3889304E-2,0E0,2.7971268E-2,1.824573E-1,2.7235959E-2,8.1797585E-2,3.7104934E-2,2.8787302E-3,1.0073811E-2,9.039631E-3,0E0,1.1365585E-2,0E0,3.0709133E-3,0E0,0E0,1.5184148E-3,5.3232744E-2,0E0,6.2056445E-4,9.224463E-3,1.8521033E-1,5.0327234E-2,5.674398E-3,1.1461816E-2,1.2336008E-4,4.3065324E-3,1.2543142E-2,2.6821159E-2,0E0,0E0,1.5362443E-2,9.831263E-3,1.5731071E-1,0E0,0E0,3.126461E-3,5.9096897E-3,6.3968273E-3,0E0,4.7326195E-3,0E0,0E0,0E0,2.4794368E-4,4.7283955E-2,0E0,0E0,0E0,2.6665973E-3,0E0,0E0,7.7644307E-3,4.7166348E-3,0E0,1.8343322E-3,1.095444E-3,4.1944953E-4,4.4367104E-3,0E0,1.2113625E-5,1.6668669E-3,0E0,9.456609E-6,0E0,0E0,4.3462664E-3,0E0,0E0,2.1582332E-2,8.7237954E-2,2.0522699E-3,4.6658807E-2,0E0,9.243807E-5,2.5970582E-4,0E0,0E0,5.3616664E-3,1.4581727E-3,0E0,4.993868E-6,0E0,1.24691E-6,0E0,0E0,0E0,3.6184606E-4,0E0,2.8884225E-3,0E0,0E0,3.5451166E-4,1.0218322E-2,6.2541664E-4,0E0,3.275577E-3,0E0,0E0,0E0,1.1948831E-3,0E0,2.7682287E-5,0E0,0E0,0E0,0E0,0E0,0E0,0E0,0E0,2.0986319E-2,1.4624678E-2,0E0,0E0,0E0,0E0,0E0,0E0,0E0,0E0,0E0,0E0,0E0,0E0,0E0,0E0,0E0,0E0],"parents":[2147483647,0,0,1,1,2,2,4,4,5,5,6,6,7,7,8,8,9,9,10,10,11,11,13,13,15,15,18,18,19,19,21,21,22,22,23,23,24,24,25,25,26,26,27,27,28,28,29,29,30,30,33,33,34,34,35,35,38,38,39,39,40,40,42,42,46,46,47,47,51,51,54,54,55,55,57,57,58,58,59,59,60,60,62,62,63,63,65,65,68,68,71,71,72,72,73,73,74,74,76,76,77,77,80,80,81,81,83,83,85,85,89,89,91,91,94,94,95,95,96,96,98,98,102,102,104,104,113,113,114,114],"right_children":[2,4,6,-1,8,10,12,14,16,18,20,22,-1,24,-1,26,-1,-1,28,30,-1,32,34,36,38,40,42,44,46,48,50,-1,-1,52,54,56,-1,-1,58,60,62,-1,64,-1,-1,-1,66,68,-1,-1,-1,70,-1,-1,72,74,-1,76,78,80,82,-1,84,86,-1,88,-1,-1,90,-1,-1,92,94,96,98,-1,100,102,-1,-1,104,106,-1,108,-1,110,-1,-1,-1,112,-1,114,-1,-1,116,118,120,-1,122,-1,-1,-1,124,-1,126,-1,-1,-1,-1,-1,-1,-1,-1,128,130,-1,-1,-1,-1,-1,-1,-1,-1,-1,-1,-1,-1,-1,-1,-1,-1],"split_conditions":[6.211747E-1,-1.4840827E0,1.0052714E0,-2.2301646E-2,-3.5368975E-2,6.6944647E-1,1.2914546E0,-3.635728E-1,4.7536007E-1,6.2122005E-1,9.836843E-1,1.0386214E0,1.625177E-2,-8.004859E-1,-2.3169901E-2,2.4049753E-1,-1.5142766E-2,7.022002E-3,6.347873E-1,8.5499936E-1,3.2551393E-2,1.0173889E0,1.1049733E0,-1.0635173E0,-5.415116E-1,1.9432409E-1,2.642149E-1,6.239477E-1,6.3924026E-1,7.741961E-1,8.820921E-1,-1.3781929E-3,-6.559986E-3,1.0886194E0,1.120573E0,-1.1307878E0,-3.4274787E-2,2.055941E-2,-4.652795E-1,1.8032345E-1,2.0330352E-1,-9.819066E-3,3.4494492E-1,8.1111304E-4,1.6226504E-3,8.434725E-3,6.507562E-1,6.805518E-1,3.3426344E-2,-1.1446002E-2,8.700027E-3,1.0813147E0,1.5435358E-2,-4.711032E-3,1.2708164E0,-1.1934786E0,3.194856E-2,-5.4128903E-1,-3.8895983E-1,1.6682315E-1,1.890579E-1,8.838823E-3,2.265253E-1,3.1999072E-1,-3.7754935E-3,6.4349943E-1,1.6819465E-3,3.252197E-2,7.416684E-1,3.932251E-3,-2.0296432E-3,1.2706512E0,1.2745013E0,-1.4098314E0,-1.1847427E0,-5.8966996E-3,-5.37183E-1,-4.4073847E-1,-9.842146E-4,3.7455058E-4,1.6693307E-1,1.8355216E-1,8.869762E-4,2.1189202E-1,-7.460117E-6,2.8611857E-1,6.563024E-3,-3.344804E-4,1.1801422E-4,6.9299155E-1,1.25391325E-2,1.1810635E0,1.6265288E-2,-2.806862E-2,1.2812814E0,-1.4137576E0,-1.2134641E0,-2.4159722E-2,-1.1704464E0,-1.6760713E-3,-9.0841856E-4,-2.555156E-3,-4.1807306E-1,-8.571265E-3,1.6830613E-1,-2.3706288E-3,-1.0655641E-2,1.3545931E-4,5.988026E-4,2.7227253E-4,1.0251045E-3,5.272322E-3,1.7799169E-3,1.179928E0,1.2264551E0,1.0983021E-3,3.324704E-3,-3.1134726E-3,-1.1923107E-2,-2.1065597E-3,5.693102E-4,1.1707704E-3,-4.222329E-3,-1.0171073E-2,-2.7998497E-3,1.676616E-5,3.5863832E-4,2.5032787E-3,-1.2577504E-2,8.5316235E-3,1.9497437E-3],"split_indices":[2,2,2,0,2,2,2,2,2,2,2,2,0,2,0,2,0,0,2,2,0,2,2,2,2,2,2,2,2,2,2,0,0,2,2,2,0,0,2,2,2,0,2,0,0,0,2,2,0,0,0,2,0,0,2,2,0,2,2,2,2,0,2,2,0,2,0,0,2,0,0,2,2,2,2,0,2,2,0,0,2,2,0,2,0,2,0,0,0,2,0,2,0,0,2,2,2,0,2,0,0,0,2,0,2,0,0,0,0,0,0,0,0,2,2,0,0,0,0,0,0,0,0,0,0,0,0,0,0,0,0],"split_type":[0,0,0,0,0,0,0,0,0,0,0,0,0,0,0,0,0,0,0,0,0,0,0,0,0,0,0,0,0,0,0,0,0,0,0,0,0,0,0,0,0,0,0,0,0,0,0,0,0,0,0,0,0,0,0,0,0,0,0,0,0,0,0,0,0,0,0,0,0,0,0,0,0,0,0,0,0,0,0,0,0,0,0,0,0,0,0,0,0,0,0,0,0,0,0,0,0,0,0,0,0,0,0,0,0,0,0,0,0,0,0,0,0,0,0,0,0,0,0,0,0,0,0,0,0,0,0,0,0,0,0],"sum_hessian":[7.27E2,4.36E2,2.91E2,4E0,4.32E2,9.3E1,1.98E2,2.84E2,1.48E2,6.2E1,3.1E1,1.94E2,4E0,2.77E2,7E0,1.43E2,5E0,3E0,5.9E1,2.7E1,4E0,5E0,1.89E2,2.16E2,6.1E1,1.27E2,1.6E1,4.5E1,1.4E1,1.9E1,8E0,3E0,2E0,1.4E1,1.75E2,2.1E2,6E0,2E0,5.9E1,1.14E2,1.3E1,4E0,1.2E1,2.9E1,1.6E1,3E0,1.1E1,1.5E1,4E0,2E0,6E0,1E1,4E0,6E0,1.69E2,2.07E2,3E0,4.6E1,1.3E1,1.06E2,8E0,4E0,9E0,8E0,4E0,4E0,7E0,3E0,1.2E1,7E0,3E0,1.32E2,3.7E1,1.33E2,7.4E1,2E0,4.4E1,1E1,3E0,6.8E1,3.8E1,5E0,3E0,6E0,3E0,6E0,2E0,2E0,2E0,9E0,3E0,1.29E2,3E0,2E0,3.5E1,9.1E1,4.2E1,3E0,7.1E1,1.7E1,2.7E1,4E0,6E0,1E0,3.7E1,3E0,2E0,3E0,3E0,2E0,4E0,3E0,6E0,5.1E1,7.8E1,6E0,2.9E1,8.7E1,4E0,3.9E1,3E0,4E0,6.7E1,2E0,4E0,1.7E1,2E1,4.9E1,2E0,1.6E1,6.2E1],"tree_param":{"num_deleted":"0","num_feature":"3","num_nodes":"131","size_leaf_vector":"1"}},{"base_weights":[2.1914772E-3,-6.897263E-4,5.958354E-2,-4.1877296E-2,1.8297143E-4,3.2321807E-2,-9.448166E-4,-1.4287848E-2,7.4898475E-3,-1.5261776E-2,-1.3285457E-2,9.0761725E-3,-2.205594E-2,-1.2071736E-2,-1.0185436E-2,2.229194E-3,1.9070009E-2,-1.4583831E-2,-4.477642E-3,1.3314227E-2,9.649765E-4,1.2106111E-2,1.7659418E-2,-1.1826108E-2,-2.3701528E-2,3.12792E-2,-1.8966831E-2,2.6252868E-3,-1.8022839E-2,2.1565065E-3,1.975908E-2,-1.6903989E-2,-5.5528334E-3,-1.274344E-1,-3.8722616E-3,-7.170578E-5,3.574633E-2,-9.298026E-3,-4.372398E-4,-2.013155E-3,1.1578347E-3,3.36898E-2,1.5518066E-2,-2.3984672E-3,-9.703977E-3,1.0303156E-2,-1.7268306E-3,-3.373613E-2,-1.1491754E-2,-1.0114149E-3,7.9309446E-4,2.0213301E-4,-9.533469E-3,1.0773801E-2,-7.485301E-5,2.6007027E-3,-6.5040304E-3,2.8776033E-3,2.3793757E-2,1.6917818E-3,5.1802825E-3],"categories":[],"categories_nodes":[],"categories_segments":[],"categories_sizes":[],"default_left":[0,0,0,0,0,0,0,0,0,0,0,0,0,0,0,0,0,0,0,0,0,0,0,0,0,0,0,0,0,0,0,0,0,0,0,0,0,0,0,0,0,0,0,0,0,0,0,0,0,0,0,0,0,0,0,0,0,0,0,0,0],"id":22,"left_children":[1,3,-1,-1,5,-1,7,9,11,-1,13,15,-1,17,-1,19,21,23,25,-1,27,-1,29,31,-1,-1,33,35,37,39,41,43,45,47,49,51,53,-1,55,-1,-1,57,59,-1,-1,-1,-1,-1,-1,-1,-1,-1,-1,-1,-1,-1,-1,-1,-1,-1,-1],"loss_changes":[6.1814535E-1,1.3120963E-1,0E0,0E0,1.3120247E-1,0E0,8.079553E-2,1.5255466E-2,8.420296E-2,0E0,1.1379935E-2,2.9749405E-2,0E0,5.0202087E-3,0E0,2.1101834E-2,8.213773E-3,5.508881E-2,1.6909766E-1,0E0,8.228253E-3,0E0,5.578626E-3,6.1514024E-3,0E0,0E0,1.0707298E-1,2.1354329E-2,1.04722455E-2,1.137733E-3,7.993702E-3,1.5762478E-2,1.7067479E-2,3.7054867E-3,5.9728214E-4,1.158445E-2,1.1823155E-2,0E0,7.3140296E-3,0E0,0E0,5.254179E-2,8.430822E-3,0E0,0E0,0E0,0E0,0E0,0E0,0E0,0E0,0E0,0E0,0E0,0E0,0E0,0E0,0E0,0E0,0E0,0E0],"parents":[2147483647,0,0,1,1,4,4,6,6,7,7,8,8,10,10,11,11,13,13,15,15,16,16,17,17,18,18,20,20,22,22,23,23,26,26,27,27,28,28,29,29,30,30,31,31,32,32,33,33,34,34,35,35,36,36,38,38,41,41,42,42],"right_children":[2,4,-1,-1,6,-1,8,10,12,-1,14,16,-1,18,-1,20,22,24,26,-1,28,-1,30,32,-1,-1,34,36,38,40,42,44,46,48,50,52,54,-1,56,-1,-1,58,60,-1,-1,-1,-1,-1,-1,-1,-1,-1,-1,-1,-1,-1,-1,-1,-1,-1,-1],"split_conditions":[1.9515147E0,-2.0069714E0,5.958354E-2,-4.1877296E-2,-1.3436829E0,3.2321807E-2,-2.5145096E-1,-1.3435009E0,1.1753006E0,-1.5261776E-2,-4.0143877E-1,1.009666E0,-2.205594E-2,-9.9997413E-1,-1.0185436E-2,-2.8801275E-2,1.0176775E0,-1.0227412E0,-8.8685685E-1,1.3314227E-2,8.7658906E-1,1.2106111E-2,1.0625013E0,-1.2132279E0,-2.3701528E-2,3.12792E-2,-4.8797E-1,6.078663E-1,9.304633E-1,1.0341417E0,1.077412E0,-1.2576156E0,-1.2041496E0,-5.510204E-1,-4.2205876E-1,6.037664E-1,7.8554666E-1,-9.298026E-3,1.0024415E0,-2.013155E-3,1.1578347E-3,1.0739415E0,1.156432E0,-2.3984672E-3,-9.703977E-3,1.0303156E-2,-1.7268306E-3,-3.373613E-2,-1.1491754E-2,-1.0114149E-3,7.9309446E-4,2.0213301E-4,-9.533469E-3,1.0773801E-2,-7.485301E-5,2.6007027E-3,-6.5040304E-3,2.8776033E-3,2.3793757E-2,1.6917818E-3,5.1802825E-3],"split_indices":[0,0,0,0,0,0,0,0,0,0,0,0,0,0,0,0,0,0,0,0,0,0,0,0,0,0,0,0,0,0,0,0,0,0,0,0,0,0,0,0,0,0,0,0,0,0,0,0,0,0,0,0,0,0,0,0,0,0,0,0,0],"split_type":[0,0,0,0,0,0,0,0,0,0,0,0,0,0,0,0,0,0,0,0,0,0,0,0,0,0,0,0,0,0,0,0,0,0,0,0,0,0,0,0,0,0,0,0,0,0,0,0,0,0,0,0,0,0,0,0,0,0,0,0,0],"sum_hessian":[7.23E2,7.18E2,5E0,1E0,7.17E2,3E0,7.14E2,2.76E2,4.38E2,2E0,2.74E2,4.34E2,4E0,2.68E2,6E0,2.59E2,1.75E2,2E2,6.8E1,3E0,2.56E2,3E0,1.72E2,1.97E2,3E0,4E0,6.4E1,2.37E2,1.9E1,2.1E1,1.51E2,1.07E2,9E1,6E0,5.8E1,2.21E2,1.6E1,6E0,1.3E1,4E0,1.7E1,3.2E1,1.19E2,9.5E1,1.2E1,3E0,8.7E1,2E0,4E0,5.1E1,7E0,2.18E2,3E0,1E1,6E0,1E1,3E0,2.8E1,4E0,7.3E1,4.6E1],"tree_param":{"num_deleted":"0","num_feature":"3","num_nodes":"61","size_leaf_vector":"1"}},{"base_weights":[-2.765841E-4,-1.4334175E-2,2.3559982E-2,-2.8032137E-2,-1.2865869E-2,4.5838013E-2,1.31334895E-2,-1.7679611E-2,-3.9801397E-3,1.7892994E-2,1.9570804E-1,1.1461161E-2,2.1277977E-2,-1.4809028E-2,-5.9411854E-2,-2.5046624E-3,-2.351076E-2,6.520806E-3,5.458717E-2,5.9478488E-2,2.4629723E-2,-2.2585154E-2,1.2671284E-2,-1.8480675E-2,-1.6582103E-3,-1.2885359E-2,-2.0602291E-2,-5.1017925E-3,1.0993017E-2,-1.2576186E-2,-7.271634E-3,9.497941E-3,3.36157E-3,2.8951058E-2,1.4586104E-2,-1.4885379E-3,-6.0441317E-3,4.618518E-2,1.033995E-2,-1.4062288E-2,-4.8682977E-2,5.2616928E-2,-8.265396E-3,3.9885477E-3,-1.2185494E-2,-3.915693E-3,-3.982902E-3,3.2111563E-2,2.502224E-3,-3.1227404E-2,2.9671502E-3,4.547569E-3,-8.4607943E-4,4.476583E-3,8.39008E-3,3.2508075E-3,1.9281222E-2,1.3211365E-2,7.310786E-4,-1.6490202E-2,1.4958568E-2,9.63862E-4,1.7211098E-2,-7.6729157E-3,-5.1723085E-3,-1.3859757E-3,2.3036876E-3,5.122721E-4,7.236562E-3,-7.974952E-5,2.8688593E-3,-1.8948123E-3,-7.473409E-3,6.328512E-4,1.4119549E-3,-8.217375E-3,3.7459135E-3,3.8122176E-4,2.0690083E-3,2.678504E-3,-1.6382457E-3,1.0773604E-2,1.396919E-2,-1.3981071E-2,9.986868E-3,-1.977108E-2,-4.076198E-3,-4.2661447E-3,-2.199914E-3,2.5043767E-3,8.379413E-4,3.685036E-4,8.6147385E-4,-2.1439702E-3,-3.2124223E-4,1.0686914E-4,1.1417688E-3,1.5108407E-2,5.7416838E-3,1.7732183E-3,1.27936555E-2,-1.3084781E-2,-4.9994554E-2,-1.0064802E-3,1.6960263E-3,-1.1671943E-3,-2.4965901E-3,3.583337E-5,2.9677083E-4,6.75781E-3,4.575598E-2,2.0724556E-3,8.276545E-3,-3.4623625E-4,6.652117E-4,1.9863597E-3,4.3970966E-3,-3.5192885E-3,-4.0838151E-4,-2.2932587E-2,-5.393346E-3,-5.758717E-4,-1.735352E-4,-6.0101018E-5,5.6422996E-5,-2.1415472E-3,1.5641906E-3,2.1383075E-2,1.9273974E-3,1.4345505E-3,-2.494295E-3,1.8028513E-3,5.289623E-4],"categories":[],"categories_nodes":[],"categories_segments":[],"categories_sizes":[],"default_left":[0,0,0,0,0,0,0,0,0,0,0,0,0,0,0,0,0,0,0,0,0,0,0,0,0,0,0,0,0,0,0,0,0,0,0,0,0,0,0,0,0,0,0,0,0,0,0,0,0,0,0,0,0,0,0,0,0,0,0,0,0,0,0,0,0,0,0,0,0,0,0,0,0,0,0,0,0,0,0,0,0,0,0,0,0,0,0,0,0,0,0,0,0,0,0,0,0,0,0,0,0,0,0,0,0,0,0,0,0,0,0,0,0,0,0,0,0,0,0,0,0,0,0,0,0,0,0,0,0,0,0,0,0],"id":23,"left_children":[1,3,5,-1,7,9,11,13,15,17,19,21,-1,23,25,27,29,31,33,-1,-1,35,37,39,41,-1,43,45,47,49,-1,-1,51,-1,53,-1,-1,55,57,59,-1,61,63,-1,-1,65,-1,67,69,71,-1,73,75,-1,77,79,-1,81,83,85,-1,-1,-1,-1,87,-1,89,-1,-1,-1,91,-1,-1,-1,-1,93,95,-1,-1,-1,-1,97,-1,-1,99,101,103,105,-1,-1,107,-1,-1,-1,-1,-1,-1,109,111,113,115,117,119,-1,-1,-1,121,123,-1,125,127,129,131,-1,-1,-1,-1,-1,-1,-1,-1,-1,-1,-1,-1,-1,-1,-1,-1,-1,-1,-1,-1],"loss_changes":[2.4026097E-1,7.971646E-2,6.058292E-2,0E0,1.9021839E-2,3.4479856E-1,2.6257083E-2,3.2981135E-2,4.492945E-3,2.9750492E-2,2.2669137E-2,8.112008E-3,0E0,1.3168845E-2,8.4862113E-4,5.405508E-3,6.307964E-4,7.1876836E-3,5.7093125E-2,0E0,0E0,3.5949657E-4,1.2952404E-2,2.058372E-1,2.3103366E-2,0E0,1.0605048E-2,2.0929193E-3,4.3221293E-3,5.5279587E-3,0E0,0E0,2.871502E-4,0E0,3.0074036E-4,0E0,0E0,2.3091447E-2,4.6435706E-3,4.8202023E-2,0E0,1.0358527E-2,4.9097985E-3,0E0,0E0,2.3002392E-3,0E0,6.5678917E-4,2.355987E-5,9.3310606E-5,0E0,1.0822946E-4,5.3544826E-4,0E0,9.999756E-5,1.147737E-3,0E0,1.6443023E-2,2.8201904E-2,8.310411E-3,0E0,0E0,0E0,0E0,1.9129307E-4,0E0,5.9308344E-4,0E0,0E0,0E0,1.0702439E-5,0E0,0E0,0E0,0E0,6.4828986E-5,5.693984E-5,0E0,0E0,0E0,0E0,2.5966782E-3,0E0,0E0,8.3067873E-4,3.1833306E-2,6.376452E-4,1.0975468E-4,0E0,0E0,1.9581144E-5,0E0,0E0,0E0,0E0,0E0,0E0,1.6528586E-2,5.4235547E-4,7.681728E-5,2.9984908E-4,6.753713E-3,3.7001826E-2,0E0,0E0,0E0,1.1837721E-5,1.7433996E-6,0E0,1.1887494E-3,2.886553E-2,2.2559038E-3,1.0188343E-4,0E0,0E0,0E0,0E0,0E0,0E0,0E0,0E0,0E0,0E0,0E0,0E0,0E0,0E0,0E0,0E0,0E0,0E0,0E0,0E0],"parents":[2147483647,0,0,1,1,2,2,4,4,5,5,6,6,7,7,8,8,9,9,10,10,11,11,13,13,14,14,15,15,16,16,17,17,18,18,21,21,22,22,23,23,24,24,26,26,27,27,28,28,29,29,32,32,34,34,37,37,38,38,39,39,41,41,42,42,45,45,47,47,48,48,49,49,51,51,52,52,54,54,55,55,57,57,58,58,59,59,64,64,66,66,70,70,75,75,76,76,81,81,84,84,85,85,86,86,87,87,90,90,97,97,98,98,99,99,100,100,101,101,102,102,106,106,107,107,109,109,110,110,111,111,112,112],"right_children":[2,4,6,-1,8,10,12,14,16,18,20,22,-1,24,26,28,30,32,34,-1,-1,36,38,40,42,-1,44,46,48,50,-1,-1,52,-1,54,-1,-1,56,58,60,-1,62,64,-1,-1,66,-1,68,70,72,-1,74,76,-1,78,80,-1,82,84,86,-1,-1,-1,-1,88,-1,90,-1,-1,-1,92,-1,-1,-1,-1,94,96,-1,-1,-1,-1,98,-1,-1,100,102,104,106,-1,-1,108,-1,-1,-1,-1,-1,-1,110,112,114,116,118,120,-1,-1,-1,122,124,-1,126,128,130,132,-1,-1,-1,-1,-1,-1,-1,-1,-1,-1,-1,-1,-1,-1,-1,-1,-1,-1,-1,-1],"split_conditions":[6.211747E-1,-1.4840827E0,1.0052714E0,-2.8032137E-2,-3.5368975E-2,7.741961E-1,1.2915937E0,-4.4073847E-1,3.1999072E-1,6.6944647E-1,8.5499936E-1,1.0386214E0,2.1277977E-2,-1.0404365E0,-2.9236418E-1,1.890579E-1,6.1399716E-1,6.2122005E-1,6.805518E-1,5.9478488E-2,2.4629723E-2,1.0173889E0,1.1049733E0,-1.0635173E0,-5.415116E-1,-1.2885359E-2,-7.9079166E-2,1.8032345E-1,2.0330352E-1,4.7536007E-1,-7.271634E-3,9.497941E-3,6.347873E-1,2.8951058E-2,6.9299155E-1,-1.4885379E-3,-6.0441317E-3,1.0886194E0,1.2708164E0,-1.1307878E0,-4.8682977E-2,-8.004859E-1,-5.4128903E-1,3.9885477E-3,-1.2185494E-2,1.6682315E-1,-3.982902E-3,1.9432409E-1,2.1189202E-1,3.4494492E-1,2.9671502E-3,6.2518877E-1,6.4349943E-1,4.476583E-3,7.0611256E-1,1.0813147E0,1.9281222E-2,1.2706512E0,1.2745013E0,-1.1373276E0,1.4958568E-2,9.63862E-4,1.7211098E-2,-7.6729157E-3,-4.652795E-1,-1.3859757E-3,1.6693307E-1,5.122721E-4,7.236562E-3,-7.974952E-5,2.8611857E-1,-1.8948123E-3,-7.473409E-3,6.328512E-4,1.4119549E-3,6.3924026E-1,6.507562E-1,3.8122176E-4,2.0690083E-3,2.678504E-3,-1.6382457E-3,1.2119826E0,1.396919E-2,-1.3981071E-2,1.2854381E0,-1.1934786E0,-1.1308082E0,-5.3567314E-1,-2.199914E-3,2.5043767E-3,1.6889437E-1,3.685036E-4,8.6147385E-4,-2.1439702E-3,-3.2124223E-4,1.0686914E-4,1.1417688E-3,1.179928E0,1.260987E0,1.2787751E0,1.2914546E0,-1.4098314E0,-1.1792904E0,-1.0064802E-3,1.6960263E-3,-1.1671943E-3,-4.980465E-1,1.6760051E-1,2.9677083E-4,1.1106923E0,1.1810635E0,1.2567759E0,1.2702984E0,-3.4623625E-4,6.652117E-4,1.9863597E-3,4.3970966E-3,-3.5192885E-3,-4.0838151E-4,-2.2932587E-2,-5.393346E-3,-5.758717E-4,-1.735352E-4,-6.0101018E-5,5.6422996E-5,-2.1415472E-3,1.5641906E-3,2.1383075E-2,1.9273974E-3,1.4345505E-3,-2.494295E-3,1.8028513E-3,5.289623E-4],"split_indices":[2,2,2,0,2,2,2,2,2,2,2,2,0,2,2,2,2,2,2,0,0,2,2,2,2,0,2,2,2,2,0,0,2,0,2,0,0,2,2,2,0,2,2,0,0,2,0,2,2,2,0,2,2,0,2,2,0,2,2,2,0,0,0,0,2,0,2,0,0,0,2,0,0,0,0,2,2,0,0,0,0,2,0,0,2,2,2,2,0,0,2,0,0,0,0,0,0,2,2,2,2,2,2,0,0,0,2,2,0,2,2,2,2,0,0,0,0,0,0,0,0,0,0,0,0,0,0,0,0,0,0,0,0],"split_type":[0,0,0,0,0,0,0,0,0,0,0,0,0,0,0,0,0,0,0,0,0,0,0,0,0,0,0,0,0,0,0,0,0,0,0,0,0,0,0,0,0,0,0,0,0,0,0,0,0,0,0,0,0,0,0,0,0,0,0,0,0,0,0,0,0,0,0,0,0,0,0,0,0,0,0,0,0,0,0,0,0,0,0,0,0,0,0,0,0,0,0,0,0,0,0,0,0,0,0,0,0,0,0,0,0,0,0,0,0,0,0,0,0,0,0,0,0,0,0,0,0,0,0,0,0,0,0,0,0,0,0,0,0],"sum_hessian":[7.13E2,4.49E2,2.64E2,3E0,4.46E2,8.2E1,1.82E2,2.88E2,1.58E2,7.1E1,1.1E1,1.81E2,1E0,2.72E2,1.6E1,1.49E2,9E0,5.6E1,1.5E1,2E0,9E0,5E0,1.76E2,2.12E2,6E1,1.3E1,3E0,1.26E2,2.3E1,7E0,2E0,2E0,5.4E1,3E0,1.2E1,3E0,2E0,9E0,1.67E2,2.1E2,2E0,5E0,5.5E1,2E0,1E0,1.19E2,7E0,5E0,1.8E1,4E0,3E0,4.2E1,1.2E1,3E0,9E0,6E0,3E0,1.28E2,3.9E1,2.06E2,4E0,3E0,2E0,3E0,5.2E1,8E1,3.9E1,1E0,4E0,2E0,1.6E1,2E0,2E0,3E1,1.2E1,4E0,8E0,3E0,6E0,3E0,3E0,1.25E2,3E0,3E0,3.6E1,1.62E2,4.4E1,4.8E1,4E0,3E0,3.6E1,1.2E1,4E0,2E0,2E0,4E0,4E0,6.5E1,6E1,1E1,2.6E1,1.35E2,2.7E1,4.2E1,2E0,2.3E1,2.5E1,1.7E1,1.9E1,5.3E1,1.2E1,2.6E1,3.4E1,3E0,7E0,2.3E1,3E0,9.5E1,4E1,5E0,2.2E1,1.9E1,6E0,7E0,1E1,2E0,5.1E1,3E0,9E0,2E1,6E0,2.9E1,5E0],"tree_param":{"num_deleted":"0","num_feature":"3","num_nodes":"133","size_leaf_vector":"1"}},{"base_weights":[-4.8137587E-4,2.7040218E-3,-7.851394E-3,-3.5945661E-3,9.576517E-3,-7.091952E-2,-8.8257686E-5,5.3711077E-3,-4.264457E-3,4.675106E-2,6.005899E-3,-3.7202183E-2,-1.7237926E-2,-2.51619E-2,3.1894145E-3,-1.3671069E-2,-2.7409138E-3,3.244958E-2,1.5907196E-2,7.020526E-5,9.0221865E-3,-1.953754E-2,-2.0525819E-3,-3.0371174E-4,-3.3899646E-2,4.2811786E-3,-1.2524622E-2,-3.33512E-4,-1.182319E-2,7.5981915E-3,8.703168E-3,8.27334E-3,7.5284443E-3,2.6680909E-3,-3.940638E-3,-2.0597542E-3,1.9625665E-3,-1.1099833E-2,-2.3619823E-2,2.6678108E-3,9.76702E-3,-2.4934458E-3,2.1997973E-2,-2.4851777E-2,-2.719553E-3,2.176106E-4,1.958194E-3,1.1496664E-2,3.1183707E-3,2.0966333E-4,-6.556132E-3,-2.6929982E-3,6.912047E-3,5.5728974E-3,-3.0699053E-3,-3.6099772E-3,5.0710025E-4,1.8866856E-3,2.0024251E-2,1.2457906E-3,1.7319418E-2,2.512662E-3,-1.3097382E-2,8.36078E-3,-4.5598387E-3,-6.687692E-3,1.4010933E-3,-2.166748E-5,-3.8807204E-3,-1.2221337E-4,2.2797122E-4,1.1010665E-3,1.2435501E-3,1.5620187E-2,1.0845586E-2,-2.4582238E-3,2.5579552E-3,1.2803649E-3,4.261849E-3,-7.266998E-4,1.5860557E-3,-6.352108E-3,-5.6289607E-3,1.0443598E-2,5.4531484E-3,-3.629585E-3,-6.313396E-3,9.383607E-3,-4.665033E-3,-9.5179083E-4,-5.003089E-4,5.5708707E-4,6.053189E-4,-3.14741E-3,2.2354722E-2,3.803465E-3,-1.6857028E-3,2.8592094E-3,-5.9894207E-3,-7.7733994E-3,-2.0089746E-4,1.3178311E-3,1.1939232E-2,-2.8695685E-3,8.813691E-3,-1.0972247E-3,3.3547562E-3,-9.42693E-3,-2.6427812E-4,1.5265208E-5,1.7561391E-4,3.0038168E-3,-1.7566506E-3,1.8111736E-3,5.116045E-3,5.578869E-4,1.2052803E-3,-1.0412008E-3,3.6361086E-4,-8.576923E-4,1.0226929E-3,-3.4968657E-4,-3.824792E-3,4.2628447E-4,-7.197857E-4,4.3602227E-3,1.9304224E-3,8.78168E-3,