{"learner":{"attributes":{"scikit_learn":"{\"_estimator_type\": \"regressor\"}"},"feature_names":[],"feature_types":[],"gradient_booster":{"model":{"gbtree_model_param":{"num_parallel_tree":"1","num_trees":"40"},"iteration_indptr":[0,1,2,3,4,5,6,7,8,9,10,11,12,13,14,15,16,17,18,19,20,21,22,23,24,25,26,27,28,29,30,31,32,33,34,35,36,37,38,39,40],"tree_info":[0,0,0,0,0,0,0,0,0,0,0,0,0,0,0,0,0,0,0,0,0,0,0,0,0,0,0,0,0,0,0,0,0,0,0,0,0,0,0,0],"trees":[{"base_weights":[-5.524432E-3,-9.172224E-1,7.630995E-1,-1.4427816E0,-4.914619E-1,3.7433288E-1,9.0310156E-1,-4.070254E-1,-2.3714137E-1,-1.5269141E-1,-5.3842347E-2,4.126982E-2,9.192568E-2,1.615088E-1,2.2904399E-1],"categories":[],"categories_nodes":[],"categories_segments":[],"categories_sizes":[],"default_left":[0,0,0,0,0,0,0,0,0,0,0,0,0,0,0],"id":0,"left_children":[1,3,5,7,9,11,13,-1,-1,-1,-1,-1,-1,-1,-1],"loss_changes":[5.1014645E2,7.309473E1,2.0822998E1,1.7710846E1,1.0893261E1,1.3577652E0,4.836731E0,0E0,0E0,0E0,0E0,0E0,0E0,0E0,0E0],"parents":[2147483647,0,0,1,1,2,2,3,3,4,4,5,5,6,6],"right_children":[2,4,6,8,10,12,14,-1,-1,-1,-1,-1,-1,-1,-1],"split_conditions":[2.1831806E-1,-8.0270517E-1,7.8679943E-1,-1.5265974E0,-6.365797E-1,4.382363E-1,1.1114378E0,-4.070254E-1,-2.3714137E-1,-1.5269141E-1,-5.3842347E-2,4.126982E-2,9.192568E-2,1.615088E-1,2.2904399E-1],"split_indices":[1,1,1,1,1,1,1,0,0,0,0,0,0,0,0],"split_type":[0,0,0,0,0,0,0,0,0,0,0,0,0,0,0],"sum_hessian":[7.24E2,3.31E2,3.93E2,1.46E2,1.85E2,1.06E2,2.87E2,4E1,1.06E2,8.1E1,1.04E2,3.8E1,6.8E1,2.12E2,7.5E1],"tree_param":{"num_deleted":"0","num_feature":"3","num_nodes":"15","size_leaf_vector":"1"}},{"base_weights":[-2.9639198E-2,-7.5668365E-1,6.028924E-1,-1.3741026E0,-4.7725222E-1,1.4924806E-1,7.102188E-1,-3.5030532E-1,-2.1991234E-1,-1.397957E-1,-4.588386E-2,2.2770563E-2,3.5082232E-2,6.4585686E-1,1.8405513E-1,8.9478485E-2,1.3518094E-1],"categories":[],"categories_nodes":[],"categories_segments":[],"categories_sizes":[],"default_left":[0,0,0,0,0,0,0,0,0,0,0,0,0,0,0,0,0],"id":1,"left_children":[1,3,5,7,9,11,13,-1,-1,-1,-1,-1,-1,15,-1,-1,-1],"loss_changes":[3.3018546E2,5.6312195E1,1.8484192E1,6.820862E0,1.2482883E1,3.0437589E-2,3.002365E0,0E0,0E0,0E0,0E0,0E0,0E0,8.5028076E-1,0E0,0E0,0E0],"parents":[2147483647,0,0,1,1,2,2,3,3,4,4,5,5,6,6,13,13],"right_children":[2,4,6,8,10,12,14,-1,-1,-1,-1,-1,-1,16,-1,-1,-1],"split_conditions":[2.1831806E-1,-1.1809889E0,5.925501E-1,-1.5265974E0,-6.365797E-1,4.382363E-1,1.1114378E0,-3.5030532E-1,-2.1991234E-1,-1.397957E-1,-4.588386E-2,2.2770563E-2,3.5082232E-2,7.8679943E-1,1.8405513E-1,8.9478485E-2,1.3518094E-1],"split_indices":[1,1,1,1,1,1,1,0,0,0,0,0,0,1,0,0,0],"split_type":[0,0,0,0,0,0,0,0,0,0,0,0,0,0,0,0,0],"sum_hessian":[7.14E2,3.32E2,3.82E2,1.01E2,2.31E2,7.4E1,3.08E2,3.8E1,6.3E1,1.2E2,1.11E2,3.6E1,3.8E1,2.42E2,6.6E1,3.6E1,2.06E2],"tree_param":{"num_deleted":"0","num_feature":"3","num_nodes":"17","size_leaf_vector":"1"}},{"base_weights":[3.5568238E-3,-6.5122616E-1,5.382522E-1,-1.0899985E0,-3.3883706E-1,2.7911967E-1,6.5034133E-1,-2.8899303E-1,-1.8524238E-1,-1.02391936E-1,-4.099681E-2,1.441122E-1,7.4383855E-2,1.0973439E-1,1.488566E-1,8.612323E-3,3.4667846E-2],"categories":[],"categories_nodes":[],"categories_segments":[],"categories_sizes":[],"default_left":[0,0,0,0,0,0,0,0,0,0,0,0,0,0,0,0,0],"id":2,"left_children":[1,3,5,7,9,11,13,-1,-1,-1,-1,15,-1,-1,-1,-1,-1],"loss_changes":[2.601321E2,4.504193E1,1.15167465E1,5.346466E0,4.3783627E0,1.4839411E0,1.8957443E0,0E0,0E0,0E0,0E0,1.4750886E-1,0E0,0E0,0E0,0E0,0E0],"parents":[2147483647,0,0,1,1,2,2,3,3,4,4,5,5,6,6,11,11],"right_children":[2,4,6,8,10,12,14,-1,-1,-1,-1,16,-1,-1,-1,-1,-1],"split_conditions":[-8.757299E-2,-1.040727E0,7.0567685E-1,-1.5547729E0,-4.1889212E-1,4.0582E-1,9.2358434E-1,-2.8899303E-1,-1.8524238E-1,-1.02391936E-1,-4.099681E-2,2.0338716E-1,7.4383855E-2,1.0973439E-1,1.488566E-1,8.612323E-3,3.4667846E-2],"split_indices":[2,2,2,2,2,2,2,0,0,0,0,2,0,0,0,0,0],"split_type":[0,0,0,0,0,0,0,0,0,0,0,0,0,0,0,0,0],"sum_hessian":[7.39E2,3.32E2,4.07E2,1.36E2,1.96E2,1.25E2,2.82E2,3.8E1,9.8E1,8.3E1,1.13E2,5.3E1,7.2E1,1.42E2,1.4E2,1.3E1,4E1],"tree_param":{"num_deleted":"0","num_feature":"3","num_nodes":"17","size_leaf_vector":"1"}},{"base_weights":[1.1293852E-2,-4.6118662E-1,3.8994208E-1,-7.571173E-1,-2.558877E-1,1.04086086E-1,4.5450246E-1,-2.0190613E-1,-1.2388801E-1,-7.9930454E-2,-2.8607858E-2,1.690692E-2,2.391931E-2,3.8255146E-1,1.1698159E-1,5.8382906E-2,7.931685E-2],"categories":[],"categories_nodes":[],"categories_segments":[],"categories_sizes":[],"default_left":[0,0,0,0,0,0,0,0,0,0,0,0,0,0,0,0,0],"id":3,"left_children":[1,3,5,7,9,11,13,-1,-1,-1,-1,-1,-1,15,-1,-1,-1],"loss_changes":[1.26665825E2,1.8750107E1,7.1581917E0,3.1975174E0,2.951929E0,2.523899E-3,2.5549774E0,0E0,0E0,0E0,0E0,0E0,0E0,3.8103104E-2,0E0,0E0,0E0],"parents":[2147483647,0,0,1,1,2,2,3,3,4,4,5,5,6,6,13,13],"right_children":[2,4,6,8,10,12,14,-1,-1,-1,-1,-1,-1,16,-1,-1,-1],"split_conditions":[2.1831806E-1,-8.0270517E-1,5.925501E-1,-1.5265974E0,-3.238872E-1,4.382363E-1,9.936337E-1,-2.0190613E-1,-1.2388801E-1,-7.9930454E-2,-2.8607858E-2,1.690692E-2,2.391931E-2,7.8679943E-1,1.1698159E-1,5.8382906E-2,7.931685E-2],"split_indices":[1,1,1,1,1,1,1,0,0,0,0,0,0,1,0,0,0],"split_type":[0,0,0,0,0,0,0,0,0,0,0,0,0,0,0,0,0],"sum_hessian":[7.04E2,3.13E2,3.91E2,1.26E2,1.87E2,7.3E1,3.18E2,4E1,8.6E1,8E1,1.07E2,3.8E1,3.5E1,2.1E2,1.08E2,3.4E1,1.76E2],"tree_param":{"num_deleted":"0","num_feature":"3","num_nodes":"17","size_leaf_vector":"1"}},{"base_weights":[3.1835975E-3,-4.4596553E-1,3.6737353E-1,-7.31898E-1,-2.3211415E-1,2.2772387E-1,4.621507E-1,-1.803666E-1,-1.1162007E-1,-6.883194E-2,-1.4339201E-1,1.0553024E-1,5.794399E-2,7.883146E-2,1.0031202E-1,-3.1641196E-2,-2.2041824E-2,5.9399838E-3,2.4309484E-2,-2.1290743E-4,1.5914496E-3],"categories":[],"categories_nodes":[],"categories_segments":[],"categories_sizes":[],"default_left":[0,0,0,0,0,0,0,0,0,0,0,0,0,0,0,0,0,0,0,0,0],"id":4,"left_children":[1,3,5,7,9,11,13,-1,-1,-1,15,17,-1,-1,-1,-1,-1,19,-1,-1,-1],"loss_changes":[1.1433986E2,1.879926E1,4.8984604E0,2.9214325E0,1.7105465E0,1.1509371E0,2.155571E-1,0E0,0E0,0E0,1.6743422E-2,8.947992E-2,0E0,0E0,0E0,0E0,0E0,1.5824131E-4,0E0,0E0,0E0],"parents":[2147483647,0,0,1,1,2,2,3,3,4,4,5,5,6,6,10,10,11,11,17,17],"right_children":[2,4,6,8,10,12,14,-1,-1,-1,16,18,-1,-1,-1,-1,-1,20,-1,-1,-1],"split_conditions":[-8.757299E-2,-1.040727E0,8.2680756E-1,-1.5476091E0,-4.1889212E-1,4.0582E-1,9.644851E-1,-1.803666E-1,-1.1162007E-1,-6.883194E-2,-3.0362037E-1,1.7050903E-1,5.794399E-2,7.883146E-2,1.0031202E-1,-3.1641196E-2,-2.2041824E-2,-4.0236667E-2,2.4309484E-2,-2.1290743E-4,1.5914496E-3],"split_indices":[2,2,2,2,2,2,2,0,0,0,2,2,0,0,0,0,0,2,0,0,0],"split_type":[0,0,0,0,0,0,0,0,0,0,0,0,0,0,0,0,0,0,0,0,0],"sum_hessian":[6.95E2,3.11E2,3.84E2,1.31E2,1.8E2,1.58E2,2.26E2,6.2E1,6.9E1,7.7E1,1.03E2,5.5E1,1.03E2,9.1E1,1.35E2,6.6E1,3.7E1,8E0,4.7E1,2E0,6E0],"tree_param":{"num_deleted":"0","num_feature":"3","num_nodes":"21","size_leaf_vector":"1"}},{"base_weights":[-1.2933741E-2,-3.367441E-1,2.6899928E-1,-5.9114796E-1,-2.1435668E-1,9.493179E-2,3.076308E-1,-1.5027489E-1,-9.495958E-2,-3.0072838E-1,-2.1161012E-2,1.2168763E-2,2.4625262E-2,2.7754956E-1,8.174665E-2,-7.168069E-2,-5.3194392E-2,4.6803337E-2,5.9005287E-2],"categories":[],"categories_nodes":[],"categories_segments":[],"categories_sizes":[],"default_left":[0,0,0,0,0,0,0,0,0,0,0,0,0,0,0,0,0,0,0],"id":5,"left_children":[1,3,5,7,9,11,13,-1,-1,15,-1,-1,-1,17,-1,-1,-1,-1,-1],"loss_changes":[6.591201E1,1.020821E1,2.5372467E0,1.2998695E0,2.0927954E0,5.5176973E-2,7.3111725E-1,0E0,0E0,6.392956E-2,0E0,0E0,0E0,5.1361084E-2,0E0,0E0,0E0,0E0,0E0],"parents":[2147483647,0,0,1,1,2,2,3,3,4,4,5,5,6,6,9,9,13,13],"right_children":[2,4,6,8,10,12,14,-1,-1,16,-1,-1,-1,18,-1,-1,-1,-1,-1],"split_conditions":[2.1952575E-1,-1.1802609E0,5.938861E-1,-1.5259879E0,-6.3566506E-1,4.3951938E-1,1.1129516E0,-1.5027489E-1,-9.495958E-2,-8.0184746E-1,-2.1161012E-2,1.2168763E-2,2.4625262E-2,8.135337E-1,8.174665E-2,-7.168069E-2,-5.3194392E-2,4.6803337E-2,5.9005287E-2],"split_indices":[0,0,0,0,0,0,0,0,0,0,0,0,0,0,0,0,0,0,0],"split_type":[0,0,0,0,0,0,0,0,0,0,0,0,0,0,0,0,0,0,0],"sum_hessian":[7.18E2,3.34E2,3.84E2,1.06E2,2.28E2,7.1E1,3.13E2,4E1,6.6E1,1.25E2,1.03E2,3.5E1,3.6E1,2.47E2,6.6E1,4E1,8.5E1,7.9E1,1.68E2],"tree_param":{"num_deleted":"0","num_feature":"3","num_nodes":"19","size_leaf_vector":"1"}},{"base_weights":[-1.3869188E-2,-2.4153812E-1,1.9239631E-1,-3.8662517E-1,-1.1893599E-1,3.812867E-2,2.2676575E-1,-1.1182387E-1,-3.219655E-1,-1.8892868E-1,-1.3107023E-2,2.2199873E-3,1.2061101E-2,1.9978689E-1,6.249368E-2,-7.749844E-2,-5.6293167E-2,-2.9562352E-2,-4.4325415E-2,3.3163127E-2,4.4987105E-2],"categories":[],"categories_nodes":[],"categories_segments":[],"categories_sizes":[],"default_left":[0,0,0,0,0,0,0,0,0,0,0,0,0,0,0,0,0,0,0,0,0],"id":6,"left_children":[1,3,5,7,9,11,13,-1,15,17,-1,-1,-1,19,-1,-1,-1,-1,-1,-1,-1],"loss_changes":[3.3199917E1,5.8847923E0,1.9497843E0,1.3464394E0,6.667061E-1,4.0620044E-2,5.757303E-1,0E0,8.970928E-2,4.0694E-2,0E0,0E0,0E0,1.270256E-1,0E0,0E0,0E0,0E0,0E0,0E0,0E0],"parents":[2147483647,0,0,1,1,2,2,3,3,4,4,5,5,6,6,8,8,9,9,13,13],"right_children":[2,4,6,8,10,12,14,-1,16,18,-1,-1,-1,20,-1,-1,-1,-1,-1,-1,-1],"split_conditions":[2.1831806E-1,-8.0270517E-1,5.925501E-1,-1.5265974E0,-3.238872E-1,4.382363E-1,1.1114378E0,-1.1182387E-1,-1.3585576E0,-7.950351E-1,-1.3107023E-2,2.2199873E-3,1.2061101E-2,8.215501E-1,6.249368E-2,-7.749844E-2,-5.6293167E-2,-2.9562352E-2,-4.4325415E-2,3.3163127E-2,4.4987105E-2],"split_indices":[1,1,1,1,1,1,1,0,1,1,0,0,0,1,0,0,0,0,0,0,0],"split_type":[0,0,0,0,0,0,0,0,0,0,0,0,0,0,0,0,0,0,0,0,0],"sum_hessian":[7.03E2,3.34E2,3.69E2,1.51E2,1.83E2,6.8E1,3.01E2,3.7E1,1.14E2,7.7E1,1.06E2,3.2E1,3.6E1,2.34E2,6.7E1,3.7E1,7.7E1,3.9E1,3.8E1,1.06E2,1.28E2],"tree_param":{"num_deleted":"0","num_feature":"3","num_nodes":"21","size_leaf_vector":"1"}},{"base_weights":[2.7873318E-3,-1.9116811E-1,1.5299407E-1,-3.581934E-1,-1.139177E-1,5.244137E-3,1.8000372E-1,-9.054296E-2,-5.6893628E-2,-3.345699E-2,-5.3869903E-2,1.5546703E-1,2.5221568E-1,-1.184862E-2,-8.227331E-3,2.539399E-2,3.330558E-2,4.0772628E-2,5.7317656E-2],"categories":[],"categories_nodes":[],"categories_segments":[],"categories_sizes":[],"default_left":[0,0,0,0,0,0,0,0,0,0,0,0,0,0,0,0,0,0,0],"id":7,"left_children":[1,3,5,7,9,-1,11,-1,-1,-1,13,15,17,-1,-1,-1,-1,-1,-1],"loss_changes":[2.109282E1,3.9956675E0,1.3875942E0,4.3232632E-1,6.837809E-1,0E0,5.169163E-1,0E0,0E0,0E0,2.3781955E-3,3.8403988E-2,1.9434452E-2,0E0,0E0,0E0,0E0,0E0,0E0],"parents":[2147483647,0,0,1,1,2,2,3,3,4,4,6,6,10,10,11,11,12,12],"right_children":[2,4,6,8,10,-1,12,-1,-1,-1,14,16,18,-1,-1,-1,-1,-1,-1],"split_conditions":[2.1831806E-1,-1.1809889E0,5.925501E-1,-1.5265974E0,-6.365797E-1,5.244137E-3,1.1114378E0,-9.054296E-2,-5.6893628E-2,-3.345699E-2,-2.636922E-1,8.1212246E-1,1.2109182E0,-1.184862E-2,-8.227331E-3,2.539399E-2,3.330558E-2,4.0772628E-2,5.7317656E-2],"split_indices":[1,1,1,1,1,0,1,0,0,0,1,1,1,0,0,0,0,0,0],"split_type":[0,0,0,0,0,0,0,0,0,0,0,0,0,0,0,0,0,0,0],"sum_hessian":[7.2E2,3.14E2,4.06E2,9.7E1,2.17E2,7.2E1,3.34E2,3.8E1,5.9E1,1.13E2,1.04E2,2.54E2,8E1,6.8E1,3.6E1,7.8E1,1.76E2,3.9E1,4.1E1],"tree_param":{"num_deleted":"0","num_feature":"3","num_nodes":"19","size_leaf_vector":"1"}},{"base_weights":[5.498339E-3,-1.4030518E-1,1.2678447E-1,-5.9115775E-2,-9.640844E-2,7.544931E-2,1.6757925E-1,-1.3683636E-1,-4.4359475E-2,4.5398775E-2,1.9415848E-2,3.0465676E-2,4.6904743E-2,-3.0687416E-2,-1.16434656E-1,-9.715568E-3,-6.412429E-3,6.821751E-3,1.0827321E-2,-1.569773E-2,-3.0004038E-2],"categories":[],"categories_nodes":[],"categories_segments":[],"categories_sizes":[],"default_left":[0,0,0,0,0,0,0,0,0,0,0,0,0,0,0,0,0,0,0,0,0],"id":8,"left_children":[1,3,5,-1,7,9,11,13,15,17,-1,-1,-1,-1,19,-1,-1,-1,-1,-1,-1],"loss_changes":[1.2538125E1,2.137761E0,7.8517056E-1,0E0,5.223346E-1,1.0493386E-1,1.4703703E-1,1.2362242E-2,2.7986765E-3,3.9030015E-3,0E0,0E0,0E0,0E0,6.820971E-2,0E0,0E0,0E0,0E0,0E0,0E0],"parents":[2147483647,0,0,1,1,2,2,4,4,5,5,6,6,7,7,8,8,9,9,14,14],"right_children":[2,4,6,-1,8,10,12,14,16,18,-1,-1,-1,-1,20,-1,-1,-1,-1,-1,-1],"split_conditions":[2.1831806E-1,-1.3585576E0,8.215501E-1,-5.9115775E-2,-6.365797E-1,5.925501E-1,1.2109182E0,-8.0270517E-1,-2.636922E-1,4.382363E-1,1.9415848E-2,3.0465676E-2,4.6904743E-2,-3.0687416E-2,-7.950351E-1,-9.715568E-3,-6.412429E-3,6.821751E-3,1.0827321E-2,-1.569773E-2,-3.0004038E-2],"split_indices":[1,1,1,0,1,1,1,1,1,1,0,0,0,0,1,0,0,0,0,0,0],"split_type":[0,0,0,0,0,0,0,0,0,0,0,0,0,0,0,0,0,0,0,0,0],"sum_hessian":[7.05E2,3.2E2,3.85E2,6.8E1,2.52E2,1.73E2,2.12E2,1.4E2,1.12E2,7.5E1,9.8E1,1.78E2,3.4E1,7E1,7E1,7.9E1,3.3E1,3.7E1,3.8E1,3.6E1,3.4E1],"tree_param":{"num_deleted":"0","num_feature":"3","num_nodes":"21","size_leaf_vector":"1"}},{"base_weights":[-1.8798839E-3,-1.9464102E-1,1.658571E-1,-3.1740665E-1,-9.989989E-2,1.205287E-1,1.9840373E-1,-7.7855155E-2,-4.9501806E-2,-3.463355E-2,-8.136033E-2,1.7202577E-2,2.6388694E-2,3.7028853E-2,6.1410308E-2,-1.9652475E-2,-4.6441544E-2,-4.122342E-2,-1.4088965E-2,-8.819816E-3,4.5941593E-4],"categories":[],"categories_nodes":[],"categories_segments":[],"categories_sizes":[],"default_left":[0,0,0,0,0,0,0,0,0,0,0,0,0,0,0,0,0,0,0,0,0],"id":9,"left_children":[1,3,5,7,9,11,13,-1,-1,-1,15,-1,-1,-1,-1,-1,17,19,-1,-1,-1],"loss_changes":[2.3279785E1,3.8329506E0,5.201578E-1,5.357065E-1,2.3262608E-1,4.2704582E-2,2.0467854E-1,0E0,0E0,0E0,8.353424E-2,0E0,0E0,0E0,0E0,0E0,1.0809004E-3,6.460093E-3,0E0,0E0,0E0],"parents":[2147483647,0,0,1,1,2,2,3,3,4,4,5,5,6,6,10,10,16,16,17,17],"right_children":[2,4,6,8,10,12,14,-1,-1,-1,16,-1,-1,-1,-1,-1,18,20,-1,-1,-1],"split_conditions":[8.145818E-2,-8.304896E-1,8.347777E-1,-1.3830808E0,-8.1486434E-1,4.4461218E-1,1.242241E0,-7.7855155E-2,-4.9501806E-2,-3.463355E-2,-3.2201838E-1,1.7202577E-2,2.6388694E-2,3.7028853E-2,6.1410308E-2,-1.9652475E-2,-8.757299E-2,-2.3719324E-1,-1.4088965E-2,-8.819816E-3,4.5941593E-4],"split_indices":[2,2,2,2,2,2,2,0,0,0,2,0,0,0,0,0,2,2,0,0,0],"split_type":[0,0,0,0,0,0,0,0,0,0,0,0,0,0,0,0,0,0,0,0,0],"sum_hessian":[7.16E2,3.33E2,3.83E2,1.43E2,1.9E2,1.64E2,2.19E2,6.6E1,7.7E1,3.5E1,1.55E2,4.5E1,1.19E2,2E2,1.9E1,1.02E2,5.3E1,4.8E1,5E0,4.5E1,3E0],"tree_param":{"num_deleted":"0","num_feature":"3","num_nodes":"21","size_leaf_vector":"1"}},{"base_weights":[-3.6172322E-3,-1.6124101E-1,1.339036E-1,-2.648296E-1,-8.7872066E-2,9.954798E-2,1.592598E-1,-6.991895E-2,-4.538868E-2,-2.6265416E-2,-5.401397E-2,5.6704443E-2,2.2470128E-2,1.5061447E-1,3.9457593E-2,-6.2784426E-2,-3.7970416E-2,1.5122235E-3,1.1506846E-2,1.5909177E-1,2.2740055E-2,-2.0724367E-3,-1.2964475E-2,-1.6576104E-2,-4.75625E-2,1.4121194E-1,1.833303E-1,-4.2080083E-3,-2.0631535E-3,-1.0358652E-2,-1.3375044E-2,3.3987325E-2,1.1201861E-1,4.2509597E-2,2.7673662E-2,1.7987475E-3,-5.8112605E-3,1.246596E-2,2.3672795E-2],"categories":[],"categories_nodes":[],"categories_segments":[],"categories_sizes":[],"default_left":[0,0,0,0,0,0,0,0,0,0,0,0,0,0,0,0,0,0,0,0,0,0,0,0,0,0,0,0,0,0,0,0,0,0,0,0,0,0,0],"id":10,"left_children":[1,3,5,7,9,11,13,-1,-1,-1,15,17,-1,19,-1,21,23,-1,-1,25,-1,-1,-1,27,29,31,33,-1,-1,-1,35,-1,37,-1,-1,-1,-1,-1,-1],"loss_changes":[1.5260121E1,2.4463186E0,2.958355E-1,2.748661E-1,2.7271724E-1,7.776284E-2,1.05986595E-2,0E0,0E0,0E0,1.11322105E-2,8.4264576E-4,0E0,2.0776272E-2,0E0,6.134987E-3,7.657923E-3,0E0,0E0,1.0196686E-2,0E0,0E0,0E0,4.098937E-5,2.9537007E-3,3.823757E-2,1.2119055E-2,0E0,0E0,0E0,2.6272736E-3,0E0,1.3248324E-3,0E0,0E0,0E0,0E0,0E0,0E0],"parents":[2147483647,0,0,1,1,2,2,3,3,4,4,5,5,6,6,10,10,11,11,13,13,15,15,16,16,19,19,23,23,24,24,25,25,26,26,30,30,32,32],"right_children":[2,4,6,8,10,12,14,-1,-1,-1,16,18,-1,20,-1,22,24,-1,-1,26,-1,-1,-1,28,30,32,34,-1,-1,-1,36,-1,38,-1,-1,-1,-1,-1,-1],"split_conditions":[-4.0236667E-2,-1.2016512E0,8.347777E-1,-2.1355577E0,-5.8595526E-1,2.3081894E-1,1.2390989E0,-6.991895E-2,-4.538868E-2,-2.6265416E-2,-3.1640062E-1,8.145818E-2,2.2470128E-2,1.1166861E0,3.9457593E-2,-4.1889212E-1,-2.6441917E-1,1.5122235E-3,1.1506846E-2,9.920947E-1,2.2740055E-2,-2.0724367E-3,-1.2964475E-2,-2.6488566E-1,-2.3719324E-1,8.444108E-1,1.0198712E0,-4.2080083E-3,-2.0631535E-3,-1.0358652E-2,-8.757299E-2,3.3987325E-2,8.5341567E-1,4.2509597E-2,2.7673662E-2,1.7987475E-3,-5.8112605E-3,1.246596E-2,2.3672795E-2],"split_indices":[2,2,2,2,2,2,2,0,0,0,2,2,0,2,0,2,2,0,0,2,0,0,0,2,2,2,2,0,0,0,2,0,2,0,0,0,0,0,0],"split_type":[0,0,0,0,0,0,0,0,0,0,0,0,0,0,0,0,0,0,0,0,0,0,0,0,0,0,0,0,0,0,0,0,0,0,0,0,0,0,0],"sum_hessian":[7E2,3.26E2,3.74E2,1.33E2,1.93E2,1.63E2,2.11E2,3.6E1,9.7E1,8.2E1,1.11E2,4E1,1.23E2,1.8E2,3.1E1,6.8E1,4.3E1,1E0,3.9E1,1.41E2,3.9E1,3E0,6.5E1,1.5E1,2.8E1,8.9E1,5.2E1,6E0,9E0,2.4E1,4E0,4E1,4.9E1,2.7E1,2.5E1,2E0,2E0,8E0,4.1E1],"tree_param":{"num_deleted":"0","num_feature":"3","num_nodes":"39","size_leaf_vector":"1"}},{"base_weights":[-1.3408237E-3,-1.3047926E-1,1.0977748E-1,-2.6062977E-1,-8.2772076E-2,8.8403136E-2,1.4771743E-1,-6.086392E-2,-3.6965374E-2,-2.789073E-2,-5.3619437E-2,5.158793E-2,1.9492421E-2,1.969282E-1,1.293193E-1,-1.3583447E-2,-2.6078502E-2,2.6822083E-2,1.17472345E-2,1.9892288E-2,4.385342E-2,2.1100776E-2,4.142462E-2,-2.1832865E-2,-1.2979298E-2,4.6158014E-3,6.247297E-3,-6.145894E-3,-1.629292E-2,3.6740766E-3,-3.3601683E-3,-1.6420862E-3,-3.501957E-3],"categories":[],"categories_nodes":[],"categories_segments":[],"categories_sizes":[],"default_left":[0,0,0,0,0,0,0,0,0,0,0,0,0,0,0,0,0,0,0,0,0,0,0,0,0,0,0,0,0,0,0,0,0],"id":11,"left_children":[1,3,5,7,9,11,13,-1,-1,-1,15,17,-1,19,21,-1,23,25,-1,-1,-1,-1,-1,27,-1,29,-1,-1,31,-1,-1,-1,-1],"loss_changes":[1.0518238E1,2.0617433E0,2.933936E-1,1.8557072E-1,3.998021E-1,7.56557E-2,7.491565E-2,0E0,0E0,0E0,6.300557E-2,6.5859407E-3,0E0,3.0410886E-2,1.545589E-1,0E0,7.2194785E-3,1.2800777E-3,0E0,0E0,0E0,0E0,0E0,1.8572807E-3,0E0,2.0901605E-3,0E0,0E0,1.0588672E-4,0E0,0E0,0E0,0E0],"parents":[2147483647,0,0,1,1,2,2,3,3,4,4,5,5,6,6,10,10,11,11,13,13,14,14,16,16,17,17,23,23,25,25,28,28],"right_children":[2,4,6,8,10,12,14,-1,-1,-1,16,18,-1,20,22,-1,24,26,-1,-1,-1,-1,-1,28,-1,30,-1,-1,32,-1,-1,-1,-1],"split_conditions":[8.145818E-2,-1.3830807E0,9.886865E-1,-1.5547727E0,-8.1514686E-1,4.5276535E-1,1.0198712E0,-6.086392E-2,-3.6965374E-2,-2.789073E-2,-3.2201838E-1,2.2806731E-1,1.9492421E-2,9.9260026E-1,1.242241E0,-1.3583447E-2,-4.0236667E-2,2.0338716E-1,1.17472345E-2,1.9892288E-2,4.385342E-2,2.1100776E-2,4.142462E-2,-2.6488566E-1,-1.2979298E-2,1.7050903E-1,6.247297E-3,-6.145894E-3,-2.6441917E-1,3.6740766E-3,-3.3601683E-3,-1.6420862E-3,-3.501957E-3],"split_indices":[2,2,2,2,2,2,2,0,0,0,2,2,0,2,2,0,2,2,0,0,0,0,0,2,0,2,0,0,2,0,0,0,0],"split_type":[0,0,0,0,0,0,0,0,0,0,0,0,0,0,0,0,0,0,0,0,0,0,0,0,0,0,0,0,0,0,0,0,0],"sum_hessian":[7.29E2,3.37E2,3.92E2,8.8E1,2.49E2,2.55E2,1.37E2,5.2E1,3.6E1,8.2E1,1.67E2,5.3E1,2.02E2,3.2E1,1.05E2,1.08E2,5.9E1,1.4E1,3.9E1,8E0,2.4E1,8.4E1,2.1E1,5.6E1,3E0,3E0,1.1E1,1.8E1,3.8E1,2E0,1E0,7E0,3.1E1],"tree_param":{"num_deleted":"0","num_feature":"3","num_nodes":"33","size_leaf_vector":"1"}},{"base_weights":[-2.3015873E-3,-1.0605013E-1,8.640325E-2,-2.0392601E-1,-6.840012E-2,6.2024962E-2,1.0522553E-1,-4.537796E-2,-2.7538273E-2,-1.9200346E-2,-4.0352266E-2,4.1858967E-2,1.351718E-2,9.6361436E-2,3.3860125E-2,-4.7569998E-2,-3.1154988E-2,1.8085293E-2,3.348575E-2,2.7676139E-2,1.8126521E-2,-3.982581E-3,-1.0068614E-2,-1.972305E-2,-7.4726003E-3,-3.3373237E-4,7.0952377E-3,-4.705587E-3,-2.450347E-5,-5.2411347E-3,-6.707774E-3,-7.7191995E-5,-1.1185028E-3,-1.7932257E-4,-1.4219135E-3],"categories":[],"categories_nodes":[],"categories_segments":[],"categories_sizes":[],"default_left":[0,0,0,0,0,0,0,0,0,0,0,0,0,0,0,0,0,0,0,0,0,0,0,0,0,0,0,0,0,0,0,0,0,0,0],"id":12,"left_children":[1,3,5,7,9,11,13,-1,-1,-1,15,17,-1,19,-1,21,23,-1,25,-1,-1,27,-1,29,-1,-1,-1,31,-1,-1,33,-1,-1,-1,-1],"loss_changes":[6.4696274E0,1.1660519E0,1.6085243E-1,7.288718E-2,1.7572963E-1,1.3405979E-2,8.721304E-2,0E0,0E0,0E0,5.068317E-3,1.1023991E-2,0E0,2.0653605E-2,0E0,7.334754E-3,2.7133785E-3,0E0,2.8473288E-3,0E0,0E0,1.5592064E-5,0E0,1.7577643E-3,0E0,0E0,0E0,1.4838974E-5,0E0,0E0,1.2934674E-5,0E0,0E0,0E0,0E0],"parents":[2147483647,0,0,1,1,2,2,3,3,4,4,5,5,6,6,10,10,11,11,13,13,15,15,16,16,18,18,21,21,23,23,27,27,30,30],"right_children":[2,4,6,8,10,12,14,-1,-1,-1,16,18,-1,20,-1,22,24,-1,26,-1,-1,28,-1,30,-1,-1,-1,32,-1,-1,34,-1,-1,-1,-1],"split_conditions":[8.145818E-2,-1.3752102E0,8.347777E-1,-1.3830808E0,-5.8595526E-1,2.3081894E-1,1.242241E0,-4.537796E-2,-2.7538273E-2,-1.9200346E-2,-3.2201838E-1,1.7050903E-1,1.351718E-2,8.444102E-1,3.3860125E-2,-3.2592246E-1,-2.6441917E-1,1.8085293E-2,2.0338716E-1,2.7676139E-2,1.8126521E-2,-3.4011698E-1,-1.0068614E-2,-2.7535686E-1,-7.4726003E-3,-3.3373237E-4,7.0952377E-3,-4.1889212E-1,-2.450347E-5,-5.2411347E-3,-2.6488566E-1,-7.7191995E-5,-1.1185028E-3,-1.7932257E-4,-1.4219135E-3],"split_indices":[2,2,2,2,2,2,2,0,0,0,2,2,0,2,0,2,2,0,2,0,0,2,0,2,0,0,0,2,0,0,2,0,0,0,0],"split_type":[0,0,0,0,0,0,0,0,0,0,0,0,0,0,0,0,0,0,0,0,0,0,0,0,0,0,0,0,0,0,0,0,0,0,0],"sum_hessian":[6.99E2,3.22E2,3.77E2,8.7E1,2.35E2,1.68E2,2.09E2,6.1E1,2.6E1,1.16E2,1.19E2,4E1,1.28E2,1.88E2,2.1E1,6.2E1,5.7E1,3E0,3.7E1,1.7E1,1.71E2,4E0,5.8E1,2.3E1,3.4E1,2E0,3.5E1,3E0,1E0,1.4E1,9E0,1E0,2E0,1E0,8E0],"tree_param":{"num_deleted":"0","num_feature":"3","num_nodes":"35","size_leaf_vector":"1"}},{"base_weights":[-2.194501E-3,-2.406638E-2,4.741153E-3,-6.89178E-3,3.1894904E-2,-1.7951095E-2,7.042832E-4,2.4453126E-2,9.4096325E-3,-1.2502501E-2,-7.129691E-3,-4.8818807E-3,6.3188663E-3,2.6501667E-2,3.3000943E-3,-1.859448E-2,1.0983607E-3,1.6723621E-3,-4.7885417E-3,1.1287723E-2,-2.0452978E-3,3.9477795E-3,2.9062955E-2,-4.4552344E-3,-1.6479705E-2,3.5178214E-3,-3.6507114E-4,6.2515587E-3,4.2062043E-3,6.9395737E-3,4.542983E-3,-1.8865264E-3,-4.2156707E-3,4.2984588E-4,9.029062E-4,4.6826038E-4,2.0488785E-3],"categories":[],"categories_nodes":[],"categories_segments":[],"categories_sizes":[],"default_left":[0,0,0,0,0,0,0,0,0,0,0,0,0,0,0,0,0,0,0,0,0,0,0,0,0,0,0,0,0,0,0,0,0,0,0,0,0],"id":13,"left_children":[1,-1,3,5,7,9,11,13,-1,15,-1,17,19,21,-1,23,-1,25,-1,27,-1,-1,29,-1,31,33,-1,35,-1,-1,-1,-1,-1,-1,-1,-1,-1],"loss_changes":[6.058288E-1,0E0,2.212382E-1,4.127285E-2,2.1380156E-2,1.8393762E-2,9.251344E-3,1.4876649E-3,0E0,1.7305097E-2,0E0,1.8569618E-2,1.2315958E-2,7.9265237E-4,0E0,1.767464E-4,0E0,7.3579093E-4,0E0,5.330895E-3,0E0,0E0,1.1780262E-3,0E0,2.2597276E-3,8.153712E-5,0E0,1.1698441E-3,0E0,0E0,0E0,0E0,0E0,0E0,0E0,0E0,0E0],"parents":[2147483647,0,0,2,2,3,3,4,4,5,5,6,6,7,7,9,9,11,11,12,12,13,13,15,15,17,17,19,19,22,22,24,24,25,25,27,27],"right_children":[2,-1,4,6,8,10,12,14,-1,16,-1,18,20,22,-1,24,-1,26,-1,28,-1,-1,30,-1,32,34,-1,36,-1,-1,-1,-1,-1,-1,-1,-1,-1],"split_conditions":[-1.5265974E0,-2.406638E-2,8.215501E-1,-3.238872E-1,1.1114378E0,-7.950351E-1,4.382363E-1,9.936337E-1,9.4096325E-3,-8.0270517E-1,-7.129691E-3,2.1831806E-1,8.1212246E-1,8.676403E-1,3.3000943E-3,-1.3585576E0,1.0983607E-3,-2.636922E-1,-4.7885417E-3,7.8679943E-1,-2.0452978E-3,3.9477795E-3,9.6658784E-1,-4.4552344E-3,-1.1809889E0,-3.2006624E-1,-3.6507114E-4,5.925501E-1,4.2062043E-3,6.9395737E-3,4.542983E-3,-1.8865264E-3,-4.2156707E-3,4.2984588E-4,9.029062E-4,4.6826038E-4,2.0488785E-3],"split_indices":[1,0,1,1,1,1,1,1,0,1,0,1,1,1,0,1,0,1,0,1,0,0,1,0,1,1,0,1,0,0,0,0,0,0,0,0,0],"split_type":[0,0,0,0,0,0,0,0,0,0,0,0,0,0,0,0,0,0,0,0,0,0,0,0,0,0,0,0,0,0,0,0,0,0,0,0,0],"sum_hessian":[7.36E2,3.9E1,6.97E2,4.89E2,2.08E2,1.98E2,2.91E2,1.43E2,6.5E1,1.54E2,4.4E1,1.46E2,1.45E2,1.1E2,3.3E1,1.15E2,3.9E1,1.1E2,3.6E1,1.12E2,3.3E1,3.5E1,7.5E1,3.5E1,8E1,7.2E1,3.8E1,7.6E1,3.6E1,3.5E1,4E1,3.4E1,4.6E1,3.3E1,3.9E1,4E1,3.6E1],"tree_param":{"num_deleted":"0","num_feature":"3","num_nodes":"37","size_leaf_vector":"1"}},{"base_weights":[-3.322297E-3,-5.2562624E-2,3.873575E-2,-9.461086E-2,-3.3205595E-2,2.511769E-2,6.254872E-2,-2.1241479E-2,-1.3268562E-2,-9.668706E-3,-1.5324854E-2,1.9199606E-3,3.2166183E-2,5.3425226E-2,1.6446002E-2,-4.2602387E-3,-1.2206918E-2,2.847213E-2,7.3631047E-3,1.1865068E-2,8.034462E-3,-1.4744935E-3,-3.3547033E-3,6.540519E-3,3.4083747E-3],"categories":[],"categories_nodes":[],"categories_segments":[],"categories_sizes":[],"default_left":[0,0,0,0,0,0,0,0,0,0,0,0,0,0,0,0,0,0,0,0,0,0,0,0,0],"id":14,"left_children":[1,3,5,7,9,11,13,-1,-1,-1,15,-1,17,19,-1,-1,21,23,-1,-1,-1,-1,-1,-1,-1],"loss_changes":[1.4703062E0,2.5987154E-1,1.2105954E-1,1.9344568E-2,5.9962094E-2,2.6398718E-2,1.5993297E-2,0E0,0E0,0E0,1.473777E-3,0E0,8.061379E-4,3.0528903E-3,0E0,0E0,1.4084503E-3,3.8659722E-3,0E0,0E0,0E0,0E0,0E0,0E0,0E0],"parents":[2147483647,0,0,1,1,2,2,3,3,4,4,5,5,6,6,10,10,12,12,13,13,16,16,17,17],"right_children":[2,4,6,8,10,12,14,-1,-1,-1,16,-1,18,20,-1,-1,22,24,-1,-1,-1,-1,-1,-1,-1],"split_conditions":[2.1952575E-1,-1.1802609E0,9.68052E-1,-1.3578904E0,-6.3566506E-1,5.938861E-1,1.2124661E0,-2.1241479E-2,-1.3268562E-2,-9.668706E-3,-3.190431E-1,1.9199606E-3,8.2296455E-1,1.1129516E0,1.6446002E-2,-4.2602387E-3,-2.6264974E-1,8.135337E-1,7.3631047E-3,1.1865068E-2,8.034462E-3,-1.4744935E-3,-3.3547033E-3,6.540519E-3,3.4083747E-3],"split_indices":[0,0,0,0,0,0,0,0,0,0,0,0,0,0,0,0,0,0,0,0,0,0,0,0,0],"split_type":[0,0,0,0,0,0,0,0,0,0,0,0,0,0,0,0,0,0,0,0,0,0,0,0,0],"sum_hessian":[7.06E2,3.25E2,3.81E2,1E2,2.25E2,2.45E2,1.36E2,6.7E1,3.3E1,1.2E2,1.05E2,7.8E1,1.67E2,9.8E1,3.8E1,3.2E1,7.3E1,1.01E2,6.6E1,6.3E1,3.5E1,3.8E1,3.5E1,7.1E1,3E1],"tree_param":{"num_deleted":"0","num_feature":"3","num_nodes":"25","size_leaf_vector":"1"}},{"base_weights":[-3.0227217E-3,-8.322707E-2,1.7953582E-2,-2.5929866E-2,-6.499874E-2,3.1815642E-3,6.2018536E-2,-1.4958977E-2,-9.205668E-3,-1.8936543E-2,1.4607616E-2,5.5487495E-2,1.6241025E-2,-5.2276733E-3,-1.6129855E-2,6.5237065E-3,2.01117E-2,1.3290134E-2,6.431434E-3,-2.3880803E-3,-3.5644767E-3,5.2872504E-4,1.6744527E-3,6.360516E-3,1.0680985E-2,3.9967503E-3,4.420453E-3,1.1228003E-3,3.9302727E-4],"categories":[],"categories_nodes":[],"categories_segments":[],"categories_sizes":[],"default_left":[0,0,0,0,0,0,0,0,0,0,0,0,0,0,0,0,0,0,0,0,0,0,0,0,0,0,0,0,0],"id":15,"left_children":[1,3,5,-1,7,9,11,-1,-1,13,15,17,-1,-1,19,21,23,-1,-1,-1,-1,-1,-1,-1,25,27,-1,-1,-1],"loss_changes":[1.2092626E0,1.09229684E-1,3.706345E-1,0E0,1.3742477E-2,1.0897125E-1,8.907378E-3,0E0,0E0,2.1281317E-3,1.2374029E-2,2.4628758E-2,0E0,0E0,3.6146306E-4,8.020946E-4,1.7843202E-2,0E0,0E0,0E0,0E0,0E0,0E0,0E0,7.152207E-3,1.8493005E-4,0E0,0E0,0E0],"parents":[2147483647,0,0,1,1,2,2,4,4,5,5,6,6,9,9,10,10,11,11,14,14,15,15,16,16,24,24,25,25],"right_children":[2,4,6,-1,8,10,12,-1,-1,14,16,18,-1,-1,20,22,24,-1,-1,-1,-1,-1,-1,-1,26,28,-1,-1,-1],"split_conditions":[-8.0184746E-1,-1.5259879E0,9.68052E-1,-2.5929866E-2,-1.1802609E0,-2.6264974E-1,1.2124661E0,-1.4958977E-2,-9.205668E-3,-7.9417485E-1,5.938861E-1,1.1129516E0,1.6241025E-2,-5.2276733E-3,-6.3566506E-1,2.1952575E-1,8.135337E-1,1.3290134E-2,6.431434E-3,-2.3880803E-3,-3.5644767E-3,5.2872504E-4,1.6744527E-3,6.360516E-3,8.690706E-1,8.2296455E-1,4.420453E-3,1.1228003E-3,3.9302727E-4],"split_indices":[0,0,0,0,0,0,0,0,0,0,0,0,0,0,0,0,0,0,0,0,0,0,0,0,0,0,0,0,0],"split_type":[0,0,0,0,0,0,0,0,0,0,0,0,0,0,0,0,0,0,0,0,0,0,0,0,0,0,0,0,0],"sum_hessian":[7.15E2,1.47E2,5.68E2,3.8E1,1.09E2,4.27E2,1.41E2,6.8E1,4.1E1,1.45E2,2.82E2,1.11E2,3E1,3.6E1,1.09E2,1.16E2,1.66E2,7.3E1,3.8E1,3.6E1,7.3E1,3.9E1,7.7E1,7.2E1,9.4E1,6.1E1,3.3E1,3.2E1,2.9E1],"tree_param":{"num_deleted":"0","num_feature":"3","num_nodes":"29","size_leaf_vector":"1"}},{"base_weights":[-6.357613E-5,-6.480198E-2,5.17927E-2,-9.662898E-2,-3.2960817E-2,3.881104E-2,6.188421E-2,-2.4669072E-2,-1.6239114E-2,-4.4717975E-2,-2.722591E-2,1.9108124E-2,3.675837E-2,7.442774E-2,4.3486968E-2,-1.3387602E-2,-6.0046494E-2,-2.5014045E-2,-1.3087791E-2,4.394516E-3,3.7862975E-2,5.5631794E-2,1.2733859E-1,3.1511724E-2,1.2374627E-2,-4.7322283E-3,-3.227819E-4,-1.28958E-2,-6.0150344E-3,-2.6291875E-2,2.5185419E-3,4.3609556E-2,3.236046E-2,1.9850625E-2,8.380377E-3,3.075969E-2,9.772199E-3,8.192743E-3,4.7269594E-3,-1.5089413E-2,-3.1031132E-2,7.15839E-3,1.0485734E-2,1.3814326E-2,7.1402616E-3,4.9985276E-4,-1.808754E-2,-1.0185092E-2,-2.0062102E-2,2.0622252E-4,3.2812569E-3,-4.209325E-3,-3.857553E-4,-9.595021E-3,-6.0360534E-3,-3.8895614E-3,-4.458586E-3,1.915493E-3,-1.5724183E-3],"categories":[],"categories_nodes":[],"categories_segments":[],"categories_sizes":[],"default_left":[0,0,0,0,0,0,0,0,0,0,0,0,0,0,0,0,0,0,0,0,0,0,0,0,0,0,0,0,0,0,0,0,0,0,0,0,0,0,0,0,0,0,0,0,0,0,0,0,0,0,0,0,0,0,0,0,0,0,0],"id":16,"left_children":[1,3,5,7,9,11,13,-1,-1,15,17,-1,19,21,23,25,27,29,-1,-1,31,33,35,37,-1,-1,-1,-1,-1,39,-1,41,43,-1,-1,-1,-1,-1,-1,45,47,-1,-1,49,-1,-1,51,-1,53,-1,-1,-1,-1,55,-1,-1,57,-1,-1],"loss_changes":[2.4003198E0,3.15894E-1,4.720521E-2,4.511714E-2,8.488059E-3,1.3820201E-2,4.429531E-2,0E0,0E0,2.2404656E-2,6.361738E-3,0E0,1.210615E-3,1.1312908E-1,1.6797364E-2,2.2218185E-3,5.0555915E-4,5.996287E-3,0E0,0E0,2.2684783E-3,5.0376058E-2,5.141872E-2,2.6052669E-3,0E0,0E0,0E0,0E0,0E0,4.7973767E-3,0E0,1.2798905E-3,4.589997E-3,0E0,0E0,0E0,0E0,0E0,0E0,1.988802E-3,1.4105044E-2,0E0,0E0,5.294373E-4,0E0,0E0,1.4010826E-3,0E0,4.8221294E-3,0E0,0E0,0E0,0E0,1.2436097E-3,0E0,0E0,1.1538048E-3,0E0,0E0],"parents":[2147483647,0,0,1,1,2,2,3,3,4,4,5,5,6,6,9,9,10,10,12,12,13,13,14,14,15,15,16,16,17,17,20,20,21,21,22,22,23,23,29,29,31,31,32,32,39,39,40,40,43,43,46,46,48,48,53,53,56,56],"right_children":[2,4,6,8,10,12,14,-1,-1,16,18,-1,20,22,24,26,28,30,-1,-1,32,34,36,38,-1,-1,-1,-1,-1,40,-1,42,44,-1,-1,-1,-1,-1,-1,46,48,-1,-1,50,-1,-1,52,-1,54,-1,-1,-1,-1,56,-1,-1,58,-1,-1],"split_conditions":[8.145818E-2,-8.1514686E-1,8.347777E-1,-1.5547727E0,-5.8595526E-1,1.7050903E-1,1.020234E0,-2.4669072E-2,-1.6239114E-2,-8.073106E-1,-8.757299E-2,1.9108124E-2,2.2806731E-1,9.926002E-1,1.1561515E0,-8.075956E-1,-7.951231E-1,-2.3719324E-1,-1.3087791E-2,4.394516E-3,5.8421636E-1,8.444102E-1,1.0198712E0,1.1166861E0,1.2374627E-2,-4.7322283E-3,-3.227819E-4,-1.28958E-2,-6.0150344E-3,-3.2587865E-1,2.5185419E-3,4.5276535E-1,6.1043304E-1,1.9850625E-2,8.380377E-3,3.075969E-2,9.772199E-3,8.192743E-3,4.7269594E-3,-3.2592246E-1,-3.2201838E-1,7.15839E-3,1.0485734E-2,6.076258E-1,7.1402616E-3,4.9985276E-4,-3.259223E-1,-1.0185092E-2,-2.6441917E-1,2.0622252E-4,3.2812569E-3,-4.209325E-3,-3.857553E-4,-3.2163492E-1,-6.0360534E-3,-3.8895614E-3,-3.1640062E-1,1.915493E-3,-1.5724183E-3],"split_indices":[2,2,2,2,2,2,2,0,0,2,2,0,2,2,2,2,2,2,0,0,2,2,2,2,0,0,0,0,0,2,0,2,2,0,0,0,0,0,0,2,2,0,0,2,0,0,2,0,2,0,0,0,0,2,0,0,2,0,0],"split_type":[0,0,0,0,0,0,0,0,0,0,0,0,0,0,0,0,0,0,0,0,0,0,0,0,0,0,0,0,0,0,0,0,0,0,0,0,0,0,0,0,0,0,0,0,0,0,0,0,0,0,0,0,0,0,0,0,0,0,0],"sum_hessian":[7.11E2,3.16E2,3.95E2,1.56E2,1.6E2,1.77E2,2.18E2,5.2E1,1.04E2,4.8E1,1.12E2,3E0,1.74E2,1.26E2,9.2E1,1.7E1,3.1E1,1.09E2,3E0,1.5E1,1.59E2,9.6E1,3E1,5.9E1,3.3E1,8E0,9E0,2.5E1,6E0,1.06E2,3E0,7.1E1,8.8E1,2E1,7.6E1,2.1E1,9E0,2.3E1,3.6E1,3.4E1,7.2E1,4.3E1,2.8E1,1.5E1,7.3E1,5E0,2.9E1,2.3E1,4.9E1,3E0,1.2E1,2.4E1,5E0,2.6E1,2.3E1,7E0,1.9E1,3E0,1.6E1],"tree_param":{"num_deleted":"0","num_feature":"3","num_nodes":"59","size_leaf_vector":"1"}},{"base_weights":[-2.3986131E-3,-2.575493E-2,1.6749253E-2,-1.2578591E-2,-1.5494207E-2,4.9797967E-3,2.6257379E-2,-4.631908E-3,-1.1932019E-2,1.6832635E-3,1.025325E-2,2.2482878E-2,8.582463E-3,-9.481413E-5,-1.5028629E-2,1.5431937E-3,-1.7399383E-3,4.297865E-3,-7.294316E-4,2.5158258E-2,3.530454E-3,-5.0379927E-3,-2.1272006E-3,-2.043659E-6,-7.432354E-4,1.824128E-2,7.1783485E-3,4.8898477E-3,2.2146513E-3],"categories":[],"categories_nodes":[],"categories_segments":[],"categories_sizes":[],"default_left":[0,0,0,0,0,0,0,0,0,0,0,0,0,0,0,0,0,0,0,0,0,0,0,0,0,0,0,0,0],"id":17,"left_children":[1,3,5,-1,7,9,11,-1,13,15,17,19,-1,-1,21,-1,23,-1,-1,25,-1,-1,-1,-1,-1,27,-1,-1,-1],"loss_changes":[3.2867765E-1,1.24182895E-1,4.4948302E-2,0E0,6.6013187E-3,3.1467746E-3,1.2089103E-2,0E0,6.4787325E-3,2.4017345E-3,1.1089772E-2,1.5156195E-3,0E0,0E0,5.8915913E-3,0E0,2.562996E-4,0E0,0E0,7.2285533E-3,0E0,0E0,0E0,0E0,0E0,2.7514454E-3,0E0,0E0,0E0],"parents":[2147483647,0,0,1,1,2,2,4,4,5,5,6,6,8,8,9,9,10,10,11,11,14,14,16,16,19,19,25,25],"right_children":[2,4,6,-1,8,10,12,-1,14,16,18,20,-1,-1,22,-1,24,-1,-1,26,-1,-1,-1,-1,-1,28,-1,-1,-1],"split_conditions":[2.1952575E-1,-1.3578904E0,8.2296455E-1,-1.2578591E-2,-8.0184746E-1,7.88202E-1,1.2124661E0,-4.631908E-3,-7.9417485E-1,4.3951938E-1,8.135337E-1,9.951072E-1,8.582463E-3,-9.481413E-5,-3.2286537E-1,1.5431937E-3,5.938861E-1,4.297865E-3,-7.294316E-4,9.68052E-1,3.530454E-3,-5.0379927E-3,-2.1272006E-3,-2.043659E-6,-7.432354E-4,8.690706E-1,7.1783485E-3,4.8898477E-3,2.2146513E-3],"split_indices":[0,0,0,0,0,0,0,0,0,0,0,0,0,0,0,0,0,0,0,0,0,0,0,0,0,0,0,0,0],"split_type":[0,0,0,0,0,0,0,0,0,0,0,0,0,0,0,0,0,0,0,0,0,0,0,0,0,0,0,0,0],"sum_hessian":[7.31E2,3.29E2,4.02E2,6.9E1,2.6E2,1.81E2,2.21E2,7.9E1,1.81E2,1.13E2,6.8E1,1.84E2,3.7E1,3.9E1,1.42E2,4E1,7.3E1,3.7E1,3.1E1,1.13E2,7.1E1,4E1,1.02E2,4E1,3.3E1,7.2E1,4.1E1,3.6E1,3.6E1],"tree_param":{"num_deleted":"0","num_feature":"3","num_nodes":"29","size_leaf_vector":"1"}},{"base_weights":[1.0041205E-3,1.7044982E-2,-1.2164568E-2,2.5032248E-2,6.158557E-3,-1.8373867E-2,6.04454E-3,4.5065642E-3,6.7951134E-3,-2.005032E-3,9.228938E-3,-1.3281512E-2,-9.733107E-3,2.2377095E-3,-8.0281915E-4,8.8756984E-5,-6.6638472E-3,2.3301647E-3,1.5136952E-3,-4.2811898E-3,-6.778172E-3,1.8935722E-3,-1.3120978E-2,-2.2685083E-3,-3.1371552E-3],"categories":[],"categories_nodes":[],"categories_segments":[],"categories_sizes":[],"default_left":[0,0,0,0,0,0,0,0,0,0,0,0,0,0,0,0,0,0,0,0,0,0,0,0,0],"id":18,"left_children":[1,3,5,7,9,11,13,-1,-1,15,17,19,-1,-1,-1,-1,-1,-1,-1,-1,21,-1,23,-1,-1],"loss_changes":[1.565189E-1,2.873391E-2,4.6239905E-2,2.760671E-3,3.6464166E-3,4.5601085E-2,5.522701E-3,0E0,0E0,3.1735657E-3,2.4589337E-4,1.3605677E-2,0E0,0E0,0E0,0E0,0E0,0E0,0E0,0E0,1.5602225E-2,0E0,1.367908E-4,0E0,0E0],"parents":[2147483647,0,0,1,1,2,2,3,3,4,4,5,5,6,6,9,9,10,10,11,11,20,20,22,22],"right_children":[2,4,6,8,10,12,14,-1,-1,16,18,20,-1,-1,-1,-1,-1,-1,-1,-1,22,-1,24,-1,-1],"split_conditions":[2.1831806E-1,-7.950351E-1,9.936337E-1,-8.0270517E-1,-3.238872E-1,9.6658784E-1,1.2109182E0,4.5065642E-3,6.7951134E-3,-6.365797E-1,-3.2006624E-1,7.8679943E-1,-9.733107E-3,2.2377095E-3,-8.0281915E-4,8.8756984E-5,-6.6638472E-3,2.3301647E-3,1.5136952E-3,-4.2811898E-3,8.1212246E-1,1.8935722E-3,8.676403E-1,-2.2685083E-3,-3.1371552E-3],"split_indices":[1,1,1,1,1,1,1,0,0,1,1,1,0,0,0,0,0,0,0,0,1,0,1,0,0],"split_type":[0,0,0,0,0,0,0,0,0,0,0,0,0,0,0,0,0,0,0,0,0,0,0,0,0],"sum_hessian":[7.37E2,3.32E2,4.05E2,1.9E2,1.42E2,3.02E2,1.03E2,1.54E2,3.6E1,3.9E1,1.03E2,2.61E2,4.1E1,6.8E1,3.5E1,3.8E1,1E0,3.7E1,6.6E1,1.14E2,1.47E2,4.1E1,1.06E2,6.9E1,3.7E1],"tree_param":{"num_deleted":"0","num_feature":"3","num_nodes":"25","size_leaf_vector":"1"}},{"base_weights":[4.6191347E-4,1.6980516E-2,-1.3882207E-2,4.9602548E-3,6.832301E-3,-1.7606791E-2,1.5701969E-3,-3.6710415E-3,1.062296E-2,-1.3390083E-2,-3.2343507E-2,1.6922456E-3,-1.1156101E-3,-2.8609423E-4,-6.2195896E-3,1.2716308E-2,1.0821137E-3,-2.2955624E-2,-8.843658E-3,-9.850413E-3,-2.2850435E-3,1.7634485E-3,3.212646E-3,-4.503254E-4,-8.305977E-3,-1.8009203E-3,-1.3981161E-2,2.5887918E-4,-1.0647905E-3,-3.969736E-3,-1.05348285E-2,-4.2618206E-4,-3.76192E-3],"categories":[],"categories_nodes":[],"categories_segments":[],"categories_sizes":[],"default_left":[0,0,0,0,0,0,0,0,0,0,0,0,0,0,0,0,0,0,0,0,0,0,0,0,0,0,0,0,0,0,0,0,0],"id":19,"left_children":[1,3,5,-1,7,9,11,13,15,17,19,-1,-1,-1,-1,21,-1,23,25,-1,-1,-1,-1,-1,-1,27,29,-1,-1,-1,31,-1,-1],"loss_changes":[1.7130867E-1,2.6328318E-2,2.2328615E-2,0E0,6.010368E-3,1.8521652E-2,3.8873213E-3,2.4305587E-3,1.0626437E-3,1.0292273E-2,2.2926033E-2,0E0,0E0,0E0,0E0,7.215729E-4,0E0,2.9808775E-2,6.100596E-3,0E0,0E0,0E0,0E0,0E0,0E0,8.2074513E-4,1.563495E-3,0E0,0E0,0E0,4.5095105E-3,0E0,0E0],"parents":[2147483647,0,0,1,1,2,2,4,4,5,5,6,6,7,7,8,8,9,9,10,10,15,15,17,17,18,18,25,25,26,26,30,30],"right_children":[2,4,6,-1,8,10,12,14,16,18,20,-1,-1,-1,-1,22,-1,24,26,-1,-1,-1,-1,-1,-1,28,30,-1,-1,-1,32,-1,-1],"split_conditions":[2.1831806E-1,-7.950351E-1,1.1114378E0,4.9602548E-3,-3.238872E-1,9.6658784E-1,1.2109182E0,-6.365797E-1,-2.636922E-1,5.925501E-1,9.936337E-1,1.6922456E-3,-1.1156101E-3,-2.8609423E-4,-6.2195896E-3,-3.2006624E-1,1.0821137E-3,4.382363E-1,8.1212246E-1,-9.850413E-3,-2.2850435E-3,1.7634485E-3,3.212646E-3,-4.503254E-4,-8.305977E-3,7.8679943E-1,8.215501E-1,2.5887918E-4,-1.0647905E-3,-3.969736E-3,8.676403E-1,-4.2618206E-4,-3.76192E-3],"split_indices":[1,1,1,0,1,1,1,1,1,1,1,0,0,0,0,1,0,1,1,0,0,0,0,0,0,1,1,0,0,0,1,0,0],"split_type":[0,0,0,0,0,0,0,0,0,0,0,0,0,0,0,0,0,0,0,0,0,0,0,0,0,0,0,0,0,0,0,0,0],"sum_hessian":[7.19E2,3.34E2,3.85E2,1.87E2,1.47E2,3.1E2,7.5E1,3.9E1,1.08E2,2.44E2,6.6E1,3.8E1,3.7E1,3.8E1,1E0,7.5E1,3.3E1,7.6E1,1.68E2,3.5E1,3.1E1,3.8E1,3.7E1,3.7E1,3.9E1,7.2E1,9.6E1,3.9E1,3.3E1,3.2E1,6.4E1,3.3E1,3.1E1],"tree_param":{"num_deleted":"0","num_feature":"3","num_nodes":"33","size_leaf_vector":"1"}},{"base_weights":[1.8149698E-3,1.957874E-2,-4.285794E-3,5.8927457E-3,1.6849877E-2,3.7937285E-4,-1.4752404E-2,3.0961772E-3,3.960201E-3,-4.7720857E-3,8.829637E-3,-2.3544924E-2,-2.2528982E-3,1.4611555E-3,-6.958665E-3,2.4604774E-3,-4.7370858E-4,-1.5997002E-3,-3.1430792E-2,1.3754958E-3,-2.572399E-3,3.1882203E-3,2.4652007E-4,-8.399998E-3,-3.5812624E-3,-1.0521872E-3,1.7329947E-3,-4.5498397E-4,1.5807914E-3,1.5561403E-4,-5.804952E-3,8.588719E-4,-2.2874081E-4],"categories":[],"categories_nodes":[],"categories_segments":[],"categories_sizes":[],"default_left":[0,0,0,0,0,0,0,0,0,0,0,0,0,0,0,0,0,0,0,0,0,0,0,0,0,0,0,0,0,0,0,0,0],"id":20,"left_children":[1,3,5,-1,7,9,11,-1,-1,13,15,17,19,21,-1,-1,-1,-1,23,-1,-1,25,27,-1,-1,29,-1,-1,31,-1,-1,-1,-1],"loss_changes":[7.9713285E-2,4.078336E-3,2.6769202E-2,0E0,1.0170043E-6,1.6669653E-2,1.8467378E-2,0E0,0E0,4.4638526E-2,5.697106E-3,1.1634309E-2,7.1512E-3,4.1588116E-4,0E0,0E0,0E0,0E0,7.7871606E-3,0E0,0E0,1.922575E-3,4.0754228E-4,0E0,0E0,2.5026228E-3,0E0,0E0,5.938782E-4,0E0,0E0,0E0,0E0],"parents":[2147483647,0,0,1,1,2,2,4,4,5,5,6,6,9,9,10,10,11,11,12,12,13,13,18,18,21,21,22,22,25,25,28,28],"right_children":[2,4,6,-1,8,10,12,-1,-1,14,16,18,20,22,-1,-1,-1,-1,24,-1,-1,26,28,-1,-1,30,-1,-1,32,-1,-1,-1,-1],"split_conditions":[-7.950351E-1,-1.5265974E0,8.676403E-1,5.8927457E-3,-8.0270517E-1,5.925501E-1,1.1114378E0,3.0961772E-3,3.960201E-3,4.382363E-1,8.215501E-1,9.6658784E-1,1.2109182E0,-3.2006624E-1,-6.958665E-3,2.4604774E-3,-4.7370858E-4,-1.5997002E-3,9.936337E-1,1.3754958E-3,-2.572399E-3,-3.238872E-1,-2.636922E-1,-8.399998E-3,-3.5812624E-3,-6.365797E-1,1.7329947E-3,-4.5498397E-4,2.1831806E-1,1.5561403E-4,-5.804952E-3,8.588719E-4,-2.2874081E-4],"split_indices":[1,1,1,0,1,1,1,0,0,1,1,1,1,1,0,0,0,0,1,0,0,1,1,0,0,1,0,0,1,0,0,0,0],"split_type":[0,0,0,0,0,0,0,0,0,0,0,0,0,0,0,0,0,0,0,0,0,0,0,0,0,0,0,0,0,0,0,0,0],"sum_hessian":[7.32E2,1.86E2,5.46E2,3.6E1,1.5E2,3.79E2,1.67E2,1.11E2,3.9E1,2.36E2,1.43E2,9.7E1,7E1,1.97E2,3.9E1,1.09E2,3.4E1,3.4E1,6.3E1,3.8E1,3.2E1,8E1,1.17E2,3.3E1,3E1,4.6E1,3.4E1,4E1,7.7E1,4.5E1,1E0,3.8E1,3.9E1],"tree_param":{"num_deleted":"0","num_feature":"3","num_nodes":"33","size_leaf_vector":"1"}},{"base_weights":[1.6822656E-4,-5.7823617E-2,4.789135E-2,-8.9986525E-2,-2.5738114E-2,4.5566786E-2,1.584149E-2,-3.0555138E-2,-7.5942546E-2,-3.6121372E-2,-1.7198142E-2,5.0577693E-2,2.4324026E-2,-3.1335622E-2,-7.893784E-2,-1.7040832E-2,-3.9629E-2,-7.859878E-4,-1.8274818E-2,3.955735E-2,6.511258E-2,1.9464621E-2,7.779813E-3,-1.2066054E-2,1.1363762E-2,-2.1541435E-2,-1.4255661E-2,-6.1367224E-3,5.135E-4,-9.292148E-3,-2.9472154E-2,-7.217181E-4,4.7020195E-4,-1.6939092E-2,-6.841302E-3,4.6607528E-2,2.3363614E-2,1.6928054E-2,5.4986663E-2,6.3422294E-3,1.09301135E-2,-5.4538064E-3,-7.004451E-3,-3.6716373E-3,1.663994E-3,1.6482165E-2,4.3334756E-2,1.8918414E-2,6.9263238E-3,3.484705E-2,7.3577516E-2,5.3825974E-4,2.245996E-3,-6.3787317E-3,6.804466E-5,1.3577462E-3,-8.2526804E-4,2.4631307E-2,1.06569035E-2,2.4580773E-2,2.6225983E-3,9.2986226E-4,3.9039437E-2,1.5439968E-2,7.5048627E-3,-2.2449046E-4,-1.6064525E-3,5.5958275E-3,2.5712885E-3,5.481648E-4,5.5832462E-3,3.9546057E-3,8.242472E-3,-9.195089E-4,1.7423213E-3],"categories":[],"categories_nodes":[],"categories_segments":[],"categories_sizes":[],"default_left":[0,0,0,0,0,0,0,0,0,0,0,0,0,0,0,0,0,0,0,0,0,0,0,0,0,0,0,0,0,0,0,0,0,0,0,0,0,0,0,0,0,0,0,0,0,0,0,0,0,0,0,0,0,0,0,0,0,0,0,0,0,0,0,0,0,0,0,0,0,0,0,0,0,0,0],"id":21,"left_children":[1,3,5,7,9,11,-1,-1,13,15,17,19,21,23,25,27,29,31,33,35,37,39,-1,-1,-1,-1,-1,-1,-1,-1,41,-1,-1,43,-1,45,47,-1,49,-1,51,53,-1,-1,55,-1,57,59,-1,61,63,-1,-1,65,-1,-1,-1,67,-1,69,-1,-1,71,-1,-1,-1,-1,-1,73,-1,-1,-1,-1,-1,-1],"loss_changes":[2.0230837E0,3.3591568E-1,2.1972835E-2,1.214124E-1,1.3654582E-2,3.7775993E-2,0E0,0E0,1.3491213E-2,3.601998E-3,1.6676504E-3,4.354322E-2,3.8684644E-3,3.752787E-2,1.2851596E-2,4.1702418E-3,1.4941394E-3,8.7803644E-5,7.5637735E-4,1.814416E-2,1.6002E-2,5.68239E-3,0E0,0E0,0E0,0E0,0E0,0E0,0E0,0E0,3.617121E-3,0E0,0E0,2.3578536E-3,0E0,7.1529746E-3,1.5947856E-3,0E0,2.8569221E-2,0E0,3.5904348E-5,4.7212743E-5,0E0,0E0,2.9341673E-4,0E0,1.8962055E-2,8.674748E-4,0E0,5.5872127E-3,8.3103776E-5,0E0,0E0,4.280827E-5,0E0,0E0,0E0,3.1056534E-3,0E0,1.3767416E-3,0E0,0E0,8.66577E-5,0E0,0E0,0E0,0E0,0E0,4.3225533E-4,0E0,0E0,0E0,0E0,0E0,0E0],"parents":[2147483647,0,0,1,1,2,2,3,3,4,4,5,5,8,8,9,9,10,10,11,11,12,12,13,13,14,14,15,15,16,16,17,17,18,18,19,19,20,20,21,21,30,30,33,33,35,35,36,36,38,38,40,40,41,41,44,44,46,46,47,47,49,49,50,50,53,53,57,57,59,59,62,62,68,68],"right_children":[2,4,6,8,10,12,-1,-1,14,16,18,20,22,24,26,28,30,32,34,36,38,40,-1,-1,-1,-1,-1,-1,-1,-1,42,-1,-1,44,-1,46,48,-1,50,-1,52,54,-1,-1,56,-1,58,60,-1,62,64,-1,-1,66,-1,-1,-1,68,-1,70,-1,-1,72,-1,-1,-1,-1,-1,74,-1,-1,-1,-1,-1,-1],"split_conditions":[8.145818E-2,-8.1514686E-1,1.242241E0,-2.2667727E0,-3.259223E-1,1.020234E0,1.584149E-2,-3.0555138E-2,-1.5547729E0,-8.073106E-1,-3.2201847E-1,8.347777E-1,1.1561515E0,-2.1355577E0,-1.5547727E0,-8.075956E-1,-5.8595526E-1,-3.2587865E-1,-4.0236667E-2,7.0567685E-1,8.444108E-1,1.1166861E0,7.779813E-3,-1.2066054E-2,1.1363762E-2,-2.1541435E-2,-1.4255661E-2,-6.1367224E-3,5.135E-4,-9.292148E-3,-3.2592246E-1,-7.217181E-4,4.7020195E-4,-2.3719324E-1,-6.841302E-3,2.0338716E-1,8.2680756E-1,1.6928054E-2,9.2358434E-1,6.3422294E-3,1.1385207E0,-3.4011698E-1,-7.004451E-3,-3.6716373E-3,-8.757299E-2,1.6482165E-2,4.4461218E-1,8.089043E-1,6.9263238E-3,8.5341567E-1,1.0198712E0,5.3825974E-4,2.245996E-3,-4.1889212E-1,6.804466E-5,1.3577462E-3,-8.2526804E-4,2.7925342E-1,1.06569035E-2,7.6007247E-1,2.6225983E-3,9.2986226E-4,8.894127E-1,1.5439968E-2,7.5048627E-3,-2.2449046E-4,-1.6064525E-3,5.5958275E-3,4.0582E-1,5.481648E-4,5.5832462E-3,3.9546057E-3,8.242472E-3,-9.195089E-4,1.7423213E-3],"split_indices":[2,2,2,2,2,2,0,0,2,2,2,2,2,2,2,2,2,2,2,2,2,2,0,0,0,0,0,0,0,0,2,0,0,2,0,2,2,0,2,0,2,2,0,0,2,0,2,2,0,2,2,0,0,2,0,0,0,2,0,2,0,0,2,0,0,0,0,0,2,0,0,0,0,0,0],"split_type":[0,0,0,0,0,0,0,0,0,0,0,0,0,0,0,0,0,0,0,0,0,0,0,0,0,0,0,0,0,0,0,0,0,0,0,0,0,0,0,0,0,0,0,0,0,0,0,0,0,0,0,0,0,0,0,0,0,0,0,0,0,0,0,0,0,0,0,0,0,0,0,0,0,0,0],"sum_hessian":[7.27E2,3.28E2,3.99E2,1.62E2,1.66E2,3.76E2,2.3E1,2.6E1,1.36E2,7.2E1,9.4E1,3.02E2,7.4E1,1E1,1.26E2,1.3E1,5.9E1,6E0,8.8E1,1.76E2,1.26E2,5.9E1,1.5E1,8E0,2E0,2.1E1,1.05E2,7E0,6E0,3.1E1,2.8E1,3E0,3E0,8.5E1,3E0,1.2E2,5.6E1,3.8E1,8.8E1,2.2E1,3.7E1,6E0,2.2E1,7.9E1,6E0,6E0,1.14E2,4.4E1,1.2E1,4.5E1,4.3E1,2E0,3.5E1,5E0,1E0,3E0,3E0,4.2E1,7.2E1,1.9E1,2.5E1,6E0,3.9E1,3.7E1,6E0,2E0,3E0,3.6E1,6E0,3E0,1.6E1,6E0,3.3E1,3E0,3E0],"tree_param":{"num_deleted":"0","num_feature":"3","num_nodes":"75","size_leaf_vector":"1"}},{"base_weights":[-4.3283319E-4,-1.5557793E-2,1.8487753E-2,-7.66908E-3,-1.0300433E-2,5.915073E-3,2.2047127E-2,-1.8123401E-2,-6.296152E-3,1.9566845E-3,4.6485677E-4,2.5467409E-2,1.4239932E-2,-4.0077395E-3,-2.804524E-3,-9.44161E-3,-3.0949286E-3,1.579312E-2,3.179696E-2,2.221881E-3,3.3235662E-3,-1.2991719E-3,-1.0856785E-2,-1.0756291E-3,-1.6965042E-3,3.7100555E-3,2.436456E-3,3.480621E-2,4.6077664E-3,-2.743877E-3,-1.6046286E-3,1.3528806E-4,-8.916403E-4,5.3206193E-3,8.149136E-3],"categories":[],"categories_nodes":[],"categories_segments":[],"categories_sizes":[],"default_left":[0,0,0,0,0,0,0,0,0,0,0,0,0,0,0,0,0,0,0,0,0,0,0,0,0,0,0,0,0,0,0,0,0,0,0],"id":22,"left_children":[1,3,5,-1,7,9,11,13,15,-1,-1,17,19,-1,-1,21,23,25,27,-1,-1,-1,29,-1,31,-1,-1,33,-1,-1,-1,-1,-1,-1,-1],"loss_changes":[2.0805076E-1,4.761032E-2,1.4193721E-2,0E0,1.0140479E-2,9.824128E-4,5.977094E-3,3.0982867E-4,2.176946E-3,0E0,0E0,9.527884E-3,2.3374148E-4,0E0,0E0,3.2168254E-4,3.4255034E-4,2.6483834E-4,1.0844618E-3,0E0,0E0,0E0,3.6388915E-4,0E0,4.8442633E-4,0E0,0E0,1.3400763E-3,0E0,0E0,0E0,0E0,0E0,0E0,0E0],"parents":[2147483647,0,0,1,1,2,2,4,4,5,5,6,6,7,7,8,8,11,11,12,12,15,15,16,16,17,17,18,18,22,22,24,24,27,27],"right_children":[2,4,6,-1,8,10,12,14,16,-1,-1,18,20,-1,-1,22,24,26,28,-1,-1,-1,30,-1,32,-1,-1,34,-1,-1,-1,-1,-1,-1,-1],"split_conditions":[5.938861E-1,-1.3578904E0,8.135337E-1,-7.66908E-3,-7.9417485E-1,7.88202E-1,1.1129516E0,-8.0184746E-1,-2.6264974E-1,1.9566845E-3,4.6485677E-4,8.690706E-1,1.2124661E0,-4.0077395E-3,-2.804524E-3,-6.3566506E-1,2.1952575E-1,8.2296455E-1,9.951072E-1,2.221881E-3,3.3235662E-3,-1.2991719E-3,-3.190431E-1,-1.0756291E-3,4.3951938E-1,3.7100555E-3,2.436456E-3,9.68052E-1,4.6077664E-3,-2.743877E-3,-1.6046286E-3,1.3528806E-4,-8.916403E-4,5.3206193E-3,8.149136E-3],"split_indices":[0,0,0,0,0,0,0,0,0,0,0,0,0,0,0,0,0,0,0,0,0,0,0,0,0,0,0,0,0,0,0,0,0,0,0],"split_type":[0,0,0,0,0,0,0,0,0,0,0,0,0,0,0,0,0,0,0,0,0,0,0,0,0,0,0,0,0,0,0,0,0,0,0],"sum_hessian":[7.23E2,4.02E2,3.21E2,7.3E1,3.29E2,7.2E1,2.49E2,1.09E2,2.2E2,3.3E1,3.9E1,1.7E2,7.9E1,6.9E1,4E1,1.09E2,1.11E2,7E1,1E2,3.9E1,4E1,3.9E1,7E1,4E1,7.1E1,3.5E1,3.5E1,7E1,3E1,3.1E1,3.9E1,3.9E1,3.2E1,3.4E1,3.6E1],"tree_param":{"num_deleted":"0","num_feature":"3","num_nodes":"35","size_leaf_vector":"1"}},{"base_weights":[6.546526E-4,-4.4316787E-2,3.751878E-2,-7.374004E-2,-2.6430283E-2,4.1630305E-2,2.3888623E-2,-2.2955889E-2,-5.951001E-2,-4.006492E-2,-1.5606835E-2,3.5249013E-2,8.6468145E-2,1.6593993E-2,7.4881525E-3,-1.5482697E-2,-6.380743E-2,-2.274781E-2,-4.269084E-2,-2.619245E-3,-2.0025102E-2,1.5673824E-2,3.382243E-2,2.052935E-2,6.207114E-3,5.0314437E-3,1.1168868E-2,-8.671008E-3,1.0994285E-2,-1.7153885E-2,-5.441083E-2,-5.741837E-3,-9.60914E-3,-5.260165E-2,-3.3745777E-2,3.8214952E-3,-5.3415247E-3,-5.984477E-3,-1.4044655E-2,2.1836815E-2,3.592162E-2,5.501914E-3,2.6380743E-3,-4.8157605E-3,-1.1335843E-2,4.6333313E-4,-3.5382581E-3,-2.6954617E-2,-1.12893535E-2,-9.14633E-3,-9.60557E-3,2.8613806E-4,-5.9274468E-3,-5.6008464E-3,-2.0555196E-2,2.2972507E-2,-2.0127297E-4,3.9577834E-2,2.4141565E-2,3.821516E-4,1.2162487E-3,-7.5144097E-3,-1.1110676E-3,-4.186779E-3,1.2187312E-3,-1.2981326E-3,-3.3975343E-4,-2.88726E-3,-6.230354E-4,-4.741381E-3,-8.880056E-3,2.8241712E-3,5.193328E-3,3.229402E-2,5.8572102E-2,4.1683167E-3,5.642764E-3,-5.943656E-4,6.551981E-4,8.199682E-4,-2.3162346E-3,3.1093487E-3,-6.0693678E-3,4.0914115E-2,2.0877274E-2,1.744103E-2,7.028946E-3,4.2530298E-4,1.4377326E-3,-6.192867E-3,1.14369395E-4,3.314287E-2,1.0325846E-2,1.025629E-4,4.3979282E-3,-1.792264E-3,-5.4887036E-4,9.215041E-3,-4.150365E-4],"categories":[],"categories_nodes":[],"categories_segments":[],"categories_sizes":[],"default_left":[0,0,0,0,0,0,0,0,0,0,0,0,0,0,0,0,0,0,0,0,0,0,0,0,0,0,0,0,0,0,0,0,0,0,0,0,0,0,0,0,0,0,0,0,0,0,0,0,0,0,0,0,0,0,0,0,0,0,0,0,0,0,0,0,0,0,0,0,0,0,0,0,0,0,0,0,0,0,0,0,0,0,0,0,0,0,0,0,0,0,0,0,0,0,0,0,0,0,0],"id":23,"left_children":[1,3,5,7,9,11,13,-1,15,17,19,21,23,25,-1,27,29,31,33,35,37,-1,39,-1,-1,-1,41,-1,-1,-1,43,-1,45,47,49,-1,51,-1,53,55,57,59,-1,-1,-1,-1,-1,61,-1,63,-1,-1,65,67,69,71,-1,73,75,-1,-1,-1,-1,-1,77,-1,-1,-1,79,-1,81,-1,-1,83,85,87,-1,-1,-1,-1,89,-1,-1,91,93,-1,-1,-1,-1,95,-1,97,-1,-1,-1,-1,-1,-1,-1],"loss_changes":[1.1886759E0,1.6609025E-1,2.0091057E-2,5.700195E-2,2.8854474E-2,7.974106E-2,8.247774E-3,0E0,1.5809327E-2,2.1048784E-3,6.6088717E-3,1.1061579E-2,2.5914162E-2,2.5041793E-3,0E0,2.6367515E-2,8.207709E-3,7.014517E-4,3.0988008E-3,2.096805E-3,4.3090433E-3,0E0,4.9979687E-3,0E0,0E0,0E0,3.589089E-4,0E0,0E0,0E0,1.7427802E-3,0E0,8.5305877E-4,1.1269748E-4,1.49313435E-2,0E0,1.3600028E-4,0E0,2.958225E-3,1.1877213E-3,7.5214803E-3,7.967348E-6,0E0,0E0,0E0,0E0,0E0,1.4001927E-3,0E0,2.3724232E-3,0E0,0E0,4.4634333E-5,1.2134851E-3,7.5645465E-4,3.7978403E-4,0E0,1.8906474E-2,4.40095E-3,0E0,0E0,0E0,0E0,0E0,1.2292416E-4,0E0,0E0,0E0,1.789278E-4,0E0,6.187237E-3,0E0,0E0,1.039651E-2,2.2714674E-2,4.342977E-5,0E0,0E0,0E0,0E0,1.8621924E-4,0E0,0E0,2.2400618E-3,1.2686532E-3,0E0,0E0,0E0,0E0,1.7643324E-5,0E0,2.068656E-2,0E0,0E0,0E0,0E0,0E0,0E0,0E0],"parents":[2147483647,0,0,1,1,2,2,3,3,4,4,5,5,6,6,8,8,9,9,10,10,11,11,12,12,13,13,15,15,16,16,17,17,18,18,19,19,20,20,22,22,26,26,30,30,32,32,33,33,34,34,36,36,38,38,39,39,40,40,41,41,47,47,49,49,52,52,53,53,54,54,55,55,57,57,58,58,64,64,68,68,70,70,73,73,74,74,75,75,80,80,83,83,84,84,89,89,91,91],"right_children":[2,4,6,8,10,12,14,-1,16,18,20,22,24,26,-1,28,30,32,34,36,38,-1,40,-1,-1,-1,42,-1,-1,-1,44,-1,46,48,50,-1,52,-1,54,56,58,60,-1,-1,-1,-1,-1,62,-1,64,-1,-1,66,68,70,72,-1,74,76,-1,-1,-1,-1,-1,78,-1,-1,-1,80,-1,82,-1,-1,84,86,88,-1,-1,-1,-1,90,-1,-1,92,94,-1,-1,-1,-1,96,-1,98,-1,-1,-1,-1,-1,-1,-1],"split_conditions":[8.145818E-2,-1.2016512E0,1.020234E0,-2.2667727E0,-5.8595526E-1,9.9260026E-1,1.1561515E0,-2.2955889E-2,-1.5547729E0,-8.806663E-1,-3.2587865E-1,2.0338716E-1,1.0198712E0,1.1166861E0,7.4881525E-3,-2.1355577E0,-1.5547727E0,-1.1663332E0,-8.1514686E-1,-4.1889212E-1,-3.2201838E-1,1.5673824E-2,4.4461218E-1,2.052935E-2,6.207114E-3,5.0314437E-3,1.1405984E0,-8.671008E-3,1.0994285E-2,-1.7153885E-2,-1.5476091E0,-5.741837E-3,-1.040727E0,-8.151473E-1,-8.073106E-1,3.8214952E-3,-3.4011698E-1,-5.984477E-3,-2.6441917E-1,4.0582E-1,8.444108E-1,1.1385207E0,2.6380743E-3,-4.8157605E-3,-1.1335843E-2,4.6333313E-4,-3.5382581E-3,-8.304896E-1,-1.12893535E-2,-8.1087345E-1,-9.60557E-3,2.8613806E-4,-3.259223E-1,-3.2163492E-1,-2.3719324E-1,2.2806731E-1,-2.0127297E-4,8.347777E-1,8.7144464E-1,3.821516E-4,1.2162487E-3,-7.5144097E-3,-1.1110676E-3,-4.186779E-3,-8.075956E-1,-1.2981326E-3,-3.3975343E-4,-2.88726E-3,-3.1640062E-1,-4.741381E-3,-4.0236667E-2,2.8241712E-3,5.193328E-3,7.0567685E-1,8.444102E-1,8.5341567E-1,5.642764E-3,-5.943656E-4,6.551981E-4,8.199682E-4,-2.6488566E-1,3.1093487E-3,-6.0693678E-3,6.104328E-1,7.6007247E-1,1.744103E-2,7.028946E-3,4.2530298E-4,1.4377326E-3,-3.0362037E-1,1.14369395E-4,5.2496564E-1,1.0325846E-2,1.025629E-4,4.3979282E-3,-1.792264E-3,-5.4887036E-4,9.215041E-3,-4.150365E-4],"split_indices":[2,2,2,2,2,2,2,0,2,2,2,2,2,2,0,2,2,2,2,2,2,0,2,0,0,0,2,0,0,0,2,0,2,2,2,0,2,0,2,2,2,2,0,0,0,0,0,2,0,2,0,0,2,2,2,2,0,2,2,0,0,0,0,0,2,0,0,0,2,0,2,0,0,2,2,2,0,0,0,0,2,0,0,2,2,0,0,0,0,2,0,2,0,0,0,0,0,0,0],"split_type":[0,0,0,0,0,0,0,0,0,0,0,0,0,0,0,0,0,0,0,0,0,0,0,0,0,0,0,0,0,0,0,0,0,0,0,0,0,0,0,0,0,0,0,0,0,0,0,0,0,0,0,0,0,0,0,0,0,0,0,0,0,0,0,0,0,0,0,0,0,0,0,0,0,0,0,0,0,0,0,0,0,0,0,0,0,0,0,0,0,0,0,0,0,0,0,0,0,0,0],"sum_hessian":[7.13E2,3.21E2,3.92E2,1.19E2,2.02E2,2.98E2,9.4E1,2.7E1,9.2E1,8.7E1,1.15E2,2.64E2,3.4E1,6.4E1,3E1,9E0,8.3E1,1.4E1,7.3E1,3E1,8.5E1,5E0,2.59E2,2.5E1,9E0,2.2E1,4.2E1,7E0,2E0,2E1,6.3E1,8E0,6E0,3E1,4.3E1,2E0,2.8E1,2.9E1,5.6E1,4.2E1,2.17E2,1.3E1,2.9E1,6E0,5.7E1,3E0,3E0,6E0,2.4E1,1.7E1,2.6E1,2E0,2.6E1,2.6E1,3E1,4E1,2E0,1.62E2,5.5E1,3E0,1E1,3E0,3E0,7E0,1E1,2.2E1,4E0,8E0,1.8E1,2.2E1,8E0,1.3E1,2.7E1,1.21E2,4.1E1,1E1,4.5E1,3E0,7E0,4E0,1.4E1,4E0,4E0,6.6E1,5.5E1,1.6E1,2.5E1,8E0,2E0,5E0,9E0,4.3E1,2.3E1,3E0,5.2E1,1E0,4E0,3.1E1,1.2E1],"tree_param":{"num_deleted":"0","num_feature":"3","num_nodes":"99","size_leaf_vector":"1"}},{"base_weights":[-3.0545688E-3,2.4068989E-2,-2.5767958E-2,4.6795238E-2,1.7389914E-2,-2.8430788E-2,-1.3032462E-2,6.5994896E-3,1.2217381E-2,2.3855746E-3,1.948664E-2,-2.4105342E-2,-4.3499045E-2,-1.4510551E-4,-5.6741573E-3,7.7526323E-3,2.9200905E-3,-2.1646596E-3,-2.6033336E-2,-1.1307443E-2,-5.6088525E-3,-7.451893E-3,-1.9957818E-2,-1.8934731E-3,-4.7267624E-3],"categories":[],"categories_nodes":[],"categories_segments":[],"categories_sizes":[],"default_left":[0,0,0,0,0,0,0,0,0,0,0,0,0,0,0,0,0,0,0,0,0,0,0,0,0],"id":24,"left_children":[1,3,5,7,9,11,13,-1,-1,-1,15,17,19,-1,-1,-1,-1,-1,21,-1,-1,-1,23,-1,-1],"loss_changes":[4.4727358E-1,4.8615053E-2,1.2654364E-2,1.05609E-2,2.501309E-3,1.9085377E-2,1.355011E-2,0E0,0E0,0E0,1.6198799E-2,6.017655E-3,1.093404E-2,0E0,0E0,0E0,0E0,0E0,1.3722375E-2,0E0,0E0,0E0,5.298365E-3,0E0,0E0],"parents":[2147483647,0,0,1,1,2,2,3,3,4,4,5,5,6,6,10,10,11,11,12,12,18,18,22,22],"right_children":[2,4,6,8,10,12,14,-1,-1,-1,16,18,20,-1,-1,-1,-1,-1,22,-1,-1,-1,24,-1,-1],"split_conditions":[2.1831806E-1,-1.3585576E0,1.1114378E0,-1.5265974E0,-8.0270517E-1,9.6658784E-1,1.2109182E0,6.5994896E-3,1.2217381E-2,2.3855746E-3,-7.950351E-1,4.382363E-1,9.936337E-1,-1.4510551E-4,-5.6741573E-3,7.7526323E-3,2.9200905E-3,-2.1646596E-3,7.8679943E-1,-1.1307443E-2,-5.6088525E-3,-7.451893E-3,8.1212246E-1,-1.8934731E-3,-4.7267624E-3],"split_indices":[1,1,1,1,1,1,1,0,0,0,1,1,1,0,0,0,0,0,1,0,0,0,1,0,0],"split_type":[0,0,0,0,0,0,0,0,0,0,0,0,0,0,0,0,0,0,0,0,0,0,0,0,0],"sum_hessian":[7.22E2,3.29E2,3.93E2,7.2E1,2.57E2,3.23E2,7E1,4E1,3.2E1,7.5E1,1.82E2,2.55E2,6.8E1,4E1,3E1,3.4E1,1.48E2,3.4E1,2.21E2,3.4E1,3.4E1,7.4E1,1.47E2,4E1,1.07E2],"tree_param":{"num_deleted":"0","num_feature":"3","num_nodes":"25","size_leaf_vector":"1"}},{"base_weights":[4.4356557E-3,2.7380496E-2,-1.5154035E-2,4.6477728E-2,1.29229585E-2,-6.5144766E-3,-1.9917468E-2,1.0776607E-2,7.559812E-3,1.3711398E-2,1.7672526E-3,-9.42724E-3,4.6795528E-4,-2.8292244E-2,-7.769575E-3,1.1776568E-2,3.8121585E-3,-1.4142231E-3,-2.7874755E-3,-2.1005113E-2,-9.694561E-3,-3.0692841E-3,-3.2038165E-3,2.5633432E-3,9.096437E-3,-6.5294416E-3,-2.9428157E-3,-9.537074E-4,-2.5919516E-4,-4.1698534E-3,2.1775085E-3],"categories":[],"categories_nodes":[],"categories_segments":[],"categories_sizes":[],"default_left":[0,0,0,0,0,0,0,0,0,0,0,0,0,0,0,0,0,0,0,0,0,0,0,0,0,0,0,0,0,0,0],"id":25,"left_children":[1,3,5,7,9,11,13,-1,-1,15,-1,17,-1,19,21,23,-1,-1,-1,25,-1,27,-1,-1,29,-1,-1,-1,-1,-1,-1],"loss_changes":[3.2805297E-1,9.156796E-2,1.5955158E-2,5.1811934E-3,3.8277358E-4,3.7321332E-3,2.5299534E-2,0E0,0E0,1.1967365E-3,0E0,9.5055066E-4,0E0,1.9875348E-2,4.0118243E-3,1.0692887E-4,0E0,0E0,0E0,7.315468E-3,0E0,1.9857113E-4,0E0,0E0,2.6530677E-3,0E0,0E0,0E0,0E0,0E0,0E0],"parents":[2147483647,0,0,1,1,2,2,3,3,4,4,5,5,6,6,9,9,11,11,13,13,14,14,15,15,19,19,21,21,24,24],"right_children":[2,4,6,8,10,12,14,-1,-1,16,-1,18,-1,20,22,24,-1,-1,-1,26,-1,28,-1,-1,30,-1,-1,-1,-1,-1,-1],"split_conditions":[2.1831806E-1,-8.0270517E-1,8.1212246E-1,-1.3585576E0,-2.636922E-1,7.8679943E-1,9.936337E-1,1.0776607E-2,7.559812E-3,-3.2006624E-1,1.7672526E-3,5.925501E-1,4.6795528E-4,9.6658784E-1,1.2109182E0,-6.365797E-1,3.8121585E-3,-1.4142231E-3,-2.7874755E-3,8.215501E-1,-9.694561E-3,1.1114378E0,-3.2038165E-3,2.5633432E-3,-3.238872E-1,-6.5294416E-3,-2.9428157E-3,-9.537074E-4,-2.5919516E-4,-4.1698534E-3,2.1775085E-3],"split_indices":[1,1,1,1,1,1,1,0,0,1,0,1,0,1,1,1,0,0,0,1,0,1,0,0,1,0,0,0,0,0,0],"split_type":[0,0,0,0,0,0,0,0,0,0,0,0,0,0,0,0,0,0,0,0,0,0,0,0,0,0,0,0,0,0,0],"sum_hessian":[7.26E2,3.34E2,3.92E2,1.42E2,1.92E2,1.41E2,2.51E2,7.1E1,7.1E1,1.57E2,3.5E1,1.06E2,3.5E1,1.47E2,1.04E2,1.2E2,3.7E1,7.3E1,3.3E1,1.11E2,3.6E1,6.8E1,3.6E1,8.1E1,3.9E1,3.6E1,7.5E1,3.3E1,3.5E1,1E0,3.8E1],"tree_param":{"num_deleted":"0","num_feature":"3","num_nodes":"31","size_leaf_vector":"1"}},{"base_weights":[-3.3238055E-3,1.4049217E-2,-1.8351352E-2,3.0002592E-2,6.6390606E-3,-2.2211913E-2,-7.797692E-3,2.569639E-3,7.920892E-3,-2.3894524E-3,1.1068201E-2,-1.955716E-2,-7.3027695E-3,-2.42455E-3,-3.2657739E-3,4.0249332E-4,-1.3343798E-3,3.2435562E-3,8.886465E-3,-5.267871E-3,-1.3454869E-2,-1.5866554E-3,4.6839713E-4,-3.8918615E-3,9.481725E-3,-1.4939075E-2,-1.5310837E-3,2.0897458E-3,1.4046462E-3,-1.8531712E-3,-1.7348854E-2,-4.3509514E-3,-2.4486666E-3],"categories":[],"categories_nodes":[],"categories_segments":[],"categories_sizes":[],"default_left":[0,0,0,0,0,0,0,0,0,0,0,0,0,0,0,0,0,0,0,0,0,0,0,0,0,0,0,0,0,0,0,0,0],"id":26,"left_children":[1,3,5,7,9,11,13,-1,-1,15,17,19,-1,21,-1,-1,-1,-1,23,-1,25,-1,-1,-1,27,29,-1,-1,-1,-1,31,-1,-1],"loss_changes":[1.89011E-1,3.932254E-2,1.5461892E-2,1.6442016E-2,9.330238E-3,9.316757E-3,4.8256163E-3,0E0,0E0,1.4972306E-3,1.4644265E-3,9.3482435E-3,0E0,1.8226721E-3,0E0,0E0,0E0,0E0,2.2925502E-3,0E0,9.0746954E-4,0E0,0E0,0E0,1.21874735E-4,1.0866299E-3,0E0,0E0,0E0,0E0,1.0419078E-3,0E0,0E0],"parents":[2147483647,0,0,1,1,2,2,3,3,4,4,5,5,6,6,9,9,10,10,11,11,13,13,18,18,20,20,24,24,25,25,30,30],"right_children":[2,4,6,8,10,12,14,-1,-1,16,18,20,-1,22,-1,-1,-1,-1,24,-1,26,-1,-1,-1,28,30,-1,-1,-1,-1,32,-1,-1],"split_conditions":[2.1831806E-1,-1.1809889E0,9.936337E-1,-1.5265974E0,-7.950351E-1,9.6658784E-1,1.2109182E0,2.569639E-3,7.920892E-3,-8.0270517E-1,-6.365797E-1,7.8679943E-1,-7.3027695E-3,1.1114378E0,-3.2657739E-3,4.0249332E-4,-1.3343798E-3,3.2435562E-3,-3.238872E-1,-5.267871E-3,8.676403E-1,-1.5866554E-3,4.6839713E-4,-3.8918615E-3,-2.636922E-1,8.1212246E-1,-1.5310837E-3,2.0897458E-3,1.4046462E-3,-1.8531712E-3,8.215501E-1,-4.3509514E-3,-2.4486666E-3],"split_indices":[1,1,1,1,1,1,1,0,0,1,1,1,0,1,0,0,0,0,1,0,1,0,0,0,1,1,0,0,0,0,1,0,0],"split_type":[0,0,0,0,0,0,0,0,0,0,0,0,0,0,0,0,0,0,0,0,0,0,0,0,0,0,0,0,0,0,0,0,0],"sum_hessian":[7.2E2,3.34E2,3.86E2,1.04E2,2.3E2,2.81E2,1.05E2,3.9E1,6.5E1,7.6E1,1.54E2,2.41E2,4E1,6.6E1,3.9E1,3.8E1,3.8E1,4.2E1,1.12E2,1.11E2,1.3E2,3E1,3.6E1,1E0,1.11E2,1.01E2,2.9E1,7.5E1,3.6E1,3.3E1,6.8E1,3.3E1,3.5E1],"tree_param":{"num_deleted":"0","num_feature":"3","num_nodes":"33","size_leaf_vector":"1"}},{"base_weights":[-6.172013E-3,-2.8540934E-2,8.528028E-3,-3.970729E-2,-1.8179744E-2,1.1639503E-3,1.3960407E-2,-5.343186E-3,-8.582046E-3,-4.7951494E-3,-3.1166987E-3,4.2265286E-3,-3.6925483E-3,5.8459854E-3,1.0846259E-2,-1.1837123E-3,1.8381402E-3,-9.255793E-4,-5.064647E-4,7.6563065E-3,4.8880684E-3,3.416809E-3,5.357518E-3,2.4423806E-3,1.5793154E-3,3.2324958E-4,5.793004E-4],"categories":[],"categories_nodes":[],"categories_segments":[],"categories_sizes":[],"default_left":[0,0,0,0,0,0,0,0,0,0,0,0,0,0,0,0,0,0,0,0,0,0,0,0,0,0,0],"id":27,"left_children":[1,3,5,7,9,11,13,-1,-1,-1,-1,15,17,-1,19,-1,-1,-1,-1,21,-1,-1,23,25,-1,-1,-1],"loss_changes":[2.3559597E-1,3.141412E-2,1.7289434E-2,3.3246577E-3,1.5249774E-3,2.7976672E-3,1.1206266E-2,0E0,0E0,0E0,0E0,5.9004184E-3,5.5781915E-5,0E0,8.732295E-3,0E0,0E0,0E0,0E0,3.566266E-3,0E0,0E0,1.0124692E-3,1.652338E-5,0E0,0E0,0E0],"parents":[2147483647,0,0,1,1,2,2,3,3,4,4,5,5,6,6,11,11,12,12,14,14,19,19,22,22,23,23],"right_children":[2,4,6,8,10,12,14,-1,-1,-1,-1,16,18,-1,20,-1,-1,-1,-1,22,-1,-1,24,26,-1,-1,-1],"split_conditions":[-2.6264974E-1,-8.0184746E-1,8.135337E-1,-1.5259879E0,-7.9417485E-1,5.938861E-1,8.2296455E-1,-5.343186E-3,-8.582046E-3,-4.7951494E-3,-3.1166987E-3,2.1952575E-1,7.88202E-1,5.8459854E-3,1.2124661E0,-1.1837123E-3,1.8381402E-3,-9.255793E-4,-5.064647E-4,8.690706E-1,4.8880684E-3,3.416809E-3,9.951072E-1,9.68052E-1,1.5793154E-3,3.2324958E-4,5.793004E-4],"split_indices":[0,0,0,0,0,0,0,0,0,0,0,0,0,0,0,0,0,0,0,0,0,0,0,0,0,0,0],"split_type":[0,0,0,0,0,0,0,0,0,0,0,0,0,0,0,0,0,0,0,0,0,0,0,0,0,0,0],"sum_hessian":[7.13E2,2.82E2,4.31E2,1.33E2,1.49E2,1.84E2,2.47E2,3E1,1.03E2,4.1E1,1.08E2,1.13E2,7.1E1,3.9E1,2.08E2,3.7E1,7.6E1,3.6E1,3.5E1,1.71E2,3.7E1,3.1E1,1.4E2,6.7E1,7.3E1,2.7E1,4E1],"tree_param":{"num_deleted":"0","num_feature":"3","num_nodes":"27","size_leaf_vector":"1"}},{"base_weights":[2.9463016E-3,3.9759133E-2,-6.316202E-3,4.811288E-2,3.1457584E-2,6.6401185E-3,-1.606453E-2,7.105008E-3,1.2431458E-2,4.8557967E-3,7.441409E-3,8.995099E-3,5.293074E-4,-2.1363353E-2,-6.369794E-3,2.6231408E-3,7.7862153E-3,-2.1682507E-3,2.5038738E-3,-1.324755E-2,-2.520145E-2,4.820661E-5,-3.566561E-3,7.0598037E-3,1.9165576E-3,-3.4497713E-3,-1.7276608E-3,-6.4295353E-3,-2.2523182E-2,5.471661E-4,-4.890227E-4,8.582669E-3,8.3051034E-4,-1.920475E-2,-5.3856457E-3,6.0374946E-3,2.2626088E-3,-4.459712E-3,-3.1177325E-3,1.5018928E-3,-3.4246207E-3],"categories":[],"categories_nodes":[],"categories_segments":[],"categories_sizes":[],"default_left":[0,0,0,0,0,0,0,0,0,0,0,0,0,0,0,0,0,0,0,0,0,0,0,0,0,0,0,0,0,0,0,0,0,0,0,0,0,0,0,0,0],"id":28,"left_children":[1,3,5,7,9,11,13,-1,-1,-1,-1,15,17,19,21,-1,23,-1,-1,25,27,29,-1,31,-1,-1,-1,-1,33,-1,-1,35,-1,37,-1,39,-1,-1,-1,-1,-1],"loss_changes":[2.4089245E-1,6.8205297E-3,7.1574226E-2,7.4285567E-3,1.3713241E-3,3.5018427E-3,1.6320571E-2,0E0,0E0,0E0,0E0,6.724708E-4,9.814812E-3,5.811326E-3,8.609364E-3,0E0,4.870817E-5,0E0,0E0,1.0114517E-3,1.1378005E-3,5.29364E-4,0E0,4.0687434E-4,0E0,0E0,0E0,0E0,5.298108E-4,0E0,0E0,3.4289528E-4,0E0,6.553903E-5,0E0,1.6208383E-3,0E0,0E0,0E0,0E0,0E0],"parents":[2147483647,0,0,1,1,2,2,3,3,4,4,5,5,6,6,11,11,12,12,13,13,14,14,16,16,19,19,20,20,21,21,23,23,28,28,31,31,33,33,35,35],"right_children":[2,4,6,8,10,12,14,-1,-1,-1,-1,16,18,20,22,-1,24,-1,-1,26,28,30,-1,32,-1,-1,-1,-1,34,-1,-1,36,-1,38,-1,40,-1,-1,-1,-1,-1],"split_conditions":[-8.0270517E-1,-1.3585576E0,5.925501E-1,-1.5265974E0,-1.1809889E0,2.1831806E-1,9.936337E-1,7.105008E-3,1.2431458E-2,4.8557967E-3,7.441409E-3,-7.950351E-1,4.382363E-1,8.1212246E-1,1.2109182E0,2.6231408E-3,-2.636922E-1,-2.1682507E-3,2.5038738E-3,7.8679943E-1,8.215501E-1,1.1114378E0,-3.566561E-3,-3.2006624E-1,1.9165576E-3,-3.4497713E-3,-1.7276608E-3,-6.4295353E-3,9.6658784E-1,5.471661E-4,-4.890227E-4,-3.238872E-1,8.3051034E-4,8.676403E-1,-5.3856457E-3,-6.365797E-1,2.2626088E-3,-4.459712E-3,-3.1177325E-3,1.5018928E-3,-3.4246207E-3],"split_indices":[1,1,1,1,1,1,1,0,0,0,0,1,1,1,1,0,1,0,0,1,1,1,0,1,0,0,0,0,1,0,0,1,0,1,0,1,0,0,0,0,0],"split_type":[0,0,0,0,0,0,0,0,0,0,0,0,0,0,0,0,0,0,0,0,0,0,0,0,0,0,0,0,0,0,0,0,0,0,0,0,0,0,0,0,0],"sum_hessian":[7.03E2,1.4E2,5.63E2,6.5E1,7.5E1,2.42E2,3.21E2,3.8E1,2.7E1,3.8E1,3.7E1,1.74E2,6.8E1,2.06E2,1.15E2,3.5E1,1.39E2,3.5E1,3.3E1,6.9E1,1.37E2,7.5E1,4E1,1.06E2,3.3E1,3.4E1,3.5E1,3.2E1,1.05E2,3.6E1,3.9E1,6.7E1,3.9E1,6.6E1,3.9E1,3.8E1,2.9E1,3E1,3.6E1,3.7E1,1E0],"tree_param":{"num_deleted":"0","num_feature":"3","num_nodes":"41","size_leaf_vector":"1"}},{"base_weights":[5.333369E-3,9.710462E-3,9.5635746E-4,-6.9176927E-3,3.0441883E-3,1.513779E-2,-4.1479445E-3,5.2592894E-3,8.698571E-3,-2.4543856E-3,-3.994775E-3,6.864199E-3,1.0352304E-2,-7.1217865E-3,9.016383E-3,1.5950663E-3,5.3440756E-3,2.530551E-3,1.5041934E-3,-1.2971024E-3,-1.539474E-2,5.3640227E-3,1.5170625E-3,-3.196311E-3,1.3492822E-3,-8.069068E-3,3.9243386E-3,-4.5817043E-3,-1.1045452E-2,1.0865902E-3,-3.8233088E-4,-3.100216E-3,-3.4937805E-3,-1.6128578E-3,-2.7301952E-3,1.3110404E-3,-3.070583E-3],"categories":[],"categories_nodes":[],"categories_segments":[],"categories_sizes":[],"default_left":[0,0,0,0,0,0,0,0,0,0,0,0,0,0,0,0,0,0,0,0,0,0,0,0,0,0,0,0,0,0,0,0,0,0,0,0,0],"id":29,"left_children":[1,-1,3,-1,5,7,9,-1,11,13,-1,15,17,19,21,-1,23,-1,-1,25,27,-1,29,-1,-1,31,-1,-1,33,-1,-1,-1,35,-1,-1,-1,-1],"loss_changes":[1.3781193E-1,0E0,4.9487073E-2,0E0,5.483524E-2,1.6427971E-2,1.0515603E-2,0E0,3.1898078E-4,1.9402348E-2,0E0,4.6505127E-5,3.0469242E-4,1.23442095E-2,1.3937793E-2,0E0,1.3819579E-3,0E0,0E0,2.1990847E-2,2.9579662E-3,0E0,1.0411837E-3,0E0,0E0,3.870105E-3,0E0,0E0,3.3132173E-4,0E0,0E0,0E0,9.139201E-3,0E0,0E0,0E0,0E0],"parents":[2147483647,0,0,2,2,4,4,5,5,6,6,8,8,9,9,11,11,12,12,13,13,14,14,16,16,19,19,20,20,22,22,25,25,28,28,32,32],"right_children":[2,-1,4,-1,6,8,10,-1,12,14,-1,16,18,20,22,-1,24,-1,-1,26,28,-1,30,-1,-1,32,-1,-1,34,-1,-1,-1,36,-1,-1,-1,-1],"split_conditions":[-1.3585576E0,9.710462E-3,-1.1809889E0,-6.9176927E-3,2.1831806E-1,-7.950351E-1,1.2109182E0,5.2592894E-3,-3.2006624E-1,9.6658784E-1,-3.994775E-3,-6.365797E-1,-2.636922E-1,8.1212246E-1,9.936337E-1,1.5950663E-3,-3.238872E-1,2.530551E-3,1.5041934E-3,7.8679943E-1,8.215501E-1,5.3640227E-3,1.1114378E0,-3.196311E-3,1.3492822E-3,4.382363E-1,3.9243386E-3,-4.5817043E-3,8.676403E-1,1.0865902E-3,-3.8233088E-4,-3.100216E-3,5.925501E-1,-1.6128578E-3,-2.7301952E-3,1.3110404E-3,-3.070583E-3],"split_indices":[1,0,1,0,1,1,1,0,1,1,0,1,1,1,1,0,1,0,0,1,1,0,1,0,0,1,0,0,1,0,0,0,1,0,0,0,0],"split_type":[0,0,0,0,0,0,0,0,0,0,0,0,0,0,0,0,0,0,0,0,0,0,0,0,0,0,0,0,0,0,0,0,0,0,0,0,0],"sum_hessian":[7.27E2,6.5E1,6.62E2,3.5E1,6.27E2,2.33E2,3.94E2,8.3E1,1.5E2,3.58E2,3.6E1,7.6E1,7.4E1,2.55E2,1.03E2,3.9E1,3.7E1,3.7E1,3.7E1,1.51E2,1.04E2,2.9E1,7.4E1,1E0,3.6E1,1.15E2,3.6E1,3.5E1,6.9E1,3.4E1,4E1,4.2E1,7.3E1,3.6E1,3.3E1,4E1,3.3E1],"tree_param":{"num_deleted":"0","num_feature":"3","num_nodes":"37","size_leaf_vector":"1"}},{"base_weights":[1.6166257E-3,1.839636E-2,-1.2247532E-2,6.4106653E-3,7.829078E-3,-1.5189092E-3,-1.4662863E-2,6.6037467E-3,9.561683E-3,-8.8977703E-4,3.136228E-4,-1.7771322E-2,-5.541023E-3,1.4419592E-3,4.9802884E-3,2.4865256E-3,1.1074418E-3,-1.27031E-2,-2.8797254E-2,-2.1017657E-4,-2.0176058E-3,-2.9832243E-3,1.2648612E-3,-1.4067608E-2,-1.010803E-2,-6.9594956E-3,-4.183217E-3,-2.1061047E-3,-4.0523983E-3,-1.2103594E-3,-2.6900747E-3],"categories":[],"categories_nodes":[],"categories_segments":[],"categories_sizes":[],"default_left":[0,0,0,0,0,0,0,0,0,0,0,0,0,0,0,0,0,0,0,0,0,0,0,0,0,0,0,0,0,0,0],"id":30,"left_children":[1,3,5,-1,7,9,11,13,15,-1,-1,17,19,-1,21,-1,-1,23,25,-1,-1,-1,-1,27,29,-1,-1,-1,-1,-1,-1],"loss_changes":[1.6818182E-1,4.6689764E-2,1.0217074E-2,0E0,2.707187E-4,6.9232046E-4,8.961678E-3,4.23179E-5,7.057609E-4,0E0,0E0,1.2680031E-2,1.7142163E-3,0E0,1.2048311E-3,0E0,0E0,3.104955E-4,2.0437092E-3,0E0,0E0,0E0,0E0,1.8738154E-3,7.184283E-4,0E0,0E0,0E0,0E0,0E0,0E0],"parents":[2147483647,0,0,1,1,2,2,4,4,5,5,6,6,7,7,8,8,11,11,12,12,14,14,17,17,18,18,23,23,24,24],"right_children":[2,4,6,-1,8,10,12,14,16,-1,-1,18,20,-1,22,-1,-1,24,26,-1,-1,-1,-1,28,30,-1,-1,-1,-1,-1,-1],"split_conditions":[2.1831806E-1,-8.0270517E-1,5.925501E-1,6.4106653E-3,-3.2006624E-1,4.382363E-1,1.1114378E0,-6.365797E-1,-2.636922E-1,-8.8977703E-4,3.136228E-4,9.6658784E-1,1.2109182E0,1.4419592E-3,-3.238872E-1,2.4865256E-3,1.1074418E-3,8.215501E-1,9.936337E-1,-2.1017657E-4,-2.0176058E-3,-2.9832243E-3,1.2648612E-3,8.1212246E-1,8.676403E-1,-6.9594956E-3,-4.183217E-3,-2.1061047E-3,-4.0523983E-3,-1.2103594E-3,-2.6900747E-3],"split_indices":[1,1,1,0,1,1,1,1,1,0,0,1,1,0,1,0,0,1,1,0,0,0,0,1,1,0,0,0,0,0,0],"split_type":[0,0,0,0,0,0,0,0,0,0,0,0,0,0,0,0,0,0,0,0,0,0,0,0,0,0,0,0,0,0,0],"sum_hessian":[7.19E2,3.25E2,3.94E2,1.4E2,1.85E2,7.3E1,3.21E2,1.14E2,7.1E1,3.7E1,3.6E1,2.38E2,8.3E1,7.8E1,3.6E1,3.9E1,3.2E1,1.66E2,7.2E1,4.3E1,4E1,1E0,3.5E1,1.03E2,6.3E1,3.7E1,3.5E1,6.9E1,3.4E1,3.1E1,3.2E1],"tree_param":{"num_deleted":"0","num_feature":"3","num_nodes":"31","size_leaf_vector":"1"}},{"base_weights":[-5.1097886E-4,-1.6310163E-2,1.3162465E-2,-1.8109886E-2,-2.7722071E-3,1.16521865E-2,5.128752E-3,-1.4843754E-2,-2.206642E-2,1.4926507E-2,3.9983154E-3,-3.60647E-3,-1.4325662E-3,-4.9914815E-3,-3.549462E-3,7.0773605E-3,2.0697419E-2,1.0555928E-3,3.3618647E-4,2.2492898E-3,9.4107504E-4,3.1907111E-3,2.1817945E-2,5.1270165E-3,3.867554E-3],"categories":[],"categories_nodes":[],"categories_segments":[],"categories_sizes":[],"default_left":[0,0,0,0,0,0,0,0,0,0,0,0,0,0,0,0,0,0,0,0,0,0,0,0,0],"id":31,"left_children":[1,3,5,7,-1,9,-1,11,13,15,17,-1,-1,-1,-1,19,21,-1,-1,-1,-1,-1,23,-1,-1],"loss_changes":[1.5553837E-1,9.7014755E-4,6.678574E-3,1.7484948E-3,0E0,8.601945E-3,0E0,2.3867432E-3,1.13066286E-4,1.071414E-2,2.995578E-4,0E0,0E0,0E0,0E0,9.423983E-4,4.272908E-5,0E0,0E0,0E0,0E0,0E0,2.1535903E-5,0E0,0E0],"parents":[2147483647,0,0,1,1,2,2,3,3,5,5,7,7,8,8,9,9,10,10,15,15,16,16,22,22],"right_children":[2,4,6,8,-1,10,-1,12,14,16,18,-1,-1,-1,-1,20,22,-1,-1,-1,-1,-1,24,-1,-1],"split_conditions":[2.1952575E-1,-7.9417485E-1,1.2124661E0,-1.1802609E0,-2.7722071E-3,9.68052E-1,5.128752E-3,-1.3578904E0,-8.0184746E-1,7.88202E-1,1.1129516E0,-3.60647E-3,-1.4325662E-3,-4.9914815E-3,-3.549462E-3,4.3951938E-1,8.135337E-1,1.0555928E-3,3.3618647E-4,2.2492898E-3,9.4107504E-4,3.1907111E-3,8.2296455E-1,5.1270165E-3,3.867554E-3],"split_indices":[0,0,0,0,0,0,0,0,0,0,0,0,0,0,0,0,0,0,0,0,0,0,0,0,0],"split_type":[0,0,0,0,0,0,0,0,0,0,0,0,0,0,0,0,0,0,0,0,0,0,0,0,0],"sum_hessian":[7.16E2,3.32E2,3.84E2,1.84E2,1.48E2,3.46E2,3.8E1,1.06E2,7.8E1,2.41E2,1.05E2,7.3E1,3.3E1,4.1E1,3.7E1,1.04E2,1.37E2,6.6E1,3.9E1,3.5E1,6.9E1,3.2E1,1.05E2,3.4E1,7.1E1],"tree_param":{"num_deleted":"0","num_feature":"3","num_nodes":"25","size_leaf_vector":"1"}},{"base_weights":[3.7227194E-3,2.5815152E-2,-3.8647347E-3,5.8911094E-3,3.9769164E-3,5.1923282E-3,-7.2235106E-3,2.1649103E-3,7.99759E-3,-1.425945E-2,1.3336833E-3,1.2425645E-3,-4.0000482E-4,2.1908637E-3,9.5647125E-4,-2.0640416E-2,-1.04649E-2,6.9069364E-3,-6.7191795E-3,-3.0522887E-3,-4.970579E-3,-2.5487915E-3,-3.7806954E-3,9.5524825E-3,3.879975E-4,-4.0676046E-4,-2.2843434E-3,6.977835E-4,-1.3846844E-3,2.2060045E-3,1.5610954E-3],"categories":[],"categories_nodes":[],"categories_segments":[],"categories_sizes":[],"default_left":[0,0,0,0,0,0,0,0,0,0,0,0,0,0,0,0,0,0,0,0,0,0,0,0,0,0,0,0,0,0,0],"id":32,"left_children":[1,3,5,-1,-1,7,9,11,13,15,17,-1,-1,-1,-1,19,21,23,25,-1,-1,27,-1,29,-1,-1,-1,-1,-1,-1,-1],"loss_changes":[1.1871063E-1,2.7363002E-3,1.6137116E-2,0E0,0E0,1.1883208E-3,2.3278285E-2,1.2387204E-3,5.987114E-4,4.70113E-3,7.991811E-3,0E0,0E0,0E0,0E0,9.861477E-4,9.055334E-3,1.3426673E-3,1.5619618E-3,0E0,0E0,1.976441E-3,0E0,3.3369288E-6,0E0,0E0,0E0,0E0,0E0,0E0,0E0],"parents":[2147483647,0,0,1,1,2,2,5,5,6,6,7,7,8,8,9,9,10,10,15,15,16,16,17,17,18,18,21,21,23,23],"right_children":[2,4,6,-1,-1,8,10,12,14,16,18,-1,-1,-1,-1,20,22,24,26,-1,-1,28,-1,30,-1,-1,-1,-1,-1,-1,-1],"split_conditions":[-7.950351E-1,-1.1809889E0,2.1831806E-1,5.8911094E-3,3.9769164E-3,-3.2006624E-1,8.676403E-1,-6.365797E-1,-2.636922E-1,5.925501E-1,1.1114378E0,1.2425645E-3,-4.0000482E-4,2.1908637E-3,9.5647125E-4,4.382363E-1,8.1212246E-1,9.936337E-1,1.2109182E0,-3.0522887E-3,-4.970579E-3,7.8679943E-1,-3.7806954E-3,9.6658784E-1,3.879975E-4,-4.0676046E-4,-2.2843434E-3,6.977835E-4,-1.3846844E-3,2.2060045E-3,1.5610954E-3],"split_indices":[1,1,1,0,0,1,1,1,1,1,1,0,0,0,0,1,1,1,1,0,0,1,0,1,0,0,0,0,0,0,0],"split_type":[0,0,0,0,0,0,0,0,0,0,0,0,0,0,0,0,0,0,0,0,0,0,0,0,0,0,0,0,0,0,0],"sum_hessian":[7.05E2,1.79E2,5.26E2,1.06E2,7.3E1,1.42E2,3.84E2,7E1,7.2E1,2.1E2,1.74E2,3.5E1,3.5E1,3.5E1,3.7E1,7.5E1,1.35E2,1.03E2,7.1E1,3.7E1,3.8E1,7.1E1,6.4E1,6.6E1,3.7E1,3.7E1,3.4E1,3E1,4.1E1,3E1,3.6E1],"tree_param":{"num_deleted":"0","num_feature":"3","num_nodes":"31","size_leaf_vector":"1"}},{"base_weights":[-5.985612E-3,-5.525385E-2,3.355776E-2,-2.4882933E-2,-3.8004275E-2,3.7770957E-2,1.5250369E-2,-1.19407475E-2,-2.3831438E-2,2.9604524E-2,6.927449E-2,9.107619E-3,2.1910932E-2,-2.7241632E-2,-1.4473242E-2,4.2966906E-2,1.63986E-2,1.0670615E-1,5.77376E-3,4.1887285E-3,2.1800275E-3,6.3957213E-3,2.6879518E-3,-2.346124E-2,-6.8468186E-3,2.263546E-4,-3.117733E-3,1.0362085E-3,4.5399614E-2,1.0630899E-2,2.9902948E-2,1.2642324E-2,2.3549793E-2,2.7732374E-4,9.3163055E-4,-3.1995937E-2,-9.107988E-3,1.6346514E-2,4.3398503E-2,1.993442E-2,-1.2559042E-2,6.3625136E-3,8.385015E-4,-1.9997694E-2,-7.293167E-3,8.391738E-5,-1.9499481E-3,6.36701E-3,1.0083631E-2,1.2160077E-2,2.948954E-2,-5.0993515E-3,2.6495077E-3,-6.3298866E-3,-1.312746E-3,1.7641366E-2,1.4042984E-3,8.311014E-3,3.6260027E-3,6.7710876E-4,-7.244825E-4,1.1628509E-3,4.004006E-3],"categories":[],"categories_nodes":[],"categories_segments":[],"categories_sizes":[],"default_left":[0,0,0,0,0,0,0,0,0,0,0,0,0,0,0,0,0,0,0,0,0,0,0,0,0,0,0,0,0,0,0,0,0,0,0,0,0,0,0,0,0,0,0,0,0,0,0,0,0,0,0,0,0,0,0,0,0,0,0,0,0,0,0],"id":33,"left_children":[1,3,5,-1,7,9,11,-1,13,15,17,19,21,23,25,27,29,31,-1,33,-1,-1,-1,35,-1,-1,-1,-1,37,39,41,-1,-1,-1,-1,43,45,-1,47,49,51,-1,-1,53,-1,-1,-1,-1,-1,55,57,-1,-1,-1,59,61,-1,-1,-1,-1,-1,-1,-1],"loss_changes":[1.4005909E0,3.7230158E-1,2.9623896E-2,0E0,7.6807976E-2,7.8997016E-2,2.7921945E-3,0E0,4.317574E-3,4.4471085E-2,9.214842E-2,2.9664184E-4,2.2106897E-3,1.4335886E-3,8.533774E-4,1.1295572E-2,9.801343E-3,9.637475E-4,0E0,6.8125373E-6,0E0,0E0,0E0,9.339713E-3,0E0,0E0,0E0,0E0,1.6306192E-3,2.142828E-2,1.6480386E-3,0E0,0E0,0E0,0E0,1.2230799E-3,2.0995503E-4,0E0,6.3680857E-3,4.4827443E-3,1.0358007E-2,0E0,0E0,3.8357233E-3,0E0,0E0,0E0,0E0,0E0,9.352374E-4,2.6049726E-3,0E0,0E0,0E0,1.2219104E-4,3.017187E-4,0E0,0E0,0E0,0E0,0E0,0E0,0E0],"parents":[2147483647,0,0,1,1,2,2,4,4,5,5,6,6,8,8,9,9,10,10,11,11,12,12,13,13,14,14,15,15,16,16,17,17,19,19,23,23,28,28,29,29,30,30,35,35,36,36,38,38,39,39,40,40,43,43,49,49,50,50,54,54,55,55],"right_children":[2,4,6,-1,8,10,12,-1,14,16,18,20,22,24,26,28,30,32,-1,34,-1,-1,-1,36,-1,-1,-1,-1,38,40,42,-1,-1,-1,-1,44,46,-1,48,50,52,-1,-1,54,-1,-1,-1,-1,-1,56,58,-1,-1,-1,60,62,-1,-1,-1,-1,-1,-1,-1],"split_conditions":[-2.3719324E-1,-1.3830808E0,1.1166861E0,-2.4882933E-2,-8.1514686E-1,9.644851E-1,1.1561515E0,-1.19407475E-2,-3.2163492E-1,7.0567685E-1,1.0198712E0,1.1405984E0,1.242241E0,-3.2587865E-1,-3.1640062E-1,8.145818E-2,8.5341567E-1,9.926002E-1,5.77376E-3,1.1385207E0,2.1800275E-3,6.3957213E-3,2.6879518E-3,-5.8595526E-1,-6.8468186E-3,2.263546E-4,-3.117733E-3,1.0362085E-3,1.7050903E-1,8.444102E-1,9.2358434E-1,1.2642324E-2,2.3549793E-2,2.7732374E-4,9.3163055E-4,-8.073107E-1,-4.1889212E-1,1.6346514E-2,4.4461218E-1,8.2680756E-1,8.444108E-1,6.3625136E-3,8.385015E-4,-8.1087345E-1,-7.293167E-3,8.391738E-5,-1.9499481E-3,6.36701E-3,1.0083631E-2,8.089043E-1,8.347777E-1,-5.0993515E-3,2.6495077E-3,-6.3298866E-3,-8.075956E-1,7.905268E-1,1.4042984E-3,8.311014E-3,3.6260027E-3,6.7710876E-4,-7.244825E-4,1.1628509E-3,4.004006E-3],"split_indices":[2,2,2,0,2,2,2,0,2,2,2,2,2,2,2,2,2,2,0,2,0,0,0,2,0,0,0,0,2,2,2,0,0,0,0,2,2,0,2,2,2,0,0,2,0,0,0,0,0,2,2,0,0,0,2,2,0,0,0,0,0,0,0],"split_type":[0,0,0,0,0,0,0,0,0,0,0,0,0,0,0,0,0,0,0,0,0,0,0,0,0,0,0,0,0,0,0,0,0,0,0,0,0,0,0,0,0,0,0,0,0,0,0,0,0,0,0,0,0,0,0,0,0,0,0,0,0,0,0],"sum_hessian":[7.15E2,3.18E2,3.97E2,6.1E1,2.57E2,3.21E2,7.6E1,9.9E1,1.58E2,2.58E2,6.3E1,4.2E1,3.4E1,1.13E2,4.5E1,1.26E2,1.32E2,3.1E1,3.2E1,1.3E1,2.9E1,1.3E1,2.1E1,7.9E1,3.4E1,3E0,4.2E1,8E0,1.18E2,9.5E1,3.7E1,9E0,2.2E1,3E0,1E1,4.8E1,3.1E1,2E0,1.16E2,6.8E1,2.7E1,3.4E1,3E0,1.6E1,3.2E1,2E0,2.9E1,4.8E1,6.8E1,4E1,2.8E1,1.8E1,9E0,9E0,7E0,1.7E1,2.3E1,1.1E1,1.7E1,2E0,5E0,4E0,1.3E1],"tree_param":{"num_deleted":"0","num_feature":"3","num_nodes":"63","size_leaf_vector":"1"}},{"base_weights":[3.5803314E-4,-4.234451E-2,3.6497425E-2,-6.6638105E-2,-1.840599E-2,3.4236886E-2,1.4055736E-2,-1.7681716E-2,-9.784392E-3,-6.314733E-3,-1.737862E-2,3.8769547E-2,1.6496792E-2,-1.5983358E-3,-1.7957639E-2,3.4277692E-2,6.381298E-2,1.3442264E-2,5.406925E-3,-5.76214E-4,2.2498668E-4,-3.962084E-3,-1.3027561E-2,2.9337866E-2,4.0654313E-2,1.414184E-2,5.382719E-3,4.1878326E-3,7.849563E-3,-8.284994E-4,-1.6344873E-2,1.2770506E-2,2.7295155E-2,5.6540404E-2,2.4167323E-2,3.5703501E-3,1.9162629E-3,-3.7464276E-3,-8.647257E-3,3.0861137E-2,1.6213097E-2,6.804261E-3,6.0195018E-2,2.2155556E-3,2.6202438E-2,2.4405004E-4,7.909E-4,1.4619934E-3,-3.8487676E-3,2.422422E-2,1.0469641E-2,1.3393795E-3,3.4379747E-3,1.4793982E-2,9.099673E-3,5.298903E-3,8.511226E-4,-2.4393022E-4,7.117681E-4,2.7249916E-2,4.55454E-3,3.9975946E-3,7.056199E-3,-5.373433E-3,2.8538704E-3],"categories":[],"categories_nodes":[],"categories_segments":[],"categories_sizes":[],"default_left":[0,0,0,0,0,0,0,0,0,0,0,0,0,0,0,0,0,0,0,0,0,0,0,0,0,0,0,0,0,0,0,0,0,0,0,0,0,0,0,0,0,0,0,0,0,0,0,0,0,0,0,0,0,0,0,0,0,0,0,0,0,0,0,0,0],"id":34,"left_children":[1,3,5,7,9,11,-1,-1,-1,-1,13,15,17,19,21,23,25,27,-1,-1,-1,-1,29,31,33,-1,-1,-1,35,-1,37,-1,39,41,43,45,-1,-1,47,49,51,-1,53,-1,55,-1,-1,57,-1,59,-1,-1,-1,-1,-1,-1,-1,-1,-1,61,63,-1,-1,-1,-1],"loss_changes":[1.1312025E0,1.9294858E-1,2.5504231E-2,5.5374146E-2,1.2294203E-3,2.8954953E-2,0E0,0E0,0E0,0E0,1.4410727E-3,2.9147714E-2,1.8482357E-3,3.442787E-5,9.2706457E-4,5.7099164E-3,7.1359575E-3,2.4385154E-3,0E0,0E0,0E0,0E0,1.3088351E-3,7.2307885E-3,2.529192E-2,0E0,0E0,0E0,2.354146E-4,0E0,3.1920522E-4,0E0,4.8085004E-3,2.6600063E-4,9.1123953E-4,3.8909056E-6,0E0,0E0,1.3417506E-3,1.30080655E-2,1.4157034E-4,0E0,1.9741058E-3,0E0,7.577613E-5,0E0,0E0,5.366508E-5,0E0,4.9295314E-3,0E0,0E0,0E0,0E0,0E0,0E0,0E0,0E0,0E0,2.9637069E-3,5.040338E-3,0E0,0E0,0E0,0E0],"parents":[2147483647,0,0,1,1,2,2,3,3,4,4,5,5,10,10,11,11,12,12,13,13,14,14,15,15,16,16,17,17,22,22,23,23,24,24,28,28,30,30,32,32,33,33,34,34,35,35,38,38,39,39,40,40,42,42,44,44,47,47,49,49,59,59,60,60],"right_children":[2,4,6,8,10,12,-1,-1,-1,-1,14,16,18,20,22,24,26,28,-1,-1,-1,-1,30,32,34,-1,-1,-1,36,-1,38,-1,40,42,44,46,-1,-1,48,50,52,-1,54,-1,56,-1,-1,58,-1,60,-1,-1,-1,-1,-1,-1,-1,-1,-1,62,64,-1,-1,-1,-1],"split_conditions":[8.145818E-2,-8.1514686E-1,1.242241E0,-1.3830808E0,-8.075956E-1,1.020234E0,1.4055736E-2,-1.7681716E-2,-9.784392E-3,-6.314733E-3,-8.073106E-1,9.920947E-1,1.1561515E0,-8.073107E-1,-3.0362037E-1,8.2680756E-1,1.0198712E0,1.1166861E0,5.406925E-3,-5.76214E-4,2.2498668E-4,-3.962084E-3,-2.6441917E-1,2.0338716E-1,8.444108E-1,1.414184E-2,5.382719E-3,4.1878326E-3,1.1405984E0,-8.284994E-4,-2.3719324E-1,1.2770506E-2,7.0567685E-1,8.347777E-1,8.5341567E-1,1.1385207E0,1.9162629E-3,-3.7464276E-3,-4.0236667E-2,6.1043304E-1,7.905268E-1,6.804261E-3,8.444102E-1,2.2155556E-3,9.886865E-1,2.4405004E-4,7.909E-4,-8.757299E-2,-3.8487676E-3,5.2496564E-1,1.0469641E-2,1.3393795E-3,3.4379747E-3,1.4793982E-2,9.099673E-3,5.298903E-3,8.511226E-4,-2.4393022E-4,7.117681E-4,4.0582E-1,6.076258E-1,3.9975946E-3,7.056199E-3,-5.373433E-3,2.8538704E-3],"split_indices":[2,2,2,2,2,2,0,0,0,0,2,2,2,2,2,2,2,2,0,0,0,0,2,2,2,0,0,0,2,0,2,0,2,2,2,2,0,0,2,2,2,0,2,0,2,0,0,2,0,2,0,0,0,0,0,0,0,0,0,2,2,0,0,0,0],"split_type":[0,0,0,0,0,0,0,0,0,0,0,0,0,0,0,0,0,0,0,0,0,0,0,0,0,0,0,0,0,0,0,0,0,0,0,0,0,0,0,0,0,0,0,0,0,0,0,0,0,0,0,0,0,0,0,0,0,0,0,0,0,0,0,0,0],"sum_hessian":[7.29E2,3.34E2,3.95E2,1.64E2,1.7E2,3.74E2,2.1E1,7E1,9.4E1,8E0,1.62E2,2.96E2,7.8E1,6E0,1.56E2,2.55E2,4.1E1,6.4E1,1.4E1,4E0,2E0,1.09E2,4.7E1,1.5E2,1.05E2,3.3E1,8E0,2.5E1,3.9E1,1.4E1,3.3E1,5E0,1.45E2,5.1E1,5.4E1,1.3E1,2.6E1,2.3E1,1E1,1.07E2,3.8E1,1E1,4.1E1,9E0,4.5E1,3E0,1E1,6E0,4E0,8.5E1,2.2E1,5E0,3.3E1,1.7E1,2.4E1,4.4E1,1E0,3E0,3E0,7.3E1,1.2E1,4.2E1,3.1E1,2E0,1E1],"tree_param":{"num_deleted":"0","num_feature":"3","num_nodes":"65","size_leaf_vector":"1"}},{"base_weights":[-3.5288063E-4,-3.0326001E-2,2.6009904E-2,-6.30396E-2,-1.6725952E-2,2.3717536E-2,1.2439769E-2,-1.7422466E-2,-5.174935E-2,-3.6792625E-3,-1.0286661E-2,2.634625E-2,1.6294124E-2,-7.463348E-3,-5.697029E-2,-8.725552E-3,-4.481507E-3,2.3819681E-2,3.0165022E-2,1.43175535E-2,4.6843016E-3,-6.3073705E-3,5.8449795E-3,-1.3610085E-2,-8.5729705E-3,-1.0379294E-2,9.7423187E-4,2.9140107E-2,7.5091403E-3,4.552402E-2,2.260926E-2,1.8594118E-2,7.1456535E-3,-5.699067E-3,-2.7442174E-3,2.193228E-2,6.5472983E-3,-1.3323128E-4,7.92037E-3,5.6613847E-3,1.0205349E-2,1.9479843E-2,7.5605474E-3,6.748597E-4,3.7520442E-3,2.6919742E-3,1.7423535E-3,-1.7678014E-3,-1.923882E-3,8.474204E-3,3.75142E-3,1.0414278E-2,1.1680945E-3,2.0576626E-2,2.2015274E-3,-2.1504563E-4,6.459886E-4,1.3993382E-4,-5.056208E-4,4.3613612E-4,2.2442667E-3,3.2617957E-3,4.8273196E-3,-1.0154427E-3,1.6759009E-3],"categories":[],"categories_nodes":[],"categories_segments":[],"categories_sizes":[],"default_left":[0,0,0,0,0,0,0,0,0,0,0,0,0,0,0,0,0,0,0,0,0,0,0,0,0,0,0,0,0,0,0,0,0,0,0,0,0,0,0,0,0,0,0,0,0,0,0,0,0,0,0,0,0,0,0,0,0,0,0,0,0,0,0,0,0],"id":35,"left_children":[1,3,5,7,9,11,-1,-1,13,-1,15,17,19,21,23,25,-1,27,29,31,-1,-1,-1,-1,-1,33,-1,35,37,39,41,43,45,47,-1,49,-1,-1,51,-1,-1,53,-1,-1,-1,55,-1,-1,57,-1,-1,59,-1,61,63,-1,-1,-1,-1,-1,-1,-1,-1,-1,-1],"loss_changes":[5.7919544E-1,1.5049413E-1,2.9403359E-2,1.8162727E-2,2.2567287E-3,6.3616186E-3,0E0,0E0,1.6028285E-2,0E0,6.4967433E-4,1.1680275E-3,7.662773E-4,1.06754685E-2,4.324928E-3,1.2703617E-3,0E0,1.4488354E-2,9.546362E-3,2.3413096E-3,0E0,0E0,0E0,0E0,0E0,5.787015E-4,0E0,1.9079819E-3,1.6183942E-4,4.8153102E-5,1.9030347E-3,4.8521906E-6,1.9722024E-4,2.3862818E-4,0E0,1.5904214E-3,0E0,0E0,1.0139565E-4,0E0,0E0,1.1032857E-3,0E0,0E0,0E0,3.126551E-5,0E0,0E0,2.4145367E-5,0E0,0E0,6.402412E-5,0E0,1.0908395E-4,3.548964E-4,0E0,0E0,0E0,0E0,0E0,0E0,0E0,0E0,0E0,0E0],"parents":[2147483647,0,0,1,1,2,2,3,3,4,4,5,5,8,8,10,10,11,11,12,12,13,13,14,14,15,15,17,17,18,18,19,19,25,25,27,27,28,28,29,29,30,30,31,31,32,32,33,33,35,35,38,38,41,41,45,45,48,48,51,51,53,53,54,54],"right_children":[2,4,6,8,10,12,-1,-1,14,-1,16,18,20,22,24,26,-1,28,30,32,-1,-1,-1,-1,-1,34,-1,36,38,40,42,44,46,48,-1,50,-1,-1,52,-1,-1,54,-1,-1,-1,56,-1,-1,58,-1,-1,60,-1,62,64,-1,-1,-1,-1,-1,-1,-1,-1,-1,-1],"split_conditions":[8.145818E-2,-1.3752102E0,1.242241E0,-2.2667727E0,-3.2195723E-1,9.926002E-1,1.2439769E-2,-1.7422466E-2,-1.5547729E0,-3.6792625E-3,-4.0236667E-2,8.2680756E-1,1.1561515E0,-2.1355577E0,-1.3830808E0,-2.3719324E-1,-4.481507E-3,7.0567685E-1,8.444102E-1,1.1166861E0,4.6843016E-3,-6.3073705E-3,5.8449795E-3,-1.3610085E-2,-8.5729705E-3,-2.6441917E-1,9.7423187E-4,2.7925342E-1,7.6007247E-1,8.347777E-1,9.886865E-1,9.9260026E-1,1.1405982E0,-2.7535686E-1,-2.7442174E-3,1.7050903E-1,6.5472983E-3,-1.3323128E-4,8.089043E-1,5.6613847E-3,1.0205349E-2,9.2358434E-1,7.5605474E-3,6.748597E-4,3.7520442E-3,1.1385207E0,1.7423535E-3,-1.7678014E-3,-2.6488566E-1,8.474204E-3,3.75142E-3,7.905268E-1,1.1680945E-3,8.894127E-1,9.644851E-1,-2.1504563E-4,6.459886E-4,1.3993382E-4,-5.056208E-4,4.3613612E-4,2.2442667E-3,3.2617957E-3,4.8273196E-3,-1.0154427E-3,1.6759009E-3],"split_indices":[2,2,2,2,2,2,0,0,2,0,2,2,2,2,2,2,0,2,2,2,0,0,0,0,0,2,0,2,2,2,2,2,2,2,0,2,0,0,2,0,0,2,0,0,0,2,0,0,2,0,0,2,0,2,2,0,0,0,0,0,0,0,0,0,0],"split_type":[0,0,0,0,0,0,0,0,0,0,0,0,0,0,0,0,0,0,0,0,0,0,0,0,0,0,0,0,0,0,0,0,0,0,0,0,0,0,0,0,0,0,0,0,0,0,0,0,0,0,0,0,0,0,0,0,0,0,0,0,0,0,0,0,0],"sum_hessian":[7.29E2,3.41E2,3.88E2,9.8E1,2.43E2,3.68E2,2E1,2.7E1,7.1E1,1.9E2,5.3E1,2.68E2,1E2,8E0,6.3E1,5E1,3E0,1.7E2,9.8E1,8.3E1,1.7E1,5E0,3E0,3.1E1,3.2E1,4.5E1,5E0,1.27E2,4.3E1,2.9E1,6.9E1,5E1,3.3E1,2.1E1,2.4E1,4.7E1,8E1,2E0,4.1E1,1E1,1.9E1,6.1E1,8E0,1E0,4.9E1,1E1,2.3E1,1E1,1.1E1,3E0,4.4E1,1.5E1,2.6E1,5.7E1,4E0,1E0,9E0,2E0,9E0,2E0,1.3E1,3.1E1,2.6E1,2E0,2E0],"tree_param":{"num_deleted":"0","num_feature":"3","num_nodes":"65","size_leaf_vector":"1"}},{"base_weights":[4.2025917E-3,3.40323E-5,1.2674997E-2,2.7627726E-3,-2.2751512E-3,1.580743E-2,5.9038075E-3,-3.1688919E-3,1.3218636E-2,-1.1477713E-3,-1.717557E-3,9.216049E-3,2.5132645E-2,4.34769E-4,2.0020285E-3,-2.5418887E-4,-3.8901246E-3,4.503986E-3,6.6050404E-4,-8.9255086E-4,-1.0629027E-3,4.8192223E-3,1.9378467E-3,6.860608E-3,2.6654995E-3,-1.3827818E-3,-5.3935003E-4,-1.6326694E-3,4.5414278E-4,1.675968E-3,-1.0752036E-3,-7.719931E-4,-4.948092E-4,-3.3270058E-4,1.4712187E-5],"categories":[],"categories_nodes":[],"categories_segments":[],"categories_sizes":[],"default_left":[0,0,0,0,0,0,0,0,0,0,0,0,0,0,0,0,0,0,0,0,0,0,0,0,0,0,0,0,0,0,0,0,0,0,0],"id":36,"left_children":[1,3,5,7,9,11,13,15,17,-1,19,21,23,-1,-1,-1,25,-1,-1,27,-1,-1,29,-1,-1,-1,-1,31,-1,-1,-1,33,-1,-1,-1],"loss_changes":[2.6346158E-2,3.1757548E-3,5.0310865E-3,1.4410552E-2,5.0754263E-4,9.8015815E-3,1.197113E-3,1.9407226E-4,7.5988034E-3,0E0,6.9678074E-4,1.0844921E-2,6.4471886E-3,0E0,0E0,0E0,3.4882023E-4,0E0,0E0,4.6628807E-4,0E0,0E0,3.388211E-3,0E0,0E0,0E0,0E0,1.1204457E-4,0E0,0E0,0E0,6.205796E-5,0E0,0E0,0E0],"parents":[2147483647,0,0,1,1,2,2,3,3,4,4,5,5,6,6,7,7,8,8,10,10,11,11,12,12,16,16,19,19,22,22,27,27,31,31],"right_children":[2,4,6,8,10,12,14,16,18,-1,20,22,24,-1,-1,-1,26,-1,-1,28,-1,-1,30,-1,-1,-1,-1,32,-1,-1,-1,34,-1,-1,-1],"split_conditions":[8.135337E-1,-6.3566506E-1,1.1129516E0,-8.0184746E-1,-3.190431E-1,9.68052E-1,1.2124661E0,-1.5259879E0,-7.9417485E-1,-1.1477713E-3,7.88202E-1,8.2296455E-1,9.951072E-1,4.34769E-4,2.0020285E-3,-2.5418887E-4,-1.3578904E0,4.503986E-3,6.6050404E-4,5.938861E-1,-1.0629027E-3,4.8192223E-3,8.690706E-1,6.860608E-3,2.6654995E-3,-1.3827818E-3,-5.3935003E-4,2.1952575E-1,4.5414278E-4,1.675968E-3,-1.0752036E-3,-2.6264974E-1,-4.948092E-4,-3.3270058E-4,1.4712187E-5],"split_indices":[0,0,0,0,0,0,0,0,0,0,0,0,0,0,0,0,0,0,0,0,0,0,0,0,0,0,0,0,0,0,0,0,0,0,0],"split_type":[0,0,0,0,0,0,0,0,0,0,0,0,0,0,0,0,0,0,0,0,0,0,0,0,0,0,0,0,0,0,0,0,0,0,0],"sum_hessian":[7.44E2,5E2,2.44E2,2.29E2,2.71E2,1.65E2,7.9E1,1.47E2,8.2E1,3.5E1,2.36E2,9.9E1,6.6E1,4.3E1,3.6E1,4.2E1,1.05E2,4.1E1,4.1E1,1.94E2,4.2E1,3.1E1,6.8E1,3.5E1,3.1E1,2.7E1,7.8E1,1.58E2,3.6E1,3.6E1,3.2E1,8E1,7.8E1,3.8E1,4.2E1],"tree_param":{"num_deleted":"0","num_feature":"3","num_nodes":"35","size_leaf_vector":"1"}},{"base_weights":[3.0311E-4,-3.5800196E-2,1.5138899E-2,-1.3624015E-2,-3.0079333E-2,-4.06575E-3,2.1379087E-2,-3.2699868E-2,-1.947214E-2,2.1121497E-3,-6.7509688E-3,2.6083672E-2,5.9961714E-3,-1.1289428E-2,-6.8279817E-3,-5.573392E-3,-4.967795E-3,1.2335158E-3,1.1803695E-3,-4.9787285E-3,-5.539163E-3,2.2377258E-2,5.3219553E-2,2.252641E-3,3.7284915E-3,-5.884997E-3,5.1740697E-3,-2.1298274E-3,8.9570135E-4,-5.9889676E-4,3.5178344E-4,1.9078229E-4,-7.5356676E-3,1.2657483E-2,2.157881E-2,1.227097E-2,3.3974187E-3,-7.049387E-4,7.4810917E-3,-9.739002E-5,5.043656E-4,-8.506233E-3,1.6274848E-3,2.4183005E-2,1.3928622E-2,4.3515206E-4,-3.6016465E-4,3.5699892E-3,7.54267E-5,-6.385702E-3,-2.0665226E-3,5.272305E-3,-3.0808742E-3,2.0921664E-2,1.0676934E-2,-2.3290941E-4,2.2121191E-2,-1.6067133E-3,-4.3260257E-4,2.4819663E-2,1.1443531E-2,-4.2269067E-4,9.993628E-4,4.513028E-3,1.7249584E-4,1.6102359E-2,5.788432E-3,8.117681E-3,4.0047704E-3,3.3234784E-3,1.08763E-3,2.1296677E-3,1.2622349E-3],"categories":[],"categories_nodes":[],"categories_segments":[],"categories_sizes":[],"default_left":[0,0,0,0,0,0,0,0,0,0,0,0,0,0,0,0,0,0,0,0,0,0,0,0,0,0,0,0,0,0,0,0,0,0,0,0,0,0,0,0,0,0,0,0,0,0,0,0,0,0,0,0,0,0,0,0,0,0,0,0,0,0,0,0,0,0,0,0,0,0,0,0,0],"id":37,"left_children":[1,3,5,-1,7,9,11,13,15,17,19,21,23,25,-1,27,-1,-1,29,-1,31,33,35,-1,37,-1,-1,-1,39,-1,-1,-1,41,-1,43,-1,-1,45,47,-1,-1,49,51,53,55,-1,-1,-1,-1,57,-1,-1,-1,59,-1,61,63,-1,-1,65,67,-1,-1,-1,-1,69,-1,71,-1,-1,-1,-1,-1],"loss_changes":[3.8619545E-1,3.4730494E-2,6.1412387E-2,0E0,3.785491E-3,2.1353224E-3,2.7622119E-2,3.6381185E-3,2.781407E-3,1.365907E-4,1.6809208E-3,2.7288362E-2,1.0267976E-3,9.609427E-3,0E0,4.787735E-4,0E0,0E0,9.50714E-5,0E0,1.1292337E-3,5.8594644E-3,7.937416E-3,0E0,1.1418557E-3,0E0,0E0,0E0,2.0442936E-5,0E0,0E0,0E0,6.146536E-4,0E0,4.526131E-3,0E0,0E0,1.1201446E-4,2.711953E-3,0E0,0E0,1.0041194E-4,4.1822987E-3,1.6051628E-2,8.247676E-3,0E0,0E0,0E0,0E0,1.9487436E-4,0E0,0E0,0E0,5.9344023E-3,0E0,2.9649338E-4,3.8577616E-4,0E0,0E0,3.488183E-3,1.2444328E-3,0E0,0E0,0E0,0E0,6.0929917E-5,0E0,6.217393E-5,0E0,0E0,0E0,0E0,0E0],"parents":[2147483647,0,0,1,1,2,2,4,4,5,5,6,6,7,7,8,8,9,9,10,10,11,11,12,12,13,13,15,15,18,18,20,20,21,21,22,22,24,24,28,28,32,32,34,34,37,37,38,38,41,41,42,42,43,43,44,44,49,49,53,53,55,55,56,56,59,59,60,60,65,65,67,67],"right_children":[2,4,6,-1,8,10,12,14,16,18,20,22,24,26,-1,28,-1,-1,30,-1,32,34,36,-1,38,-1,-1,-1,40,-1,-1,-1,42,-1,44,-1,-1,46,48,-1,-1,50,52,54,56,-1,-1,-1,-1,58,-1,-1,-1,60,-1,62,64,-1,-1,66,68,-1,-1,-1,-1,70,-1,72,-1,-1,-1,-1,-1],"split_conditions":[-6.850199E-1,-2.2667727E0,8.145818E-2,-1.3624015E-2,-8.1486434E-1,-3.2587865E-1,1.020234E0,-1.5547729E0,-8.073106E-1,-4.1889212E-1,-3.2201847E-1,9.9260026E-1,1.1166861E0,-2.1355577E0,-6.8279817E-3,-8.075956E-1,-4.967795E-3,1.2335158E-3,-3.4011698E-1,-4.9787285E-3,-3.2201838E-1,1.7050903E-1,1.0198712E0,2.252641E-3,1.1561515E0,-5.884997E-3,5.1740697E-3,-2.1298274E-3,-8.073107E-1,-5.9889676E-4,3.5178344E-4,1.9078229E-4,-8.757299E-2,1.2657483E-2,8.444102E-1,1.227097E-2,3.3974187E-3,1.1405947E0,1.242241E0,-9.739002E-5,5.043656E-4,-2.6441917E-1,-4.0236667E-2,8.347777E-1,8.894127E-1,4.3515206E-4,-3.6016465E-4,3.5699892E-3,7.54267E-5,-2.6488566E-1,-2.0665226E-3,5.272305E-3,-3.0808742E-3,7.0567685E-1,1.0676934E-2,8.444108E-1,9.926002E-1,-1.6067133E-3,-4.3260257E-4,2.7925342E-1,8.2680756E-1,-4.2269067E-4,9.993628E-4,4.513028E-3,1.7249584E-4,2.3081894E-1,5.788432E-3,8.089043E-1,4.0047704E-3,3.3234784E-3,1.08763E-3,2.1296677E-3,1.2622349E-3],"split_indices":[2,2,2,0,2,2,2,2,2,2,2,2,2,2,0,2,0,0,2,0,2,2,2,0,2,0,0,0,2,0,0,0,2,0,2,0,0,2,2,0,0,2,2,2,2,0,0,0,0,2,0,0,0,2,0,2,2,0,0,2,2,0,0,0,0,2,0,2,0,0,0,0,0],"split_type":[0,0,0,0,0,0,0,0,0,0,0,0,0,0,0,0,0,0,0,0,0,0,0,0,0,0,0,0,0,0,0,0,0,0,0,0,0,0,0,0,0,0,0,0,0,0,0,0,0,0,0,0,0,0,0,0,0,0,0,0,0,0,0,0,0,0,0,0,0,0,0,0,0],"sum_hessian":[7.17E2,2.08E2,5.09E2,2.8E1,1.8E2,1.25E2,3.84E2,1.41E2,3.9E1,3.8E1,8.7E1,2.93E2,9.1E1,1E1,1.31E2,1.2E1,2.7E1,5E0,3.3E1,3E0,8.4E1,2.61E2,3.2E1,2.5E1,6.6E1,7E0,3E0,6E0,6E0,3E0,3E1,2E1,6.4E1,2E0,2.59E2,2.5E1,7E0,3.1E1,3.5E1,4E0,2E0,5.8E1,6E0,1.9E2,6.9E1,8E0,2.3E1,1.3E1,2.2E1,3.1E1,2.7E1,2E0,4E0,1.74E2,1.6E1,2.6E1,4.3E1,2.1E1,1E1,1.21E2,5.3E1,2E1,6E0,4.2E1,1E0,4.2E1,7.9E1,4.1E1,1.2E1,3.9E1,3E0,1.3E1,2.8E1],"tree_param":{"num_deleted":"0","num_feature":"3","num_nodes":"73","size_leaf_vector":"1"}},{"base_weights":[2.6320582E-3,3.995865E-2,-2.8168375E-2,6.9250405E-2,2.6587665E-2,-2.6788525E-2,-7.991246E-3,1.5909469E-2,9.708103E-3,7.889959E-3,1.9226665E-2,-2.9011726E-2,-1.354844E-3,2.1569034E-2,2.006019E-3,-2.3173446E-2,-3.3814088E-2,5.2352804E-3,1.8357886E-2,-2.9816253E-2,-9.2144974E-4,-9.8282695E-3,-2.9704683E-2,-1.5829444E-3,3.780933E-3,-4.5495904E-3,-3.3073645E-2,-3.1837095E-3,-6.810482E-3,-8.137792E-3,-4.703442E-3],"categories":[],"categories_nodes":[],"categories_segments":[],"categories_sizes":[],"default_left":[0,0,0,0,0,0,0,0,0,0,0,0,0,0,0,0,0,0,0,0,0,0,0,0,0,0,0,0,0,0,0],"id":38,"left_children":[1,3,5,7,9,11,-1,-1,-1,-1,13,15,-1,17,-1,19,21,-1,23,25,-1,-1,27,-1,-1,-1,29,-1,-1,-1,-1],"loss_changes":[8.6220807E-1,1.2909019E-1,4.5443177E-3,1.4668584E-2,2.0827055E-2,1.6248375E-2,0E0,0E0,0E0,0E0,2.884753E-3,7.853448E-3,0E0,8.291006E-4,0E0,1.9211657E-2,8.418009E-3,0E0,1.4197454E-3,1.1660978E-3,0E0,0E0,7.7268034E-3,0E0,0E0,0E0,3.5443604E-3,0E0,0E0,0E0,0E0],"parents":[2147483647,0,0,1,1,2,2,3,3,4,4,5,5,10,10,11,11,13,13,15,15,16,16,18,18,19,19,22,22,26,26],"right_children":[2,4,6,8,10,12,-1,-1,-1,-1,14,16,-1,18,-1,20,22,-1,24,26,-1,-1,28,-1,-1,-1,30,-1,-1,-1,-1],"split_conditions":[2.1831806E-1,-1.1809889E0,1.2109182E0,-1.3585576E0,-7.950351E-1,1.1114378E0,-7.991246E-3,1.5909469E-2,9.708103E-3,7.889959E-3,-2.636922E-1,8.1212246E-1,-1.354844E-3,-6.365797E-1,2.006019E-3,7.8679943E-1,8.215501E-1,5.2352804E-3,-3.238872E-1,4.382363E-1,-9.2144974E-4,-9.8282695E-3,8.676403E-1,-1.5829444E-3,3.780933E-3,-4.5495904E-3,5.925501E-1,-3.1837095E-3,-6.810482E-3,-8.137792E-3,-4.703442E-3],"split_indices":[1,1,1,1,1,1,0,0,0,0,1,1,0,1,0,1,1,0,1,1,0,0,1,0,0,0,1,0,0,0,0],"split_type":[0,0,0,0,0,0,0,0,0,0,0,0,0,0,0,0,0,0,0,0,0,0,0,0,0,0,0,0,0,0,0],"sum_hessian":[7.46E2,3.37E2,4.09E2,1.03E2,2.34E2,3.72E2,3.7E1,6.5E1,3.8E1,8.2E1,1.52E2,3.34E2,3.8E1,1.19E2,3.3E1,1.56E2,1.78E2,4.3E1,7.6E1,1.14E2,4.2E1,3.3E1,1.45E2,1E0,7.5E1,4.1E1,7.3E1,3.7E1,1.08E2,3.7E1,3.6E1],"tree_param":{"num_deleted":"0","num_feature":"3","num_nodes":"31","size_leaf_vector":"1"}},{"base_weights":[6.0639885E-4,2.5194138E-2,-2.0192005E-2,3.4382403E-2,1.3771045E-2,-1.820709E-3,-2.1101322E-2,3.7646764E-3,3.8253702E-2,4.032587E-3,1.1242315E-2,-2.542844E-2,-1.7951965E-2,5.1920194E-2,2.6510952E-2,-1.4774164E-3,2.3086497E-3,-1.977694E-2,-8.201687E-3,-1.577899E-2,-5.4988186E-3,1.2078608E-2,8.289761E-3,4.0117255E-3,6.365487E-3,-4.6321773E-3,-2.5739348E-3,-1.9377913E-2,-3.7320884E-4,-2.619976E-3,-2.1500666E-2,-4.6999496E-3,-3.212273E-3],"categories":[],"categories_nodes":[],"categories_segments":[],"categories_sizes":[],"default_left":[0,0,0,0,0,0,0,0,0,0,0,0,0,0,0,0,0,0,0,0,0,0,0,0,0,0,0,0,0,0,0,0,0],"id":39,"left_children":[1,3,5,7,9,-1,11,-1,13,-1,15,17,19,21,23,-1,-1,25,-1,27,-1,-1,-1,-1,-1,-1,-1,29,-1,-1,31,-1,-1],"loss_changes":[3.6716965E-1,3.3584356E-2,3.5380572E-3,9.462163E-3,1.9711498E-3,0E0,3.9657056E-3,0E0,2.019605E-2,0E0,7.984368E-4,1.1233307E-2,3.569588E-3,6.7180395E-4,1.5017688E-3,0E0,0E0,1.99835E-3,0E0,8.890495E-3,0E0,0E0,0E0,0E0,0E0,0E0,0E0,1.3290793E-3,0E0,0E0,3.6510453E-4,0E0,0E0],"parents":[2147483647,0,0,1,1,2,2,3,3,4,4,6,6,8,8,10,10,11,11,12,12,13,13,14,14,17,17,19,19,27,27,30,30],"right_children":[2,4,6,8,10,-1,12,-1,14,-1,16,18,20,22,24,-1,-1,26,-1,28,-1,-1,-1,-1,-1,-1,-1,30,-1,-1,32,-1,-1],"split_conditions":[2.1831806E-1,-7.950351E-1,4.382363E-1,-1.5265974E0,-6.365797E-1,-1.820709E-3,8.215501E-1,3.7646764E-3,-1.1809889E0,4.032587E-3,-3.238872E-1,8.1212246E-1,1.2109182E0,-1.3585576E0,-8.0270517E-1,-1.4774164E-3,2.3086497E-3,7.8679943E-1,-8.201687E-3,1.1114378E0,-5.4988186E-3,1.2078608E-2,8.289761E-3,4.0117255E-3,6.365487E-3,-4.6321773E-3,-2.5739348E-3,8.676403E-1,-3.7320884E-4,-2.619976E-3,9.936337E-1,-4.6999496E-3,-3.212273E-3],"split_indices":[1,1,1,1,1,0,1,0,1,0,1,1,1,1,1,0,0,1,0,1,0,0,0,0,0,0,0,1,0,0,1,0,0],"split_type":[0,0,0,0,0,0,0,0,0,0,0,0,0,0,0,0,0,0,0,0,0,0,0,0,0,0,0,0,0,0,0,0,0],"sum_hessian":[7.14E2,3.27E2,3.87E2,1.79E2,1.48E2,3.1E1,3.56E2,3.8E1,1.41E2,3.8E1,1.1E2,1.44E2,2.12E2,6.2E1,7.9E1,1E0,1.09E2,1.09E2,3.5E1,1.77E2,3.5E1,2.9E1,3.3E1,4E1,3.9E1,7E1,3.9E1,1.4E2,3.7E1,3.9E1,1.01E2,6.9E1,3.2E1],"tree_param":{"num_deleted":"0","num_feature":"3","num_nodes":"33","size_leaf_vector":"1"}}]},"name":"gbtree"},"learner_model_param":{"base_score":"-4.229969E-3","boost_from_average":"1","num_class":"0","num_feature":"3","num_target":"1"},"objective":{"name":"reg:squarederror","reg_loss_param":{"scale_pos_weight":"1"}}},"version":[2,0,0]}