{"learner":{"attributes":{"scikit_learn":"{\"_estimator_type\": \"regressor\"}"},"feature_names":[],"feature_types":[],"gradient_booster":{"model":{"gbtree_model_param":{"num_parallel_tree":"1","num_trees":"140"},"iteration_indptr":[0,1,2,3,4,5,6,7,8,9,10,11,12,13,14,15,16,17,18,19,20,21,22,23,24,25,26,27,28,29,30,31,32,33,34,35,36,37,38,39,40,41,42,43,44,45,46,47,48,49,50,51,52,53,54,55,56,57,58,59,60,61,62,63,64,65,66,67,68,69,70,71,72,73,74,75,76,77,78,79,80,81,82,83,84,85,86,87,88,89,90,91,92,93,94,95,96,97,98,99,100,101,102,103,104,105,106,107,108,109,110,111,112,113,114,115,116,117,118,119,120,121,122,123,124,125,126,127,128,129,130,131,132,133,134,135,136,137,138,139,140],"tree_info":[0,0,0,0,0,0,0,0,0,0,0,0,0,0,0,0,0,0,0,0,0,0,0,0,0,0,0,0,0,0,0,0,0,0,0,0,0,0,0,0,0,0,0,0,0,0,0,0,0,0,0,0,0,0,0,0,0,0,0,0,0,0,0,0,0,0,0,0,0,0,0,0,0,0,0,0,0,0,0,0,0,0,0,0,0,0,0,0,0,0,0,0,0,0,0,0,0,0,0,0,0,0,0,0,0,0,0,0,0,0,0,0,0,0,0,0,0,0,0,0,0,0,0,0,0,0,0,0,0,0,0,0,0,0,0,0,0,0,0,0],"trees":[{"base_weights":[-1.6154302E-2,-9.114269E-1,7.5064915E-1,-1.3680527E0,-5.466287E-1,3.4851664E-1,1.4799271E0,-3.0995873E-1,-2.2095726E-1,-1.5157418E-1,-2.4625954E-1,9.160467E-2,5.283324E-1,5.1998343E-2,2.9700726E-1,-6.819773E-2,-1.5935747E-1,-4.358264E-2,1.4540708E-1,-6.066819E-3,1.0650343E-1,-1.6802901E-1,3.1416446E-3,-9.410442E-3,-1.2863775E-2,3.0438475E-2,3.0853063E-2,-3.497624E-2,-1.206641E-2,-8.714959E-3,1.0708348E-2,-3.06523E-3,1.0160414E-2,-3.6647182E-3,4.4700882E-4,5.120067E-5,2.6386864E-3],"categories":[],"categories_nodes":[],"categories_segments":[],"categories_sizes":[],"default_left":[0,0,0,0,0,0,0,0,0,0,0,0,0,0,0,0,0,0,0,0,0,0,0,0,0,0,0,0,0,0,0,0,0,0,0,0,0],"id":0,"left_children":[1,3,5,7,9,11,13,-1,-1,-1,15,17,19,-1,-1,-1,21,23,25,-1,-1,27,-1,-1,29,31,-1,-1,33,-1,35,-1,-1,-1,-1,-1,-1],"loss_changes":[4.9701996E2,5.414084E1,1.1334233E2,3.6090088E0,1.1618916E1,1.1637194E1,8.792114E-2,0E0,0E0,0E0,5.5812645E-1,7.9092854E-1,3.8065338E-1,0E0,0E0,0E0,7.511091E-2,2.2000559E-3,6.902695E-2,0E0,0E0,4.2801857E-2,0E0,0E0,5.276772E-3,9.012656E-3,0E0,0E0,4.398552E-4,0E0,1.2311968E-4,0E0,0E0,0E0,0E0,0E0,0E0],"parents":[2147483647,0,0,1,1,2,2,3,3,4,4,5,5,6,6,10,10,11,11,12,12,16,16,17,17,18,18,21,21,24,24,25,25,28,28,30,30],"right_children":[2,4,6,8,10,12,14,-1,-1,-1,16,18,20,-1,-1,-1,22,24,26,-1,-1,28,-1,-1,30,32,-1,-1,34,-1,36,-1,-1,-1,-1,-1,-1],"split_conditions":[-5.729062E-2,-8.523727E-1,1.4175525E0,-1.1622798E0,-3.5480255E-1,2.2278126E-1,2.8943858E-1,-3.0995873E-1,-2.2095726E-1,-1.5157418E-1,-1.8925396E-1,-4.522624E-2,-1.4885447E0,5.1998343E-2,2.9700726E-1,-6.819773E-2,-5.8170494E-2,7.246406E-2,7.246406E-2,-6.066819E-3,1.0650343E-1,4.272476E-2,3.1416446E-3,-9.410442E-3,-1.1267362E0,7.476673E-2,3.0853063E-2,-3.497624E-2,1.6753723E-1,-8.714959E-3,-7.839594E-1,-3.06523E-3,1.0160414E-2,-3.6647182E-3,4.4700882E-4,5.120067E-5,2.6386864E-3],"split_indices":[4,4,4,2,2,12,12,0,0,0,12,12,6,0,0,0,6,6,6,0,0,12,0,0,1,1,0,0,1,0,1,0,0,0,0,0,0],"split_type":[0,0,0,0,0,0,0,0,0,0,0,0,0,0,0,0,0,0,0,0,0,0,0,0,0,0,0,0,0,0,0,0,0,0,0,0,0],"sum_hessian":[7.2E2,3.32E2,3.88E2,1.45E2,1.87E2,2.52E2,1.36E2,8E1,6.5E1,1.08E2,7.9E1,1.05E2,1.47E2,1E0,1.35E2,3.5E1,4.4E1,3E1,7.5E1,1E0,1.46E2,4.2E1,2E0,2.6E1,4E0,6E0,6.9E1,4E1,2E0,1E0,3E0,2E0,4E0,1E0,1E0,1E0,2E0],"tree_param":{"num_deleted":"0","num_feature":"13","num_nodes":"37","size_leaf_vector":"1"}},{"base_weights":[-2.409947E-2,-7.443E-1,6.0549366E-1,-1.0927384E0,-4.5026305E-1,2.7095455E-1,2.3947191E-1,-2.495209E-1,-1.7957497E-1,-1.2373328E-1,-2.001788E-1,6.8742715E-2,8.616697E-2,-5.4532718E-2,-1.2323296E-1,-3.708E-2,1.20526426E-1,-2.5844825E-2,-9.041957E-3,-3.8575765E-2,1.2175504E-3,9.233994E-2,1.3720752E-1,-7.821738E-3,-1.2927093E-3,3.3469908E-3,1.8723352E-2,5.7910825E-3,2.821513E-2],"categories":[],"categories_nodes":[],"categories_segments":[],"categories_sizes":[],"default_left":[0,0,0,0,0,0,0,0,0,0,0,0,0,0,0,0,0,0,0,0,0,0,0,0,0,0,0,0,0],"id":1,"left_children":[1,3,5,7,9,11,-1,-1,-1,-1,13,15,-1,-1,17,19,21,-1,-1,23,-1,25,27,-1,-1,-1,-1,-1,-1],"loss_changes":[3.2374585E2,3.3133057E1,7.479001E1,2.316452E0,7.5014763E0,7.8938694E0,0E0,0E0,0E0,0E0,3.6225772E-1,6.172062E-1,0E0,0E0,7.4810386E-3,2.923295E-3,9.924173E-3,0E0,0E0,1.2762845E-4,0E0,1.488328E-4,9.835839E-3,0E0,0E0,0E0,0E0,0E0,0E0],"parents":[2147483647,0,0,1,1,2,2,3,3,4,4,5,5,10,10,11,11,14,14,15,15,16,16,19,19,21,21,22,22],"right_children":[2,4,6,8,10,12,-1,-1,-1,-1,14,16,-1,-1,18,20,22,-1,-1,24,-1,26,28,-1,-1,-1,-1,-1,-1],"split_conditions":[-5.729062E-2,-8.5174096E-1,1.4175525E0,-1.1628145E0,-3.5558966E-1,4.7751087E-1,2.3947191E-1,-2.495209E-1,-1.7957497E-1,-1.2373328E-1,-1.8705706E-1,7.338464E-2,8.616697E-2,-5.4532718E-2,-5.6410253E-2,1.1371324E0,1.661116E-1,-2.5844825E-2,-9.041957E-3,1.2860255E0,1.2175504E-3,1.2585641E-1,-1.1267362E0,-7.821738E-3,-1.2927093E-3,3.3469908E-3,1.8723352E-2,5.7910825E-3,2.821513E-2],"split_indices":[4,2,4,4,4,2,0,0,0,0,1,4,0,0,2,9,4,0,0,7,0,1,1,0,0,0,0,0,0],"split_type":[0,0,0,0,0,0,0,0,0,0,0,0,0,0,0,0,0,0,0,0,0,0,0,0,0,0,0,0,0],"sum_hessian":[7.1E2,3.31E2,3.79E2,1.49E2,1.82E2,2.44E2,1.35E2,7.7E1,7.2E1,1.07E2,7.5E1,1.09E2,1.35E2,3.6E1,3.9E1,3.6E1,7.3E1,3.5E1,4E0,3.5E1,1E0,3.2E1,4.1E1,3.4E1,1E0,1E0,3.1E1,2E0,3.9E1],"tree_param":{"num_deleted":"0","num_feature":"13","num_nodes":"29","size_leaf_vector":"1"}},{"base_weights":[-9.262293E-3,-5.948896E-1,4.8710313E-1,-8.813713E-1,-3.636747E-1,2.2863173E-1,1.9277106E-1,-2.0171037E-1,-1.4391808E-1,-4.8263824E-1,-1.750108E-1,5.5485573E-2,3.474425E-1,-1.04709506E-1,-7.422228E-2,-4.4706192E-2,-1.1047383E-1,-2.2150537E-2,9.937285E-2,6.107989E-2,7.7041715E-2,-2.3203243E-2,-6.741004E-3,-5.958525E-3,6.3435085E-2,1.5325717E-2,2.270439E-2,-2.8176063E-3,1.0200053E-3,1.1363801E-3,1.5779642E-2],"categories":[],"categories_nodes":[],"categories_segments":[],"categories_sizes":[],"default_left":[0,0,0,0,0,0,0,0,0,0,0,0,0,0,0,0,0,0,0,0,0,0,0,0,0,0,0,0,0,0,0],"id":2,"left_children":[1,3,5,7,9,11,-1,-1,-1,13,15,17,19,-1,-1,-1,21,23,25,-1,-1,-1,27,-1,29,-1,-1,-1,-1,-1,-1],"loss_changes":[2.148145E2,2.1813904E1,4.884999E1,1.634819E0,4.117893E0,5.3512106E0,0E0,0E0,0E0,1.4066124E-1,1.9172502E-1,3.757912E-1,1.08242035E-2,0E0,0E0,0E0,1.9708186E-2,3.059596E-2,5.1286817E-3,0E0,0E0,0E0,4.9168424E-4,0E0,2.6755966E-3,0E0,0E0,0E0,0E0,0E0,0E0],"parents":[2147483647,0,0,1,1,2,2,3,3,4,4,5,5,9,9,10,10,11,11,12,12,16,16,17,17,18,18,22,22,24,24],"right_children":[2,4,6,8,10,12,-1,-1,-1,14,16,18,20,-1,-1,-1,22,24,26,-1,-1,-1,28,-1,30,-1,-1,-1,-1,-1,-1],"split_conditions":[-5.729062E-2,-8.520568E-1,1.3716085E0,-1.1625471E0,-3.5796708E-1,2.2278126E-1,1.9277106E-1,-2.0171037E-1,-1.4391808E-1,-6.806668E-1,-1.8925396E-1,7.384518E-2,5.515761E-1,-1.04709506E-1,-7.422228E-2,-4.4706192E-2,4.272476E-2,4.272476E-2,1.6658662E-1,6.107989E-2,7.7041715E-2,-2.3203243E-2,1.6753723E-1,-5.958525E-3,7.338464E-2,1.5325717E-2,2.270439E-2,-2.8176063E-3,1.0200053E-3,1.1363801E-3,1.5779642E-2],"split_indices":[4,3,12,3,12,12,0,0,0,4,12,3,12,0,0,0,12,12,3,0,0,0,1,0,4,0,0,0,0,0,0],"split_type":[0,0,0,0,0,0,0,0,0,0,0,0,0,0,0,0,0,0,0,0,0,0,0,0,0,0,0,0,0,0,0],"sum_hessian":[7.35E2,3.37E2,3.98E2,1.48E2,1.89E2,2.6E2,1.38E2,7.7E1,7.1E1,1.14E2,7.5E1,1.07E2,1.53E2,7.8E1,3.6E1,4E1,3.5E1,3.9E1,6.8E1,8.1E1,7.2E1,3.3E1,2E0,3.7E1,2E0,3.1E1,3.7E1,1E0,1E0,1E0,1E0],"tree_param":{"num_deleted":"0","num_feature":"13","num_nodes":"31","size_leaf_vector":"1"}},{"base_weights":[-9.081598E-3,-4.3289286E-1,4.421256E-1,-6.171908E-1,-1.5051591E-1,2.1268286E-1,1.5370029E-1,-1.613804E-1,-5.050799E-1,-2.499728E-1,-5.740033E-2,8.09605E-2,2.7355266E-1,-1.1557358E-1,-8.514091E-2,-6.0027596E-2,-3.5840314E-2,-1.893819E-2,-2.2643272E-2,-7.1690897E-3,8.565746E-2,4.1271623E-2,5.847576E-2,-2.356119E-2,1.0606215E-3,6.095051E-2,2.0670392E-2,-2.448415E-2,9.5200504E-4,2.1021436E-3,1.2379899E-2,-3.3146627E-3,-2.822122E-2,-5.778259E-3,-8.0929365E-4],"categories":[],"categories_nodes":[],"categories_segments":[],"categories_sizes":[],"default_left":[0,0,0,0,0,0,0,0,0,0,0,0,0,0,0,0,0,0,0,0,0,0,0,0,0,0,0,0,0,0,0,0,0,0,0],"id":3,"left_children":[1,3,5,7,9,11,-1,-1,13,15,17,19,21,-1,-1,-1,-1,-1,23,-1,25,-1,-1,27,-1,29,-1,31,-1,-1,-1,-1,33,-1,-1],"loss_changes":[1.3462393E2,1.8705261E1,2.5208748E1,3.842743E0,1.3234069E0,1.5833426E0,0E0,0E0,3.3419037E-1,1.4094734E-1,9.680855E-2,4.289934E-2,5.3902626E-2,0E0,0E0,0E0,0E0,0E0,1.3529528E-3,0E0,1.5817791E-2,0E0,0E0,1.33094E-3,0E0,2.3050606E-4,0E0,2.7665868E-4,0E0,0E0,0E0,0E0,1.7115846E-4,0E0,0E0],"parents":[2147483647,0,0,1,1,2,2,3,3,4,4,5,5,8,8,9,9,10,10,11,11,12,12,18,18,20,20,23,23,25,25,27,27,32,32],"right_children":[2,4,6,8,10,12,-1,-1,14,16,18,20,22,-1,-1,-1,-1,-1,24,-1,26,-1,-1,28,-1,30,-1,32,-1,-1,-1,-1,34,-1,-1],"split_conditions":[7.338464E-2,-6.806668E-1,1.4175525E0,-1.1628145E0,-2.772992E-1,2.398501E-1,1.5370029E-1,-1.613804E-1,-8.523727E-1,-3.5558966E-1,-5.7100512E-2,-8.587056E-1,5.216521E-1,-1.1557358E-1,-8.514091E-2,-6.0027596E-2,-3.5840314E-2,-1.893819E-2,1.1371324E0,-7.1690897E-3,1.661116E-1,4.1271623E-2,5.847576E-2,4.102787E-1,1.0606215E-3,1.2538755E-1,2.0670392E-2,-5.573277E-2,9.5200504E-4,2.1021436E-3,1.2379899E-2,-3.3146627E-3,5.651078E-1,-5.778259E-3,-8.0929365E-4],"split_indices":[4,4,4,4,12,11,0,0,4,4,12,11,2,0,0,0,0,0,9,0,4,0,0,11,0,2,0,9,0,0,0,0,9,0,0],"split_type":[0,0,0,0,0,0,0,0,0,0,0,0,0,0,0,0,0,0,0,0,0,0,0,0,0,0,0,0,0,0,0,0,0,0,0],"sum_hessian":[7E2,3.61E2,3.39E2,2.17E2,1.44E2,2.01E2,1.38E2,7.6E1,1.41E2,6.8E1,7.6E1,6.5E1,1.36E2,6.7E1,7.4E1,3.6E1,3.2E1,3.5E1,4.1E1,2E0,6.3E1,3.5E1,1.01E2,4E1,1E0,3E1,3.3E1,3.9E1,1E0,1E0,2.9E1,1.6E1,2.3E1,2.2E1,1E0],"tree_param":{"num_deleted":"0","num_feature":"13","num_nodes":"35","size_leaf_vector":"1"}},{"base_weights":[-6.8990523E-3,-3.54494E-1,3.4679872E-1,-5.3452635E-1,-1.6411959E-1,1.6546719E-1,6.183658E-1,-1.3116261E-1,-8.7724976E-2,-5.651285E-2,-8.010216E-2,5.9086133E-2,4.4580884E-2,3.7273984E-2,1.2505114E-1,-1.11203715E-1,-2.2563485E-2,-2.0373898E-2,6.525582E-2,-2.7796552E-2,-1.521325E-2,-2.6190374E-2,1.4995328E-3,-7.98237E-3,3.4060248E-3,6.632482E-2,-6.3829817E-4,-4.2345E-3,-8.509922E-3,1.2801046E-3,-1.0752942E-3,-1.0978235E-3,2.5991062E-3,1.0385708E-2,1.5271562E-2],"categories":[],"categories_nodes":[],"categories_segments":[],"categories_sizes":[],"default_left":[0,0,0,0,0,0,0,0,0,0,0,0,0,0,0,0,0,0,0,0,0,0,0,0,0,0,0,0,0,0,0,0,0,0,0],"id":4,"left_children":[1,3,5,7,9,11,13,-1,-1,-1,15,17,-1,-1,-1,19,21,23,25,-1,-1,27,29,-1,31,33,-1,-1,-1,-1,-1,-1,-1,-1,-1],"loss_changes":[8.532282E1,1.182029E1,1.6735191E1,1.5067406E0,1.6763268E0,1.2506971E0,1.7470932E-1,0E0,0E0,0E0,1.8109411E-1,3.991756E-2,0E0,0E0,0E0,4.4253826E-2,3.4822281E-3,3.5241588E-3,5.618453E-3,0E0,0E0,9.892453E-4,3.0471905E-4,0E0,5.6916807E-4,2.180338E-3,0E0,0E0,0E0,0E0,0E0,0E0,0E0,0E0,0E0],"parents":[2147483647,0,0,1,1,2,2,3,3,4,4,5,5,6,6,10,10,11,11,15,15,16,16,17,17,18,18,21,21,22,22,24,24,25,25],"right_children":[2,4,6,8,10,12,14,-1,-1,-1,16,18,-1,-1,-1,20,22,24,26,-1,-1,28,30,-1,32,34,-1,-1,-1,-1,-1,-1,-1,-1,-1],"split_conditions":[7.292427E-2,-8.090107E-1,1.4168825E0,-1.1630821E0,-3.5598314E-1,2.8943858E-1,-1.8839356E-1,-1.3116261E-1,-8.7724976E-2,-5.651285E-2,-1.6045882E-1,-3.5796708E-1,4.4580884E-2,3.7273984E-2,1.2505114E-1,-1.883163E-1,4.272476E-2,-1.1264638E0,4.7855923E-1,-2.7796552E-2,-1.521325E-2,7.522775E-2,7.338464E-2,-7.98237E-3,-7.836332E-1,1.661116E-1,-6.3829817E-4,-4.2345E-3,-8.509922E-3,1.2801046E-3,-1.0752942E-3,-1.0978235E-3,2.5991062E-3,1.0385708E-2,1.5271562E-2],"split_indices":[5,12,5,5,5,12,10,0,0,0,12,12,0,0,0,4,12,0,0,0,0,0,4,0,0,4,0,0,0,0,0,0,0,0,0],"split_type":[0,0,0,0,0,0,0,0,0,0,0,0,0,0,0,0,0,0,0,0,0,0,0,0,0,0,0,0,0,0,0,0,0,0,0],"sum_hessian":[6.9E2,3.48E2,3.42E2,1.77E2,1.71E2,2.07E2,1.35E2,7.3E1,1.04E2,6.9E1,1.02E2,7.4E1,1.33E2,3E0,1.32E2,6.5E1,3.7E1,5E0,6.9E1,3.3E1,3.2E1,3.2E1,5E0,2E0,3E0,6.8E1,1E0,2.8E1,4E0,3E0,2E0,2E0,1E0,3.3E1,3.5E1],"tree_param":{"num_deleted":"0","num_feature":"13","num_nodes":"35","size_leaf_vector":"1"}},{"base_weights":[-1.1104732E-2,-3.108672E-1,2.503649E-1,-4.630341E-1,-1.8922555E-1,1.11003235E-1,4.9617365E-1,-1.205351E-1,-8.0658704E-2,-2.5645858E-1,-8.911736E-2,2.7264474E-2,1.789479E-1,4.243477E-2,1.0073195E-1,-5.5191863E-2,-3.9991844E-2,-2.3353947E-2,-6.053539E-2,-1.5644915E-2,5.2133568E-2,2.7587786E-2,3.8297564E-2,-1.2693367E-2,-2.2037607E-4,-7.184133E-3,-1.2903627E-2,5.1034577E-3,1.08060865E-2,8.031977E-4,-8.6196465E-4,-3.531031E-3,2.069867E-2,-4.730407E-4,1.6306449E-3,-9.880409E-4,7.1976422E-3],"categories":[],"categories_nodes":[],"categories_segments":[],"categories_sizes":[],"default_left":[0,0,0,0,0,0,0,0,0,0,0,0,0,0,0,0,0,0,0,0,0,0,0,0,0,0,0,0,0,0,0,0,0,0,0,0,0],"id":5,"left_children":[1,3,5,7,9,11,13,-1,-1,15,17,19,21,-1,-1,-1,-1,-1,23,25,27,-1,-1,-1,29,-1,31,33,-1,-1,-1,-1,35,-1,-1,-1,-1],"loss_changes":[5.619649E1,6.0070496E0,1.3010019E1,7.4020386E-1,1.2263684E0,1.3955736E0,7.966614E-2,0E0,0E0,1.3038158E-2,4.830098E-2,1.2221555E-1,1.7110825E-2,0E0,0E0,0E0,0E0,0E0,7.574871E-3,1.4629979E-3,5.871594E-3,0E0,0E0,0E0,1.0391395E-4,0E0,7.277029E-3,1.5245649E-4,0E0,0E0,0E0,0E0,2.7076176E-3,0E0,0E0,0E0,0E0],"parents":[2147483647,0,0,1,1,2,2,3,3,4,4,5,5,6,6,9,9,10,10,11,11,12,12,18,18,19,19,20,20,24,24,26,26,27,27,32,32],"right_children":[2,4,6,8,10,12,14,-1,-1,16,18,20,22,-1,-1,-1,-1,-1,24,26,28,-1,-1,-1,30,-1,32,34,-1,-1,-1,-1,36,-1,-1,-1,-1],"split_conditions":[-5.773062E-2,-8.590261E-1,1.4168825E0,-1.4874617E0,-5.6401074E-1,2.2278126E-1,5.723736E-1,-1.205351E-1,-8.0658704E-2,-6.806668E-1,-1.8925396E-1,3.3487577E-4,5.2218306E-1,4.243477E-2,1.0073195E-1,-5.5191863E-2,-3.9991844E-2,-2.3353947E-2,5.0282836E-1,-1.1267362E0,1.2445035E-1,2.7587786E-2,3.8297564E-2,-1.2693367E-2,-1.883163E-1,-7.184133E-3,7.292427E-2,4.272476E-2,1.08060865E-2,8.031977E-4,-8.6196465E-4,-3.531031E-3,-7.839594E-1,-4.730407E-4,1.6306449E-3,-9.880409E-4,7.1976422E-3],"split_indices":[5,12,5,1,12,12,1,0,0,4,12,12,1,0,0,0,0,0,11,1,4,0,0,0,4,0,5,12,0,0,0,0,1,0,0,0,0],"split_type":[0,0,0,0,0,0,0,0,0,0,0,0,0,0,0,0,0,0,0,0,0,0,0,0,0,0,0,0,0,0,0,0,0,0,0,0,0],"sum_hessian":[7.13E2,3.32E2,3.81E2,1.45E2,1.87E2,2.45E2,1.36E2,3.8E1,1.07E2,1.1E2,7.7E1,1.11E2,1.34E2,5E0,1.31E2,7.6E1,3.4E1,3.6E1,4.1E1,4.1E1,7E1,3.7E1,9.7E1,3.9E1,2E0,2E0,3.9E1,3E0,6.7E1,1E0,1E0,3.5E1,4E0,1E0,2E0,2E0,2E0],"tree_param":{"num_deleted":"0","num_feature":"13","num_nodes":"37","size_leaf_vector":"1"}},{"base_weights":[-8.1723824E-4,-2.4823359E-1,1.982649E-1,-3.7350872E-1,-1.5274554E-1,8.779384E-2,4.0481347E-1,-9.7295105E-2,-3.269656E-1,-2.0314501E-1,-6.702222E-2,1.411508E-2,1.4400151E-1,6.8910144E-2,9.081124E-2,-6.596365E-2,-1.857596E-2,-4.417797E-2,-3.162953E-2,-7.194016E-2,2.5687026E-2,-1.5107277E-2,3.696055E-2,1.2100228E-1,3.244815E-2,-1.8071888E-2,-9.749471E-3,-8.189894E-4,7.035999E-3,-1.3616516E-2,-1.1324468E-2,3.8343485E-2,-2.9551908E-3,3.5934194E-3,2.4686558E-2,-1.7818054E-2,2.221699E-2,1.1609105E-3,7.7373195E-3,-2.4349312E-3,1.6468803E-3,-1.40161915E-2,-6.673172E-3,1.3985448E-4,5.633024E-3,-2.8751849E-3,-7.5410074E-4],"categories":[],"categories_nodes":[],"categories_segments":[],"categories_sizes":[],"default_left":[0,0,0,0,0,0,0,0,0,0,0,0,0,0,0,0,0,0,0,0,0,0,0,0,0,0,0,0,0,0,0,0,0,0,0,0,0,0,0,0,0,0,0,0,0,0,0],"id":6,"left_children":[1,3,5,7,9,11,13,-1,15,17,19,21,23,-1,-1,-1,-1,-1,-1,25,27,29,31,33,-1,-1,-1,-1,-1,-1,35,37,39,-1,-1,41,43,-1,-1,-1,-1,45,-1,-1,-1,-1,-1],"loss_changes":[3.457775E1,3.6300907E0,8.804981E0,3.8642883E-1,7.547636E-1,1.0561105E0,8.772087E-2,0E0,6.177902E-3,2.0360947E-2,3.561154E-2,7.655538E-2,2.1562815E-2,0E0,0E0,0E0,0E0,0E0,0E0,1.9812465E-2,1.7017168E-3,8.678172E-3,3.759481E-3,1.3595462E-2,0E0,0E0,0E0,0E0,0E0,0E0,1.1681944E-2,2.4308264E-4,6.131502E-4,0E0,0E0,1.6064318E-3,1.1125207E-3,0E0,0E0,0E0,0E0,3.1648204E-5,0E0,0E0,0E0,0E0,0E0],"parents":[2147483647,0,0,1,1,2,2,3,3,4,4,5,5,6,6,8,8,9,9,10,10,11,11,12,12,19,19,20,20,21,21,22,22,23,23,30,30,31,31,32,32,35,35,36,36,41,41],"right_children":[2,4,6,8,10,12,14,-1,16,18,20,22,24,-1,-1,-1,-1,-1,-1,26,28,30,32,34,-1,-1,-1,-1,-1,-1,36,38,40,-1,-1,42,44,-1,-1,-1,-1,46,-1,-1,-1,-1,-1],"split_conditions":[-1.6045882E-1,-8.530049E-1,1.1471989E0,-1.4872458E0,-5.6401074E-1,4.754174E-1,1.5197026E0,-9.7295105E-2,-8.090107E-1,-6.8135244E-1,-5.8170494E-2,7.246406E-2,5.620559E-1,6.8910144E-2,9.081124E-2,-6.596365E-2,-1.857596E-2,-4.417797E-2,-3.162953E-2,-1.874769E-1,-7.836332E-1,-1.4885447E0,4.7855923E-1,-5.710051E-2,3.244815E-2,-1.8071888E-2,-9.749471E-3,-8.189894E-4,7.035999E-3,-1.3616516E-2,4.272476E-2,1.2632544E-1,4.7751087E-1,3.5934194E-3,2.4686558E-2,7.522775E-2,-3.5637656E-1,1.1609105E-3,7.7373195E-3,-2.4349312E-3,1.6468803E-3,2.9397315E-1,-6.673172E-3,1.3985448E-4,5.633024E-3,-2.8751849E-3,-7.5410074E-4],"split_indices":[12,6,12,0,12,6,12,0,12,6,6,6,6,0,0,0,0,0,0,2,0,6,0,12,0,0,0,0,0,0,12,0,2,0,0,0,6,0,0,0,0,8,0,0,0,0,0],"split_type":[0,0,0,0,0,0,0,0,0,0,0,0,0,0,0,0,0,0,0,0,0,0,0,0,0,0,0,0,0,0,0,0,0,0,0,0,0,0,0,0,0,0,0,0,0,0,0],"sum_hessian":[6.98E2,3.11E2,3.87E2,1.32E2,1.79E2,2.54E2,1.33E2,3.3E1,9.9E1,1.11E2,6.8E1,1.11E2,1.43E2,6.7E1,6.6E1,9.7E1,2E0,7.4E1,3.7E1,6.5E1,3E0,4.9E1,6.2E1,7E1,7.3E1,3.3E1,3.2E1,1E0,2E0,1E0,4.8E1,6E1,2E0,2E0,6.8E1,4.1E1,7E0,1E0,5.9E1,1E0,1E0,3.6E1,5E0,2E0,5E0,3.4E1,2E0],"tree_param":{"num_deleted":"0","num_feature":"13","num_nodes":"47","size_leaf_vector":"1"}},{"base_weights":[-1.2481994E-3,-2.0175847E-1,1.6373493E-1,-2.7535105E-1,-1.00577556E-1,7.724844E-2,3.2016036E-1,-7.870164E-2,-2.4196912E-1,-2.953018E-2,-5.58433E-2,1.6314095E-2,1.1912658E-1,4.8925214E-2,6.909632E-2,-5.230072E-2,-3.840987E-2,-1.4814294E-2,-3.883297E-2,-2.4100698E-3,3.1651024E-2,1.9807559E-2,2.6606178E-2,-8.086483E-3,-3.0221948E-3,-8.565265E-3,3.434793E-2,3.741162E-4,-1.180035E-3,6.9877803E-3,-1.9835677E-2,3.559369E-2,-2.7581751E-3,1.2143453E-4,1.7419736E-3,-4.525124E-3,-7.643901E-4,5.001548E-3,8.487578E-3,-2.272602E-3,1.5370887E-3],"categories":[],"categories_nodes":[],"categories_segments":[],"categories_sizes":[],"default_left":[0,0,0,0,0,0,0,0,0,0,0,0,0,0,0,0,0,0,0,0,0,0,0,0,0,0,0,0,0,0,0,0,0,0,0,0,0,0,0,0,0],"id":7,"left_children":[1,3,5,7,9,11,13,-1,15,-1,17,19,21,-1,-1,-1,-1,-1,23,-1,25,-1,-1,-1,27,29,31,-1,-1,33,35,37,39,-1,-1,-1,-1,-1,-1,-1,-1],"loss_changes":[2.3818096E1,2.3646154E0,5.294368E0,5.471535E-1,2.7832007E-1,6.5192986E-1,9.8739624E-2,0E0,4.6804428E-2,0E0,1.7502233E-2,4.7310323E-2,1.6106606E-2,0E0,0E0,0E0,0E0,0E0,2.218537E-3,0E0,8.180559E-3,0E0,0E0,0E0,7.839875E-5,1.3289502E-3,3.2472163E-3,0E0,0E0,3.3375065E-5,5.7613943E-6,2.5143921E-3,5.341219E-4,0E0,0E0,0E0,0E0,0E0,0E0,0E0,0E0],"parents":[2147483647,0,0,1,1,2,2,3,3,4,4,5,5,6,6,8,8,10,10,11,11,12,12,18,18,20,20,24,24,25,25,26,26,29,29,30,30,31,31,32,32],"right_children":[2,4,6,8,10,12,14,-1,16,-1,18,20,22,-1,-1,-1,-1,-1,24,-1,26,-1,-1,-1,28,30,32,-1,-1,34,36,38,40,-1,-1,-1,-1,-1,-1,-1,-1],"split_conditions":[-5.773062E-2,-7.852651E-1,1.4168825E0,-1.487894E0,-3.5519612E-1,4.769871E-1,1.4704945E0,-7.870164E-2,-8.576951E-1,-2.953018E-2,-1.8789664E-1,7.292427E-2,5.6366616E-1,4.8925214E-2,6.909632E-2,-5.230072E-2,-3.840987E-2,-1.4814294E-2,4.769871E-1,-2.4100698E-3,-7.8461206E-1,1.9807559E-2,2.6606178E-2,-8.086483E-3,3.7471354E-1,-8.59026E-1,1.1498281E0,3.741162E-4,-1.180035E-3,-1.1272815E0,-1.1272815E0,1.6563676E-1,2.8943858E-1,1.2143453E-4,1.7419736E-3,-4.525124E-3,-7.643901E-4,5.001548E-3,8.487578E-3,-2.272602E-3,1.5370887E-3],"split_indices":[5,5,5,3,3,3,3,0,8,0,3,5,3,0,0,0,0,0,3,0,3,0,0,0,12,12,8,0,0,3,3,5,12,0,0,0,0,0,0,0,0],"split_type":[0,0,0,0,0,0,0,0,0,0,0,0,0,0,0,0,0,0,0,0,0,0,0,0,0,0,0,0,0,0,0,0,0,0,0,0,0,0,0,0,0],"sum_hessian":[7.16E2,3.23E2,3.93E2,1.85E2,1.38E2,2.55E2,1.38E2,3.6E1,1.49E2,6.5E1,7.3E1,1.05E2,1.5E2,4E1,9.8E1,1.01E2,4.8E1,3.2E1,4.1E1,3.7E1,6.8E1,6.8E1,8.2E1,3.9E1,2E0,4E0,6.4E1,1E0,1E0,2E0,2E0,6.2E1,2E0,1E0,1E0,1E0,1E0,2.8E1,3.4E1,1E0,1E0],"tree_param":{"num_deleted":"0","num_feature":"13","num_nodes":"41","size_leaf_vector":"1"}},{"base_weights":[2.314047E-3,-1.645503E-1,1.3898426E-1,-2.4117176E-1,-1.0122066E-1,6.440524E-2,2.6394182E-1,-6.394111E-2,-4.1481666E-2,-1.3622084E-1,-4.6394814E-2,1.3301014E-2,9.496071E-2,2.1998489E-1,6.035762E-2,-2.909924E-2,-2.081888E-2,-5.8286063E-2,-3.1995736E-2,-8.356856E-3,2.422336E-2,-2.2503396E-3,9.627808E-2,4.428243E-2,7.7197473E-3,-1.2010122E-2,3.4917516E-4,-6.6964175E-3,-1.3155571E-2,-1.8131152E-3,1.3141495E-3,2.5186373E-2,-2.5742948E-3,1.13340226E-4,-7.1343075E-4,1.396945E-2,2.0846881E-2,-1.6041258E-3,-3.625846E-3,-2.3055996E-4,5.809998E-4,3.934739E-3,5.8503905E-3,-2.1210948E-3,1.4346163E-3,-1.0091673E-3,5.8140035E-4],"categories":[],"categories_nodes":[],"categories_segments":[],"categories_sizes":[],"default_left":[0,0,0,0,0,0,0,0,0,0,0,0,0,0,0,0,0,0,0,0,0,0,0,0,0,0,0,0,0,0,0,0,0,0,0,0,0,0,0,0,0,0,0,0,0,0,0],"id":8,"left_children":[1,3,5,7,9,11,13,-1,-1,15,17,19,21,23,-1,-1,-1,25,27,29,31,33,35,-1,-1,-1,-1,-1,37,-1,39,41,43,-1,-1,-1,-1,45,-1,-1,-1,-1,-1,-1,-1,-1,-1],"loss_changes":[1.605512E1,1.4893904E0,3.5725374E0,2.4390411E-1,3.27008E-1,3.800447E-1,1.06781006E-1,0E0,0E0,1.593709E-3,8.598238E-3,2.2641005E-2,2.0026922E-2,2.0649433E-3,0E0,0E0,0E0,4.129067E-3,1.5516207E-4,2.5001005E-4,1.7554872E-3,1.8881095E-5,1.7193198E-2,0E0,0E0,0E0,0E0,0E0,2.8655457E-4,0E0,2.2395947E-5,2.1615624E-4,4.652796E-4,0E0,0E0,0E0,0E0,9.144048E-5,0E0,0E0,0E0,0E0,0E0,0E0,0E0,0E0,0E0],"parents":[2147483647,0,0,1,1,2,2,3,3,4,4,5,5,6,6,9,9,10,10,11,11,12,12,13,13,17,17,18,18,19,19,20,20,21,21,22,22,28,28,30,30,31,31,32,32,37,37],"right_children":[2,4,6,8,10,12,14,-1,-1,16,18,20,22,24,-1,-1,-1,26,28,30,32,34,36,-1,-1,-1,-1,-1,38,-1,40,42,44,-1,-1,-1,-1,46,-1,-1,-1,-1,-1,-1,-1,-1,-1],"split_conditions":[-5.773062E-2,-8.526887E-1,1.1478399E0,-1.4881107E0,-4.7842282E-1,4.7594035E-1,1.5559074E0,-6.394111E-2,-4.1481666E-2,-6.806668E-1,-1.883163E-1,7.338464E-2,-8.587056E-1,1.5663989E0,6.035762E-2,-2.909924E-2,-2.081888E-2,4.102787E-1,7.613088E-2,7.613088E-2,1.1371324E0,-1.1275544E0,5.200609E-1,4.428243E-2,7.7197473E-3,-1.2010122E-2,3.4917516E-4,-6.6964175E-3,1.661116E-1,-1.8131152E-3,1.1371324E0,1.661116E-1,1.3672855E0,1.13340226E-4,-7.1343075E-4,1.396945E-2,2.0846881E-2,-5.729062E-2,-3.625846E-3,-2.3055996E-4,5.809998E-4,3.934739E-3,5.8503905E-3,-2.1210948E-3,1.4346163E-3,-1.0091673E-3,5.8140035E-4],"split_indices":[5,5,11,4,10,5,5,0,0,4,4,4,11,4,0,0,0,11,9,9,9,4,5,0,0,0,0,0,4,0,9,4,9,0,0,0,0,4,0,0,0,0,0,0,0,0,0],"split_type":[0,0,0,0,0,0,0,0,0,0,0,0,0,0,0,0,0,0,0,0,0,0,0,0,0,0,0,0,0,0,0,0,0,0,0,0,0,0,0,0,0,0,0,0,0,0,0],"sum_hessian":[7E2,3.15E2,3.85E2,1.4E2,1.75E2,2.43E2,1.42E2,3.7E1,1.03E2,1.05E2,7E1,9.2E1,1.51E2,7.2E1,7E1,7.6E1,2.9E1,3.5E1,3.5E1,3.1E1,6.1E1,2E0,1.49E2,7.1E1,1E0,3.4E1,1E0,3.1E1,4E0,2.9E1,2E0,5.9E1,2E0,1E0,1E0,3.9E1,1.1E2,2E0,2E0,1E0,1E0,3E1,2.9E1,1E0,1E0,1E0,1E0],"tree_param":{"num_deleted":"0","num_feature":"13","num_nodes":"47","size_leaf_vector":"1"}},{"base_weights":[-1.5471432E-3,-1.3047454E-1,1.0773265E-1,-2.1065855E-1,-8.919641E-2,4.9270563E-2,2.1133018E-1,-5.3296078E-2,-3.661267E-2,-1.1402814E-1,-3.6068715E-2,1.1507249E-2,7.5141124E-2,3.6006212E-2,4.8674516E-2,-2.6323298E-2,-9.367048E-2,-9.800978E-3,-2.418702E-2,-9.729252E-3,2.0792045E-2,-7.6564224E-3,7.75474E-2,-1.9000754E-2,-4.4338675E-3,-5.477855E-3,-7.460231E-4,-7.4315034E-3,-5.55048E-3,4.8776367E-4,2.0979207E-2,-3.0525785E-3,7.556518E-4,5.495558E-2,1.6554497E-2,-7.933617E-3,5.4226647E-4,3.415253E-3,4.7866935E-3,2.6635944E-3,1.1356531E-2,-1.6180951E-3,-2.1518928E-4],"categories":[],"categories_nodes":[],"categories_segments":[],"categories_sizes":[],"default_left":[0,0,0,0,0,0,0,0,0,0,0,0,0,0,0,0,0,0,0,0,0,0,0,0,0,0,0,0,0,0,0,0,0,0,0,0,0,0,0,0,0,0,0],"id":9,"left_children":[1,3,5,7,9,11,13,-1,-1,15,17,19,21,-1,-1,-1,23,-1,25,27,29,31,33,-1,-1,-1,-1,35,-1,-1,37,-1,-1,39,-1,41,-1,-1,-1,-1,-1,-1,-1],"loss_changes":[1.0073683E1,1.0480494E0,2.3230515E0,7.1879864E-2,2.8200984E-1,2.425102E-1,5.1774025E-2,0E0,0E0,2.8693318E-2,8.849807E-3,2.0910945E-2,3.067404E-2,0E0,0E0,0E0,3.0328631E-3,0E0,2.5470126E-3,9.5413346E-4,1.4843047E-4,6.3719973E-4,7.9007745E-3,0E0,0E0,0E0,0E0,2.059926E-4,0E0,0E0,1.2788922E-5,0E0,0E0,9.980127E-4,0E0,1.5936443E-5,0E0,0E0,0E0,0E0,0E0,0E0,0E0],"parents":[2147483647,0,0,1,1,2,2,3,3,4,4,5,5,6,6,9,9,10,10,11,11,12,12,16,16,18,18,19,19,20,20,21,21,22,22,27,27,30,30,33,33,35,35],"right_children":[2,4,6,8,10,12,14,-1,-1,16,18,20,22,-1,-1,-1,24,-1,26,28,30,32,34,-1,-1,-1,-1,36,-1,-1,38,-1,-1,40,-1,42,-1,-1,-1,-1,-1,-1,-1],"split_conditions":[-5.773062E-2,-1.1278275E0,1.4182229E0,-1.6508832E0,-3.5598314E-1,4.7594035E-1,1.5559074E0,-5.3296078E-2,-3.661267E-2,-7.852651E-1,-2.7603778E-1,7.384518E-2,-7.8461206E-1,3.6006212E-2,4.8674516E-2,-2.6323298E-2,-3.5519612E-1,-9.800978E-3,8.989687E-3,1.3672855E0,1.2491886E-1,-1.1272815E0,5.200609E-1,-1.9000754E-2,-4.4338675E-3,-5.477855E-3,-7.460231E-4,1.1371324E0,-5.55048E-3,4.8776367E-4,1.6658662E-1,-3.0525785E-3,7.556518E-4,-3.567446E-1,1.6554497E-2,2.897822E-1,5.4226647E-4,3.415253E-3,4.7866935E-3,2.6635944E-3,1.1356531E-2,-1.6180951E-3,-2.1518928E-4],"split_indices":[5,5,3,11,5,5,5,0,0,5,9,3,3,0,0,0,3,0,10,9,3,3,5,0,0,0,0,9,0,0,3,0,0,9,0,9,0,0,0,0,0,0,0],"split_type":[0,0,0,0,0,0,0,0,0,0,0,0,0,0,0,0,0,0,0,0,0,0,0,0,0,0,0,0,0,0,0,0,0,0,0,0,0,0,0,0,0,0,0],"sum_hessian":[7.11E2,3.26E2,3.85E2,1.08E2,2.18E2,2.48E2,1.37E2,3E1,7.8E1,1.47E2,7.1E1,1.02E2,1.46E2,7.6E1,6.1E1,7.3E1,7.4E1,3.1E1,4E1,3.1E1,7.1E1,4E0,1.42E2,7.2E1,2E0,3.4E1,6E0,3E1,1E0,1E0,7E1,2E0,2E0,3.1E1,1.11E2,2.9E1,1E0,3.6E1,3.4E1,2E0,2.9E1,2.8E1,1E0],"tree_param":{"num_deleted":"0","num_feature":"13","num_nodes":"43","size_leaf_vector":"1"}},{"base_weights":[1.3567792E-3,-9.517087E-2,9.65095E-2,-1.4959164E-1,-4.503941E-2,4.5987044E-2,1.6919851E-1,-4.3331217E-2,-1.2969361E-1,-1.5170457E-2,-2.2446109E-2,1.9997513E-2,6.1238393E-2,2.485819E-2,3.6932185E-2,-2.9293481E-2,-2.152779E-2,-3.328968E-2,-6.1477586E-3,-3.972382E-3,2.0992303E-2,1.019568E-2,1.3723462E-2,-7.978332E-3,-4.468593E-3,-9.105448E-3,8.463216E-3,1.5922606E-2,3.9280765E-2,-6.780316E-3,-4.391739E-3,1.6698062E-2,-2.2988021E-3,6.8008574E-4,4.392075E-2,-1.7544853E-3,-3.8113582E-3,4.552459E-4,3.3704545E-3,9.55019E-3,2.0939603E-3,-8.823042E-4,5.061154E-4],"categories":[],"categories_nodes":[],"categories_segments":[],"categories_sizes":[],"default_left":[0,0,0,0,0,0,0,0,0,0,0,0,0,0,0,0,0,0,0,0,0,0,0,0,0,0,0,0,0,0,0,0,0,0,0,0,0,0,0,0,0,0,0],"id":10,"left_children":[1,3,5,7,9,11,13,-1,15,-1,17,19,21,-1,-1,-1,-1,23,25,-1,27,-1,-1,-1,-1,29,-1,31,33,35,-1,37,-1,-1,39,-1,41,-1,-1,-1,-1,-1,-1],"loss_changes":[6.438593E0,9.359362E-1,1.2808049E0,1.6532087E-1,1.2468907E-1,8.118594E-2,5.4087162E-2,0E0,1.767087E-2,0E0,1.8854506E-2,4.0456876E-3,2.9973984E-3,0E0,0E0,0E0,0E0,2.9149577E-3,7.364298E-3,0E0,6.166458E-3,0E0,0E0,0E0,0E0,1.0470736E-3,0E0,1.7870404E-3,2.3650508E-3,1.7562439E-4,0E0,6.78394E-5,0E0,0E0,7.938426E-4,0E0,9.8451244E-5,0E0,0E0,0E0,0E0,0E0,0E0],"parents":[2147483647,0,0,1,1,2,2,3,3,4,4,5,5,6,6,8,8,10,10,11,11,12,12,17,17,18,18,20,20,25,25,27,27,28,28,29,29,31,31,34,34,36,36],"right_children":[2,4,6,8,10,12,14,-1,16,-1,18,20,22,-1,-1,-1,-1,24,26,-1,28,-1,-1,-1,-1,30,-1,32,34,36,-1,38,-1,-1,40,-1,42,-1,-1,-1,-1,-1,-1],"split_conditions":[7.292427E-2,-8.559672E-1,1.4168825E0,-1.4883275E0,-3.5598314E-1,4.347896E-1,1.4691378E0,-4.3331217E-2,-1.1363003E0,-1.5170457E-2,-1.819487E-1,-1.1718668E0,5.65279E-1,2.485819E-2,3.6932185E-2,-2.9293481E-2,-2.152779E-2,-1.8663715E-1,1.3659068E0,-3.972382E-3,4.7594035E-1,1.019568E-2,1.3723462E-2,-7.978332E-3,-4.468593E-3,1.6706184E-1,8.463216E-3,4.7855923E-1,-8.587056E-1,-5.665196E-2,-4.391739E-3,1.2632544E-1,-2.2988021E-3,6.8008574E-4,5.718348E-1,-1.7544853E-3,1.6801281E-1,4.552459E-4,3.3704545E-3,9.55019E-3,2.0939603E-3,-8.823042E-4,5.061154E-4],"split_indices":[5,11,5,5,5,11,5,0,11,0,11,11,0,0,0,0,0,0,11,0,5,0,0,0,0,2,0,0,11,11,0,0,0,0,2,0,0,0,0,0,0,0,0],"split_type":[0,0,0,0,0,0,0,0,0,0,0,0,0,0,0,0,0,0,0,0,0,0,0,0,0,0,0,0,0,0,0,0,0,0,0,0,0,0,0,0,0,0,0],"sum_hessian":[6.97E2,3.46E2,3.51E2,1.64E2,1.82E2,2.09E2,1.42E2,3.3E1,1.31E2,7.5E1,1.07E2,7.9E1,1.3E2,4.1E1,1.01E2,6.8E1,6.3E1,6.3E1,4.4E1,1E0,7.8E1,6.1E1,6.9E1,3.6E1,2.7E1,4.3E1,1E0,6.4E1,1.4E1,3.9E1,4E0,6.3E1,1E0,2E0,1.2E1,2.1E1,1.8E1,1E0,6.2E1,1E1,2E0,1.7E1,1E0],"tree_param":{"num_deleted":"0","num_feature":"13","num_nodes":"43","size_leaf_vector":"1"}},{"base_weights":[-1.0066926E-3,-8.6622275E-2,6.7660294E-2,-1.3965334E-1,-5.8437653E-2,3.0086793E-2,1.3581769E-1,-3.4341972E-2,-2.3652403E-2,-7.525262E-2,-2.3667373E-2,5.7407864E-3,4.6976388E-2,2.2403559E-2,3.2037955E-2,-1.6235566E-2,-5.0402496E-2,-6.4569437E-3,-1.4943825E-2,-6.503556E-3,1.2923369E-2,-5.997906E-3,4.8822172E-2,-1.0548212E-2,-3.2420277E-3,-3.292368E-3,-8.544641E-4,-4.8740087E-3,-4.887666E-3,1.3753598E-2,-7.6521933E-3,1.6138525E-3,-1.4852478E-2,8.217799E-3,5.508638E-2,6.684143E-4,-3.0305996E-3,-5.1729996E-3,4.723744E-4,2.1002933E-3,3.243962E-3,-2.1455488E-3,1.0496378E-4,-3.3518558E-3,-4.81685E-4,4.3266616E-4,1.1145162E-2,-1.1442676E-3,5.02754E-4,-1.0643437E-3,-2.3473325E-4,6.5119565E-4,-5.171279E-4],"categories":[],"categories_nodes":[],"categories_segments":[],"categories_sizes":[],"default_left":[0,0,0,0,0,0,0,0,0,0,0,0,0,0,0,0,0,0,0,0,0,0,0,0,0,0,0,0,0,0,0,0,0,0,0,0,0,0,0,0,0,0,0,0,0,0,0,0,0,0,0,0,0],"id":11,"left_children":[1,3,5,7,9,11,13,-1,-1,15,17,19,21,-1,-1,-1,23,-1,25,27,29,31,33,-1,-1,-1,35,37,-1,39,41,-1,43,-1,45,-1,47,49,-1,-1,-1,-1,-1,-1,-1,-1,-1,-1,51,-1,-1,-1,-1],"loss_changes":[4.2798495E0,4.6794796E-1,1.026436E0,3.5502434E-2,1.2214005E-1,1.0760471E-1,4.7059298E-2,0E0,0E0,1.3019741E-2,4.5227744E-3,9.8421555E-3,1.5741408E-2,0E0,0E0,0E0,9.2882663E-4,0E0,8.273823E-4,9.892485E-4,1.4062589E-3,1.1116082E-3,2.7394295E-3,0E0,0E0,0E0,7.505034E-5,1.1313771E-4,0E0,2.0472705E-4,1.1185548E-4,0E0,3.7914724E-5,0E0,2.3646206E-3,0E0,5.32895E-5,1.1299388E-5,0E0,0E0,0E0,0E0,0E0,0E0,0E0,0E0,0E0,0E0,5.0849732E-5,0E0,0E0,0E0,0E0],"parents":[2147483647,0,0,1,1,2,2,3,3,4,4,5,5,6,6,9,9,10,10,11,11,12,12,16,16,18,18,19,19,20,20,21,21,22,22,26,26,27,27,29,29,30,30,32,32,34,34,36,36,37,37,48,48],"right_children":[2,4,6,8,10,12,14,-1,-1,16,18,20,22,-1,-1,-1,24,-1,26,28,30,32,34,-1,-1,-1,36,38,-1,40,42,-1,44,-1,46,-1,48,50,-1,-1,-1,-1,-1,-1,-1,-1,-1,-1,52,-1,-1,-1,-1],"split_conditions":[-5.773062E-2,-1.1272815E0,1.4182229E0,-1.4881107E0,-3.5598314E-1,4.7594035E-1,1.5559074E0,-3.4341972E-2,-2.3652403E-2,-6.810096E-1,-1.8789664E-1,7.384518E-2,-6.85141E-1,2.2403559E-2,3.2037955E-2,-1.6235566E-2,-3.540153E-1,-6.4569437E-3,-5.5529382E-2,8.350088E-1,4.7855923E-1,-7.849385E-1,5.625923E-1,-1.0548212E-2,-3.2420277E-3,-3.292368E-3,-1.883163E-1,7.522775E-2,-4.887666E-3,1.6801281E-1,8.350088E-1,1.6138525E-3,-7.8461206E-1,8.217799E-3,-3.5716078E-1,6.684143E-4,-5.729062E-2,1.1385039E0,4.723744E-4,2.1002933E-3,3.243962E-3,-2.1455488E-3,1.0496378E-4,-3.3518558E-3,-4.81685E-4,4.3266616E-4,1.1145162E-2,-1.1442676E-3,1.6801281E-1,-1.0643437E-3,-2.3473325E-4,6.5119565E-4,-5.171279E-4],"split_indices":[5,3,3,4,5,5,5,0,0,5,3,3,10,0,0,0,0,0,0,10,0,4,5,0,0,0,4,0,0,0,10,0,3,0,10,0,4,7,0,0,0,0,0,0,0,0,0,0,0,0,0,0,0],"split_type":[0,0,0,0,0,0,0,0,0,0,0,0,0,0,0,0,0,0,0,0,0,0,0,0,0,0,0,0,0,0,0,0,0,0,0,0,0,0,0,0,0,0,0,0,0,0,0,0,0,0,0,0,0],"sum_hessian":[7.24E2,3.22E2,4.02E2,1.09E2,2.13E2,2.61E2,1.41E2,3.8E1,7.1E1,1.42E2,7.1E1,1.08E2,1.53E2,7.7E1,6.4E1,1.11E2,3.1E1,3.3E1,3.8E1,4E1,6.8E1,5E0,1.48E2,2.8E1,3E0,3.4E1,4E0,3.9E1,1E0,6.6E1,2E0,2E0,3E0,7.3E1,7.5E1,1E0,3E0,3.8E1,1E0,3.3E1,3.3E1,1E0,1E0,2E0,1E0,1E0,7.4E1,1E0,2E0,3.6E1,2E0,1E0,1E0],"tree_param":{"num_deleted":"0","num_feature":"13","num_nodes":"53","size_leaf_vector":"1"}},{"base_weights":[-1.3889513E-3,-7.301691E-2,5.5369552E-2,-1.0446443E-1,-4.319151E-2,2.5183119E-2,1.10127635E-1,-2.8955668E-2,-1.8005531E-2,-5.6159105E-2,-2.1579908E-2,4.041899E-3,3.978714E-2,1.807913E-2,2.5901353E-2,-1.1962507E-2,-7.7453926E-3,-2.8458582E-2,-2.1406289E-3,-5.5585066E-3,9.79612E-3,6.5927072E-3,9.368398E-3,-8.9256366E-4,-5.773177E-3,-3.1484324E-3,-5.2554957E-3,1.0399663E-2,-2.0025114E-3,-1.3306167E-3,-2.3677247E-3,2.848764E-4,2.0987834E-3,-5.2637415E-4,4.4088275E-4],"categories":[],"categories_nodes":[],"categories_segments":[],"categories_sizes":[],"default_left":[0,0,0,0,0,0,0,0,0,0,0,0,0,0,0,0,0,0,0,0,0,0,0,0,0,0,0,0,0,0,0,0,0,0,0],"id":12,"left_children":[1,3,5,7,9,11,13,-1,-1,15,17,19,21,-1,-1,-1,-1,23,-1,25,27,-1,-1,-1,-1,29,-1,31,-1,-1,33,-1,-1,-1,-1],"loss_changes":[2.8417363E0,2.8079784E-1,6.3910425E-1,6.0650468E-2,4.2976767E-2,7.8100055E-2,2.9356003E-2,0E0,0E0,1.7359853E-3,4.1791387E-3,5.964647E-3,4.1327626E-3,0E0,0E0,0E0,0E0,1.13748014E-4,0E0,1.8818391E-3,1.009264E-3,0E0,0E0,0E0,0E0,7.520284E-5,0E0,2.593873E-5,0E0,0E0,5.3873388E-5,0E0,0E0,0E0,0E0],"parents":[2147483647,0,0,1,1,2,2,3,3,4,4,5,5,6,6,9,9,10,10,11,11,12,12,17,17,19,19,20,20,25,25,27,27,30,30],"right_children":[2,4,6,8,10,12,14,-1,-1,16,18,20,22,-1,-1,-1,-1,24,-1,26,28,-1,-1,-1,-1,30,-1,32,-1,-1,34,-1,-1,-1,-1],"split_conditions":[-1.6045882E-1,-1.0655085E0,7.0130044E-1,-1.651077E0,-6.710991E-1,4.764636E-1,1.556599E0,-2.8955668E-2,-1.8005531E-2,-6.796387E-1,-1.883163E-1,7.338464E-2,5.659464E-1,1.807913E-2,2.5901353E-2,-1.1962507E-2,-7.7453926E-3,-8.523727E-1,-2.1406289E-3,4.780349E-1,4.7855923E-1,6.5927072E-3,9.368398E-3,-8.9256366E-4,-5.773177E-3,-5.729062E-2,-5.2554957E-3,1.2632544E-1,-2.0025114E-3,-1.3306167E-3,7.522775E-2,2.848764E-4,2.0987834E-3,-5.2637415E-4,4.4088275E-4],"split_indices":[12,12,12,12,12,4,4,0,0,1,4,4,12,0,0,0,0,4,0,1,0,0,0,0,0,4,0,0,0,0,0,0,0,0,0],"split_type":[0,0,0,0,0,0,0,0,0,0,0,0,0,0,0,0,0,0,0,0,0,0,0,0,0,0,0,0,0,0,0,0,0,0,0],"sum_hessian":[6.95E2,3.07E2,3.88E2,1.47E2,1.6E2,2.52E2,1.36E2,3.4E1,1.13E2,9.8E1,6.2E1,1.04E2,1.48E2,7.3E1,6.3E1,7.7E1,2.1E1,3.6E1,2.6E1,3.9E1,6.5E1,8.1E1,6.7E1,1E0,3.5E1,3.7E1,2E0,6.4E1,1E0,4E0,3.3E1,1E0,6.3E1,3.2E1,1E0],"tree_param":{"num_deleted":"0","num_feature":"13","num_nodes":"35","size_leaf_vector":"1"}},{"base_weights":[6.6215475E-4,-5.0859816E-2,4.918991E-2,-7.767308E-2,-2.3630409E-2,2.3272192E-2,9.0232946E-2,-2.054831E-2,-1.2016056E-2,-3.933492E-2,-1.2432308E-2,9.721207E-3,3.139956E-2,7.4289866E-2,2.0996314E-2,-8.070526E-3,-2.8700063E-3,-4.1624373E-3,-6.683064E-3,2.397411E-2,7.962653E-3,-3.2875806E-3,3.19562E-2,2.1763404E-3,1.4967564E-2,-7.859107E-3,1.5786154E-3,-1.1557567E-2,3.742818E-2,8.396363E-3,-1.869011E-3,5.2856957E-3,7.2302744E-3,-1.110332E-2,-4.629262E-3,-2.686599E-3,-3.9541893E-4,8.6003E-3,2.6588488E-4,-8.8908675E-4,8.661395E-3,-2.39802E-3,9.7421976E-4,-2.9074214E-3,-4.2114556E-3,6.5035056E-3,2.100408E-3,-3.1825663E-3,4.114906E-4,1.3293236E-3,3.5697056E-4,-6.4784655E-4,-9.128265E-5],"categories":[],"categories_nodes":[],"categories_segments":[],"categories_sizes":[],"default_left":[0,0,0,0,0,0,0,0,0,0,0,0,0,0,0,0,0,0,0,0,0,0,0,0,0,0,0,0,0,0,0,0,0,0,0,0,0,0,0,0,0,0,0,0,0,0,0,0,0,0,0,0,0],"id":13,"left_children":[1,3,5,7,9,11,13,-1,-1,15,17,19,21,23,-1,-1,-1,-1,25,27,29,-1,31,-1,-1,33,-1,35,37,39,-1,-1,-1,41,43,-1,-1,-1,-1,-1,45,-1,-1,47,-1,49,-1,51,-1,-1,-1,-1,-1],"loss_changes":[1.8401837E0,2.569781E-1,3.989582E-1,6.659782E-2,3.0676894E-2,2.5270954E-2,1.873207E-2,0E0,0E0,7.234886E-4,4.9250424E-3,1.8990748E-3,4.938334E-3,1.0466576E-3,0E0,0E0,0E0,0E0,1.2725906E-3,5.167568E-3,7.874756E-4,0E0,1.4516711E-3,0E0,0E0,5.5733277E-4,0E0,1.8753286E-5,1.2939936E-3,3.5949703E-4,0E0,0E0,0E0,5.4178364E-4,8.675799E-4,0E0,0E0,0E0,0E0,0E0,1.890962E-4,0E0,0E0,5.9541984E-5,0E0,5.3113326E-6,0E0,2.1410233E-6,0E0,0E0,0E0,0E0,0E0],"parents":[2147483647,0,0,1,1,2,2,3,3,4,4,5,5,6,6,9,9,10,10,11,11,12,12,13,13,18,18,19,19,20,20,22,22,25,25,27,27,28,28,29,29,33,33,34,34,40,40,43,43,45,45,47,47],"right_children":[2,4,6,8,10,12,14,-1,-1,16,18,20,22,24,-1,-1,-1,-1,26,28,30,-1,32,-1,-1,34,-1,36,38,40,-1,-1,-1,42,44,-1,-1,-1,-1,-1,46,-1,-1,48,-1,50,-1,52,-1,-1,-1,-1,-1],"split_conditions":[7.338464E-2,-7.8559166E-1,1.416213E0,-1.2709024E0,-3.5637656E-1,4.7774893E-1,1.4866738E0,-2.054831E-2,-1.2016056E-2,-1.874896E-1,-1.8925396E-1,1.2413128E-1,-1.4885447E0,-1.8794994E-1,2.0996314E-2,-8.070526E-3,-2.8700063E-3,-4.1624373E-3,7.246406E-2,-3.5796708E-1,5.227143E-1,-3.2875806E-3,5.65279E-1,2.1763404E-3,1.4967564E-2,-5.729062E-2,1.5786154E-3,-1.1264638E0,7.522775E-2,-1.1713104E0,-1.869011E-3,5.2856957E-3,7.2302744E-3,1.2413128E-1,1.3672855E0,-2.686599E-3,-3.9541893E-4,8.6003E-3,2.6588488E-4,-8.8908675E-4,1.6516212E-1,-2.39802E-3,9.7421976E-4,7.522775E-2,-4.2114556E-3,1.6801281E-1,2.100408E-3,2.9397315E-1,4.114906E-4,1.3293236E-3,3.5697056E-4,-6.4784655E-4,-9.128265E-5],"split_indices":[4,6,6,12,6,12,12,0,0,8,12,12,6,9,0,0,0,0,6,12,0,0,0,0,0,4,0,0,0,9,0,0,0,12,9,0,0,0,0,0,6,0,0,0,0,0,0,8,0,0,0,0,0],"split_type":[0,0,0,0,0,0,0,0,0,0,0,0,0,0,0,0,0,0,0,0,0,0,0,0,0,0,0,0,0,0,0,0,0,0,0,0,0,0,0,0,0,0,0,0,0,0,0,0,0,0,0,0,0],"sum_hessian":[7.32E2,3.55E2,3.77E2,1.77E2,1.78E2,2.33E2,1.44E2,6.9E1,1.08E2,7.2E1,1.06E2,8.9E1,1.44E2,7.5E1,6.9E1,6.8E1,4E0,4.1E1,6.5E1,7E0,8.2E1,1E0,1.43E2,1E0,7.4E1,6.1E1,4E0,2E0,5E0,8.1E1,1E0,6.8E1,7.5E1,2.8E1,3.3E1,1E0,1E0,4E0,1E0,1E0,8E1,2.7E1,1E0,3.2E1,1E0,4.1E1,3.9E1,3.1E1,1E0,3.9E1,2E0,3E1,1E0],"tree_param":{"num_deleted":"0","num_feature":"13","num_nodes":"53","size_leaf_vector":"1"}},{"base_weights":[-4.8196517E-4,-4.544083E-2,3.5833437E-2,-7.458074E-2,-3.0371107E-2,1.576946E-2,7.224346E-2,-9.518343E-2,-1.2441541E-2,-3.911391E-2,-1.2772E-2,4.0047606E-3,2.4417255E-2,4.869112E-2,1.568698E-2,-1.935197E-2,-2.6672443E-3,-8.98238E-3,-6.330786E-3,-1.800719E-2,-7.807597E-3,-2.254005E-3,6.7456346E-3,1.6788997E-2,5.4152235E-3,2.5573012E-3,1.0268165E-2,-1.8600257E-2,-8.5181446E-4,-3.713401E-3,-6.6102617E-3,-2.4897365E-3,3.8405787E-4,7.1786847E-3,-1.7444104E-3,-2.5721863E-3,1.7858917E-2,-4.8100154E-4,-3.7935046E-3,-1.738959E-3,-9.4318646E-4,-5.345181E-4,-1.4911107E-4,7.761229E-3,-4.40948E-4,-9.4767613E-4,2.6175976E-4,3.6888965E-3,1.2530113E-3,1.0245158E-3,-4.7774334E-3,1.3388071E-2,6.5323757E-3,-1.2884319E-3,-1.7375767E-4,-8.076355E-5,3.3085346E-3,-8.2981394E-4,6.838498E-3,9.4320916E-4,1.6835725E-3],"categories":[],"categories_nodes":[],"categories_segments":[],"categories_sizes":[],"default_left":[0,0,0,0,0,0,0,0,0,0,0,0,0,0,0,0,0,0,0,0,0,0,0,0,0,0,0,0,0,0,0,0,0,0,0,0,0,0,0,0,0,0,0,0,0,0,0,0,0,0,0,0,0,0,0,0,0,0,0,0,0],"id":14,"left_children":[1,3,5,7,9,11,13,15,-1,17,19,21,23,25,-1,-1,-1,-1,-1,27,29,31,33,35,-1,-1,-1,37,-1,-1,39,41,-1,43,-1,45,47,-1,-1,-1,49,-1,-1,51,-1,-1,-1,-1,-1,-1,53,55,57,-1,-1,-1,-1,-1,59,-1,-1],"loss_changes":[1.1510441E0,1.3379592E-1,2.8262812E-1,1.5178978E-2,3.1466514E-2,2.564606E-2,1.2485445E-2,2.064079E-3,0E0,3.212124E-3,1.6160561E-3,1.917403E-3,2.0520836E-3,1.9216985E-3,0E0,0E0,0E0,0E0,0E0,1.1877995E-4,2.8272183E-4,4.400249E-5,6.40993E-4,9.826142E-4,0E0,0E0,0E0,9.910017E-5,0E0,0E0,4.561264E-4,6.8584923E-6,0E0,4.4965884E-4,0E0,4.603104E-5,4.723575E-5,0E0,0E0,0E0,3.5129488E-4,0E0,0E0,3.2293657E-4,0E0,0E0,0E0,0E0,0E0,0E0,4.736765E-5,4.919474E-4,2.627459E-4,0E0,0E0,0E0,0E0,0E0,1.284338E-4,0E0,0E0],"parents":[2147483647,0,0,1,1,2,2,3,3,4,4,5,5,6,6,7,7,9,9,10,10,11,11,12,12,13,13,19,19,20,20,21,21,22,22,23,23,27,27,30,30,31,31,33,33,35,35,36,36,40,40,43,43,50,50,51,51,52,52,58,58],"right_children":[2,4,6,8,10,12,14,16,-1,18,20,22,24,26,-1,-1,-1,-1,-1,28,30,32,34,36,-1,-1,-1,38,-1,-1,40,42,-1,44,-1,46,48,-1,-1,-1,50,-1,-1,52,-1,-1,-1,-1,-1,-1,54,56,58,-1,-1,-1,-1,-1,60,-1,-1],"split_conditions":[-5.8170494E-2,-1.1270088E0,1.416213E0,-1.4885447E0,-3.540153E-1,4.780349E-1,1.4684602E0,-1.4874617E0,-1.2441541E-2,-7.8559166E-1,-1.8705706E-1,7.246406E-2,5.195311E-1,-5.596988E-2,1.568698E-2,-1.935197E-2,-2.6672443E-3,-8.98238E-3,-6.330786E-3,3.7741032E-1,-1.4885447E0,7.522775E-2,4.7855923E-1,-6.840072E-1,5.4152235E-3,2.5573012E-3,1.0268165E-2,-8.5174096E-1,-8.5181446E-4,-3.713401E-3,-5.6410253E-2,4.5151714E-2,3.8405787E-4,5.696825E-1,-1.7444104E-3,-3.540153E-1,1.5593714E0,-4.8100154E-4,-3.7935046E-3,-1.738959E-3,1.6801281E-1,-5.345181E-4,-1.4911107E-4,7.430588E-2,-4.40948E-4,-9.4767613E-4,2.6175976E-4,3.6888965E-3,1.2530113E-3,1.0245158E-3,4.7855923E-1,5.195311E-1,-1.1264638E0,-1.2884319E-3,-1.7375767E-4,-8.076355E-5,3.3085346E-3,-8.2981394E-4,1.6801281E-1,9.4320916E-4,1.6835725E-3],"split_indices":[6,2,6,6,0,1,6,1,0,6,1,6,6,1,0,0,0,0,0,7,6,0,0,7,0,0,0,2,0,0,2,7,0,6,0,0,0,0,0,0,0,0,0,2,0,0,0,0,0,0,0,6,0,0,0,0,0,0,0,0,0],"split_type":[0,0,0,0,0,0,0,0,0,0,0,0,0,0,0,0,0,0,0,0,0,0,0,0,0,0,0,0,0,0,0,0,0,0,0,0,0,0,0,0,0,0,0,0,0,0,0,0,0,0,0,0,0,0,0,0,0,0,0,0,0],"sum_hessian":[7.01E2,3.13E2,3.88E2,1.04E2,2.09E2,2.52E2,1.36E2,3.4E1,7E1,1.38E2,7.1E1,1.08E2,1.44E2,3.2E1,1.04E2,3.3E1,1E0,7.2E1,6.6E1,3.2E1,3.9E1,3.3E1,7.5E1,4.1E1,1.03E2,3E0,2.9E1,3E1,2E0,1E0,3.8E1,3.2E1,1E0,7.4E1,1E0,2E0,3.9E1,1E0,2.9E1,2.7E1,1.1E1,2.8E1,4E0,7E1,4E0,1E0,1E0,3.6E1,3E0,4E0,7E0,9E0,6.1E1,4E0,3E0,2E0,7E0,1E0,6E1,2.9E1,3.1E1],"tree_param":{"num_deleted":"0","num_feature":"13","num_nodes":"61","size_leaf_vector":"1"}},{"base_weights":[-2.3609518E-4,-3.2152034E-2,3.267856E-2,-5.020917E-2,-1.5546885E-2,1.5301834E-2,5.8464978E-2,-1.5511671E-2,-4.290214E-2,-2.5287276E-2,-8.137905E-3,6.8458435E-3,2.0595338E-2,9.426518E-3,1.3982886E-2,-4.8844405E-2,-3.5479438E-2,-2.5501052E-2,-5.314251E-4,-8.940597E-3,5.3973915E-3,-2.7280615E-3,7.4144956E-3,-2.8208485E-3,2.1082997E-2,-1.2540912E-2,-1.0008391E-2,-7.2280145E-3,-1.3017834E-3,-6.068865E-4,-5.141205E-3,-1.2412579E-2,-5.215822E-3,5.757824E-3,5.6260363E-3,3.6455553E-3,2.673721E-2,-2.8128983E-3,-4.2977332E-4,-2.3473799E-4,-1.2785364E-2,-4.2337226E-3,-4.0142257E-3,6.006388E-3,-1.6281167E-3,5.531435E-3,9.418583E-3,-1.1684865E-2,-4.740791E-3,-4.561842E-3,9.208556E-4,4.3661916E-3,7.464734E-3,-4.358721E-3,5.6236866E-3,-2.6910703E-3,-1.4200545E-3,-1.5289135E-3,-2.780382E-3,4.897314E-3,-1.5230417E-3,1.2435359E-3,2.0479748E-3,-2.1043539E-3,-1.8528948E-3,-1.4632345E-4,5.0839502E-3,-8.844972E-4,1.4130622E-3,-5.278396E-4,-2.6396985E-4,1.7910565E-3,8.9905004E-4,3.965179E-4,-1.9701321E-5],"categories":[],"categories_nodes":[],"categories_segments":[],"categories_sizes":[],"default_left":[0,0,0,0,0,0,0,0,0,0,0,0,0,0,0,0,0,0,0,0,0,0,0,0,0,0,0,0,0,0,0,0,0,0,0,0,0,0,0,0,0,0,0,0,0,0,0,0,0,0,0,0,0,0,0,0,0,0,0,0,0,0,0,0,0,0,0,0,0,0,0,0,0,0,0],"id":15,"left_children":[1,3,5,7,9,11,13,-1,15,17,19,21,23,-1,-1,25,27,29,-1,31,-1,-1,33,-1,35,37,-1,-1,-1,-1,-1,39,41,-1,43,-1,45,-1,-1,-1,47,49,-1,51,-1,-1,53,55,-1,57,-1,59,61,-1,-1,-1,-1,-1,63,65,67,-1,-1,69,-1,-1,71,-1,73,-1,-1,-1,-1,-1,-1],"loss_changes":[7.511093E-1,1.0728124E-1,1.5593612E-1,2.7917683E-2,1.34443715E-2,9.25228E-3,1.1704236E-2,0E0,2.7532578E-3,2.611801E-4,3.640335E-3,1.1924785E-3,2.7945265E-3,0E0,0E0,1.9185543E-3,8.6925924E-4,2.1699816E-4,0E0,1.3060076E-3,0E0,0E0,2.8871847E-3,0E0,1.1078566E-3,1.872005E-5,0E0,0E0,0E0,0E0,0E0,2.0461157E-4,6.616439E-4,0E0,5.166838E-4,0E0,1.00383535E-4,0E0,0E0,0E0,9.490363E-5,2.0440342E-4,0E0,1.2378115E-4,0E0,0E0,4.14392E-3,2.3912545E-4,0E0,2.5953667E-4,0E0,1.4628965E-4,7.632421E-6,0E0,0E0,0E0,0E0,0E0,1.2757885E-4,4.8410904E-5,5.506384E-5,0E0,0E0,8.558054E-6,0E0,0E0,6.091548E-6,0E0,3.834116E-6,0E0,0E0,0E0,0E0,0E0,0E0],"parents":[2147483647,0,0,1,1,2,2,3,3,4,4,5,5,6,6,8,8,9,9,10,10,11,11,12,12,15,15,16,16,17,17,19,19,22,22,24,24,25,25,31,31,32,32,34,34,36,36,40,40,41,41,43,43,46,46,47,47,49,49,51,51,52,52,58,58,59,59,60,60,63,63,66,66,68,68],"right_children":[2,4,6,8,10,12,14,-1,16,18,20,22,24,-1,-1,26,28,30,-1,32,-1,-1,34,-1,36,38,-1,-1,-1,-1,-1,40,42,-1,44,-1,46,-1,-1,-1,48,50,-1,52,-1,-1,54,56,-1,58,-1,60,62,-1,-1,-1,-1,-1,64,66,68,-1,-1,70,-1,-1,72,-1,74,-1,-1,-1,-1,-1,-1],"split_conditions":[7.338464E-2,-7.839594E-1,1.416213E0,-1.4881107E0,-3.5637656E-1,4.7828296E-1,1.519335E0,-1.5511671E-2,-1.1275544E0,-5.6651965E-2,1.3659068E0,-1.1718668E0,-1.4885447E0,9.426518E-3,1.3982886E-2,-1.4872458E0,-6.8135244E-1,-8.583804E-1,-5.314251E-4,-1.8839356E-1,5.3973915E-3,-2.7280615E-3,-5.665196E-2,-2.8208485E-3,5.7291275E-1,-1.7049817E0,-1.0008391E-2,-7.2280145E-3,-1.3017834E-3,-6.068865E-4,-5.141205E-3,-3.540153E-1,5.65279E-1,5.757824E-3,5.7291275E-1,3.6455553E-3,1.4175525E0,-2.8128983E-3,-4.2977332E-4,-2.3473799E-4,-5.8170494E-2,4.102787E-1,-4.0142257E-3,1.6801281E-1,-1.6281167E-3,5.531435E-3,1.5593714E0,-1.8663715E-1,-4.740791E-3,-5.729062E-2,9.208556E-4,2.398501E-1,2.2215244E-1,-4.358721E-3,5.6236866E-3,-2.6910703E-3,-1.4200545E-3,-1.5289135E-3,7.246406E-2,-7.839594E-1,5.2218306E-1,1.2435359E-3,2.0479748E-3,-5.619776E-2,-1.8528948E-3,-1.4632345E-4,-5.8170494E-2,-8.844972E-4,-7.836332E-1,-5.278396E-4,-2.6396985E-4,1.7910565E-3,8.9905004E-4,3.965179E-4,-1.9701321E-5],"split_indices":[4,1,6,4,6,11,11,0,4,11,11,11,6,0,0,0,6,10,0,10,0,0,11,0,0,10,0,0,0,0,0,0,0,0,0,0,4,0,0,0,6,11,0,0,0,0,0,0,0,4,0,11,10,0,0,0,0,0,6,1,1,0,0,10,0,0,6,0,0,0,0,0,0,0,0],"split_type":[0,0,0,0,0,0,0,0,0,0,0,0,0,0,0,0,0,0,0,0,0,0,0,0,0,0,0,0,0,0,0,0,0,0,0,0,0,0,0,0,0,0,0,0,0,0,0,0,0,0,0,0,0,0,0,0,0,0,0,0,0,0,0,0,0,0,0,0,0,0,0,0,0,0,0],"sum_hessian":[7.11E2,3.61E2,3.5E2,1.71E2,1.9E2,2.11E2,1.39E2,3.2E1,1.39E2,8E1,1.1E2,8.3E1,1.28E2,7.5E1,6.4E1,7.1E1,6.8E1,7.9E1,1E0,1.09E2,1E0,1E0,8.2E1,1E0,1.27E2,3E0,6.8E1,6.6E1,2E0,1E0,7.8E1,5.4E1,5.5E1,4E0,7.8E1,9E1,3.7E1,2E0,1E0,2E0,5.2E1,5.4E1,1E0,7.7E1,1E0,3.4E1,3E0,5.1E1,1E0,5.3E1,1E0,4E1,3.7E1,1E0,2E0,3.4E1,1.7E1,1.7E1,3.6E1,3.7E1,3E0,3E1,7E0,3.5E1,1E0,1E0,3.6E1,1E0,2E0,1.8E1,1.7E1,1E0,3.5E1,1E0,1E0],"tree_param":{"num_deleted":"0","num_feature":"13","num_nodes":"75","size_leaf_vector":"1"}},{"base_weights":[-9.788917E-4,-2.9414203E-2,2.31666E-2,-5.5322442E-2,-2.136716E-2,1.3183476E-2,5.1639564E-2,-1.2851531E-2,-4.547646E-2,-2.6876906E-2,-8.387037E-3,3.0468581E-3,1.9448642E-2,8.263025E-3,1.1293636E-2,-1.5837848E-3,-9.384449E-3,-6.231161E-3,-2.0283837E-2,1.2949529E-2,-9.58582E-3,1.21110475E-4,4.668909E-3,2.0180965E-2,-4.462971E-3,3.3862812E-3,-2.124435E-2,-1.1583488E-3,4.106144E-3,-2.5514457E-3,-5.8264364E-3,1.5455871E-3,-9.7118056E-4,3.3438446E-3,4.0282225E-3,1.5489068E-2,2.7644513E-2,-5.664269E-4,-4.2837965E-3,-4.0324787E-3,-3.8117678E-3,-1.3656815E-4,3.49052E-4,-2.32393E-4,2.567429E-4,-3.1646863E-3,4.3284427E-3,2.648276E-3,3.6276598E-3,4.2025396E-3,6.1477525E-3,-3.6738924E-4,-1.1607079E-3,1.0742955E-4,-5.765843E-5,-8.255303E-4,-1.8386047E-5,6.404339E-4,1.0157418E-3],"categories":[],"categories_nodes":[],"categories_segments":[],"categories_sizes":[],"default_left":[0,0,0,0,0,0,0,0,0,0,0,0,0,0,0,0,0,0,0,0,0,0,0,0,0,0,0,0,0,0,0,0,0,0,0,0,0,0,0,0,0,0,0,0,0,0,0,0,0,0,0,0,0,0,0,0,0,0,0],"id":16,"left_children":[1,3,5,7,9,11,13,-1,15,17,19,21,23,-1,-1,-1,-1,-1,25,27,29,31,33,35,-1,-1,37,-1,-1,-1,39,41,43,-1,45,47,49,-1,-1,51,-1,-1,-1,-1,53,55,57,-1,-1,-1,-1,-1,-1,-1,-1,-1,-1,-1,-1],"loss_changes":[4.8746473E-1,6.5601856E-2,1.0779008E-1,8.417517E-4,1.7571494E-2,1.8108163E-2,2.694428E-4,0E0,1.5917644E-3,3.7012398E-3,2.2433419E-3,5.303889E-4,6.3141137E-3,0E0,0E0,0E0,0E0,0E0,3.400324E-3,9.4822305E-4,7.455321E-4,6.835169E-5,4.2117666E-4,5.2718073E-3,0E0,0E0,1.1660904E-4,0E0,0E0,0E0,7.4834947E-4,1.0837637E-5,6.453367E-6,0E0,1.8071767E-4,1.8656813E-4,4.2021275E-5,0E0,0E0,1.18661614E-4,0E0,0E0,0E0,0E0,1.0738632E-6,1.1076918E-5,2.5779591E-5,0E0,0E0,0E0,0E0,0E0,0E0,0E0,0E0,0E0,0E0,0E0,0E0],"parents":[2147483647,0,0,1,1,2,2,3,3,4,4,5,5,6,6,8,8,9,9,10,10,11,11,12,12,18,18,19,19,20,20,21,21,22,22,23,23,26,26,30,30,31,31,32,32,34,34,35,35,36,36,39,39,44,44,45,45,46,46],"right_children":[2,4,6,8,10,12,14,-1,16,18,20,22,24,-1,-1,-1,-1,-1,26,28,30,32,34,36,-1,-1,38,-1,-1,-1,40,42,44,-1,46,48,50,-1,-1,52,-1,-1,-1,-1,54,56,58,-1,-1,-1,-1,-1,-1,-1,-1,-1,-1,-1,-1],"split_conditions":[-5.6651965E-2,-1.1718695E0,1.470857E0,-1.6508832E0,-6.707487E-1,4.7828296E-1,1.548222E0,-1.2851531E-2,-1.7045702E0,-8.559672E-1,-6.840072E-1,9.761318E-2,1.4725338E0,8.263025E-3,1.1293636E-2,-1.5837848E-3,-9.384449E-3,-6.231161E-3,-1.1264638E0,-1.1264638E0,-1.8839358E-1,-5.5250634E-2,-5.596988E-2,5.766188E-1,-4.462971E-3,3.3862812E-3,-1.2698379E0,-1.1583488E-3,4.106144E-3,-2.5514457E-3,1.6753723E-1,-7.836332E-1,7.663467E-2,3.3438446E-3,7.522775E-2,5.65279E-1,6.079455E-1,-5.664269E-4,-4.2837965E-3,-1.8748958E-1,-3.8117678E-3,-1.3656815E-4,3.49052E-4,-2.32393E-4,2.9206607E-1,-3.540153E-1,1.6801281E-1,2.648276E-3,3.6276598E-3,4.2025396E-3,6.1477525E-3,-3.6738924E-4,-1.1607079E-3,1.0742955E-4,-5.765843E-5,-8.255303E-4,-1.8386047E-5,6.404339E-4,1.0157418E-3],"split_indices":[11,11,11,11,11,11,11,0,8,11,7,11,0,0,0,0,0,0,0,0,10,8,1,11,0,0,8,0,0,0,1,0,8,0,0,0,10,0,0,8,0,0,0,0,7,0,0,0,0,0,0,0,0,0,0,0,0,0,0],"split_type":[0,0,0,0,0,0,0,0,0,0,0,0,0,0,0,0,0,0,0,0,0,0,0,0,0,0,0,0,0,0,0,0,0,0,0,0,0,0,0,0,0,0,0,0,0,0,0,0,0,0,0,0,0,0,0,0,0,0,0],"sum_hessian":[7.06E2,3.24E2,3.82E2,7.4E1,2.5E2,2.85E2,9.7E1,3.3E1,4.1E1,1.74E2,7.6E1,1.1E2,1.75E2,3.7E1,6E1,2E0,3.9E1,1.01E2,7.3E1,3E0,7.3E1,4E1,7E1,1.73E2,2E0,1E0,7.2E1,1E0,2E0,3.7E1,3.6E1,1.7E1,2.3E1,1E0,6.9E1,1.1E2,6.3E1,1E0,7.1E1,3.4E1,2E0,1E0,1.6E1,2E1,3E0,2E0,6.7E1,6.6E1,4.4E1,2.5E1,3.8E1,1.7E1,1.7E1,2E0,1E0,1E0,1E0,3.1E1,3.6E1],"tree_param":{"num_deleted":"0","num_feature":"13","num_nodes":"59","size_leaf_vector":"1"}},{"base_weights":[-1.5526092E-4,-2.4500601E-2,1.9059224E-2,-4.5272678E-2,-1.7715141E-2,8.2282135E-3,3.7775837E-2,-1.0554117E-2,-3.551114E-2,-2.3249468E-2,-9.170035E-3,5.4565544E-4,1.3906031E-2,2.5994372E-2,8.41293E-3,-8.125996E-3,-7.458463E-3,-5.267986E-3,-1.9715667E-2,-9.750703E-3,1.9282758E-3,1.6821235E-3,-1.149639E-2,1.1881526E-2,1.924765E-2,4.252879E-2,2.2306684E-2,-1.8098474E-3,-2.9553575E-4,-3.9828545E-3,-3.0810534E-4,-1.3929459E-2,-6.986968E-3,-1.8660938E-3,3.6676563E-3,5.583529E-4,-1.3704356E-2,8.952869E-3,2.5904754E-3,6.113097E-3,1.6118169E-2,1.0227966E-2,-3.5095214E-5,7.8857737E-4,4.513727E-3,1.7940204E-4,-1.4391139E-2,-1.6847156E-3,-1.0532239E-3,-5.2252464E-4,-1.2390275E-3,4.333479E-4,7.823796E-4,-6.82766E-3,-3.777279E-3,-2.7391315E-3,1.955501E-3,1.1162087E-3,3.3972058E-3,-1.2283904E-2,-4.5084883E-3,-6.787723E-4,-2.4857488E-3,-2.4095436E-3,6.222487E-4,-7.7049533E-4,4.0060284E-5,-1.2746453E-4,4.251202E-4,-2.7144775E-3,7.6875987E-4,-2.6946064E-4,-5.6371297E-4,-3.1954919E-3,1.1818061E-4,-1.6627027E-4,6.5630476E-4,-8.5622724E-4,-1.0242034E-4],"categories":[],"categories_nodes":[],"categories_segments":[],"categories_sizes":[],"default_left":[0,0,0,0,0,0,0,0,0,0,0,0,0,0,0,0,0,0,0,0,0,0,0,0,0,0,0,0,0,0,0,0,0,0,0,0,0,0,0,0,0,0,0,0,0,0,0,0,0,0,0,0,0,0,0,0,0,0,0,0,0,0,0,0,0,0,0,0,0,0,0,0,0,0,0,0,0,0,0],"id":17,"left_children":[1,3,5,7,9,11,13,-1,15,17,19,21,23,25,-1,27,-1,-1,29,31,-1,33,35,37,39,41,43,-1,-1,-1,-1,45,47,49,51,-1,53,55,-1,-1,57,-1,-1,-1,-1,-1,59,-1,-1,-1,61,-1,-1,63,-1,65,-1,67,-1,69,-1,71,73,-1,-1,-1,-1,-1,-1,-1,-1,75,-1,77,-1,-1,-1,-1,-1],"loss_changes":[3.414801E-1,4.378125E-2,8.208805E-2,1.9610226E-3,1.120729E-2,1.1369687E-2,5.341843E-3,0E0,1.345031E-3,5.777031E-4,1.2803413E-3,1.585127E-3,1.1647381E-3,8.464679E-4,0E0,3.9462466E-6,0E0,0E0,2.1659024E-4,9.3714986E-4,0E0,7.53424E-4,3.9199623E-4,1.2559816E-4,3.6059972E-4,2.2243168E-3,1.9256026E-5,0E0,0E0,0E0,0E0,2.7908664E-4,6.702868E-5,1.1782584E-5,7.975788E-6,0E0,6.281794E-5,4.1030464E-4,0E0,0E0,4.0474627E-4,0E0,0E0,0E0,0E0,0E0,6.454345E-5,0E0,0E0,0E0,1.4087538E-5,0E0,0E0,4.3813835E-4,0E0,1.4633726E-5,0E0,9.789392E-6,0E0,7.90088E-4,0E0,1.5997854E-5,1.9061878E-5,0E0,0E0,0E0,0E0,0E0,0E0,0E0,0E0,4.3366235E-5,0E0,1.3094483E-5,0E0,0E0,0E0,0E0,0E0],"parents":[2147483647,0,0,1,1,2,2,3,3,4,4,5,5,6,6,8,8,9,9,10,10,11,11,12,12,13,13,15,15,18,18,19,19,21,21,22,22,23,23,24,24,25,25,26,26,31,31,32,32,33,33,34,34,36,36,37,37,40,40,46,46,50,50,53,53,55,55,57,57,59,59,61,61,62,62,71,71,73,73],"right_children":[2,4,6,8,10,12,14,-1,16,18,20,22,24,26,-1,28,-1,-1,30,32,-1,34,36,38,40,42,44,-1,-1,-1,-1,46,48,50,52,-1,54,56,-1,-1,58,-1,-1,-1,-1,-1,60,-1,-1,-1,62,-1,-1,64,-1,66,-1,68,-1,70,-1,72,74,-1,-1,-1,-1,-1,-1,-1,-1,76,-1,78,-1,-1,-1,-1,-1],"split_conditions":[-1.6045882E-1,-1.1633499E0,7.0130044E-1,-1.651077E0,-6.796387E-1,4.754174E-1,1.4711738E0,-1.0554117E-2,-1.4872458E0,-8.5174096E-1,-5.8170494E-2,4.7855923E-1,5.696825E-1,1.3716085E0,8.41293E-3,-1.4876777E0,-7.458463E-3,-5.267986E-3,-6.8135244E-1,-3.5637656E-1,1.9282758E-3,1.2413128E-1,7.476673E-2,5.195311E-1,5.718348E-1,1.4684602E0,1.1371324E0,-1.8098474E-3,-2.9553575E-4,-3.9828545E-3,-3.0810534E-4,-8.5174096E-1,-1.8795003E-1,-5.573277E-2,1.2766099E-1,5.583529E-4,5.65279E-1,7.613088E-2,2.5904754E-3,6.113097E-3,-7.836332E-1,1.0227966E-2,-3.5095214E-5,7.8857737E-4,4.513727E-3,1.7940204E-4,-3.5796708E-1,-1.6847156E-3,-1.0532239E-3,-5.2252464E-4,-4.522624E-2,4.333479E-4,7.823796E-4,4.9857727E-1,-3.777279E-3,-3.540153E-1,1.955501E-3,-7.839594E-1,3.3972058E-3,-3.5440895E-1,-4.5084883E-3,1.6801281E-1,7.246406E-2,-2.4095436E-3,6.222487E-4,-7.7049533E-4,4.0060284E-5,-1.2746453E-4,4.251202E-4,-2.7144775E-3,7.6875987E-4,7.430588E-2,-5.6371297E-4,1.6970111E-1,1.1818061E-4,-1.6627027E-4,6.5630476E-4,-8.5622724E-4,-1.0242034E-4],"split_indices":[12,6,12,12,1,6,2,0,0,2,6,0,6,12,0,2,0,0,6,6,0,12,1,6,2,6,9,0,0,0,0,2,9,9,9,0,0,9,0,0,0,0,0,0,0,0,12,0,0,0,12,0,0,12,0,0,0,1,0,1,0,0,6,0,0,0,0,0,0,0,0,2,0,9,0,0,0,0,0],"split_type":[0,0,0,0,0,0,0,0,0,0,0,0,0,0,0,0,0,0,0,0,0,0,0,0,0,0,0,0,0,0,0,0,0,0,0,0,0,0,0,0,0,0,0,0,0,0,0,0,0,0,0,0,0,0,0,0,0,0,0,0,0,0,0,0,0,0,0,0,0,0,0,0,0,0,0,0,0,0,0],"sum_hessian":[7.26E2,3.2E2,4.06E2,7.6E1,2.44E2,2.59E2,1.47E2,3.8E1,3.8E1,1.46E2,9.8E1,1.11E2,1.48E2,4.3E1,1.04E2,3E0,3.5E1,7.1E1,7.5E1,9.6E1,2E0,1.03E2,8E0,1.12E2,3.6E1,4E0,3.9E1,2E0,1E0,7.4E1,1E0,3.5E1,6.1E1,3.7E1,6.6E1,1E0,7E0,3.5E1,7.7E1,4E0,3.2E1,3E0,1E0,1E0,3.8E1,1E0,3.4E1,2.9E1,3.2E1,1.4E1,2.3E1,1.2E1,5.4E1,5E0,2E0,2E0,3.3E1,2E0,3E1,3.1E1,3E0,1.8E1,5E0,3E0,2E0,1E0,1E0,1E0,1E0,2.9E1,2E0,1.7E1,1E0,4E0,1E0,1.6E1,1E0,2E0,2E0],"tree_param":{"num_deleted":"0","num_feature":"13","num_nodes":"79","size_leaf_vector":"1"}},{"base_weights":[-2.727781E-4,-1.9291118E-2,1.5577195E-2,-3.1907167E-2,-1.2668642E-2,8.8822385E-3,6.9679194E-3,-8.45192E-3,-2.6450895E-2,-1.7100826E-2,-7.26834E-3,3.6166369E-3,1.4727292E-2,-7.3429584E-3,-5.400927E-3,-5.516529E-4,-3.4348753E-3,-9.274644E-3,-6.267941E-4,4.204156E-3,2.9054384E-3,1.9765792E-3,1.6631769E-2,-1.6288639E-3,-2.758344E-4,-1.8747954E-3,-1.6800365E-4,-2.236556E-3,4.642819E-3,6.1949133E-3,3.139478E-3,-1.4839545E-3,-1.691229E-3,3.9083036E-3,4.1814367E-3,-3.880236E-4,-7.9955946E-4,2.7150665E-3,6.767144E-3,5.199015E-6,-1.7994836E-4,3.0875683E-3,-5.7200007E-3,2.413829E-4,1.3691608E-3,-4.1988865E-4,3.2432142E-3,-1.3354729E-3,-1.8986067E-4,4.7357343E-4,-7.713942E-4,6.843278E-4,2.2051732E-5],"categories":[],"categories_nodes":[],"categories_segments":[],"categories_sizes":[],"default_left":[0,0,0,0,0,0,0,0,0,0,0,0,0,0,0,0,0,0,0,0,0,0,0,0,0,0,0,0,0,0,0,0,0,0,0,0,0,0,0,0,0,0,0,0,0,0,0,0,0,0,0,0,0],"id":18,"left_children":[1,3,5,7,9,11,-1,-1,13,15,17,19,21,23,-1,-1,-1,25,-1,-1,27,-1,29,-1,-1,-1,-1,31,33,-1,-1,35,-1,-1,37,-1,39,41,43,-1,-1,45,47,-1,-1,49,51,-1,-1,-1,-1,-1,-1],"loss_changes":[2.2215953E-1,2.7180642E-2,5.1223405E-2,4.203759E-3,5.088944E-3,9.157566E-3,0E0,0E0,4.4986978E-4,3.289804E-5,8.0452627E-4,1.870676E-3,9.813588E-4,1.4309189E-6,0E0,0E0,0E0,4.2061787E-5,0E0,0E0,1.4233433E-3,0E0,3.543198E-4,0E0,0E0,0E0,0E0,1.6681873E-4,6.477083E-4,0E0,0E0,9.073163E-6,0E0,0E0,4.0687132E-4,0E0,1.6181912E-6,2.8040382E-4,1.4073448E-6,0E0,0E0,4.4213608E-5,5.5914716E-6,0E0,0E0,6.617432E-5,4.0052226E-5,0E0,0E0,0E0,0E0,0E0,0E0],"parents":[2147483647,0,0,1,1,2,2,3,3,4,4,5,5,8,8,9,9,10,10,11,11,12,12,13,13,17,17,20,20,22,22,27,27,28,28,31,31,34,34,36,36,37,37,38,38,41,41,42,42,45,45,46,46],"right_children":[2,4,6,8,10,12,-1,-1,14,16,18,20,22,24,-1,-1,-1,26,-1,-1,28,-1,30,-1,-1,-1,-1,32,34,-1,-1,36,-1,-1,38,-1,40,42,44,-1,-1,46,48,-1,-1,50,52,-1,-1,-1,-1,-1,-1],"split_conditions":[-1.6045882E-1,-1.1365763E0,1.4711738E0,-1.651077E0,-6.858422E-1,5.240077E-1,6.9679194E-3,-8.45192E-3,-1.7043499E0,-1.1622798E0,-2.772992E-1,-1.8882652E-1,5.686593E-1,-1.4876777E0,-5.400927E-3,-5.516529E-4,-3.4348753E-3,1.7075361E-1,-6.267941E-4,4.204156E-3,4.272476E-2,1.9765792E-3,-1.8701546E-1,-1.6288639E-3,-2.758344E-4,-1.8747954E-3,-1.6800365E-4,1.6753723E-1,-5.665196E-2,6.1949133E-3,3.139478E-3,-5.710051E-2,-1.691229E-3,3.9083036E-3,4.347896E-1,-3.880236E-4,-5.665196E-2,4.102787E-1,-5.4754622E-2,5.199015E-6,-1.7994836E-4,1.2413128E-1,4.780349E-1,2.413829E-4,1.3691608E-3,1.2585641E-1,2.398501E-1,-1.3354729E-3,-1.8986067E-4,4.7357343E-4,-7.713942E-4,6.843278E-4,2.2051732E-5],"split_indices":[12,12,2,12,12,12,0,0,7,2,12,11,12,2,0,0,0,7,0,0,12,0,7,0,0,0,0,1,11,0,0,12,0,0,11,0,11,11,7,0,0,12,1,0,0,1,11,0,0,0,0,0,0],"split_type":[0,0,0,0,0,0,0,0,0,0,0,0,0,0,0,0,0,0,0,0,0,0,0,0,0,0,0,0,0,0,0,0,0,0,0,0,0,0,0,0,0,0,0,0,0,0,0,0,0,0,0,0,0],"sum_hessian":[7.33E2,3.33E2,4E2,1.12E2,2.21E2,2.99E2,1.01E2,3.4E1,7.8E1,1.19E2,1.02E2,1.59E2,1.4E2,3E0,7.5E1,1E0,1.18E2,6.7E1,3.5E1,4E0,1.55E2,4.3E1,9.7E1,2E0,1E0,6.6E1,1E0,3.9E1,1.16E2,2E0,9.5E1,3.7E1,2E0,1E0,1.15E2,2E1,1.7E1,7.6E1,3.9E1,2E0,1.5E1,7.4E1,2E0,1E0,3.8E1,3E0,7.1E1,1E0,1E0,2E0,1E0,6.7E1,4E0],"tree_param":{"num_deleted":"0","num_feature":"13","num_nodes":"53","size_leaf_vector":"1"}},{"base_weights":[-1.330051E-4,-1.744329E-2,1.16774365E-2,-5.8506504E-3,-1.3312272E-2,4.785994E-3,2.5636813E-2,-1.6588353E-2,-9.475952E-3,-6.495072E-4,1.0045451E-2,2.083768E-2,6.1834166E-3,-1.697634E-2,-2.3689806E-4,-1.0710124E-2,-1.127075E-3,3.785905E-5,-4.9452516E-3,6.4237686E-3,8.978799E-3,8.257222E-3,1.8968621E-2,-8.304358E-4,-3.4265183E-3,3.9643445E-4,-1.0926444E-2,-2.5404443E-3,2.2185296E-3,1.5620877E-3,1.2017515E-2,1.4214136E-2,4.489984E-3,-1.0105053E-2,-3.7424923E-3,-7.4650964E-4,-1.2712922E-3,2.4262967E-3,-2.8383133E-3,1.9051671E-3,2.564271E-3,1.4718618E-2,5.13345E-4,-1.0397817E-2,2.1722913E-4,-3.2021565E-4,-7.8193017E-4,1.9849702E-3,9.884116E-4,4.8955786E-4,-1.2464415E-3,-1.645883E-4,5.9973303E-4,5.267064E-4,2.982684E-3,-3.414949E-5,-2.10741E-3,-3.0706724E-4,3.64995E-4,-1.0801857E-4,-2.716629E-4,-1.8601566E-4,2.1481286E-3,1.1866782E-3,1.8395999E-3,2.1992296E-4,5.489588E-4],"categories":[],"categories_nodes":[],"categories_segments":[],"categories_sizes":[],"default_left":[0,0,0,0,0,0,0,0,0,0,0,0,0,0,0,0,0,0,0,0,0,0,0,0,0,0,0,0,0,0,0,0,0,0,0,0,0,0,0,0,0,0,0,0,0,0,0,0,0,0,0,0,0,0,0,0,0,0,0,0,0,0,0,0,0,0,0],"id":19,"left_children":[1,3,5,-1,7,9,11,13,15,17,19,21,-1,23,-1,25,-1,27,-1,-1,29,-1,31,-1,-1,-1,33,35,37,-1,39,41,-1,43,-1,-1,45,47,49,51,-1,53,-1,55,57,-1,59,61,-1,-1,-1,-1,-1,-1,-1,-1,-1,-1,-1,-1,-1,-1,63,-1,65,-1,-1],"loss_changes":[1.4719683E-1,1.3466999E-2,4.0928304E-2,0E0,2.4506003E-3,8.274918E-3,2.2845566E-3,6.5305457E-4,3.8172211E-4,2.3850068E-3,2.8842846E-3,1.4912635E-3,0E0,8.415431E-5,0E0,2.574725E-4,0E0,8.096571E-4,0E0,0E0,3.1997077E-4,0E0,6.36274E-4,0E0,0E0,0E0,1.14262104E-4,9.036512E-5,9.5723575E-5,0E0,2.4377974E-4,1.4772685E-4,0E0,2.2814516E-4,0E0,0E0,3.1446034E-6,6.476106E-5,1.02272126E-4,1.9851355E-5,0E0,6.201677E-6,0E0,9.892648E-5,1.687462E-5,0E0,1.0418107E-6,3.6337675E-5,0E0,0E0,0E0,0E0,0E0,0E0,0E0,0E0,0E0,0E0,0E0,0E0,0E0,0E0,5.4080883E-5,0E0,3.6162863E-5,0E0,0E0],"parents":[2147483647,0,0,1,1,2,2,4,4,5,5,6,6,7,7,8,8,9,9,10,10,11,11,13,13,15,15,17,17,20,20,22,22,26,26,27,27,28,28,30,30,31,31,33,33,36,36,37,37,38,38,39,39,41,41,43,43,44,44,46,46,47,47,62,62,64,64],"right_children":[2,4,6,-1,8,10,12,14,16,18,20,22,-1,24,-1,26,-1,28,-1,-1,30,-1,32,-1,-1,-1,34,36,38,-1,40,42,-1,44,-1,-1,46,48,50,52,-1,54,-1,56,58,-1,60,62,-1,-1,-1,-1,-1,-1,-1,-1,-1,-1,-1,-1,-1,-1,64,-1,66,-1,-1],"split_conditions":[-1.8789664E-1,-1.1625471E0,1.4182229E0,-5.8506504E-3,-7.839594E-1,4.754174E-1,1.568285E0,5.696825E-1,-3.5637656E-1,5.6474113E-1,-5.6410253E-2,-1.8701546E-1,6.1834166E-3,-1.1620128E0,-2.3689806E-4,-8.5174096E-1,-1.127075E-3,7.564451E-2,-4.9452516E-3,6.4237686E-3,5.696825E-1,8.257222E-3,1.4704945E0,-8.304358E-4,-3.4265183E-3,3.9643445E-4,-3.5480255E-1,-1.2569538E-1,5.3970295E-1,1.5620877E-3,-3.558658E-1,1.4684602E0,4.489984E-3,-5.4754693E-2,-3.7424923E-3,-7.4650964E-4,-5.4754622E-2,1.7314304E-1,7.476673E-2,-7.839594E-1,2.564271E-3,2.9206607E-1,5.13345E-4,-8.583804E-1,-3.5440895E-1,-3.2021565E-4,8.989687E-3,-3.5637656E-1,9.884116E-4,4.8955786E-4,-1.2464415E-3,-1.645883E-4,5.9973303E-4,5.267064E-4,2.982684E-3,-3.414949E-5,-2.10741E-3,-3.0706724E-4,3.64995E-4,-1.0801857E-4,-2.716629E-4,-1.8601566E-4,-5.8170494E-2,1.1866782E-3,1.6753723E-1,2.1992296E-4,5.489588E-4],"split_indices":[3,3,3,0,1,6,10,6,6,1,2,7,0,1,0,2,0,10,0,0,6,0,3,0,0,0,2,10,10,0,7,6,0,7,0,0,7,10,1,1,0,7,0,10,1,0,10,6,0,0,0,0,0,0,0,0,0,0,0,0,0,0,6,0,1,0,0],"split_type":[0,0,0,0,0,0,0,0,0,0,0,0,0,0,0,0,0,0,0,0,0,0,0,0,0,0,0,0,0,0,0,0,0,0,0,0,0,0,0,0,0,0,0,0,0,0,0,0,0,0,0,0,0,0,0,0,0,0,0,0,0,0,0,0,0,0,0],"sum_hessian":[7.16E2,2.9E2,4.26E2,7.2E1,2.18E2,2.87E2,1.39E2,1.14E2,1.04E2,1.42E2,1.45E2,7.8E1,6.1E1,1.11E2,3E0,7.6E1,2.8E1,1.4E2,2E0,4E0,1.41E2,3E0,7.5E1,2E0,1.09E2,1E0,7.5E1,6.4E1,7.6E1,1.07E2,3.4E1,3.6E1,3.9E1,7.2E1,3E0,3.1E1,3.3E1,7.4E1,2E0,3E0,3.1E1,3.4E1,2E0,7E1,2E0,1.7E1,1.6E1,6.6E1,8E0,1E0,1E0,1E0,2E0,1E0,3.3E1,1E0,6.9E1,1E0,1E0,1.4E1,2E0,3E0,6.3E1,2E0,6.1E1,3.6E1,2.5E1],"tree_param":{"num_deleted":"0","num_feature":"13","num_nodes":"67","size_leaf_vector":"1"}},{"base_weights":[-1.6999505E-4,-1.2561508E-2,9.725783E-3,-2.444589E-2,-8.924795E-3,4.2883838E-3,1.9284608E-2,-5.746504E-3,-1.9489538E-2,-1.1860119E-2,-4.5894347E-3,1.433908E-3,7.0354478E-3,1.4877585E-2,4.8205233E-3,1.3260047E-4,-4.0053003E-3,-2.700594E-3,-1.014753E-2,-6.143011E-3,-2.8946488E-3,3.260066E-3,8.3078357E-4,7.467395E-3,-3.3321083E-3,7.26635E-3,1.3143078E-2,-9.1409683E-4,-1.0358145E-2,-1.4678543E-4,-1.2437608E-3,-5.006671E-4,-3.0158372E-3,-2.031838E-3,2.13085E-3,1.2570843E-3,1.830883E-3,-1.1307023E-2,1.4071835E-2,-6.1376096E-4,3.700018E-4,-3.187259E-5,-2.0969626E-3,-3.806621E-4,3.4066042E-4,-4.2503844E-3,-4.5306204E-4,-1.3891367E-3,-1.4564515E-3,1.2058755E-2,1.379919E-3,-4.1301252E-4,-2.6021937E-3,5.9440415E-3,2.616765E-3,-8.994464E-4,-2.3990274E-4,-3.6327032E-4,-6.889025E-4,1.4075438E-4,1.4048244E-2,-1.6185165E-3,1.6853674E-3,3.326262E-5,-1.5175511E-4,3.1693706E-3,4.5692065E-4,1.9159162E-3,-1.1633456E-3,-2.756291E-3,2.099336E-3,6.406854E-5,-7.9907954E-4,2.808125E-4,5.2403536E-4],"categories":[],"categories_nodes":[],"categories_segments":[],"categories_sizes":[],"default_left":[0,0,0,0,0,0,0,0,0,0,0,0,0,0,0,0,0,0,0,0,0,0,0,0,0,0,0,0,0,0,0,0,0,0,0,0,0,0,0,0,0,0,0,0,0,0,0,0,0,0,0,0,0,0,0,0,0,0,0,0,0,0,0,0,0,0,0,0,0,0,0,0,0,0,0],"id":20,"left_children":[1,3,5,7,9,11,13,-1,15,17,19,21,23,25,-1,-1,-1,-1,27,29,31,-1,33,35,-1,-1,37,39,41,-1,-1,43,45,47,49,-1,-1,51,53,-1,-1,-1,-1,-1,-1,55,-1,57,-1,59,61,-1,-1,-1,-1,-1,-1,-1,63,-1,65,-1,67,-1,-1,-1,-1,69,-1,71,73,-1,-1,-1,-1],"loss_changes":[8.975962E-2,1.36101805E-2,2.0988487E-2,4.7348812E-4,3.0980092E-3,2.0342777E-3,2.4040826E-3,0E0,4.7022197E-4,1.4517456E-4,2.4089939E-4,1.1475014E-3,1.6101329E-3,2.096394E-3,0E0,0E0,0E0,0E0,1.3858452E-4,1.2599863E-5,1.2646749E-5,0E0,4.8502366E-4,1.4813058E-4,0E0,0E0,2.112168E-3,3.5177996E-5,9.8714605E-5,0E0,0E0,2.1940737E-5,2.799774E-5,1.181204E-4,6.302302E-4,0E0,0E0,9.25432E-6,4.1276962E-4,0E0,0E0,0E0,0E0,0E0,0E0,2.0137231E-6,0E0,9.164287E-6,0E0,1.15770206E-4,2.7321355E-4,0E0,0E0,0E0,0E0,0E0,0E0,0E0,1.328006E-6,0E0,3.3383258E-5,0E0,1.6757504E-4,0E0,0E0,0E0,0E0,8.270168E-5,0E0,1.7808894E-5,2.1974498E-5,0E0,0E0,0E0,0E0],"parents":[2147483647,0,0,1,1,2,2,3,3,4,4,5,5,6,6,8,8,9,9,10,10,11,11,12,12,13,13,18,18,19,19,20,20,22,22,23,23,26,26,27,27,28,28,31,31,32,32,33,33,34,34,37,37,38,38,45,45,47,47,49,49,50,50,58,58,60,60,62,62,67,67,69,69,70,70],"right_children":[2,4,6,8,10,12,14,-1,16,18,20,22,24,26,-1,-1,-1,-1,28,30,32,-1,34,36,-1,-1,38,40,42,-1,-1,44,46,48,50,-1,-1,52,54,-1,-1,-1,-1,-1,-1,56,-1,58,-1,60,62,-1,-1,-1,-1,-1,-1,-1,64,-1,66,-1,68,-1,-1,-1,-1,70,-1,72,74,-1,-1,-1,-1],"split_conditions":[-1.6045882E-1,-1.2706478E0,7.0130044E-1,-1.4876777E0,-6.858422E-1,4.7828296E-1,1.548222E0,-5.746504E-3,-1.7045702E0,-8.587057E-1,-3.5674435E-1,-3.5480255E-1,1.4188939E0,-1.8701546E-1,4.8205233E-3,1.3260047E-4,-4.0053003E-3,-2.700594E-3,-8.5174096E-1,-7.842857E-1,-3.5480255E-1,3.260066E-3,4.272476E-2,5.703292E-1,-3.3321083E-3,7.26635E-3,1.1478399E0,-1.4876777E0,-1.2698379E0,-1.4678543E-4,-1.2437608E-3,-5.5732775E-2,-1.8925396E-1,7.430588E-2,7.430588E-2,1.2570843E-3,1.830883E-3,5.718348E-1,1.1471989E0,-6.1376096E-4,3.700018E-4,-3.187259E-5,-2.0969626E-3,-3.806621E-4,3.4066042E-4,3.7741032E-1,-4.5306204E-4,-5.710051E-2,-1.4564515E-3,-5.6410253E-2,-1.1713104E0,-4.1301252E-4,-2.6021937E-3,5.9440415E-3,2.616765E-3,-8.994464E-4,-2.3990274E-4,-3.6327032E-4,-5.4754622E-2,1.4075438E-4,-5.4754622E-2,-1.6185165E-3,1.1498281E0,3.326262E-5,-1.5175511E-4,3.1693706E-3,4.5692065E-4,1.2413128E-1,-1.1633456E-3,1.2538755E-1,1.6870914E-1,6.406854E-5,-7.9907954E-4,2.808125E-4,5.2403536E-4],"split_indices":[12,11,12,2,12,11,11,0,8,11,9,2,2,7,0,0,0,0,2,2,2,0,12,9,0,0,11,2,8,0,0,9,12,2,2,0,0,2,12,0,0,0,0,0,0,7,0,12,0,2,9,0,0,0,0,0,0,0,7,0,7,0,8,0,0,0,0,12,0,2,11,0,0,0,0],"split_type":[0,0,0,0,0,0,0,0,0,0,0,0,0,0,0,0,0,0,0,0,0,0,0,0,0,0,0,0,0,0,0,0,0,0,0,0,0,0,0,0,0,0,0,0,0,0,0,0,0,0,0,0,0,0,0,0,0,0,0,0,0,0,0,0,0,0,0,0,0,0,0,0,0,0,0],"sum_hessian":[7.28E2,3.23E2,4.05E2,7.3E1,2.5E2,2.6E2,1.45E2,3.4E1,3.9E1,1.47E2,1.03E2,1.29E2,1.31E2,8E1,6.5E1,1E0,3.8E1,6.8E1,7.9E1,5.1E1,5.2E1,3E0,1.26E2,1.3E2,1E0,3E0,7.7E1,2E0,7.7E1,1E0,5E1,3E0,4.9E1,3.9E1,8.7E1,8.2E1,4.8E1,2E0,7.5E1,1E0,1E0,1E0,7.6E1,2E0,1E0,1.5E1,3.4E1,3.7E1,2E0,4E0,8.3E1,1E0,1E0,1E0,7.4E1,1.3E1,2E0,2.1E1,1.6E1,1E0,3E0,1E0,8.2E1,1E0,1.5E1,2E0,1E0,8.1E1,1E0,2E0,7.9E1,1E0,1E0,3.7E1,4.2E1],"tree_param":{"num_deleted":"0","num_feature":"13","num_nodes":"75","size_leaf_vector":"1"}},{"base_weights":[-6.3314463E-4,-9.064554E-3,1.1888798E-2,-1.5649442E-2,-3.533437E-3,5.976146E-3,1.7522823E-2,-4.800761E-3,-1.3298324E-2,-2.9074273E-3,-6.3335444E-3,4.6336614E-3,5.291439E-3,4.380293E-2,1.5610383E-2,5.0703686E-4,-1.3430627E-2,-5.2354042E-3,4.6420377E-5,-1.0199187E-3,5.730559E-3,9.24836E-3,1.6194662E-3,1.2936342E-2,4.798775E-3,-3.208492E-3,-1.1311029E-2,2.5447288E-3,-5.5667507E-3,6.5100606E-4,-1.024701E-2,-5.604862E-3,3.2014379E-3,3.3323187E-3,5.3978204E-3,9.485877E-3,2.877123E-3,-1.05986195E-2,-5.171009E-3,-6.795335E-3,-3.9802506E-3,-1.505776E-3,1.8730622E-3,-3.974683E-3,2.5256674E-3,-6.416367E-3,-1.0315577E-4,2.0619652E-3,-1.4199018E-3,4.7148983E-3,1.4081158E-3,3.171444E-4,1.9220635E-3,-1.0770126E-2,3.4533342E-4,-1.7376423E-3,-1.3934722E-3,-4.1936743E-3,6.0257263E-4,-5.853859E-4,-3.2442113E-4,1.6032315E-3,8.073916E-4,-1.5013419E-3,-1.3699973E-4,-6.311074E-3,8.3624426E-4,5.199663E-3,4.7921116E-4,-2.1728068E-3,-1.4830432E-4,-4.1210055E-4,-2.974669E-5,-4.8157782E-4,-5.661549E-3,-7.598769E-5,5.9797367E-5,1.5541837E-4,3.6236204E-4,-1.5106162E-3,-1.723369E-4,5.7993084E-4,5.301936E-3,-1.8077191E-3,-3.5541311E-3,4.7092637E-4,-3.1627816E-4,8.091954E-4,1.1888988E-3,-4.819849E-4,-1.341861E-3],"categories":[],"categories_nodes":[],"categories_segments":[],"categories_sizes":[],"default_left":[0,0,0,0,0,0,0,0,0,0,0,0,0,0,0,0,0,0,0,0,0,0,0,0,0,0,0,0,0,0,0,0,0,0,0,0,0,0,0,0,0,0,0,0,0,0,0,0,0,0,0,0,0,0,0,0,0,0,0,0,0,0,0,0,0,0,0,0,0,0,0,0,0,0,0,0,0,0,0,0,0,0,0,0,0,0,0,0,0,0,0],"id":21,"left_children":[1,3,5,7,9,11,13,-1,15,17,-1,-1,19,21,23,-1,25,27,29,31,33,-1,-1,35,-1,-1,37,-1,39,41,43,45,47,-1,49,51,-1,53,-1,55,57,59,61,-1,-1,63,-1,-1,65,67,-1,-1,-1,69,-1,71,-1,73,-1,-1,75,77,-1,-1,-1,79,-1,81,-1,-1,-1,-1,-1,-1,83,-1,-1,-1,-1,-1,-1,85,87,-1,89,-1,-1,-1,-1,-1,-1],"loss_changes":[7.686489E-2,1.5732884E-2,9.550992E-3,3.2507144E-3,4.0252055E-3,1.4734645E-3,6.1210506E-3,0E0,4.0117465E-4,1.6233376E-3,0E0,0E0,4.080059E-4,3.4861267E-5,2.5625378E-3,0E0,5.117804E-4,9.271463E-4,6.730073E-4,2.4878868E-4,3.075092E-4,0E0,0E0,2.871547E-4,0E0,0E0,4.2590685E-4,0E0,2.012439E-4,2.744831E-4,1.8231804E-3,1.8160048E-5,2.5922977E-4,0E0,8.2818326E-5,7.861992E-6,0E0,2.3378339E-4,0E0,3.756024E-5,1.1780474E-4,6.189857E-5,2.5592104E-5,0E0,0E0,2.0961612E-5,0E0,0E0,2.1715234E-4,8.74917E-5,0E0,0E0,0E0,7.052999E-5,0E0,1.9520494E-6,0E0,1.32635E-4,0E0,0E0,1.0232222E-6,7.8676385E-6,0E0,0E0,0E0,1.4055986E-5,0E0,3.2121083E-5,0E0,0E0,0E0,0E0,0E0,0E0,1.6349042E-4,0E0,0E0,0E0,0E0,0E0,0E0,2.2789984E-5,1.5652506E-5,0E0,5.069605E-5,0E0,0E0,0E0,0E0,0E0,0E0],"parents":[2147483647,0,0,1,1,2,2,3,3,4,4,5,5,6,6,8,8,9,9,12,12,13,13,14,14,16,16,17,17,18,18,19,19,20,20,23,23,26,26,28,28,29,29,30,30,31,31,32,32,34,34,35,35,37,37,39,39,40,40,41,41,42,42,45,45,48,48,49,49,53,53,55,55,57,57,60,60,61,61,65,65,67,67,74,74,81,81,82,82,84,84],"right_children":[2,4,6,8,10,12,14,-1,16,18,-1,-1,20,22,24,-1,26,28,30,32,34,-1,-1,36,-1,-1,38,-1,40,42,44,46,48,-1,50,52,-1,54,-1,56,58,60,62,-1,-1,64,-1,-1,66,68,-1,-1,-1,70,-1,72,-1,74,-1,-1,76,78,-1,-1,-1,80,-1,82,-1,-1,-1,-1,-1,-1,84,-1,-1,-1,-1,-1,-1,86,88,-1,90,-1,-1,-1,-1,-1,-1],"split_conditions":[4.7594035E-1,-7.852651E-1,1.4168825E0,-1.4883275E0,4.764636E-1,7.338464E-2,5.7832867E-1,-4.800761E-3,-1.487894E0,-5.773062E-2,-6.3335444E-3,4.6336614E-3,-3.563119E-1,1.4704945E0,1.5684819E0,5.0703686E-4,-1.1710114E0,-1.1625471E0,2.9166114E-1,5.2112144E-1,7.384518E-2,9.24836E-3,1.6194662E-3,1.4704945E0,4.798775E-3,-3.208492E-3,-6.80324E-1,2.5447288E-3,-3.5598314E-1,9.761318E-2,4.769871E-1,-6.8439895E-1,-6.854942E-1,3.3323187E-3,5.723736E-1,1.1498281E0,2.877123E-3,-6.796387E-1,-5.171009E-3,-1.2698379E0,1.6658662E-1,-5.5250634E-2,2.2481224E-1,-3.974683E-3,2.5256674E-3,5.7075804E-1,-1.0315577E-4,2.0619652E-3,-7.839594E-1,5.709141E-1,1.4081158E-3,3.171444E-4,1.9220635E-3,-7.849385E-1,3.4533342E-4,-1.1620128E0,-1.3934722E-3,-1.874896E-1,6.0257263E-4,-5.853859E-4,7.476673E-2,1.2817323E-1,8.073916E-4,-1.5013419E-3,-1.3699973E-4,-1.1267362E0,8.3624426E-4,4.347896E-1,4.7921116E-4,-2.1728068E-3,-1.4830432E-4,-4.1210055E-4,-2.974669E-5,-4.8157782E-4,-1.8748958E-1,-7.598769E-5,5.9797367E-5,1.5541837E-4,3.6236204E-4,-1.5106162E-3,-1.723369E-4,7.476673E-2,5.2218306E-1,-1.8077191E-3,-5.7330016E-2,4.7092637E-4,-3.1627816E-4,8.091954E-4,1.1888988E-3,-4.819849E-4,-1.341861E-3],"split_indices":[5,5,5,5,4,4,8,0,3,5,0,0,8,3,1,0,8,3,11,3,3,0,0,3,0,0,3,0,5,11,3,8,11,0,1,8,0,1,0,8,3,8,8,0,0,4,0,0,1,8,0,0,0,4,0,1,0,8,0,0,1,8,0,0,0,1,0,11,0,0,0,0,0,0,8,0,0,0,0,0,0,1,1,0,11,0,0,0,0,0,0],"split_type":[0,0,0,0,0,0,0,0,0,0,0,0,0,0,0,0,0,0,0,0,0,0,0,0,0,0,0,0,0,0,0,0,0,0,0,0,0,0,0,0,0,0,0,0,0,0,0,0,0,0,0,0,0,0,0,0,0,0,0,0,0,0,0,0,0,0,0,0,0,0,0,0,0,0,0,0,0,0,0,0,0,0,0,0,0,0,0,0,0,0,0],"sum_hessian":[7.24E2,4.33E2,2.91E2,1.96E2,2.37E2,1.44E2,1.47E2,3.9E1,1.57E2,2.34E2,3E0,3E0,1.41E2,7E0,1.4E2,1E0,1.56E2,1.3E2,1.04E2,9E0,1.32E2,6E0,1E0,1.1E2,3E1,6.4E1,9.2E1,1E0,1.29E2,1E2,4E0,4E0,5E0,1E0,1.31E2,3.7E1,7.3E1,9.1E1,1E0,6.9E1,6E1,3.6E1,6.4E1,3E0,1E0,3E0,1E0,1E0,4E0,9.8E1,3.3E1,1E0,3.6E1,9E1,1E0,3E0,6.6E1,5.9E1,1E0,1.5E1,2.1E1,6E1,4E0,2E0,1E0,2E0,2E0,7.9E1,1.9E1,8.9E1,1E0,2E0,1E0,2.9E1,3E1,2E1,1E0,1.4E1,4.6E1,1E0,1E0,2E0,7.7E1,9E0,2.1E1,1E0,1E0,3.1E1,4.6E1,1.8E1,3E0],"tree_param":{"num_deleted":"0","num_feature":"13","num_nodes":"91","size_leaf_vector":"1"}},{"base_weights":[-2.6325014E-4,-7.156304E-3,9.739304E-3,-1.6355846E-2,-4.980156E-3,5.1210565E-3,1.4446166E-2,-4.009672E-3,-1.2674659E-2,-4.4850865E-3,-6.357322E-3,4.4314372E-3,4.240138E-3,7.6399907E-3,1.3052103E-2,1.4566382E-3,-2.817972E-3,-7.790176E-3,-9.911392E-4,3.6800562E-3,5.7063247E-3,1.0703341E-2,4.124023E-3,4.7527553E-4,-3.8284063E-5,-7.4694203E-3,-2.8883812E-3,-2.5833477E-3,1.795099E-3,3.9923373E-3,4.0792066E-4,1.866738E-4,1.1574107E-3,1.5491666E-3,2.3723028E-3,-8.528143E-3,-5.667924E-3,-2.320338E-3,-1.4251628E-3,2.0226354E-3,-8.208106E-4,2.8997015E-3,9.514034E-4,-1.7243441E-3,-3.708899E-4,-6.0081333E-3,-8.89429E-4,-2.8983937E-3,-5.030124E-4,2.2250437E-4,2.7550065E-3,3.0031772E-3,3.8922578E-4,-2.7763845E-5,-1.2191007E-3,3.2231014E-4,-3.6868852E-4,-2.93567E-4,-3.2378195E-3,-1.8766866E-4,-4.6024806E-4,7.774974E-4,1.8353584E-3,9.812693E-4,2.5322211E-3,-1.608471E-4,2.6464064E-4,-4.1171755E-3,-4.4911867E-4,-6.4217485E-4,5.2664056E-4,2.7537707E-4,5.6868256E-4,-3.2094866E-3,3.043718E-3,-4.6843506E-4,-9.983368E-4,-4.0762188E-4,-4.9730003E-5,-7.595837E-4,-9.6279386E-5,6.526943E-4,-2.9519398E-4],"categories":[],"categories_nodes":[],"categories_segments":[],"categories_sizes":[],"default_left":[0,0,0,0,0,0,0,0,0,0,0,0,0,0,0,0,0,0,0,0,0,0,0,0,0,0,0,0,0,0,0,0,0,0,0,0,0,0,0,0,0,0,0,0,0,0,0,0,0,0,0,0,0,0,0,0,0,0,0,0,0,0,0,0,0,0,0,0,0,0,0,0,0,0,0,0,0,0,0,0,0,0,0],"id":22,"left_children":[1,3,5,7,9,11,13,-1,15,17,-1,-1,19,-1,21,23,-1,25,27,29,31,33,-1,-1,-1,35,-1,37,39,41,-1,-1,-1,-1,-1,43,45,47,-1,49,-1,51,-1,-1,-1,53,55,57,59,-1,61,63,65,-1,-1,-1,-1,-1,67,69,-1,-1,71,-1,73,-1,-1,75,-1,77,-1,-1,-1,79,81,-1,-1,-1,-1,-1,-1,-1,-1],"loss_changes":[4.9851004E-2,8.405466E-3,6.2645916E-3,5.9280545E-4,4.3464694E-3,2.0932318E-3,3.8043875E-3,0E0,9.6098566E-4,3.968552E-3,0E0,0E0,7.871492E-5,0E0,2.047157E-3,1.000448E-5,0E0,1.6189832E-4,7.6344097E-4,4.109007E-5,3.4536934E-6,1.9645412E-4,0E0,0E0,0E0,2.3328699E-4,0E0,9.715516E-5,1.0116513E-4,4.9279653E-5,0E0,0E0,0E0,0E0,0E0,3.3596065E-5,1.0311091E-4,1.0843878E-4,0E0,3.5195553E-5,0E0,8.8324305E-6,0E0,0E0,0E0,3.163959E-5,2.2643382E-5,2.9340328E-5,1.5013937E-5,0E0,2.0099076E-5,1.1900789E-5,6.5869986E-6,0E0,0E0,0E0,0E0,0E0,3.647775E-5,3.6716643E-5,0E0,0E0,2.3375396E-6,0E0,1.2820154E-4,0E0,0E0,2.4737034E-5,0E0,1.2170487E-5,0E0,0E0,0E0,2.7645656E-6,4.4396234E-5,0E0,0E0,0E0,0E0,0E0,0E0,0E0,0E0],"parents":[2147483647,0,0,1,1,2,2,3,3,4,4,5,5,6,6,8,8,9,9,12,12,14,14,15,15,17,17,18,18,19,19,20,20,21,21,25,25,27,27,28,28,29,29,35,35,36,36,37,37,39,39,41,41,45,45,46,46,47,47,48,48,50,50,51,51,52,52,58,58,59,59,62,62,64,64,67,67,69,69,73,73,74,74],"right_children":[2,4,6,8,10,12,14,-1,16,18,-1,-1,20,-1,22,24,-1,26,28,30,32,34,-1,-1,-1,36,-1,38,40,42,-1,-1,-1,-1,-1,44,46,48,-1,50,-1,52,-1,-1,-1,54,56,58,60,-1,62,64,66,-1,-1,-1,-1,-1,68,70,-1,-1,72,-1,74,-1,-1,76,-1,78,-1,-1,-1,80,82,-1,-1,-1,-1,-1,-1,-1,-1],"split_conditions":[4.7594035E-1,-1.1630821E0,1.4168825E0,-1.4883275E0,5.6474113E-1,7.384518E-2,5.7832867E-1,-4.009672E-3,-1.4872458E0,-3.5598314E-1,-6.357322E-3,4.4314372E-3,5.7291275E-1,7.6399907E-3,1.5684819E0,-1.487894E0,-2.817972E-3,-3.5519612E-1,7.292427E-2,5.709141E-1,9.958092E-3,1.4691378E0,4.124023E-3,4.7527553E-4,-3.8284063E-5,-7.839594E-1,-2.8883812E-3,1.6801281E-1,4.7855923E-1,5.227143E-1,4.0792066E-4,1.866738E-4,1.1574107E-3,1.5491666E-3,2.3723028E-3,-7.8461206E-1,-5.6248885E-1,-5.5250634E-2,-1.4251628E-3,1.6801281E-1,-8.208106E-4,5.712963E-1,9.514034E-4,-1.7243441E-3,-3.708899E-4,-1.2698379E0,-8.520568E-1,-3.5631183E-1,7.384518E-2,2.2250437E-4,1.6970113E-1,-6.847778E-1,-7.839594E-1,-2.7763845E-5,-1.2191007E-3,3.2231014E-4,-3.6868852E-4,-2.93567E-4,-1.8748958E-1,7.476673E-2,-4.6024806E-4,7.774974E-4,2.2481224E-1,9.812693E-4,-3.563119E-1,-1.608471E-4,2.6464064E-4,-1.8663715E-1,-4.4911867E-4,-5.596988E-2,5.2664056E-4,2.7537707E-4,5.6868256E-4,-3.540153E-1,5.2218306E-1,-4.6843506E-4,-9.983368E-4,-4.0762188E-4,-4.9730003E-5,-7.595837E-4,-9.6279386E-5,6.526943E-4,-2.9519398E-4],"split_indices":[5,5,5,5,1,3,8,0,0,5,0,0,0,0,1,3,0,3,5,8,8,5,0,0,0,1,0,0,0,0,0,0,0,0,0,3,8,8,0,0,0,3,0,0,0,8,3,8,3,0,9,9,1,0,0,0,0,0,8,1,0,0,8,0,8,0,0,0,0,1,0,0,0,0,1,0,0,0,0,0,0,0,0],"split_type":[0,0,0,0,0,0,0,0,0,0,0,0,0,0,0,0,0,0,0,0,0,0,0,0,0,0,0,0,0,0,0,0,0,0,0,0,0,0,0,0,0,0,0,0,0,0,0,0,0,0,0,0,0,0,0,0,0,0,0,0,0,0,0,0,0,0,0,0,0,0,0,0,0,0,0,0,0,0,0,0,0,0,0],"sum_hessian":[7.19E2,4.26E2,2.93E2,7.9E1,3.47E2,1.5E2,1.43E2,3.5E1,4.4E1,3.43E2,4E0,5E0,1.45E2,5E0,1.38E2,4E0,4E1,1.75E2,1.68E2,1.1E2,3.5E1,1.09E2,2.9E1,2E0,2E0,1.71E2,4E0,1.07E2,6.1E1,9E1,2E1,1E0,3.4E1,3.5E1,7.4E1,1.03E2,6.8E1,1.04E2,3E0,6E1,1E0,4.1E1,4.9E1,1.01E2,2E0,6.3E1,5E0,7.8E1,2.6E1,2.9E1,3.1E1,3.9E1,2E0,1E0,6.2E1,1E0,4E0,1.7E1,6.1E1,2.4E1,2E0,1.1E1,2E1,4E0,3.5E1,1E0,1E0,2.9E1,3.2E1,2.2E1,2E0,1.7E1,3E0,2E0,3.3E1,1.2E1,1.7E1,3E0,1.9E1,1E0,1E0,3.2E1,1E0],"tree_param":{"num_deleted":"0","num_feature":"13","num_nodes":"83","size_leaf_vector":"1"}},{"base_weights":[-1.4253268E-4,-6.8112593E-3,6.5269927E-3,-1.3597085E-2,-4.9712616E-3,3.2954935E-3,1.1206212E-2,-3.2340814E-3,-1.080517E-2,-6.616299E-3,-2.2488153E-3,3.682241E-3,-5.2721184E-3,8.716376E-3,1.0143869E-2,1.3109645E-3,-2.42991E-3,-5.953493E-3,-5.3805714E-3,-1.863457E-3,-2.3058162E-3,4.6158023E-3,3.0901593E-3,7.828848E-3,3.4210065E-3,4.2774677E-4,-1.7228723E-4,-6.216946E-3,-4.1581987E-4,-2.2707477E-3,2.781109E-3,2.6865148E-3,5.803216E-3,-1.5843749E-3,8.41307E-3,-3.8615864E-4,3.4021537E-4,-1.4562882E-3,-4.484316E-3,5.1960587E-3,-4.305499E-3,-1.9495516E-3,-2.4211684E-3,-2.1095858E-3,2.9174115E-3,8.56325E-3,-5.104145E-4,-5.714496E-5,-4.5384523E-3,-2.460003E-4,1.4835149E-3,-8.445978E-5,-5.6898594E-3,-2.0620348E-3,6.5741205E-4,1.8129691E-3,3.8669985E-3,6.1863395E-3,1.9001631E-3,-4.574549E-3,-1.437386E-4,-1.4086425E-3,-1.8429757E-5,-2.6309073E-3,-9.205538E-4,8.070152E-4,4.6286584E-4,-4.2329557E-4,3.9615952E-3,1.9272963E-4,1.2560989E-3,-2.4801493E-4,-9.279998E-4,-2.2874149E-3,-1.4137909E-3,-1.135019E-3,4.6764404E-4,1.1339067E-3,-7.089456E-4,2.0630858E-3,3.7094017E-3,-4.967215E-4,7.107526E-4,-3.6528843E-4,-7.293303E-5,7.1326294E-4,1.705164E-4,7.916178E-5,7.728144E-4],"categories":[],"categories_nodes":[],"categories_segments":[],"categories_sizes":[],"default_left":[0,0,0,0,0,0,0,0,0,0,0,0,0,0,0,0,0,0,0,0,0,0,0,0,0,0,0,0,0,0,0,0,0,0,0,0,0,0,0,0,0,0,0,0,0,0,0,0,0,0,0,0,0,0,0,0,0,0,0,0,0,0,0,0,0,0,0,0,0,0,0,0,0,0,0,0,0,0,0,0,0,0,0,0,0,0,0,0,0],"id":23,"left_children":[1,3,5,7,9,11,13,-1,15,17,19,21,-1,-1,23,25,-1,27,-1,29,-1,-1,31,33,-1,-1,35,37,39,41,-1,43,-1,-1,45,-1,-1,-1,47,49,51,53,-1,-1,55,57,-1,-1,59,-1,-1,-1,61,63,-1,65,67,69,-1,71,-1,-1,-1,73,75,77,-1,-1,79,-1,-1,-1,-1,81,-1,83,-1,85,-1,-1,87,-1,-1,-1,-1,-1,-1,-1,-1],"loss_changes":[3.175671E-2,4.3222774E-3,5.3242985E-3,1.893891E-4,1.2421431E-3,2.6485887E-3,4.102962E-3,0E0,7.159803E-4,2.0461725E-3,3.5041705E-4,2.3035575E-3,0E0,0E0,2.0366544E-3,8.103695E-6,0E0,2.4722237E-4,0E0,7.5678906E-4,0E0,0E0,2.0312509E-3,1.1547073E-3,0E0,0E0,1.9746143E-5,2.3901742E-4,2.6302732E-4,2.9081036E-4,0E0,6.9714966E-4,0E0,0E0,2.2155652E-4,0E0,0E0,0E0,1.2862729E-5,8.962523E-5,3.282461E-5,7.599333E-5,0E0,0E0,2.02024E-4,1.2089964E-4,0E0,0E0,2.6626512E-6,0E0,0E0,0E0,3.6580357E-5,6.3338695E-5,0E0,4.6194764E-5,7.8464975E-5,5.5980636E-6,0E0,2.896064E-6,0E0,0E0,0E0,7.284689E-5,3.1865806E-5,5.9250488E-5,0E0,0E0,9.653054E-5,0E0,0E0,0E0,0E0,9.4433984E-5,0E0,1.8375616E-5,0E0,1.786922E-5,0E0,0E0,5.1780138E-5,0E0,0E0,0E0,0E0,0E0,0E0,0E0,0E0],"parents":[2147483647,0,0,1,1,2,2,3,3,4,4,5,5,6,6,8,8,9,9,10,10,11,11,14,14,15,15,17,17,19,19,22,22,23,23,26,26,27,27,28,28,29,29,31,31,34,34,38,38,39,39,40,40,41,41,44,44,45,45,48,48,52,52,53,53,55,55,56,56,57,57,59,59,63,63,64,64,65,65,68,68,73,73,75,75,77,77,80,80],"right_children":[2,4,6,8,10,12,14,-1,16,18,20,22,-1,-1,24,26,-1,28,-1,30,-1,-1,32,34,-1,-1,36,38,40,42,-1,44,-1,-1,46,-1,-1,-1,48,50,52,54,-1,-1,56,58,-1,-1,60,-1,-1,-1,62,64,-1,66,68,70,-1,72,-1,-1,-1,74,76,78,-1,-1,80,-1,-1,-1,-1,82,-1,84,-1,86,-1,-1,88,-1,-1,-1,-1,-1,-1,-1,-1],"split_conditions":[7.292427E-2,-1.2706478E0,1.4168825E0,-1.4883275E0,-3.5598314E-1,1.4175525E0,5.7075804E-1,-3.2340814E-3,-1.4872458E0,-3.5558966E-1,7.338464E-2,7.338464E-2,-5.2721184E-3,8.716376E-3,1.5663989E0,-1.7051684E0,-2.42991E-3,-3.540153E-1,-5.3805714E-3,1.3659068E0,-2.3058162E-3,4.6158023E-3,1.4202377E0,5.771748E-1,3.4210065E-3,4.2774677E-4,-1.7049817E0,-7.849385E-1,-1.8663715E-1,5.6474113E-1,2.781109E-3,-1.1264638E0,5.803216E-3,-1.5843749E-3,1.5657057E0,-3.8615864E-4,3.4021537E-4,-1.4562882E-3,-7.852651E-1,-8.5142523E-1,-3.5440895E-1,4.102787E-1,-2.4211684E-3,-2.1095858E-3,5.20591E-1,1.4698159E0,-5.104145E-4,-5.714496E-5,-6.0715663E-1,-2.460003E-4,1.4835149E-3,-8.445978E-5,-5.6651965E-2,-5.729062E-2,6.5741205E-4,1.6801281E-1,-8.587056E-1,1.3729693E0,1.9001631E-3,-8.583804E-1,-1.437386E-4,-1.4086425E-3,-1.8429757E-5,9.761318E-2,7.522775E-2,1.6753723E-1,4.6286584E-4,-4.2329557E-4,-8.58375E-1,1.9272963E-4,1.2560989E-3,-2.4801493E-4,-9.279998E-4,7.564451E-2,-1.4137909E-3,-5.619776E-2,4.6764404E-4,-3.540153E-1,-7.089456E-4,2.0630858E-3,4.7828296E-1,-4.967215E-4,7.107526E-4,-3.6528843E-4,-7.293303E-5,7.1326294E-4,1.705164E-4,7.916178E-5,7.728144E-4],"split_indices":[5,11,5,5,5,4,4,0,0,4,4,4,0,0,4,11,0,0,0,11,0,0,0,10,0,0,10,4,0,1,0,0,0,0,5,0,0,0,5,1,1,11,0,0,4,4,0,0,10,0,0,0,11,4,0,0,11,10,0,10,0,0,0,11,0,1,0,0,10,0,0,0,0,10,0,10,0,0,0,0,11,0,0,0,0,0,0,0,0],"split_type":[0,0,0,0,0,0,0,0,0,0,0,0,0,0,0,0,0,0,0,0,0,0,0,0,0,0,0,0,0,0,0,0,0,0,0,0,0,0,0,0,0,0,0,0,0,0,0,0,0,0,0,0,0,0,0,0,0,0,0,0,0,0,0,0,0,0,0,0,0,0,0,0,0,0,0,0,0,0,0,0,0,0,0,0,0,0,0,0,0],"sum_hessian":[7.1E2,3.55E2,3.55E2,7.3E1,2.82E2,2.12E2,1.43E2,3.3E1,4E1,1.74E2,1.08E2,2.11E2,1E0,2E0,1.41E2,4E0,3.6E1,1.71E2,3E0,1.06E2,2E0,4E0,2.07E2,1.09E2,3.2E1,2E0,2E0,1.63E2,8E0,1.05E2,1E0,2.06E2,1E0,3E0,1.06E2,1E0,1E0,9.7E1,6.6E1,3E0,5E0,1.04E2,1E0,2E0,2.04E2,1.05E2,1E0,1E0,6.5E1,1E0,2E0,2E0,3E0,1.03E2,1E0,9.7E1,1.07E2,3.4E1,7.1E1,6.4E1,1E0,2E0,1E0,6.7E1,3.6E1,3.4E1,6.3E1,1E0,1.06E2,1E0,3.3E1,2E0,6.2E1,6.5E1,2E0,3.5E1,1E0,3.3E1,1E0,1E0,1.05E2,6.4E1,1E0,1.7E1,1.8E1,1E0,3.2E1,5E0,1E2],"tree_param":{"num_deleted":"0","num_feature":"13","num_nodes":"89","size_leaf_vector":"1"}},{"base_weights":[-2.8696157E-5,-4.6194424E-3,6.5252897E-3,-1.0258112E-2,-2.69914E-3,3.8328262E-3,9.2205545E-3,-2.5891087E-3,-8.267241E-3,-2.3530787E-3,-1.7451273E-2,2.8860744E-3,2.801381E-3,7.6157437E-3,2.7491245E-3,4.984999E-4,-1.7698988E-3,-4.333055E-3,-7.9160184E-4,-5.5843177E-3,8.7245106E-4,2.385559E-3,7.76333E-4,3.4162023E-3,6.861222E-3,1.0630289E-3,-4.5099985E-3,-1.9587288E-3,1.1642867E-4,2.6848987E-3,1.629883E-4,4.952679E-3,1.5208528E-3,3.0966997E-4,9.23872E-6,-5.2922885E-3,-3.4308133E-3,-1.4053716E-4,-2.2602018E-3,-3.3826057E-3,3.282792E-4,2.110943E-3,3.175947E-3,2.8247238E-4,1.0155706E-3,-1.0812551E-3,2.019167E-4,-3.1226545E-3,-1.2675578E-3,-3.0610955E-3,-1.3180454E-3,-1.1274457E-4,-1.1651347E-3,4.6401843E-4,-2.3820782E-3,1.0123432E-3,1.7548322E-3,6.6700653E-4,2.7643953E-4,-3.310159E-3,5.293409E-4,-3.1584833E-4,-8.6910883E-4,-1.602294E-4,-3.1747628E-4,2.5859292E-4,8.1164803E-4,1.3460412E-3,-1.1529704E-3,-1.0436475E-3,4.3136493E-4,-6.696979E-4,-7.246733E-5,4.150993E-4,1.5070863E-4,-7.7523415E-5,4.3646773E-4,-2.6084483E-4,3.4654142E-5,-8.067129E-5,6.673608E-5],"categories":[],"categories_nodes":[],"categories_segments":[],"categories_sizes":[],"default_left":[0,0,0,0,0,0,0,0,0,0,0,0,0,0,0,0,0,0,0,0,0,0,0,0,0,0,0,0,0,0,0,0,0,0,0,0,0,0,0,0,0,0,0,0,0,0,0,0,0,0,0,0,0,0,0,0,0,0,0,0,0,0,0,0,0,0,0,0,0,0,0,0,0,0,0,0,0,0,0,0,0],"id":24,"left_children":[1,3,5,7,9,11,13,-1,15,17,19,-1,21,23,-1,-1,-1,25,27,-1,-1,29,-1,-1,31,33,35,37,39,41,-1,43,-1,-1,-1,45,47,-1,49,51,53,55,57,-1,-1,-1,-1,59,-1,61,63,-1,-1,65,67,-1,69,-1,-1,71,-1,-1,-1,-1,-1,73,-1,75,-1,77,-1,-1,-1,-1,79,-1,-1,-1,-1,-1,-1],"loss_changes":[2.1693332E-2,4.535676E-3,2.0846175E-3,3.584372E-4,1.5464115E-3,1.5806297E-3,8.58129E-4,0E0,4.638629E-4,9.639297E-4,1.8423637E-3,0E0,4.4818153E-5,5.726246E-4,0E0,0E0,0E0,1.4135125E-4,1.8909818E-4,0E0,0E0,4.5929744E-5,0E0,0E0,7.7835284E-5,2.8179015E-6,7.681362E-5,2.6359281E-5,7.783065E-5,1.1675293E-5,0E0,1.6100239E-6,0E0,0E0,0E0,6.4072665E-5,1.5958794E-5,0E0,3.8713857E-5,3.47522E-5,3.826504E-5,3.1622738E-5,3.3364922E-6,0E0,0E0,0E0,0E0,8.242886E-5,0E0,4.7182373E-5,1.911565E-6,0E0,0E0,6.804389E-5,7.857638E-5,0E0,5.5125478E-5,0E0,0E0,4.2399624E-6,0E0,0E0,0E0,0E0,0E0,1.7407821E-5,0E0,7.4912396E-6,0E0,2.6716712E-6,0E0,0E0,0E0,0E0,9.291851E-6,0E0,0E0,0E0,0E0,0E0,0E0],"parents":[2147483647,0,0,1,1,2,2,3,3,4,4,5,5,6,6,8,8,9,9,10,10,12,12,13,13,17,17,18,18,21,21,24,24,25,25,26,26,27,27,28,28,29,29,31,31,35,35,36,36,38,38,39,39,40,40,41,41,42,42,47,47,49,49,50,50,53,53,54,54,56,56,59,59,65,65,67,67,69,69,74,74],"right_children":[2,4,6,8,10,12,14,-1,16,18,20,-1,22,24,-1,-1,-1,26,28,-1,-1,30,-1,-1,32,34,36,38,40,42,-1,44,-1,-1,-1,46,48,-1,50,52,54,56,58,-1,-1,-1,-1,60,-1,62,64,-1,-1,66,68,-1,70,-1,-1,72,-1,-1,-1,-1,-1,74,-1,76,-1,78,-1,-1,-1,-1,80,-1,-1,-1,-1,-1,-1],"split_conditions":[4.7594035E-1,-1.1278275E0,1.4168825E0,-1.4883275E0,5.6474113E-1,7.476673E-2,1.5657057E0,-2.5891087E-3,-1.4874617E0,-3.5598314E-1,1.5572913E0,2.8860744E-3,5.723736E-1,5.7832867E-1,2.7491245E-3,4.984999E-4,-1.7698988E-3,-1.2698379E0,-5.5250634E-2,-5.5843177E-3,8.7245106E-4,5.715138E-1,7.76333E-4,3.4162023E-3,1.4813297E0,-1.1625471E0,-7.852651E-1,-3.5586578E-1,-1.8789664E-1,5.185051E-1,1.629883E-4,5.774559E-1,1.5208528E-3,3.0966997E-4,9.23872E-6,-6.796387E-1,-3.5519612E-1,-1.4053716E-4,-1.8748958E-1,-1.8705706E-1,1.2860255E0,-6.8400747E-1,5.709057E-1,2.8247238E-4,1.0155706E-3,-1.0812551E-3,2.019167E-4,-3.5440895E-1,-1.2675578E-3,-1.8705706E-1,-5.4754693E-2,-1.1274457E-4,-1.1651347E-3,2.897822E-1,7.476673E-2,1.0123432E-3,1.1845795E-1,6.6700653E-4,2.7643953E-4,-5.5250637E-2,5.293409E-4,-3.1584833E-4,-8.6910883E-4,-1.602294E-4,-3.1747628E-4,-5.68505E-2,8.1164803E-4,1.3680013E0,-1.1529704E-3,5.6474113E-1,4.3136493E-4,-6.696979E-4,-7.246733E-5,4.150993E-4,7.292427E-2,-7.7523415E-5,4.3646773E-4,-2.6084483E-4,3.4654142E-5,-8.067129E-5,6.673608E-5],"split_indices":[5,5,5,5,1,1,5,0,1,5,3,0,1,8,0,0,0,8,8,0,0,7,0,0,9,3,5,7,3,7,0,7,0,0,0,1,3,0,8,1,7,7,8,0,0,0,0,1,0,1,7,0,0,9,1,0,7,0,0,8,0,0,0,0,0,3,0,8,0,1,0,0,0,0,5,0,0,0,0,0,0],"split_type":[0,0,0,0,0,0,0,0,0,0,0,0,0,0,0,0,0,0,0,0,0,0,0,0,0,0,0,0,0,0,0,0,0,0,0,0,0,0,0,0,0,0,0,0,0,0,0,0,0,0,0,0,0,0,0,0,0,0,0,0,0,0,0,0,0,0,0,0,0,0,0,0,0,0,0,0,0,0,0,0,0],"sum_hessian":[7.17E2,4.22E2,2.95E2,1.05E2,3.17E2,1.5E2,1.45E2,4E1,6.5E1,3.12E2,5E0,1.1E1,1.39E2,1.11E2,3.4E1,3E0,6.2E1,1.36E2,1.76E2,3E0,2E0,1.05E2,3.4E1,5E0,1.06E2,4E0,1.32E2,7.6E1,1E2,8.7E1,1.8E1,3.4E1,7.2E1,2E0,2E0,7.2E1,6E1,1.6E1,6E1,4E0,9.6E1,4.5E1,4.2E1,2E0,3.2E1,7.1E1,1E0,5.8E1,2E0,3E1,3E1,3E0,1E0,9.3E1,3E0,2E0,4.3E1,3.7E1,5E0,5.7E1,1E0,1.6E1,1.4E1,1.3E1,1.7E1,9E1,3E0,2E0,1E0,5E0,3.8E1,5.6E1,1E0,3E0,8.7E1,1E0,1E0,4E0,1E0,2.1E1,6.6E1],"tree_param":{"num_deleted":"0","num_feature":"13","num_nodes":"81","size_leaf_vector":"1"}},{"base_weights":[-2.7214186E-4,-3.9717127E-3,3.52143E-3,-8.4990235E-3,-2.75897E-3,1.3704865E-3,6.7662816E-3,-9.783149E-3,-6.963054E-3,-3.4299134E-3,-1.211248E-3,1.5787822E-3,-2.1229603E-3,2.0028949E-2,6.195954E-3,-2.015697E-3,-2.3073852E-3,-2.5396346E-5,-1.4964788E-3,-3.3170884E-3,-1.4825258E-3,-7.4234337E-4,-2.2311956E-3,2.408259E-3,1.319576E-3,-2.568563E-4,5.1998794E-3,3.5263284E-3,1.8164624E-3,1.4371872E-4,-7.5902144E-4,-2.0096942E-3,-3.47904E-3,-5.624863E-4,-1.1166413E-3,1.4408054E-3,-1.6334852E-3,2.9952223E-3,8.9794555E-4,-4.1983035E-4,2.1080177E-5,-3.8308157E-3,-2.5821386E-3,-6.7254464E-4,2.112526E-3,6.7857036E-4,2.3732958E-3,7.6039304E-4,2.653951E-4,-4.140609E-3,-5.630602E-4,4.787326E-3,-3.179932E-3,-1.3815053E-3,-3.900809E-4,6.3569547E-4,-7.23552E-5,6.5627246E-4,5.788389E-4,1.8008193E-3,6.588911E-4,-3.6281827E-3,-1.5028763E-3,1.1602044E-4,1.5648365E-3,-5.2116497E-4,-7.8659685E-4,-9.237256E-4,-7.9402927E-4,1.2144436E-4,-6.627613E-4,-2.5047106E-3,7.596103E-4,4.524068E-4,7.3564326E-4,-8.305753E-4,-5.531124E-4,-1.5751521E-4,1.88454E-4,-2.7781384E-4,1.9811913E-3,-4.979939E-4,-4.0247545E-4,-7.440746E-4,-5.302966E-4,-1.7202543E-3,8.3528814E-4,2.4832488E-4,9.704895E-5,4.9405097E-4,3.426671E-5,-1.4741438E-4,-8.703106E-7,-2.7504712E-4,1.8996398E-4,-5.260361E-4,6.730159E-5,1.941886E-4,1.5245692E-5],"categories":[],"categories_nodes":[],"categories_segments":[],"categories_sizes":[],"default_left":[0,0,0,0,0,0,0,0,0,0,0,0,0,0,0,0,0,0,0,0,0,0,0,0,0,0,0,0,0,0,0,0,0,0,0,0,0,0,0,0,0,0,0,0,0,0,0,0,0,0,0,0,0,0,0,0,0,0,0,0,0,0,0,0,0,0,0,0,0,0,0,0,0,0,0,0,0,0,0,0,0,0,0,0,0,0,0,0,0,0,0,0,0,0,0,0,0,0,0],"id":25,"left_children":[1,3,5,7,9,11,13,15,17,19,21,23,-1,25,27,-1,29,-1,-1,31,-1,33,-1,-1,35,-1,-1,37,-1,-1,-1,39,41,43,-1,45,-1,47,-1,-1,-1,49,51,53,55,57,59,-1,-1,61,-1,63,65,67,69,-1,-1,-1,71,73,-1,75,-1,77,-1,-1,-1,79,-1,-1,81,83,85,-1,87,-1,-1,-1,-1,-1,89,91,-1,-1,93,95,97,-1,-1,-1,-1,-1,-1,-1,-1,-1,-1,-1,-1],"loss_changes":[1.0231118E-2,1.9790833E-3,2.4940716E-3,1.5631784E-5,2.9699085E-4,5.80247E-4,8.334643E-4,3.5181176E-5,1.4720997E-4,4.249066E-5,4.1244482E-4,5.5671396E-4,0E0,7.0302887E-4,1.0147151E-3,0E0,2.3461544E-5,0E0,0E0,2.8786948E-5,0E0,7.207875E-5,0E0,0E0,2.6965747E-4,0E0,0E0,1.1991244E-5,0E0,0E0,0E0,5.5512064E-6,3.6061276E-5,2.9043798E-5,0E0,1.4817459E-4,0E0,6.393134E-5,0E0,0E0,0E0,1.5381607E-5,2.771501E-4,1.6344446E-5,1.2849738E-5,2.7350856E-5,3.8232072E-5,0E0,0E0,1.01065845E-4,0E0,6.911489E-5,2.4162582E-6,2.1106E-5,1.8481303E-5,0E0,0E0,0E0,6.958048E-5,2.7622213E-5,0E0,1.4144112E-5,0E0,4.470603E-6,0E0,0E0,0E0,3.659507E-5,0E0,0E0,9.559077E-6,1.285574E-5,2.4080611E-5,0E0,1.582348E-6,0E0,0E0,0E0,0E0,0E0,2.6940688E-6,5.7765174E-6,0E0,0E0,8.865493E-6,9.2561595E-6,1.1281663E-5,0E0,0E0,0E0,0E0,0E0,0E0,0E0,0E0,0E0,0E0,0E0,0E0],"parents":[2147483647,0,0,1,1,2,2,3,3,4,4,5,5,6,6,7,7,8,8,9,9,10,10,11,11,13,13,14,14,16,16,19,19,21,21,24,24,27,27,31,31,32,32,33,33,35,35,37,37,41,41,42,42,43,43,44,44,45,45,46,46,49,49,51,51,52,52,53,53,54,54,58,58,59,59,61,61,63,63,67,67,70,70,71,71,72,72,74,74,80,80,81,81,84,84,85,85,86,86],"right_children":[2,4,6,8,10,12,14,16,18,20,22,24,-1,26,28,-1,30,-1,-1,32,-1,34,-1,-1,36,-1,-1,38,-1,-1,-1,40,42,44,-1,46,-1,48,-1,-1,-1,50,52,54,56,58,60,-1,-1,62,-1,64,66,68,70,-1,-1,-1,72,74,-1,76,-1,78,-1,-1,-1,80,-1,-1,82,84,86,-1,88,-1,-1,-1,-1,-1,90,92,-1,-1,94,96,98,-1,-1,-1,-1,-1,-1,-1,-1,-1,-1,-1,-1],"split_conditions":[7.384518E-2,-1.1625471E0,1.4182229E0,-1.4881107E0,-3.5586578E-1,1.1498281E0,-1.8701546E-1,-5.9503723E-2,-1.7045702E0,-1.883163E-1,9.761318E-2,-3.575666E-1,-2.1229603E-3,-1.8794994E-1,1.556599E0,-2.015697E-3,-5.5732775E-2,-2.5396346E-5,-1.4964788E-3,-1.1710114E0,-1.4825258E-3,7.338464E-2,-2.2311956E-3,2.408259E-3,1.4175525E0,-2.568563E-4,5.1998794E-3,1.486748E0,1.8164624E-3,1.4371872E-4,-7.5902144E-4,-1.1272815E0,-7.104302E-1,4.3189254E-2,-1.1166413E-3,5.0450224E-1,-1.6334852E-3,1.4704945E0,8.9794555E-4,-4.1983035E-4,2.1080177E-5,-7.849385E-1,-8.523727E-1,-1.8789664E-1,-5.68505E-2,-1.1707E0,5.712963E-1,7.6039304E-4,2.653951E-4,-8.1783676E-1,-5.630602E-4,-8.520568E-1,-3.5519612E-1,-1.8882653E-1,-1.8748958E-1,6.3569547E-4,-7.23552E-5,6.5627246E-4,-5.5250634E-2,5.6920785E-1,6.588911E-4,-8.5733205E-1,-1.5028763E-3,-3.567446E-1,1.5648365E-3,-5.2116497E-4,-7.8659685E-4,-5.5732775E-2,-7.9402927E-4,1.2144436E-4,7.663467E-2,2.9166114E-1,-5.729062E-2,4.524068E-4,5.715138E-1,-8.305753E-4,-5.531124E-4,-1.5751521E-4,1.88454E-4,-2.7781384E-4,-3.5519612E-1,-5.5250634E-2,-4.0247545E-4,-7.440746E-4,5.6366616E-1,1.6658662E-1,4.8344606E-1,2.4832488E-4,9.704895E-5,4.9405097E-4,3.426671E-5,-1.4741438E-4,-8.703106E-7,-2.7504712E-4,1.8996398E-4,-5.260361E-4,6.730159E-5,1.941886E-4,1.5245692E-5],"split_indices":[3,3,3,4,7,8,7,8,8,4,11,11,0,9,4,0,9,0,0,8,0,4,0,0,4,0,0,7,0,0,0,3,9,11,0,8,0,3,0,0,0,4,4,3,3,7,3,0,0,7,0,3,3,11,8,0,0,0,8,11,0,7,0,9,0,0,0,9,0,0,8,11,4,0,7,0,0,0,0,0,3,8,0,0,3,3,8,0,0,0,0,0,0,0,0,0,0,0,0],"split_type":[0,0,0,0,0,0,0,0,0,0,0,0,0,0,0,0,0,0,0,0,0,0,0,0,0,0,0,0,0,0,0,0,0,0,0,0,0,0,0,0,0,0,0,0,0,0,0,0,0,0,0,0,0,0,0,0,0,0,0,0,0,0,0,0,0,0,0,0,0,0,0,0,0,0,0,0,0,0,0,0,0,0,0,0,0,0,0,0,0,0,0,0,0,0,0,0,0,0,0],"sum_hessian":[7.25E2,3.67E2,3.58E2,7.5E1,2.92E2,2.17E2,1.41E2,3.5E1,4E1,2.02E2,9E1,2.15E2,2E0,3E0,1.38E2,3.3E1,2E0,3E0,3.7E1,2E2,2E0,8.8E1,2E0,3E0,2.12E2,1E0,2E0,7.4E1,6.4E1,1E0,1E0,2.5E1,1.75E2,8.7E1,1E0,2.11E2,1E0,5.3E1,2.1E1,2.4E1,1E0,1.21E2,5.4E1,8.5E1,2E0,1.18E2,9.3E1,3.4E1,1.9E1,8.8E1,3.3E1,3E0,5.1E1,2.2E1,6.3E1,1E0,1E0,2E0,1.16E2,6.1E1,3.2E1,8E1,8E0,2E0,1E0,3.4E1,1.7E1,2.1E1,1E0,1.3E1,5E1,5E0,1.11E2,4.1E1,2E1,4.5E1,3.5E1,1E0,1E0,1.9E1,2E0,4.7E1,3E0,2E0,3E0,2E0,1.09E2,4E0,1.6E1,1E0,1E0,3.1E1,1.6E1,2E0,1E0,1E0,1E0,9.2E1,1.7E1],"tree_param":{"num_deleted":"0","num_feature":"13","num_nodes":"99","size_leaf_vector":"1"}},{"base_weights":[2.069349E-4,-2.9869664E-3,4.464131E-3,-2.4686616E-3,-6.453854E-3,2.6409552E-3,6.7145266E-3,-5.6407154E-3,-1.2558424E-3,1.1672974E-2,1.9478691E-3,2.3044178E-2,5.746825E-3,-8.542478E-3,-4.1568065E-3,2.7311484E-3,-1.3984878E-3,3.0669428E-3,2.899662E-3,1.5869216E-3,3.1184615E-3,-1.0421992E-3,5.8980747E-3,4.3673753E-3,1.8931965E-3,-1.768807E-3,1.341343E-4,1.1923313E-3,-4.4781743E-3,-2.9038778E-3,-4.6895664E-5,5.6941062E-5,8.129575E-4,1.7588674E-3,-1.7397562E-3,4.5191194E-3,-7.1035227E-4,5.141815E-4,-2.2349359E-5,-9.0335915E-4,-1.1058649E-4,-1.6052633E-3,-2.7133161E-3,1.59657E-3,-3.053146E-4,1.920428E-3,1.5898201E-3,3.426028E-3,1.0069961E-3,-3.1417503E-3,-2.0694977E-3,-1.6910129E-4,-1.4188112E-3,1.6879864E-3,-9.3457504E-4,5.6815148E-5,3.49559E-3,-2.7277805E-3,-5.4525854E-3,2.5936068E-4,-2.227569E-3,-3.0111033E-4,7.7704247E-4,5.786949E-5,1.9912492E-3,7.137299E-4,5.7697296E-5,-6.3602923E-4,-4.3870485E-4,-2.605915E-4,-1.2328506E-3,-1.14003815E-5,-4.526054E-4,-2.1609815E-4,9.031289E-6,6.332437E-4,-3.0523769E-4,1.6191077E-3,4.6729457E-4,4.590034E-5,-3.9309136E-5,-6.298125E-4,3.8833918E-5,8.8631685E-5,3.3895316E-4],"categories":[],"categories_nodes":[],"categories_segments":[],"categories_sizes":[],"default_left":[0,0,0,0,0,0,0,0,0,0,0,0,0,0,0,0,0,0,0,0,0,0,0,0,0,0,0,0,0,0,0,0,0,0,0,0,0,0,0,0,0,0,0,0,0,0,0,0,0,0,0,0,0,0,0,0,0,0,0,0,0,0,0,0,0,0,0,0,0,0,0,0,0,0,0,0,0,0,0,0,0,0,0,0,0],"id":26,"left_children":[1,3,5,7,-1,9,11,13,15,17,19,21,23,25,27,-1,29,-1,31,33,-1,-1,-1,35,-1,-1,-1,37,39,41,43,-1,-1,45,-1,47,-1,-1,-1,-1,-1,-1,49,-1,51,-1,53,55,-1,57,59,61,-1,63,-1,-1,65,67,69,-1,71,73,-1,75,77,-1,-1,-1,-1,-1,-1,-1,-1,-1,79,-1,81,83,-1,-1,-1,-1,-1,-1,-1],"loss_changes":[9.802957E-3,6.093665E-3,1.2323204E-3,1.5516134E-3,0E0,1.0437594E-3,1.9000433E-3,4.112476E-4,6.6993467E-4,2.9657618E-4,7.582002E-4,1.5823168E-3,5.9452886E-4,1.1188141E-4,1.4476408E-4,0E0,6.0199096E-4,0E0,1.5965987E-5,3.1711042E-4,0E0,0E0,0E0,1.5226996E-4,0E0,0E0,0E0,1.1361205E-5,6.2234467E-6,9.310385E-5,3.3273065E-4,0E0,0E0,1.8293585E-4,0E0,2.1324493E-5,0E0,0E0,0E0,0E0,0E0,0E0,2.5061308E-5,0E0,1.409319E-4,0E0,1.1414121E-4,6.3193147E-6,0E0,4.5825785E-5,3.8236467E-5,8.476149E-5,0E0,7.83717E-5,0E0,0E0,6.610382E-6,3.207766E-6,1.346803E-5,0E0,4.2828906E-6,3.651898E-5,0E0,3.2406824E-5,9.649259E-6,0E0,0E0,0E0,0E0,0E0,0E0,0E0,0E0,0E0,5.0758144E-6,0E0,3.81488E-5,4.814763E-6,0E0,0E0,0E0,0E0,0E0,0E0,0E0],"parents":[2147483647,0,0,1,1,2,2,3,3,5,5,6,6,7,7,8,8,9,9,10,10,11,11,12,12,13,13,14,14,16,16,18,18,19,19,23,23,27,27,28,28,29,29,30,30,33,33,35,35,42,42,44,44,46,46,47,47,49,49,50,50,51,51,53,53,56,56,57,57,58,58,60,60,61,61,63,63,64,64,74,74,76,76,77,77],"right_children":[2,4,6,8,-1,10,12,14,16,18,20,22,24,26,28,-1,30,-1,32,34,-1,-1,-1,36,-1,-1,-1,38,40,42,44,-1,-1,46,-1,48,-1,-1,-1,-1,-1,-1,50,-1,52,-1,54,56,-1,58,60,62,-1,64,-1,-1,66,68,70,-1,72,74,-1,76,78,-1,-1,-1,-1,-1,-1,-1,-1,-1,80,-1,82,84,-1,-1,-1,-1,-1,-1,-1],"split_conditions":[1.6563676E-1,1.6516212E-1,1.4168825E0,-1.1278275E0,-6.453854E-3,7.476673E-2,1.1371324E0,-1.4883275E0,-1.1628145E0,5.631291E-1,1.4195656E0,-5.596988E-2,1.5663989E0,-1.4872458E0,-1.4872458E0,2.7311484E-3,-3.567446E-1,3.0669428E-3,-1.1264638E0,1.416213E0,3.1184615E-3,-1.0421992E-3,5.8980747E-3,1.5657057E0,1.8931965E-3,-1.768807E-3,1.341343E-4,-1.4881107E0,-1.1275544E0,-1.1617459E0,-8.530049E-1,5.6941062E-5,8.129575E-4,-1.8915534E-1,-1.7397562E-3,1.4852616E0,-7.1035227E-4,5.141815E-4,-2.2349359E-5,-9.0335915E-4,-1.1058649E-4,-1.6052633E-3,-7.849385E-1,1.59657E-3,1.661116E-1,1.920428E-3,1.4202377E0,1.3672855E0,1.0069961E-3,-8.44527E-1,-7.8559166E-1,5.65279E-1,-1.4188112E-3,1.9241062E-1,-9.3457504E-4,5.6815148E-5,1.565013E0,-8.511096E-1,-8.5142523E-1,2.5936068E-4,-1.0646276E0,-1.883163E-1,7.7704247E-4,-1.1264638E0,5.65279E-1,7.137299E-4,5.7697296E-5,-6.3602923E-4,-4.3870485E-4,-2.605915E-4,-1.2328506E-3,-1.14003815E-5,-4.526054E-4,-2.1609815E-4,-5.5732705E-2,6.332437E-4,7.522775E-2,4.3107024E-1,4.6729457E-4,4.590034E-5,-3.9309136E-5,-6.298125E-4,3.8833918E-5,8.8631685E-5,3.3895316E-4],"split_indices":[5,6,5,5,0,1,9,5,4,4,1,1,4,0,0,0,9,0,0,6,0,0,0,5,0,0,0,4,4,0,6,0,0,6,0,9,0,0,0,0,0,0,4,0,4,0,0,9,0,9,6,0,0,9,0,0,6,0,1,0,9,4,0,0,0,0,0,0,0,0,0,0,0,0,9,0,0,9,0,0,0,0,0,0,0],"split_type":[0,0,0,0,0,0,0,0,0,0,0,0,0,0,0,0,0,0,0,0,0,0,0,0,0,0,0,0,0,0,0,0,0,0,0,0,0,0,0,0,0,0,0,0,0,0,0,0,0,0,0,0,0,0,0,0,0,0,0,0,0,0,0,0,0,0,0,0,0,0,0,0,0,0,0,0,0,0,0,0,0,0,0,0,0],"sum_hessian":[7.17E2,4.1E2,3.07E2,4.05E2,5E0,1.72E2,1.35E2,1.1E2,2.95E2,1E1,1.62E2,5E0,1.3E2,3.4E1,7.6E1,1E0,2.94E2,6E0,4E0,1.6E2,2E0,1E0,4E0,9.8E1,3.2E1,3.3E1,1E0,4E0,7.2E1,1.38E2,1.56E2,2E0,2E0,1.59E2,1E0,9.7E1,1E0,1E0,3E0,7.1E1,1E0,2E0,1.36E2,3E0,1.53E2,1E0,1.58E2,3.6E1,6.1E1,7.7E1,5.9E1,1.52E2,1E0,1.57E2,1E0,1E0,3.5E1,6.9E1,8E0,2E0,5.7E1,1.49E2,3E0,2.5E1,1.32E2,3.4E1,1E0,3.2E1,3.7E1,2E0,6E0,1E0,5.6E1,4.1E1,1.08E2,1E0,2.4E1,6.9E1,6.3E1,5.2E1,5.6E1,2E0,2.2E1,5E0,6.4E1],"tree_param":{"num_deleted":"0","num_feature":"13","num_nodes":"85","size_leaf_vector":"1"}},{"base_weights":[-2.9915196E-4,-3.1596387E-3,2.796588E-3,-2.6737987E-3,-5.531873E-3,3.1701976E-3,2.588161E-3,-6.121725E-3,-1.7580797E-3,1.539905E-3,4.9372828E-3,-5.457676E-3,-1.2049735E-2,-2.5677842E-3,-2.8882863E-4,9.514114E-3,1.215889E-3,2.3512156E-3,4.5730695E-3,-1.4285282E-3,-3.3758979E-3,-3.5725057E-3,-2.1207333E-4,-2.256424E-3,-1.9947956E-3,9.181102E-4,-4.22738E-4,2.5054456E-3,-9.7272E-4,5.3809275E-4,2.7594464E-3,-6.629944E-4,4.7168117E-3,1.1177858E-3,-8.01494E-4,1.2669167E-4,-1.8324456E-4,-2.3709831E-3,5.5405375E-4,-5.632902E-4,6.815702E-4,7.956912E-4,-2.0198585E-3,1.5183926E-3,2.4693531E-3,3.5040448E-3,1.1536771E-3,4.1258335E-4,-3.862381E-4,-2.7200966E-3,-1.7159695E-3,-3.0550009E-4,-1.7905256E-3,-1.5746414E-3,9.4828696E-4,-3.9198398E-4,2.6600752E-3,3.6473416E-3,-7.838011E-6,-3.9047402E-4,2.874772E-4,-2.4413867E-3,-4.682233E-3,2.7223825E-4,-3.6050598E-4,-1.5775928E-4,-5.2335334E-4,9.7168886E-5,1.4435506E-3,5.3762813E-4,5.3850814E-5,7.43415E-4,1.9737483E-4,-5.521634E-4,-1.7412807E-3,-1.029923E-3,-2.3453236E-4,-3.2621567E-4,6.212032E-4,5.244911E-4,-7.733084E-5,2.0321272E-3,1.3342097E-3,-3.5603844E-5,-3.547817E-4,-1.5925946E-4,-1.472712E-5,-5.5269996E-4,1.2855104E-5,5.4671057E-4,8.390348E-5,-1.1754036E-5,2.7019865E-4],"categories":[],"categories_nodes":[],"categories_segments":[],"categories_sizes":[],"default_left":[0,0,0,0,0,0,0,0,0,0,0,0,0,0,0,0,0,0,0,0,0,0,0,0,0,0,0,0,0,0,0,0,0,0,0,0,0,0,0,0,0,0,0,0,0,0,0,0,0,0,0,0,0,0,0,0,0,0,0,0,0,0,0,0,0,0,0,0,0,0,0,0,0,0,0,0,0,0,0,0,0,0,0,0,0,0,0,0,0,0,0,0,0],"id":27,"left_children":[1,3,5,7,-1,-1,9,11,13,15,17,19,21,23,25,27,29,-1,31,-1,33,-1,35,37,-1,-1,39,-1,-1,41,43,-1,45,47,-1,-1,-1,49,-1,51,-1,53,-1,-1,55,57,-1,-1,59,61,63,65,-1,-1,67,-1,69,71,-1,-1,-1,73,75,-1,-1,77,-1,79,81,-1,-1,-1,-1,-1,83,-1,-1,85,-1,-1,87,89,91,-1,-1,-1,-1,-1,-1,-1,-1,-1,-1],"loss_changes":[6.3226623E-3,4.268081E-3,8.512153E-4,1.1340582E-3,0E0,0E0,8.220377E-4,1.6764598E-4,3.4589722E-4,5.9180125E-4,1.5076064E-4,2.0433054E-4,4.0528295E-4,3.8851576E-4,7.3141025E-5,5.117502E-4,2.3870653E-4,0E0,1.4692452E-4,0E0,1.11130066E-4,0E0,3.5423004E-6,1.18517666E-4,0E0,0E0,6.0370985E-5,0E0,0E0,4.6272017E-4,6.063719E-5,0E0,8.838158E-5,1.0122552E-5,0E0,0E0,0E0,3.1826086E-5,0E0,2.1728684E-4,0E0,2.2790884E-4,0E0,0E0,6.871557E-5,2.6688096E-5,0E0,0E0,1.703676E-5,3.948051E-5,2.301966E-5,3.4004137E-5,0E0,0E0,6.716391E-5,0E0,3.0480442E-6,1.9395957E-6,0E0,0E0,0E0,1.3643352E-5,7.6061697E-6,0E0,0E0,5.5907232E-5,0E0,2.7285963E-5,1.0773365E-6,0E0,0E0,0E0,0E0,0E0,1.3066383E-6,0E0,0E0,1.1162387E-5,0E0,0E0,2.2797589E-5,1.1279968E-5,2.286295E-6,0E0,0E0,0E0,0E0,0E0,0E0,0E0,0E0,0E0,0E0],"parents":[2147483647,0,0,1,1,2,2,3,3,6,6,7,7,8,8,9,9,10,10,11,11,12,12,13,13,14,14,15,15,16,16,18,18,20,20,22,22,23,23,26,26,29,29,30,30,32,32,33,33,37,37,39,39,41,41,44,44,45,45,48,48,49,49,50,50,51,51,54,54,56,56,57,57,61,61,62,62,65,65,67,67,68,68,74,74,77,77,80,80,81,81,82,82],"right_children":[2,4,6,8,-1,-1,10,12,14,16,18,20,22,24,26,28,30,-1,32,-1,34,-1,36,38,-1,-1,40,-1,-1,42,44,-1,46,48,-1,-1,-1,50,-1,52,-1,54,-1,-1,56,58,-1,-1,60,62,64,66,-1,-1,68,-1,70,72,-1,-1,-1,74,76,-1,-1,78,-1,80,82,-1,-1,-1,-1,-1,84,-1,-1,86,-1,-1,88,90,92,-1,-1,-1,-1,-1,-1,-1,-1,-1,-1],"split_conditions":[7.292427E-2,7.246406E-2,-5.8170494E-2,-1.1715946E0,-5.531873E-3,3.1701976E-3,1.4691378E0,-1.1633499E0,-3.5598314E-1,7.384518E-2,5.712963E-1,-1.4883275E0,-1.1625471E0,-5.6197762E-2,-8.530049E-1,1.4168825E0,5.712963E-1,2.3512156E-3,1.4704945E0,-1.4285282E-3,-1.7043499E0,-3.5725057E-3,-1.3120513E0,-5.5250637E-2,-1.9947956E-3,9.181102E-4,5.6366616E-1,2.5054456E-3,-9.7272E-4,1.1498281E0,-8.58375E-1,-6.629944E-4,1.5721048E0,-1.487894E0,-8.01494E-4,1.2669167E-4,-1.8324456E-4,-7.852651E-1,5.5405375E-4,8.350088E-1,6.815702E-4,-6.85141E-1,-2.0198585E-3,1.5183926E-3,-1.8839356E-1,1.574349E0,1.1536771E-3,4.1258335E-4,-1.7049817E0,-8.1783676E-1,-7.8559166E-1,7.384518E-2,-1.7905256E-3,-1.5746414E-3,2.2215244E-1,-3.9198398E-4,1.4684602E0,1.5670927E0,-7.838011E-6,-3.9047402E-4,2.874772E-4,-8.5733205E-1,-3.558658E-1,